svm_type c_svc
kernel_type rbf
gamma 0.3125
nr_class 3
total_sv 534
rho -1.4798 -1.1043 -1.0021
label 1 3 2
nr_sv 284 248 2
SV
5 0 1:0.28873 2:0.24556 3:0.5181 4:0.68947 5:0.42691 6:0.15351 7:0.41239 8:0.1288 9:0.24405 10:0.23223 11:0.57895 12:0.32761 13:0.022989 14:0.85111 15:0.089947 16:0.32546
5 0 1:0.38169 2:0.3284 3:0.6629 4:0.80152 5:0.57773 6:0.1115 7:0.55128 8:0.094435 9:0.33482 10:0.22824 11:0.57895 12:0.2682 13:0.031609 14:0.77907 15:0.15608 16:0.32099
5 0 1:0.36338 2:0.32396 3:0.6267 4:0.71636 5:0.58005 6:0.11672 7:0.55128 8:0.077856 9:0.32887 10:0.23871 11:0.63158 12:0.40019 13:0.022989 14:0.53995 15:0.11905 16:0.30201
5 0 1:0.33521 2:0.2929 3:0.57466 4:0.7226 5:0.51972 6:0.13477 7:0.51923 8:0.08016 9:0.28869 10:0.13652 11:0.63158 12:0.40325 13:0.025862 14:0.6559 15:0.17725 16:0.33022
5 0 1:0.34507 2:0.33728 3:0.66516 4:0.75178 5:0.58701 6:0.16413 7:0.55983 8:0.092086 9:0.34077 10:0.14842 11:0.68421 12:0.41276 13:0.037356 14:0.66648 15:0.15608 16:0.34388
5 0 1:0.37183 2:0.31657 3:0.61312 4:0.72143 5:0.55916 6:0.17713 7:0.54487 8:0.059912 9:0.31845 10:0.18066 11:0.73684 12:0.44525 13:0.022989 14:0.48496 15:0.11376 16:0.3042
5 0 1:0.32817 2:0.30178 3:0.61538 4:0.69657 5:0.5406 6:0.19461 7:0.50641 8:0.13249 9:0.2872 10:0.14845 11:0.68421 12:0.43045 13:0.034483 14:0.7311 15:0.11111 16:0.33756
5 0 1:0.33944 2:0.31509 3:0.64932 4:0.72598 5:0.56613 6:0.15483 7:0.54274 8:0.046934 9:0.32143 10:0.14333 11:0.63158 12:0.3695 13:0.043103 14:0.72852 15:0.14815 16:0.32673
5 0 1:0.3493 2:0.3284 3:0.6448 4:0.67782 5:0.58237 6:0.14971 7:0.55556 8:0.10529 9:0.33333 10:0.22566 11:0.63158 12:0.5409 13:0.028736 14:0.43271 15:0.17725 16:0.34693
4.0112 0 1:0.34648 2:0.30621 3:0.6086 4:0.68834 5:0.5522 6:0.18034 7:0.51496 8:0.063713 9:0.30357 10:0.10138 11:0.68421 12:0.28635 13:0.04023 14:0.87118 15:0.33333 16:0.21409
5 0 1:0.36197 2:0.32988 3:0.66742 4:0.73149 5:0.57773 6:0.17543 7:0.53632 8:0.14652 9:0.34673 10:0.35984 11:0.57895 12:0.32237 13:0.037356 14:0.64417 15:0.20899 16:0.33585
5 0 1:0.35775 2:0.31657 3:0.63801 4:0.65287 5:0.56613 6:0.074742 7:0.53846 8:0.058775 9:0.31696 10:0.11241 11:0.63158 12:0.42502 13:0.043103 14:0.54697 15:0.12963 16:0.31497
0.061714 0 1:0.35493 2:0.31657 3:0.61086 4:0.63779 5:0.55684 6:0.16897 7:0.52137 8:0.13469 9:0.3125 10:0.19734 11:0.63158 12:0.40743 13:0.022989 14:0.58886 15:0.12169 16:0.31586
5 0 1:0.33662 2:0.31657 3:0.6448 4:0.75369 5:0.56381 6:0.11592 7:0.52137 8:0.12705 9:0.31994 10:0.13713 11:0.68421 12:0.55072 13:0.04023 14:0.30068 15:0.2037 16:0.31068
5 0 1:0.36338 2:0.30769 3:0.61312 4:0.75541 5:0.54756 6:0.15503 7:0.53419 8:0.040626 9:0.30952 10:0.12417 11:0.63158 12:0.3632 13:0.04023 14:0.69352 15:0.16138 16:0.31533
0 0.23154 1:0.30704 2:0.31509 3:0.60407 4:0.71564 5:0.54988 6:0.2032 7:0.5235 8:0.086763 9:0.3125 10:0.096027 11:1 12:0.59539 13:0.031609 14:0.81506 15:0.12698 16:0.28528
5 0 1:0.36761 2:0.33136 3:0.65385 4:0.72895 5:0.59165 6:0.17494 7:0.5641 8:0.13511 9:0.33333 10:0.16357 11:0.68421 12:0.42984 13:0.025862 14:0.67468 15:0.15608 16:0.3269
0.19863 0 1:0.36197 2:0.31065 3:0.6086 4:0.65718 5:0.55684 6:0.17654 7:0.51496 8:0.14096 9:0.3125 10:0.16171 11:0.78947 12:0.53603 13:0.037356 14:0.71163 15:0.16667 16:0.31586
5 0 1:0.34648 2:0.33432 3:0.64706 4:0.62382 5:0.59629 6:0.10506 7:0.57692 8:0.078972 9:0.34077 10:0.20138 11:0.57895 12:0.48321 13:0.0057471 14:0.47914 15:0.10053 16:0.26533
3.4734 0 1:0.37183 2:0.33284 3:0.60633 4:0.78333 5:0.59629 6:0.15542 7:0.56838 8:0.11554 9:0.33482 10:0.23482 11:0.68421 12:0.55565 13:0.031609 14:0.31329 15:0.16138 16:0.31942
5 0 1:0.37324 2:0.32101 3:0.62217 4:0.72036 5:0.56613 6:0.11351 7:0.52137 8:0.13686 9:0.31994 10:0.11576 11:0.63158 12:0.52886 13:0.025862 14:0.59113 15:0.095238 16:0.33506
2.5319 0 1:0.36197 2:0.30473 3:0.62217 4:0.78363 5:0.5522 6:0.14885 7:0.51282 8:0.15241 9:0.30506 10:0.14736 11:0.63158 12:0.45851 13:0.017241 14:0.68708 15:0.1164 16:0.28864
5 0 1:0.34085 2:0.31361 3:0.61538 4:0.73222 5:0.56148 6:0.1996 7:0.52564 8:0.12517 9:0.31548 10:0.15658 11:0.52632 12:0.19053 13:0.025862 14:0.74813 15:0.12169 16:0.30811
5 0 1:0.36479 2:0.29882 3:0.5724 4:0.67144 5:0.52668 6:0.16537 7:0.51496 8:0.057681 9:0.30655 10:0.23861 11:0.63158 12:0.36525 13:0.045977 14:0.66724 15:0.15079 16:0.35036
0 0.19436 1:0 2:0.28994 3:0.61765 4:0.72958 5:0.52436 6:0.17457 7:0.47009 8:0.25966 9:0.2619 10:0.17408 11:0.63158 12:0.34559 13:0.014368 14:0.7561 15:0.084656 16:0.35728
5 0 1:0.32394 2:0.30769 3:0.61765 4:0.64554 5:0.54988 6:0.13513 7:0.51068 8:0.13854 9:0.30804 10:0.12332 11:0.68421 12:0.54241 13:0.028736 14:0.47199 15:0.1746 16:0.33534
0 0.15617 1:0.26761 2:0.22781 3:0.28959 4:0.62098 5:0.42923 6:0.09596 7:0.40171 8:0.16198 9:0.22024 10:0.15713 11:0.68421 12:0.51691 13:0.017241 14:0.66254 15:0.13228 16:0.27742
5 0 1:0.35352 2:0.29734 3:0.61538 4:0.73213 5:0.53364 6:0.16129 7:0.49145 8:0.14501 9:0.29315 10:0.21668 11:0.68421 12:0.53974 13:0.022989 14:0.26546 15:0.16931 16:0.32105
5 0 1:0.34085 2:0.32544 3:0.64027 4:0.69227 5:0.58237 6:0.17334 7:0.55983 8:0.13686 9:0.33185 10:0.23169 11:0.68421 12:0.48824 13:0.025862 14:0.34043 15:0.1164 16:0.28541
2.421 0 1:0.3507 2:0.32988 3:0.62896 4:0.78282 5:0.59165 6:0.1662 7:0.55342 8:0.14715 9:0.32589 10:0.19605 11:0.52632 12:0.52554 13:0.022989 14:0.17053 15:0.16931 16:0.34973
5 0 1:0.35634 2:0.30473 3:0.51131 4:0.72977 5:0.54988 6:0.20731 7:0.51496 8:0.13909 9:0.29911 10:0.12675 11:0.68421 12:0.41331 13:0.04023 14:0.6986 15:0.15608 16:0.36566
5 0 1:0.32394 2:0.30621 3:0.60181 4:0.69411 5:0.55684 6:0.11907 7:0.5235 8:0.11566 9:0.30804 10:0.17836 11:0.63158 12:0.45719 13:0.022989 14:0.36502 15:0.11905 16:0.29887
3.86 0 1:0.33803 2:0.31509 3:0.61086 4:0.65162 5:0.56148 6:0.088077 7:0.53846 8:0.12142 9:0.31845 10:0.20528 11:0.57895 12:0.47513 13:0.025862 14:0.42937 15:0.097884 16:0.33547
5 0 1:0.32254 2:0.30917 3:0.61538 4:0.61951 5:0.54756 6:0.11647 7:0.52991 8:0.097033 9:0.31696 10:0.20966 11:0.57895 12:0.49727 13:0.025862 14:0.36578 15:0.17725 16:0.33162
5 0 1:0.3493 2:0.32396 3:0.65837 4:0.75079 5:0.57541 6:0.16318 7:0.55342 8:0.11516 9:0.33333 10:0.25845 11:0.63158 12:0.55286 13:0.031609 14:0.33204 15:0.12698 16:0.27053
5 0 1:0.3662 2:0.34024 3:0.62443 4:0.71635 5:0.60093 6:0.13316 7:0.57906 8:0.07237 9:0.3378 10:0.23875 11:0.63158 12:0.48321 13:0.034483 14:0.34672 15:0.13228 16:0.32865
1.14 0 1:0.92254 2:0.31361 3:0.61765 4:0.73097 5:0.54988 6:0.19594 7:0.53205 8:0.065998 9:0.31994 10:0.23119 11:0.57895 12:0.25084 13:0.034483 14:0.68069 15:0.1455 16:0.37573
4.4568 0 1:0.37183 2:0.31657 3:0.62443 4:0.76497 5:0.56613 6:0.13047 7:0.5235 8:0.17418 9:0.31101 10:0.15865 11:0.63158 12:0.41639 13:0.020115 14:0.51639 15:0.11376 16:0.291
0.011394 0 1:0.3493 2:0.32396 3:0.64706 4:0.71989 5:0.57541 6:0.20017 7:0.53632 8:0.13567 9:0.31994 10:0.24923 11:0.052632 12:0.88808 13:0.04023 14:0.31632 15:0.12698 16:0.2958
5 0 1:0.35915 2:0.30178 3:0.57466 4:0.7201 5:0.5406 6:0.1624 7:0.51923 8:0.085238 9:0.30357 10:0.17968 11:0.68421 12:0.52384 13:0.031609 14:0.6703 15:0.15608 16:0.3145
5 0 1:0.3662 2:0.33136 3:0.64253 4:0.64675 5:0.59165 6:0.10773 7:0.54701 8:0.10106 9:0.32738 10:0.15659 11:0.68421 12:0.3506 13:0.031609 14:0.61301 15:0.12434 16:0.29381
5 0 1:0.34366 2:0.29734 3:0.57466 4:0.63351 5:0.54292 6:0.12911 7:0.51282 8:0.12484 9:0.29613 10:0.18328 11:0.57895 12:0.50201 13:0.011494 14:0.40764 15:0.10847 16:0.28132
5 0 1:0.37324 2:0.32544 3:0.6629 4:0.77902 5:0.57077 6:0.15987 7:0.55342 8:0.079159 9:0.33333 10:0.25733 11:0.57895 12:0.34021 13:0.031609 14:0.66862 15:0.13757 16:0.35393
5 0 1:0.33662 2:0.31361 3:0.62443 4:0.72308 5:0.56613 6:0.13973 7:0.5406 8:0.094685 9:0.31696 10:0.15099 11:0.63158 12:0.46268 13:0.04023 14:0.4025 15:0.1746 16:0.29865
5 0 1:0.33099 2:0.28698 3:0.55656 4:0.69007 5:0.52204 6:0.10938 7:0.49573 8:0.12069 9:0.28869 10:0.17286 11:0.57895 12:0.50556 13:0.031609 14:0.34924 15:0.12434 16:0.30612
5 0 1:0.33239 2:0.31953 3:0.56561 4:0.69274 5:0.56613 6:0.17809 7:0.52991 8:0.15143 9:0.31548 10:0.21556 11:0.73684 12:0.37678 13:0.048851 14:0.5943 15:0.15079 16:0.31299
5 0 1:0.34085 2:0.31065 3:0.62217 4:0.7442 5:0.55452 6:0.18952 7:0.51709 8:0.1643 9:0.30506 10:0.17694 11:0.57895 12:0.22196 13:0.04023 14:0.63209 15:0.16667 16:0.31494
5 0 1:0.33099 2:0.29882 3:0.60407 4:0.78195 5:0.5406 6:0.18931 7:0.51282 8:0.12115 9:0.30208 10:0.20498 11:0.63158 12:0.38229 13:0.031609 14:0.59952 15:0.12698 16:0.29065
5 0 1:0.32958 2:0.30917 3:0.60407 4:0.73248 5:0.55684 6:0.1782 7:0.53632 8:0.089038 9:0.31399 10:0.20722 11:0.63158 12:0.39521 13:0.025862 14:0.61456 15:0.092593 16:0.35702
5 0 1:0.3507 2:0.32988 3:0.66968 4:0.72024 5:0.58933 6:0.10558 7:0.56838 8:0.11322 9:0.3378 10:0.26395 11:0.57895 12:0.5265 13:0.031609 14:0.27824 15:0.16667 16:0.30775
5 0 1:0.32394 2:0.30917 3:0.53394 4:0.6765 5:0.55684 6:0.12411 7:0.53419 8:0.10028 9:0.30952 10:0.17954 11:0.68421 12:0.42894 13:0.051724 14:0.4024 15:0.15079 16:0.3014
0.8289 0 1:0.35634 2:0.29438 3:0.61538 4:0.68494 5:0.52668 6:0.14133 7:0.51282 8:0.075739 9:0.29464 10:0.14502 11:0.63158 12:0.47132 13:0.037356 14:0.50901 15:0.16402 16:0.34526
5 0 1:0.33239 2:0.30917 3:0.56561 4:0.66925 5:0.55916 6:0.12758 7:0.53846 8:0.079178 9:0.31399 10:0.22376 11:0.63158 12:0.50368 13:0.025862 14:0.40232 15:0.11905 16:0.2614
5 0 1:0.33803 2:0.31361 3:0.62896 4:0.66292 5:0.56381 6:0.13241 7:0.51709 8:0.14824 9:0.31548 10:0.14919 11:0.57895 12:0.48412 13:0.022989 14:0.26846 15:0.12698 16:0.27427
5 0 1:0.32535 2:0.30178 3:0.60633 4:0.68998 5:0.53828 6:0.13138 7:0.50855 8:0.10983 9:0.29762 10:0.16564 11:0.68421 12:0.51201 13:0.031609 14:0.43949 15:0.19048 16:0.31644
5 0 1:0.3338 2:0.29734 3:0.56787 4:0.69782 5:0.53132 6:0.17169 7:0.49573 8:0.13274 9:0.29464 10:0.24126 11:0.57895 12:0.52585 13:0.020115 14:0.23108 15:0.089947 16:0.29806
5 0 1:0.35352 2:0.31065 3:0.62217 4:0.72437 5:0.56381 6:0.18973 7:0.53846 8:0.091431 9:0.31548 10:0.21308 11:0.52632 12:0.25275 13:0.034483 14:0.7239 15:0.097884 16:0.36131
5 0 1:0.3338 2:0.31065 3:0.56787 4:0.67825 5:0.54756 6:0.12985 7:0.53419 8:0.080589 9:0.30506 10:0.21854 11:0.57895 12:0.49078 13:0.037356 14:0.28714 15:0.16931 16:0.31697
5 0 1:0.36338 2:0.3003 3:0.61086 4:0.74584 5:0.5406 6:0.14632 7:0.51709 8:0.073052 9:0.30357 10:0.22335 11:0.63158 12:0.39071 13:0.04023 14:0.65179 15:0.10582 16:0.3574
5 0 1:0.37183 2:0.31213 3:0.60633 4:0.68227 5:0.5522 6:0.163 7:0.51282 8:0.12729 9:0.31696 10:0.10061 11:0.63158 12:0.32169 13:0.034483 14:0.68879 15:0.15873 16:0.32612
4.6533 0 1:0.33239 2:0.30325 3:0.57014 4:0.73648 5:0.53596 6:0.13446 7:0.52137 8:0.029562 9:0.30357 10:0.067715 11:0.63158 12:0.29827 13:0.022989 14:0.62418 15:0.1164 16:0.32032
5 0 1:0.35634 2:0.30769 3:0.60181 4:0.77135 5:0.5522 6:0.11165 7:0.50427 8:0.21483 9:0.30506 10:0.1848 11:0.63158 12:0.5749 13:0.028736 14:0.37492 15:0.12434 16:0.29272
5 0 1:0.36479 2:0.3284 3:0.65385 4:0.74898 5:0.58005 6:0.16558 7:0.55128 8:0.093978 9:0.32887 10:0.15608 11:0.63158 12:0.35296 13:0.04023 14:0.79389 15:0.15608 16:0.32426
5 0 1:0.36197 2:0.31805 3:0.57466 4:0.68856 5:0.56613 6:0.099348 7:0.54487 8:0.068841 9:0.31845 10:0.14164 11:0.68421 12:0.45426 13:0.037356 14:0.46603 15:0.20899 16:0.30527
1.3992 0 1:0.3338 2:0.31657 3:0.62896 4:0.6755 5:0.56613 6:0.12053 7:0.51709 8:0.13868 9:0.31696 10:0.12692 11:0.52632 12:0.48637 13:0.043103 14:0.3683 15:0.12169 16:0.30421
5 0 1:0.36761 2:0.31805 3:0.64027 4:0.65856 5:0.56148 6:0.21362 7:0.53419 8:0.12028 9:0.31696 10:0.19315 11:0.63158 12:0.389 13:0.031609 14:0.67774 15:0.16138 16:0.34181
5 0 1:0.34648 2:0.28994 3:0.57919 4:0.68137 5:0.52668 6:0.20162 7:0.49145 8:0.12229 9:0.29018 10:0.26059 11:0.63158 12:0.36788 13:0.014368 14:0.56901 15:0.12434 16:0.32818
5 0 1:0.35211 2:0.30178 3:0.60633 4:0.72601 5:0.54524 6:0.12805 7:0.51709 8:0.097328 9:0.30357 10:0.16283 11:0.63158 12:0.53099 13:0.028736 14:0.52103 15:0.15608 16:0.29816
5 0 1:0.35915 2:0.28846 3:0.62443 4:0.76161 5:0.529 6:0.15475 7:0.50427 8:0.075967 9:0.29315 10:0.20447 11:0.52632 12:0.27944 13:0.020115 14:0.68074 15:0.12963 16:0.32815
5 0 1:0.3493 2:0.30621 3:0.61765 4:0.68041 5:0.54292 6:0.14273 7:0.50427 8:0.13289 9:0.31399 10:0.24749 11:0.73684 12:0.49995 13:0.028736 14:0.49613 15:0.15079 16:0.31426
5 0 1:0.3507 2:0.31657 3:0.63801 4:0.69769 5:0.55916 6:0.16998 7:0.52564 8:0.1341 9:0.31845 10:0.11532 11:0.63158 12:0.28436 13:0.048851 14:0.7692 15:0.16402 16:0.3473
5 0 1:0.34366 2:0.29438 3:0.59276 4:0.777 5:0.52668 6:0.19407 7:0.51282 8:0.017624 9:0.29464 10:0.09063 11:0.68421 12:0.34868 13:0.04023 14:0.77306 15:0.15079 16:0.34813
0.11708 0 1:0.34648 2:0.29586 3:0.58145 4:0.70822 5:0.53132 6:0.13536 7:0.50855 8:0.12329 9:0.29911 10:0.24034 11:0.63158 12:0.51643 13:0.025862 14:0.37795 15:0.11905 16:0.31671
5 0 1:0.32958 2:0.31361 3:0.62443 4:0.57771 5:0.55452 6:0.12724 7:0.51282 8:0.17031 9:0.31101 10:0.13648 11:0.63158 12:0.4503 13:0.037356 14:0.35076 15:0.1746 16:0.32905
5 0 1:0.3662 2:0.31065 3:0.5905 4:0.68351 5:0.54292 6:0.15226 7:0.52991 8:0.057889 9:0.30804 10:0.11322 11:0.63158 12:0.35582 13:0.031609 14:0.70085 15:0.097884 16:0.36281
5 0 1:0.34648 2:0.29734 3:0.60407 4:0.66912 5:0.529 6:0.14032 7:0.49786 8:0.16095 9:0.29167 10:0.16666 11:0.73684 12:0.46339 13:0.043103 14:0.63073 15:0.15608 16:0.3591
5 0 1:0.3662 2:0.34615 3:0.66516 4:0.81261 5:0.61021 6:0.16515 7:0.56838 8:0.13253 9:0.33929 10:0.1655 11:0.63158 12:0.29365 13:0.043103 14:0.65195 15:0.18519 16:0.34486
5 0 1:0.34366 2:0.29882 3:0.58371 4:0.78291 5:0.54524 6:0.16848 7:0.52778 8:0.07435 9:0.30655 10:0.22227 11:0.63158 12:0.39039 13:0.043103 14:0.54901 15:0.16402 16:0.31325
5 0 1:0.33803 2:0.31953 3:0.62443 4:0.6111 5:0.57077 6:0.15061 7:0.54274 8:0.10728 9:0.31696 10:0.20806 11:0.63158 12:0.49884 13:0.031609 14:0.39415 15:0.10582 16:0.32693
5 0 1:0.36338 2:0.32988 3:0.61765 4:0.67735 5:0.58469 6:0.17561 7:0.5406 8:0.16569 9:0.33482 10:0.16733 11:0.68421 12:0.46489 13:0.031609 14:0.75449 15:0.12434 16:0.26361
5 0 1:0.33803 2:0.30325 3:0.58371 4:0.6461 5:0.53828 6:0.16736 7:0.50641 8:0.1091 9:0.3006 10:0.14621 11:0.68421 12:0.34904 13:0.020115 14:0.62349 15:0.12698 16:0.34264
5 0 1:0.3493 2:0.31213 3:0.58597 4:0.80553 5:0.55684 6:0.16398 7:0.53419 8:0.05028 9:0.31548 10:0.065611 11:0.68421 12:0.3745 13:0.037356 14:0.77426 15:0.17725 16:0.33306
5 0 1:0.32958 2:0.27219 3:0.58597 4:0.74131 5:0.49884 6:0.16868 7:0.46581 8:0.14189 9:0.26637 10:0.13122 11:0.73684 12:0.47438 13:0.031609 14:0.87541 15:0.15873 16:0.33471
2.8905 0 1:0.3507 2:0.3003 3:0.62896 4:0.70856 5:0.53828 6:0.15423 7:0.48504 8:0.30277 9:0.30506 10:0.10281 11:0.63158 12:0.3455 13:0.037356 14:0.71494 15:0.16402 16:0.36469
0.66444 0 1:0.32958 2:0.30325 3:0.57466 4:0.69511 5:0.54524 6:0.14994 7:0.50641 8:0.10213 9:0.3006 10:0.17093 11:0.63158 12:0.4555 13:0.04023 14:0.72598 15:0.17725 16:0.34041
5 0 1:0.32535 2:0.31509 3:0.62443 4:0.73152 5:0.56148 6:0.1926 7:0.53846 8:0.11919 9:0.31696 10:0.18337 11:0.68421 12:0.51162 13:0.048851 14:0.34817 15:0.16931 16:0.31504
5 0 1:0.35775 2:0.30621 3:0.57919 4:0.72532 5:0.56148 6:0.16651 7:0.52564 8:0.090971 9:0.30952 10:0.17262 11:0.68421 12:0.48409 13:0.022989 14:0.53847 15:0.12169 16:0.29457
4.5385 0 1:0.3338 2:0.30917 3:0.61538 4:0.65546 5:0.54756 6:0.1047 7:0.52778 8:0.094319 9:0.30952 10:0.13705 11:0.57895 12:0.46615 13:0.025862 14:0.40722 15:0.19577 16:0.33463
5 0 1:0.34789 2:0.31213 3:0.62896 4:0.68998 5:0.56613 6:0.12328 7:0.54487 8:0.13433 9:0.31696 10:0.20246 11:0.52632 12:0.5035 13:0.034483 14:0.29701 15:0.17196 16:0.32044
4.0463 0 1:0.33239 2:0.30473 3:0.63801 4:0.7148 5:0.5406 6:0.17365 7:0.50214 8:0.1017 9:0.29911 10:0.11522 11:0.68421 12:0.40825 13:0.031609 14:0.68124 15:0.12698 16:0.31832
5 0 1:0.34225 2:0.29142 3:0.55656 4:0.63568 5:0.52668 6:0.11768 7:0.50214 8:0.10978 9:0.29762 10:0.22315 11:0.63158 12:0.3835 13:0.031609 14:0.53549 15:0.15608 16:0.33812
5 0 1:0.34648 2:0.31213 3:0.6267 4:0.68076 5:0.56613 6:0.14774 7:0.52778 8:0.12249 9:0.31101 10:0.15713 11:0.57895 12:0.24645 13:0.037356 14:0.65381 15:0.16138 16:0.32251
4.2633 0 1:0.34085 2:0.31805 3:0.60407 4:0.67658 5:0.56845 6:0.068789 7:0.54487 8:0.077425 9:0.32292 10:0.1413 11:0.52632 12:0.48741 13:0.020115 14:0.3997 15:0.15873 16:0.35201
3.2355 0 1:0.32676 2:0.29882 3:0.58145 4:0.69946 5:0.53132 6:0.1472 7:0.4594 8:0.4279 9:0.30655 10:0.20708 11:0.57895 12:0.28183 13:0.031609 14:0.64332 15:0.15344 16:0.34343
5 0 1:0.34648 2:0.31065 3:0.63348 4:0.75299 5:0.56381 6:0.20407 7:0.5235 8:0.13469 9:0.3125 10:0.15472 11:0.68421 12:0.39841 13:0.022989 14:0.63619 15:0.13492 16:0.33566
5 0 1:0.36197 2:0.31213 3:0.64706 4:0.79221 5:0.55684 6:0.19087 7:0.51496 8:0.16043 9:0.30208 10:0.21352 11:0.57895 12:0.54106 13:0.020115 14:0.13208 15:0.087302 16:0.30885
5 0 1:0.3493 2:0.33136 3:0.65611 4:0.68205 5:0.58469 6:0.18698 7:0.54274 8:0.091995 9:0.33333 10:0.11281 11:0.57895 12:0.1691 13:0.043103 14:0.74547 15:0.1164 16:0.34402
5 0 1:0.36197 2:0.3432 3:0.65611 4:0.73351 5:0.61485 6:0.098237 7:0.56838 8:0.13158 9:0.34226 10:0.1259 11:0.63158 12:0.47311 13:0.025862 14:0.43906 15:0.12434 16:0.27178
5 0 1:0.34507 2:0.33284 3:0.6629 4:0.71851 5:0.58933 6:0.1357 7:0.55769 8:0.080067 9:0.33185 10:0.14252 11:0.57895 12:0.21287 13:0.028736 14:0.73204 15:0.14286 16:0.3612
4.7953 0 1:0.36197 2:0.33432 3:0.66742 4:0.78027 5:0.59397 6:0.10558 7:0.57692 8:0.14365 9:0.34077 10:0.22414 11:0.63158 12:0.51305 13:0.048851 14:0.23568 15:0.16138 16:0.31141
5 1.0067 1:0.36479 2:0.3358 3:0.6629 4:0.68722 5:0.58701 6:0.14937 7:0.54487 8:0.13883 9:0.34375 10:0.23257 11:0.78947 12:0.48747 13:0.043103 14:0.73937 15:0.1746 16:0.32186
5 0 1:0.36761 2:0.32249 3:0.63122 4:0.77143 5:0.57773 6:0.14872 7:0.55769 8:0.084619 9:0.32589 10:0.095621 11:0.57895 12:0.50611 13:0.034483 14:0.3709 15:0.11905 16:0.29764
5 0 1:0.33099 2:0.31213 3:0.61086 4:0.71006 5:0.56381 6:0.12039 7:0.53205 8:0.10851 9:0.30952 10:0.14733 11:0.63158 12:0.49693 13:0.037356 14:0.38414 15:0.18519 16:0.31445
5 0 1:0.3662 2:0.30769 3:0.62443 4:0.76067 5:0.54524 6:0.12639 7:0.52564 8:0.094206 9:0.30506 10:0.15431 11:0.63158 12:0.47912 13:0.028736 14:0.49955 15:0.16667 16:0.34942
5 0 1:0.3169 2:0.31657 3:0.62217 4:0.65822 5:0.56381 6:0.11039 7:0.53846 8:0.086715 9:0.31994 10:0.25147 11:0.78947 12:0.59942 13:0.04023 14:0.35779 15:0.21164 16:0.3416
5 0 1:0.38451 2:0.32396 3:0.65385 4:0.76014 5:0.56845 6:0.16759 7:0.53205 8:0.18392 9:0.32143 10:0.17615 11:0.68421 12:0.42358 13:0.028736 14:0.62561 15:0.12169 16:0.28625
5 0 1:0.34648 2:0.32101 3:0.65158 4:0.77084 5:0.57077 6:0.18081 7:0.52778 8:0.14902 9:0.32887 10:0.16048 11:0.68421 12:0.39426 13:0.045977 14:0.6494 15:0.16667 16:0.34459
5 0 1:0.33944 2:0.3003 3:0.59729 4:0.69989 5:0.54524 6:0.1562 7:0.51709 8:0.099036 9:0.30208 10:0.16849 11:0.68421 12:0.4542 13:0.037356 14:0.51593 15:0.16667 16:0.32858
3.3039 0 1:0.34085 2:0.32692 3:0.63348 4:0.7077 5:0.58005 6:0.18409 7:0.5406 8:0.11144 9:0.32292 10:0.13034 11:0.63158 12:0.26691 13:0.043103 14:0.61348 15:0.12963 16:0.35432
0.095768 0 1:0.36761 2:0.32249 3:0.6086 4:0.71387 5:0.58005 6:0.16506 7:0.55769 8:0.12843 9:0.33036 10:0.24014 11:0.63158 12:0.52433 13:0.043103 14:0.2959 15:0.15873 16:0.35686
5 0 1:0.3507 2:0.30917 3:0.63348 4:0.74907 5:0.56381 6:0.11605 7:0.53632 8:0.10373 9:0.31696 10:0.22448 11:0.63158 12:0.53216 13:0.034483 14:0.32423 15:0.16667 16:0.34573
5 0 1:0.32676 2:0.3003 3:0.56561 4:0.68842 5:0.53828 6:0.072949 7:0.5 8:0.15922 9:0.3006 10:0.1768 11:0.68421 12:0.51689 13:0.011494 14:0.48025 15:0.10582 16:0.28773
1.4983 0 1:0.36338 2:0.3284 3:0.64706 4:0.78864 5:0.58237 6:0.17854 7:0.54701 8:0.15034 9:0.32589 10:0.18541 11:0.68421 12:0.44276 13:0.011494 14:0.56656 15:0.11111 16:0.32739
5 0 1:0.35634 2:0.30178 3:0.62443 4:0.71562 5:0.54756 6:0.1351 7:0.51709 8:0.12003 9:0.29911 10:0.19395 11:0.57895 12:0.50738 13:0.017241 14:0.3442 15:0.12434 16:0.30438
5 0 1:0.35352 2:0.30917 3:0.61538 4:0.77489 5:0.5522 6:0.19911 7:0.53846 8:0.071159 9:0.3125 10:0.15445 11:0.63158 12:0.36634 13:0.04023 14:0.63391 15:0.15344 16:0.35559
5 0 1:0.3493 2:0.30621 3:0.61991 4:0.72135 5:0.54988 6:0.16219 7:0.53632 8:0.055496 9:0.30952 10:0.21847 11:0.78947 12:0.56538 13:0.037356 14:0.55172 15:0.14815 16:0.33063
5 0 1:0.34225 2:0.31509 3:0.61991 4:0.78024 5:0.56845 6:0.18813 7:0.53632 8:0.077423 9:0.31696 10:0.15917 11:0.63158 12:0.32414 13:0.034483 14:0.78776 15:0.12963 16:0.2853
5 0 1:0.36479 2:0.29438 3:0.58371 4:0.68546 5:0.52668 6:0.12463 7:0.5 8:0.11559 9:0.29464 10:0.19158 11:0.63158 12:0.48513 13:0.025862 14:0.52335 15:0.17196 16:0.34981
5 0 1:0.3662 2:0.32249 3:0.64706 4:0.74705 5:0.56381 6:0.17065 7:0.54915 8:0.063376 9:0.32589 10:0.16341 11:0.57895 12:0.3039 13:0.020115 14:0.70583 15:0.1164 16:0.2909
5 2.0128 1:0.35493 2:0.31361 3:0.5905 4:0.78066 5:0.55684 6:0.19896 7:0.54487 8:0.018337 9:0.31548 10:0.17602 11:0.68421 12:0.45625 13:0.022989 14:0.84083 15:0.16138 16:0.36371
5 0 1:0.34648 2:0.31065 3:0.6267 4:0.74726 5:0.55684 6:0.17615 7:0.53205 8:0.088354 9:0.31399 10:0.1592 11:0.57895 12:0.30369 13:0.043103 14:0.67689 15:0.15873 16:0.3463
5 0 1:0.3507 2:0.33728 3:0.64932 4:0.6243 5:0.60093 6:0.11902 7:0.57051 8:0.083207 9:0.33929 10:0.17693 11:0.63158 12:0.5607 13:0.0057471 14:0.55555 15:0.074074 16:0.358
5 0 1:0.33239 2:0.32249 3:0.63122 4:0.68877 5:0.57773 6:0.12037 7:0.55769 8:0.11065 9:0.32738 10:0.2166 11:0.68421 12:0.41714 13:0.048851 14:0.48955 15:0.16931 16:0.31686
5 0 1:0.3507 2:0.30325 3:0.6267 4:0.80208 5:0.55684 6:0.16884 7:0.51068 8:0.19406 9:0.3125 10:0.24522 11:0.52632 12:0.31234 13:0.025862 14:0.71866 15:0.12698 16:0.30455
3.0062 0 1:0.3338 2:0.29142 3:0.6086 4:0.6524 5:0.53132 6:0.10357 7:0.51068 8:0.10425 9:0.29762 10:0.22994 11:0.63158 12:0.4441 13:0.025862 14:0.48842 15:0.092593 16:0.35267
5 0 1:0.36338 2:0.33432 3:0.6629 4:0.68231 5:0.58933 6:0.16856 7:0.54487 8:0.13474 9:0.3244 10:0.20871 11:0.78947 12:0.56823 13:0.020115 14:0.53254 15:0.11376 16:0.30052
5 0 1:0.35493 2:0.33432 3:0.64027 4:0.68024 5:0.58933 6:0.17256 7:0.56197 8:0.11365 9:0.3378 10:0.16076 11:0.68421 12:0.41459 13:0.045977 14:0.55604 15:0.16138 16:0.31769
5 0 1:0.3662 2:0.32544 3:0.64706 4:0.76635 5:0.58005 6:0.15105 7:0.54274 8:0.083894 9:0.31696 10:0.12363 11:0.68421 12:0.40403 13:0.04023 14:0.74013 15:0.16667 16:0.32023
5 0 1:0.35352 2:0.34615 3:0.67195 4:0.68584 5:0.61253 6:0.10413 7:0.58761 8:0.082848 9:0.35119 10:0.17042 11:0.63158 12:0.48377 13:0.022989 14:0.58579 15:0.092593 16:0.34415
5 0 1:0.35211 2:0.31065 3:0.60181 4:0.71166 5:0.5522 6:0.16762 7:0.51282 8:0.1497 9:0.3125 10:0.15221 11:0.57895 12:0.23317 13:0.031609 14:0.75753 15:0.13228 16:0.33473
5 0 1:0.37606 2:0.31805 3:0.6267 4:0.74308 5:0.57309 6:0.18828 7:0.53846 8:0.1042 9:0.31845 10:0.12509 11:0.63158 12:0.30239 13:0.037356 14:0.73125 15:0.13492 16:0.32102
5 0 1:0.32394 2:0.31953 3:0.64706 4:0.62589 5:0.56845 6:0.10118 7:0.54701 8:0.057384 9:0.31548 10:0.21016 11:0.63158 12:0.45114 13:0.022989 14:0.39273 15:0.092593 16:0.37113
5 0 1:0.34648 2:0.31805 3:0.62896 4:0.80502 5:0.56613 6:0.1517 7:0.54701 8:0.11208 9:0.31994 10:0.20487 11:0.78947 12:0.58291 13:0.048851 14:0.22627 15:0.15873 16:0.33524
5 0 1:0.34648 2:0.31953 3:0.65385 4:0.81415 5:0.56845 6:0.15172 7:0.52564 8:0.14727 9:0.32589 10:0.20565 11:0.68421 12:0.34071 13:0.051724 14:0.6033 15:0.17196 16:0.33631
5 0 1:0.35352 2:0.31953 3:0.65385 4:0.73898 5:0.57077 6:0.13492 7:0.53632 8:0.13089 9:0.31994 10:0.13655 11:0.57895 12:0.24635 13:0.051724 14:0.72404 15:0.15344 16:0.31573
5 0 1:0.33803 2:0.3358 3:0.65385 4:0.68519 5:0.60093 6:0.11685 7:0.55342 8:0.14656 9:0.33631 10:0.2042 11:0.57895 12:0.50607 13:0.037356 14:0.24729 15:0.15873 16:0.32801
5 0 1:0.33521 2:0.28698 3:0.59955 4:0.76661 5:0.51972 6:0.098495 7:0.49359 8:0.11723 9:0.28869 10:0.17117 11:0.68421 12:0.47541 13:0.022989 14:0.47994 15:0.16667 16:0.37151
5 0 1:0.33521 2:0.31065 3:0.61086 4:0.75269 5:0.54524 6:0.12895 7:0.5235 8:0.11775 9:0.30506 10:0.19219 11:0.68421 12:0.53235 13:0.028736 14:0.51085 15:0.15873 16:0.32352
5 0 1:0.33099 2:0.31065 3:0.58371 4:0.72287 5:0.54756 6:0.22367 7:0.51068 8:0.13925 9:0.31399 10:0.1258 11:0.63158 12:0.34022 13:0.034483 14:0.75913 15:0.16402 16:0.32274
0.64281 0 1:0.35493 2:0.32101 3:0.63348 4:0.6617 5:0.57541 6:0.16514 7:0.54915 8:0.1303 9:0.3244 10:0.20968 11:0.68421 12:0.42547 13:0.04023 14:0.41706 15:0.16667 16:0.31269
0.10299 0 1:0.38028 2:0.32692 3:0.67195 4:0.7457 5:0.58237 6:0.18507 7:0.55128 8:0.13194 9:0.33185 10:0.2003 11:0.52632 12:0.21304 13:0.025862 14:0.72583 15:0.021164 16:0.94916
5 0 1:0.34085 2:0.32396 3:0.64253 4:0.72687 5:0.57773 6:0.14927 7:0.54274 8:0.13891 9:0.32589 10:0.19809 11:0.73684 12:0.57302 13:0.037356 14:0.37225 15:0.18783 16:0.35229
5 0 1:0.36901 2:0.30178 3:0.59276 4:0.64342 5:0.54292 6:0.18944 7:0.5406 8:0.1364 9:0.3125 10:0.1712 11:0.63158 12:0.35713 13:0.031609 14:0.60187 15:0.15079 16:0.3306
5 0 1:0.33099 2:0.31805 3:0.62217 4:0.73696 5:0.55916 6:0.15964 7:0.53846 8:0.080003 9:0.31994 10:0.23424 11:0.68421 12:0.56163 13:0.037356 14:0.31689 15:0.21429 16:0.33173
5 0 1:0.35915 2:0.29882 3:0.61312 4:0.69035 5:0.53828 6:0.10672 7:0.5235 8:0.0851 9:0.30655 10:0.20216 11:0.63158 12:0.46048 13:0.043103 14:0.59983 15:0.15873 16:0.35212
5 0 1:0.33239 2:0.29734 3:0.60181 4:0.68381 5:0.53132 6:0.15591 7:0.50855 8:0.13458 9:0.29762 10:0.17269 11:0.63158 12:0.44924 13:0.017241 14:0.27474 15:0.087302 16:0.3504
5 0 1:0.34507 2:0.29734 3:0.61538 4:0.72381 5:0.53364 6:0.11527 7:0.51709 8:0.051325 9:0.3006 10:0.16448 11:0.63158 12:0.33249 13:0.043103 14:0.52182 15:0.15873 16:0.36664
1.7108 0 1:0.29718 2:0.26331 3:0.54751 4:0.67839 5:0.48956 6:0.17704 7:0.45513 8:0.076971 9:0.26339 10:0.12197 11:0.57895 12:0.30121 13:0.028736 14:0.8694 15:0.15608 16:0.3229
5 0 1:0.37324 2:0.32249 3:0.62217 4:0.66123 5:0.56845 6:0.15493 7:0.49573 8:0.42368 9:0.31548 10:0.18161 11:0.68421 12:0.34118 13:0.028736 14:0.64984 15:0.18519 16:0.32923
5 0 1:0.3338 2:0.30325 3:0.64027 4:0.6434 5:0.54292 6:0.15031 7:0.50855 8:0.16405 9:0.30208 10:0.22627 11:0.73684 12:0.59428 13:0.025862 14:0.40143 15:0.097884 16:0.32098
5 0 1:0.35352 2:0.29586 3:0.57466 4:0.78165 5:0.53364 6:0.1426 7:0.5 8:0.087764 9:0.29315 10:0.21081 11:0.63158 12:0.44028 13:0.028736 14:0.5188 15:0.12963 16:0.29291
5 0 1:0.34085 2:0.31361 3:0.60633 4:0.66947 5:0.55684 6:0.19436 7:0.54274 8:0.087057 9:0.31696 10:0.15062 11:0.52632 12:0.485 13:0.017241 14:0.30484 15:0.11111 16:0.27687
3.5556 0 1:0.35211 2:0.32692 3:0.63348 4:0.79006 5:0.57541 6:0.16282 7:0.55769 8:0.085896 9:0.33482 10:0.22393 11:0.57895 12:0.36284 13:0.028736 14:0.63139 15:0.12434 16:0.29335
5 0 1:0.34225 2:0.32101 3:0.6448 4:0.75264 5:0.57773 6:0.16966 7:0.54915 8:0.11218 9:0.32292 10:0.18548 11:0.57895 12:0.29919 13:0.043103 14:0.64677 15:0.13757 16:0.32111
5 0 1:0.35211 2:0.31361 3:0.61086 4:0.72123 5:0.55684 6:0.14909 7:0.53205 8:0.12103 9:0.31101 10:0.18409 11:0.68421 12:0.48607 13:0.031609 14:0.62575 15:0.16402 16:0.30862
5 0 1:0.36479 2:0.30325 3:0.58597 4:0.7326 5:0.54292 6:0.16558 7:0.52137 8:0.099124 9:0.30655 10:0.16906 11:0.63158 12:0.40513 13:0.028736 14:0.62414 15:0.18519 16:0.31357
5 0 1:0.3338 2:0.32692 3:0.64932 4:0.6321 5:0.58237 6:0.12484 7:0.53419 8:0.13793 9:0.33185 10:0.16887 11:0.63158 12:0.47093 13:0.031609 14:0.38743 15:0.1746 16:0.35264
5 0 1:0.35915 2:0.33284 3:0.65611 4:0.75311 5:0.58005 6:0.16098 7:0.55983 8:0.058138 9:0.33929 10:0.20359 11:0.63158 12:0.34306 13:0.034483 14:0.70013 15:0.11905 16:0.34071
5 0 1:0.34366 2:0.30621 3:0.62217 4:0.7114 5:0.54756 6:0.17688 7:0.50855 8:0.15922 9:0.30357 10:0.16832 11:0.68421 12:0.52433 13:0.051724 14:0.28378 15:0.16931 16:0.34205
5 0 1:0.3662 2:0.28698 3:0.56109 4:0.62503 5:0.51276 6:0.14881 7:0.4765 8:0.13679 9:0.2872 10:0.13509 11:0.63158 12:0.36552 13:0.022989 14:0.76861 15:0.16138 16:0.34438
3.961 0 1:0.36761 2:0.35355 3:0.68552 4:0.7492 5:0.61717 6:0.18549 7:0.57265 8:0.14922 9:0.35565 10:0.16615 11:0.73684 12:0.45371 13:0.048851 14:0.61137 15:0.18519 16:0.30708
5 0 1:0.33944 2:0.31065 3:0.6267 4:0.80975 5:0.56148 6:0.16879 7:0.53846 8:0.1066 9:0.30506 10:0.094775 11:0.63158 12:0.31934 13:0.025862 14:0.71222 15:0.15079 16:0.32178
5 0 1:0.33662 2:0.31657 3:0.5905 4:0.66961 5:0.56381 6:0.20777 7:0.55128 8:0.055086 9:0.31845 10:0.16649 11:0.68421 12:0.36295 13:0.022989 14:0.63319 15:0.12169 16:0.32353
2.0006 0 1:0.34789 2:0.30473 3:0.59955 4:0.70459 5:0.529 6:0.11362 7:0.51709 8:0.09268 9:0.30804 10:0.27164 11:0.84211 12:0.60643 13:0.020115 14:0.5007 15:0.11111 16:0.28539
5 0 1:0.36479 2:0.31509 3:0.61086 4:0.64851 5:0.56381 6:0.1457 7:0.52564 8:0.097966 9:0.31101 10:0.13296 11:0.68421 12:0.35824 13:0.028736 14:0.71309 15:0.12169 16:0.30602
0.26024 0 1:0.93662 2:0.32101 3:0.64253 4:0.65947 5:0.57077 6:0.14979 7:0.53419 8:0.14408 9:0.31994 10:0.18429 11:0.68421 12:0.59633 13:0.031609 14:0.36875 15:0.16138 16:0.29942
1.6896 0 1:0.38169 2:0.33284 3:0.64932 4:0.75377 5:0.59165 6:0.16183 7:0.55556 8:0.15453 9:0.33482 10:0.22657 11:0.68421 12:0.51313 13:0.025862 14:0.37726 15:0.12434 16:0.30616
5 0 1:0.34366 2:0.32396 3:0.62443 4:0.75028 5:0.57773 6:0.10486 7:0.55556 8:0.13462 9:0.32887 10:0.20582 11:0.68421 12:0.49984 13:0.017241 14:0.31533 15:0.15079 16:0.32748
5 0 1:0.29859 2:0.27959 3:0.57466 4:0.65576 5:0.50116 6:0.13006 7:0.46581 8:0.11655 9:0.27679 10:0.16815 11:0.63158 12:0.27777 13:0.043103 14:0.88062 15:0.16667 16:0.29395
5 0 1:0.3662 2:0.32692 3:0.65611 4:0.75132 5:0.58469 6:0.21819 7:0.54915 8:0.1597 9:0.32887 10:0.21749 11:0.68421 12:0.41173 13:0.025862 14:0.68942 15:0.11376 16:0.30623
5 0 1:0.33239 2:0.31213 3:0.61538 4:0.74744 5:0.55452 6:0.16794 7:0.52137 8:0.11026 9:0.30952 10:0.1907 11:0.68421 12:0.38196 13:0.025862 14:0.51352 15:0.11111 16:0.32642
5 0 1:0.32535 2:0.29586 3:0.6267 4:0.72954 5:0.53132 6:0.18107 7:0.49359 8:0.12255 9:0.29167 10:0.21019 11:0.63158 12:0.34938 13:0.048851 14:0.59295 15:0.2037 16:0.33057
5 0 1:0.35352 2:0.31509 3:0.6448 4:0.68485 5:0.56381 6:0.13293 7:0.54915 8:0.086576 9:0.31994 10:0.22525 11:0.57895 12:0.4989 13:0.031609 14:0.31652 15:0.1164 16:0.32094
5 0 1:0.34225 2:0.32544 3:0.64932 4:0.70489 5:0.57773 6:0.18466 7:0.54701 8:0.094388 9:0.32887 10:0.19226 11:0.68421 12:0.44803 13:0.034483 14:0.68403 15:0.13492 16:0.30312
5 0 1:0.34366 2:0.31213 3:0.61765 4:0.71558 5:0.56148 6:0.12947 7:0.52778 8:0.1303 9:0.31845 10:0.24828 11:0.63158 12:0.55442 13:0.028736 14:0.35972 15:0.18519 16:0.31038
5 0 1:0.34789 2:0.3003 3:0.61765 4:0.64994 5:0.53596 6:0.15576 7:0.50427 8:0.10814 9:0.29911 10:0.1558 11:0.57895 12:0.25832 13:0.031609 14:0.71525 15:0.15873 16:0.3267
5 0 1:0.35352 2:0.3003 3:0.58371 4:0.70382 5:0.53828 6:0.18084 7:0.53419 8:0.14103 9:0.30804 10:0.18822 11:0.68421 12:0.51428 13:0.037356 14:0.3557 15:0.13228 16:0.32529
5 0 1:0.31831 2:0.31805 3:0.6267 4:0.61732 5:0.57309 6:0.086168 7:0.55128 8:0.098559 9:0.32589 10:0.20173 11:0.63158 12:0.45603 13:0.043103 14:0.39473 15:0.11905 16:0.32501
5 0 1:0.32394 2:0.30769 3:0.61991 4:0.75251 5:0.54988 6:0.10933 7:0.51709 8:0.13403 9:0.30208 10:0.17931 11:0.63158 12:0.48325 13:0.025862 14:0.36006 15:0.11111 16:0.299
5 0 1:0.36338 2:0.32396 3:0.6629 4:0.6727 5:0.57077 6:0.11832 7:0.52778 8:0.19804 9:0.32292 10:0.16188 11:0.63158 12:0.49822 13:0.028736 14:0.4171 15:0.12698 16:0.31997
5 0 1:0.36056 2:0.30178 3:0.54977 4:0.68943 5:0.53364 6:0.20115 7:0.49786 8:0.12846 9:0.30357 10:0.11783 11:0.63158 12:0.33499 13:0.048851 14:0.66346 15:0.19312 16:0.33002
5 0 1:0.33521 2:0.28254 3:0.55656 4:0.70385 5:0.51044 6:0.14826 7:0.48291 8:0.14849 9:0.28423 10:0.21074 11:0.68421 12:0.57479 13:0.025862 14:0.33611 15:0.087302 16:0.32495
5 0 1:0.34366 2:0.34024 3:0.61765 4:0.75019 5:0.59629 6:0.17197 7:0.57265 8:0.080632 9:0.34524 10:0.25068 11:0.63158 12:0.26099 13:0.045977 14:0.68115 15:0.15608 16:0.34339
5 0 1:0.35352 2:0.32249 3:0.61538 4:0.72958 5:0.57309 6:0.19172 7:0.53419 8:0.11197 9:0.32292 10:0.19829 11:0.52632 12:0.27514 13:0.034483 14:0.69989 15:0.18519 16:0.32296
5 0 1:0.35775 2:0.31065 3:0.60633 4:0.64481 5:0.55452 6:0.15421 7:0.51709 8:0.062461 9:0.30208 10:0.14916 11:0.63158 12:0.33442 13:0.022989 14:0.64911 15:0.11376 16:0.31312
3.0112 0 1:0.3507 2:0.3284 3:0.63348 4:0.70316 5:0.58005 6:0.14433 7:0.55342 8:0.093384 9:0.33185 10:0.22718 11:0.57895 12:0.2338 13:0.028736 14:0.53833 15:0.14286 16:0.34958
5 0 1:0.36761 2:0.30917 3:0.61538 4:0.68007 5:0.54988 6:0.10659 7:0.50641 8:0.14617 9:0.30952 10:0.1967 11:0.52632 12:0.5072 13:0.031609 14:0.35504 15:0.15608 16:0.32556
5 0 1:0.35775 2:0.34172 3:0.66063 4:0.71514 5:0.61021 6:0.1533 7:0.57051 8:0.079859 9:0.34524 10:0.1827 11:0.63158 12:0.39804 13:0.025862 14:0.65545 15:0.087302 16:0.36201
5 0 1:0.34648 2:0.30178 3:0.60633 4:0.6627 5:0.54988 6:0.18412 7:0.53205 8:0.05388 9:0.30804 10:0.2022 11:0.57895 12:0.30755 13:0.045977 14:0.70533 15:0.1746 16:0.30782
5 0 1:0.31831 2:0.31657 3:0.60181 4:0.64443 5:0.55916 6:0.10129 7:0.54274 8:0.076015 9:0.31845 10:0.12567 11:0.63158 12:0.41938 13:0.043103 14:0.44321 15:0.17196 16:0.31244
5 0 1:0.35915 2:0.31065 3:0.5905 4:0.70714 5:0.56381 6:0.12443 7:0.53846 8:0.11056 9:0.31548 10:0.2379 11:0.57895 12:0.52408 13:0.031609 14:0.39426 15:0.14815 16:0.31416
5 0 1:0.33803 2:0.2929 3:0.61538 4:0.66813 5:0.53364 6:0.15645 7:0.51709 8:0.12149 9:0.3006 10:0.26251 11:0.68421 12:0.56615 13:0.028736 14:0.37682 15:0.10317 16:0.29277
0.91349 0 1:0.34789 2:0.30325 3:0.63122 4:0.75208 5:0.54988 6:0.15394 7:0.51709 8:0.15459 9:0.30655 10:0.19239 11:0.57895 12:0.53584 13:0.04023 14:0.37785 15:0.12698 16:0.26128
5 0 1:0.34648 2:0.32249 3:0.6448 4:0.75618 5:0.57773 6:0.12313 7:0.53419 8:0.16373 9:0.32292 10:0.18911 11:0.63158 12:0.53125 13:0.04023 14:0.35142 15:0.17989 16:0.31569
5 0 1:0.33099 2:0.31361 3:0.64253 4:0.74502 5:0.56148 6:0.13319 7:0.5406 8:0.084325 9:0.31548 10:0.18528 11:0.73684 12:0.57464 13:0.014368 14:0.37749 15:0.1164 16:0.28161
3.9462 0 1:0.33803 2:0.31805 3:0.63575 4:0.78381 5:0.56613 6:0.24888 7:0.54274 8:0.087673 9:0.32143 10:0.15255 11:0.63158 12:0.35432 13:0.028736 14:0.76383 15:0.16667 16:0.35024
5 0 1:0.3507 2:0.3003 3:0.60407 4:0.68033 5:0.54988 6:0.1623 7:0.50214 8:0.22822 9:0.29613 10:0.17497 11:0.73684 12:0.57025 13:0.037356 14:0.36617 15:0.16667 16:0.31316
5 0 1:0.37183 2:0.31805 3:0.62217 4:0.76242 5:0.57077 6:0.14578 7:0.52991 8:0.13685 9:0.31696 10:0.14956 11:0.57895 12:0.35091 13:0.022989 14:0.61593 15:0.089947 16:0.38484
5 0 1:0.33803 2:0.31065 3:0.63122 4:0.67071 5:0.55684 6:0.19678 7:0.51923 8:0.13993 9:0.30952 10:0.19836 11:0.84211 12:0.59904 13:0.043103 14:0.34022 15:0.19577 16:0.31559
5 0 1:0.3662 2:0.31953 3:0.65837 4:0.71989 5:0.57077 6:0.17228 7:0.51282 8:0.2925 9:0.29167 10:0.20674 11:0.52632 12:0.22321 13:0.034483 14:0.68204 15:0.07672 16:0.51105
5 0 1:0.34225 2:0.31509 3:0.64027 4:0.73438 5:0.55452 6:0.14335 7:0.51496 8:0.13891 9:0.31399 10:0.18768 11:0.68421 12:0.47787 13:0.04023 14:0.33568 15:0.12698 16:0.32532
5 0 1:0.32254 2:0.31657 3:0.62896 4:0.69283 5:0.56381 6:0.14327 7:0.52137 8:0.11739 9:0.31399 10:0.18474 11:0.68421 12:0.51068 13:0.022989 14:0.53891 15:0.12434 16:0.28735
2.3389 0 1:0.37465 2:0.31953 3:0.6448 4:0.71395 5:0.57077 6:0.19906 7:0.52991 8:0.14323 9:0.30952 10:0.20064 11:0.73684 12:0.59965 13:0.028736 14:0.43979 15:0.1746 16:0.34087
5 0 1:0.36056 2:0.31953 3:0.64706 4:0.7223 5:0.56845 6:0.17618 7:0.50214 8:0.33711 9:0.31399 10:0.18029 11:0.57895 12:0.30357 13:0.022989 14:0.7857 15:0.1164 16:0.32611
2.1597 0 1:0.35493 2:0.2929 3:0.58371 4:0.65197 5:0.52436 6:0.13167 7:0.50855 8:0.10711 9:0.29464 10:0.14289 11:0.63158 12:0.46318 13:0.034483 14:0.51289 15:0.15873 16:0.32791
5 0 1:0.3493 2:0.29142 3:0.59955 4:0.73657 5:0.53132 6:0.1435 7:0.5 8:0.15917 9:0.29464 10:0.19981 11:0.68421 12:0.53626 13:0.043103 14:0.35955 15:0.11376 16:0.32551
5 0 1:0.36761 2:0.3358 3:0.66063 4:0.75282 5:0.59397 6:0.19658 7:0.55983 8:0.14248 9:0.3378 10:0.15777 11:0.57895 12:0.2889 13:0.031609 14:0.69737 15:0.13757 16:0.34273
2.6869 0 1:0.34225 2:0.30621 3:0.55882 4:0.71175 5:0.54292 6:0.15506 7:0.5235 8:0.13043 9:0.30357 10:0.20348 11:0.57895 12:0.53577 13:0.025862 14:0.34124 15:0.19048 16:0.33959
5 0 1:0.34085 2:0.31805 3:0.63122 4:0.7254 5:0.57077 6:0.16421 7:0.54274 8:0.071481 9:0.32292 10:0.23166 11:0.68421 12:0.40724 13:0.043103 14:0.59928 15:0.15079 16:0.35003
5 0 1:0.34789 2:0.32396 3:0.63348 4:0.73502 5:0.57541 6:0.13291 7:0.54274 8:0.11461 9:0.31994 10:0.20104 11:0.73684 12:0.57432 13:0.04023 14:0.58664 15:0.1455 16:0.3357
5 0 1:0.33239 2:0.31361 3:0.65158 4:0.69282 5:0.56613 6:0.11303 7:0.53846 8:0.11532 9:0.31696 10:0.24069 11:0.63158 12:0.52147 13:0.037356 14:0.28545 15:0.15079 16:0.32737
5 0 1:0.34225 2:0.30473 3:0.61312 4:0.73726 5:0.5522 6:0.17207 7:0.53632 8:0.083481 9:0.3125 10:0.22515 11:0.63158 12:0.32935 13:0.045977 14:0.61763 15:0.1455 16:0.30564
0 0.00084892 1:0.24789 2:0.21154 3:0.4819 4:0.42177 5:0.41531 6:0.12362 7:0.38034 8:0.04461 9:0.21429 10:0.32322 11:0.68421 12:0.46051 13:0.04023 14:0.63684 15:0.16138 16:0.34649
5 0 1:0.36479 2:0.30178 3:0.61538 4:0.68403 5:0.53828 6:0.15953 7:0.50214 8:0.15105 9:0.29911 10:0.20362 11:0.73684 12:0.43759 13:0.022989 14:0.57819 15:0.12169 16:0.3062
1.3219 0 1:0.35775 2:0.30325 3:0.61086 4:0.75674 5:0.54292 6:0.19232 7:0.50855 8:0.10079 9:0.30208 10:0.22746 11:0.68421 12:0.40808 13:0.031609 14:0.50588 15:0.10847 16:0.35187
5 0 1:0.36479 2:0.30473 3:0.61538 4:0.73906 5:0.54524 6:0.14614 7:0.50855 8:0.10124 9:0.30506 10:0.21535 11:0.63158 12:0.4859 13:0.034483 14:0.57231 15:0.11376 16:0.33095
5 0 1:0.34648 2:0.32692 3:0.55656 4:0.78962 5:0.58005 6:0.18835 7:0.55556 8:0.049416 9:0.32887 10:0.11586 11:0.57895 12:0.26858 13:0.04023 14:0.73887 15:0.16138 16:0.34426
2.8351 0 1:0.35634 2:0.34911 3:0.69005 4:0.79717 5:0.62181 6:0.15452 7:0.58974 8:0.11183 9:0.35714 10:0.19209 11:0.63158 12:0.4067 13:0.031609 14:0.6812 15:0.10317 16:0.35113
5 0 1:0.38028 2:0.31657 3:0.61991 4:0.66791 5:0.56613 6:0.15847 7:0.53846 8:0.12656 9:0.31994 10:0.20799 11:0.63158 12:0.49885 13:0.028736 14:0.49982 15:0.1746 16:0.34044
0 0.076555 1:0.21549 2:0.62574 3:0.72624 4:0.075599 5:0.74246 6:0.53787 7:0.74786 8:0.081501 9:0.62649 10:0.21572 11:0.89474 12:0.67692 13:0.014368 14:0.56432 15:0.055556 16:0.48423
0 4.3388 1:0.3493 2:0.31213 3:0.6448 4:0.65955 5:0.55452 6:0.14192 7:0.51923 8:0.10759 9:0.30208 10:0.14214 11:0.73684 12:0.54287 13:0.014368 14:0.79211 15:0.12698 16:0.30992
5 0 1:0.3338 2:0.31953 3:0.64932 4:0.78402 5:0.56381 6:0.1784 7:0.54487 8:0.10477 9:0.31994 10:0.22145 11:0.63158 12:0.54161 13:0.022989 14:0.24828 15:0.1164 16:0.2592
5 0 1:0.33803 2:0.29438 3:0.55656 4:0.68675 5:0.52668 6:0.1774 7:0.49786 8:0.11584 9:0.29018 10:0.21861 11:0.68421 12:0.47452 13:0.017241 14:0.5776 15:0.11111 16:0.30809
5 0 1:0.3493 2:0.31509 3:0.6448 4:0.68822 5:0.56613 6:0.20963 7:0.51709 8:0.19247 9:0.31994 10:0.1654 11:0.68421 12:0.38724 13:0.031609 14:0.61513 15:0.14286 16:0.35268
4.9886 0 1:0.32817 2:0.2929 3:0.58371 4:0.7017 5:0.529 6:0.11251 7:0.48504 8:0.14184 9:0.29613 10:0.1418 11:0.63158 12:0.43846 13:0.037356 14:0.65226 15:0.16402 16:0.32217
5 0 1:0.36056 2:0.3003 3:0.62443 4:0.76218 5:0.53828 6:0.11566 7:0.51709 8:0.093434 9:0.30208 10:0.15984 11:0.63158 12:0.39701 13:0.045977 14:0.48559 15:0.13228 16:0.34804
2.8147 0 1:0.34085 2:0.32396 3:0.58371 4:0.65791 5:0.56613 6:0.1714 7:0.54915 8:0.044973 9:0.32292 10:0.12268 11:0.68421 12:0.3555 13:0.043103 14:0.57769 15:0.19841 16:0.32849
5 0 1:0.3338 2:0.30769 3:0.62443 4:0.79588 5:0.54292 6:0.13986 7:0.52991 8:0.094685 9:0.3125 10:0.23088 11:0.68421 12:0.4233 13:0.020115 14:0.48211 15:0.092593 16:0.33727
5 0 1:0.34648 2:0.31361 3:0.59955 4:0.72135 5:0.55916 6:0.13539 7:0.51923 8:0.12249 9:0.3125 10:0.23366 11:0.63158 12:0.55192 13:0.022989 14:0.34468 15:0.12434 16:0.29404
5 0 1:0.34366 2:0.29882 3:0.5543 4:0.74886 5:0.53596 6:0.15664 7:0.49145 8:0.18499 9:0.29018 10:0.15188 11:0.63158 12:0.43322 13:0.031609 14:0.66437 15:0.10053 16:0.33707
5 0 1:0.33521 2:0.31065 3:0.62217 4:0.62473 5:0.55684 6:0.098339 7:0.52137 8:0.12918 9:0.30357 10:0.18354 11:0.63158 12:0.47132 13:0.028736 14:0.36574 15:0.15873 16:0.29995
5 0 1:0.32958 2:0.31657 3:0.63348 4:0.63925 5:0.56381 6:0.17626 7:0.53846 8:0.11864 9:0.31994 10:0.16554 11:0.57895 12:0.4638 13:0.022989 14:0.36439 15:0.12169 16:0.27514
4.2142 0 1:0.34648 2:0.30621 3:0.60633 4:0.6277 5:0.54988 6:0.071044 7:0.52564 8:0.074008 9:0.30655 10:0.16344 11:0.57895 12:0.41168 13:0.020115 14:0.36239 15:0.13757 16:0.33541
4.6576 0 1:0.34648 2:0.31361 3:0.6267 4:0.56633 5:0.5522 6:0.09485 7:0.51709 8:0.18755 9:0.31548 10:0.17581 11:0.63158 12:0.49211 13:0.034483 14:0.47078 15:0.15608 16:0.34013
5 0 1:0.33099 2:0.32692 3:0.62896 4:0.71644 5:0.58005 6:0.089627 7:0.55556 8:0.066973 9:0.3244 10:0.13763 11:0.57895 12:0.48521 13:0.028736 14:0.4346 15:0.12169 16:0.26628
5 0 1:0.36479 2:0.30769 3:0.61991 4:0.72989 5:0.5522 6:0.13735 7:0.51068 8:0.13866 9:0.30952 10:0.18565 11:0.73684 12:0.58202 13:0.037356 14:0.4112 15:0.16138 16:0.30318
5 0 1:0.31972 2:0.29734 3:0.60633 4:0.67498 5:0.53132 6:0.17691 7:0.51709 8:0.057066 9:0.30208 10:0.18809 11:0.63158 12:0.31292 13:0.045977 14:0.59003 15:0.15608 16:0.33596
5 0 1:0.3338 2:0.29142 3:0.6086 4:0.72135 5:0.52204 6:0.12543 7:0.50641 8:0.061778 9:0.29018 10:0.10898 11:0.68421 12:0.47189 13:0.037356 14:0.64908 15:0.18519 16:0.33388
5 0 1:0.34507 2:0.31361 3:0.6267 4:0.73821 5:0.56381 6:0.17345 7:0.54487 8:0.074831 9:0.31696 10:0.21824 11:0.63158 12:0.53604 13:0.048851 14:0.32955 15:0.17196 16:0.30404
4.5696 0 1:0.35352 2:0.28698 3:0.58371 4:0.59563 5:0.51972 6:0.13316 7:0.49786 8:0.079543 9:0.29315 10:0.2297 11:0.52632 12:0.26568 13:0.025862 14:0.68259 15:0.12169 16:0.30892
5 0 1:0.34789 2:0.31657 3:0.63122 4:0.78695 5:0.56381 6:0.20097 7:0.52991 8:0.13249 9:0.31548 10:0.19569 11:0.63158 12:0.35847 13:0.031609 14:0.74453 15:0.12434 16:0.30241
5 0 1:0.33803 2:0.29734 3:0.57919 4:0.69098 5:0.53596 6:0.14537 7:0.51068 8:0.085508 9:0.29464 10:0.17673 11:0.63158 12:0.44731 13:0.011494 14:0.53537 15:0.10847 16:0.31642
5 0 1:0.36479 2:0.34172 3:0.67195 4:0.69114 5:0.60325 6:0.10529 7:0.55983 8:0.15678 9:0.3378 10:0.24248 11:0.78947 12:0.5829 13:0.034483 14:0.40734 15:0.12434 16:0.28085
5 0 1:0.36901 2:0.30769 3:0.62896 4:0.707 5:0.55452 6:0.1205 7:0.52991 8:0.11985 9:0.3125 10:0.2063 11:0.68421 12:0.54193 13:0.031609 14:0.45675 15:0.15344 16:0.30496
5 0 1:0.39577 2:0.32988 3:0.63348 4:0.76175 5:0.58701 6:0.1145 7:0.57051 8:0.11903 9:0.33631 10:0.26493 11:0.68421 12:0.50305 13:0.04023 14:0.4943 15:0.16931 16:0.28799
5 0 1:0.34225 2:0.34467 3:0.64253 4:0.80998 5:0.61021 6:0.18709 7:0.56838 8:0.10218 9:0.34077 10:0.171 11:0.63158 12:0.32645 13:0.045977 14:0.68463 15:0.15344 16:0.32026
2.1105 0 1:0.35211 2:0.32101 3:0.64253 4:0.73674 5:0.56845 6:0.19226 7:0.53632 8:0.13831 9:0.31994 10:0.18106 11:0.68421 12:0.47506 13:0.031609 14:0.6774 15:0.14815 16:0.3325
5 0 1:0.36197 2:0.30917 3:0.6086 4:0.70274 5:0.55684 6:0.078669 7:0.5235 8:0.11399 9:0.3125 10:0.21647 11:0.63158 12:0.47395 13:0.022989 14:0.52478 15:0.11905 16:0.28686
5 0 1:0.34225 2:0.31213 3:0.61538 4:0.70903 5:0.55916 6:0.2033 7:0.51923 8:0.10732 9:0.30804 10:0.13957 11:0.63158 12:0.34408 13:0.045977 14:0.75143 15:0.15344 16:0.31247
5 0 1:0.30704 2:0.32988 3:0.66516 4:0.68252 5:0.59165 6:0.11258 7:0.5641 8:0.12183 9:0.33482 10:0.27401 11:0.68421 12:0.43369 13:0.022989 14:0.54434 15:0.16931 16:0.33007
5 0 1:0.34085 2:0.28846 3:0.59729 4:0.74807 5:0.5174 6:0.11091 7:0.49786 8:0.076039 9:0.28571 10:0.17229 11:0.63158 12:0.44608 13:0.020115 14:0.5744 15:0.12963 16:0.30864
5 1.6341 1:0.32113 2:0.29734 3:0.56561 4:0.6495 5:0.53596 6:0.11416 7:0.50214 8:0.080111 9:0.29613 10:0.16354 11:0.63158 12:0.41862 13:0.025862 14:0.77512 15:0.16931 16:0.28752
5 0 1:0.35634 2:0.3358 3:0.66742 4:0.6708 5:0.59165 6:0.15948 7:0.56624 8:0.13597 9:0.33929 10:0.1851 11:0.52632 12:0.49958 13:0.028736 14:0.36079 15:0.12698 16:0.27888
5 0 1:0.3662 2:0.31361 3:0.63348 4:0.69963 5:0.56381 6:0.17652 7:0.54701 8:0.028147 9:0.31548 10:0.21359 11:0.73684 12:0.43549 13:0.022989 14:0.65281 15:0.092593 16:0.34117
5 0 1:0.36901 2:0.34911 3:0.67873 4:0.69106 5:0.61021 6:0.14208 7:0.58547 8:0.091316 9:0.35119 10:0.19613 11:0.63158 12:0.50988 13:0.025862 14:0.4714 15:0.1746 16:0.33896
5 0 1:0.33803 2:0.31509 3:0.64027 4:0.68955 5:0.56381 6:0.12818 7:0.52778 8:0.14863 9:0.31399 10:0.22102 11:0.68421 12:0.47775 13:0.025862 14:0.4872 15:0.12169 16:0.29649
5 0 1:0.33944 2:0.33432 3:0.61538 4:0.76071 5:0.58469 6:0.14115 7:0.55342 8:0.13638 9:0.33036 10:0.14631 11:0.84211 12:0.58473 13:0.043103 14:0.48483 15:0.16138 16:0.35501
0 0.10971 1:0.22254 2:0.18047 3:0.44344 4:0.33574 5:0.35963 6:0.13598 7:0.32692 8:0.082344 9:0.18155 10:0.12655 11:0.63158 12:0.38912 13:0.031609 14:0.98942 15:0.11376 16:0.25021
5 0 1:0.35211 2:0.32544 3:0.64253 4:0.77665 5:0.57309 6:0.15423 7:0.55342 8:0.08726 9:0.32887 10:0.19687 11:0.63158 12:0.41386 13:0.04023 14:0.59882 15:0.16402 16:0.31713
5 0 1:0.35775 2:0.31361 3:0.61086 4:0.80328 5:0.56845 6:0.15304 7:0.54701 8:0.09694 9:0.31696 10:0.12888 11:0.57895 12:0.23655 13:0.04023 14:0.73859 15:0.21164 16:0.33412
5 0 1:0.35352 2:0.30473 3:0.57466 4:0.6714 5:0.54988 6:0.15418 7:0.52564 8:0.12313 9:0.30506 10:0.18561 11:0.63158 12:0.52586 13:0.037356 14:0.37546 15:0.1746 16:0.33436
5 0 1:0.35211 2:0.30178 3:0.61086 4:0.619 5:0.5406 6:0.10248 7:0.50855 8:0.097781 9:0.30208 10:0.12512 11:0.73684 12:0.47801 13:0.028736 14:0.59985 15:0.14021 16:0.33987
2.0164 0 1:0.36056 2:0.34172 3:0.63122 4:0.79377 5:0.59629 6:0.14162 7:0.55983 8:0.13458 9:0.33929 10:0.18005 11:0.84211 12:0.57361 13:0.037356 14:0.64421 15:0.17989 16:0.34867
1.0888 0 1:0.35775 2:0.31805 3:0.63575 4:0.68985 5:0.56845 6:0.11819 7:0.5235 8:0.19531 9:0.31548 10:0.25855 11:0.52632 12:0.47005 13:0.022989 14:0.12981 15:0.1164 16:0.26603
5 0 1:0.29296 2:0.27367 3:0.54525 4:0.74239 5:0.4942 6:0.13073 7:0.48718 8:0.11627 9:0.26339 10:0.21149 11:0.63158 12:0.55539 13:0.025862 14:0.30626 15:0.11905 16:0.28221
1.2107 0 1:0.37324 2:0.31805 3:0.63801 4:0.66313 5:0.56613 6:0.12657 7:0.51923 8:0.18142 9:0.31399 10:0.21216 11:0.52632 12:0.49951 13:0.020115 14:0.37514 15:0.11111 16:0.264
5 0 1:0.32394 2:0.31953 3:0.64253 4:0.67934 5:0.57309 6:0.11778 7:0.53419 8:0.12768 9:0.31696 10:0.18494 11:0.63158 12:0.50669 13:0.034483 14:0.37311 15:0.2037 16:0.33373
5 0 1:0.36056 2:0.31805 3:0.62217 4:0.72545 5:0.55916 6:0.11618 7:0.5406 8:0.057091 9:0.31845 10:0.13784 11:0.57895 12:0.22709 13:0.043103 14:0.67662 15:0.15079 16:0.36864
5 0 1:0.33099 2:0.30473 3:0.61538 4:0.72726 5:0.5406 6:0.16279 7:0.49786 8:0.19966 9:0.30208 10:0.16415 11:0.63158 12:0.53864 13:0.022989 14:0.36522 15:0.12169 16:0.29473
1.2062 0 1:0.34507 2:0.33284 3:0.63348 4:0.63093 5:0.58469 6:0.19202 7:0.54701 8:0.17803 9:0.32589 10:0.26408 11:0.63158 12:0.4099 13:0.048851 14:0.62625 15:0.13757 16:0.29766
1.9477 0 1:0.3338 2:0.33432 3:0.66742 4:0.846 5:0.58933 6:0.13357 7:0.54274 8:0.1193 9:0.3378 10:0.18425 11:0.52632 12:0.29077 13:0.04023 14:0.7044 15:0.18783 16:0.32671
5 0 1:0.32254 2:0.30917 3:0.63348 4:0.7064 5:0.54524 6:0.15038 7:0.51496 8:0.16031 9:0.30952 10:0.16486 11:0.63158 12:0.53805 13:0.034483 14:0.37122 15:0.1746 16:0.34023
5 0 1:0.35211 2:0.31213 3:0.58824 4:0.67308 5:0.54988 6:0.1609 7:0.52991 8:0.09225 9:0.30952 10:0.16161 11:0.68421 12:0.47009 13:0.034483 14:0.66371 15:0.15608 16:0.31913
5 0 1:0.36056 2:0.29734 3:0.61991 4:0.76613 5:0.53828 6:0.14818 7:0.51496 8:0.11108 9:0.29762 10:0.2043 11:0.68421 12:0.57971 13:0.017241 14:0.38703 15:0.10847 16:0.27041
5 0 1:0.33521 2:0.29882 3:0.60633 4:0.78459 5:0.5406 6:0.21023 7:0.53846 8:0.093754 9:0.30655 10:0.11058 11:0.63158 12:0.30715 13:0.031609 14:0.71125 15:0.15079 16:0.35
5 0 1:0.3493 2:0.31657 3:0.65158 4:0.70304 5:0.57077 6:0.1472 7:0.53632 8:0.087443 9:0.32143 10:0.26062 11:0.63158 12:0.42008 13:0.037356 14:0.61037 15:0.15344 16:0.3459
4.4886 0 1:0.3507 2:0.30473 3:0.61991 4:0.71299 5:0.54524 6:0.15987 7:0.50427 8:0.12977 9:0.30655 10:0.1003 11:0.57895 12:0.29799 13:0.025862 14:0.8001 15:0.1455 16:0.30689
5 0 1:0.32817 2:0.32249 3:0.62896 4:0.72067 5:0.57309 6:0.086345 7:0.54701 8:0.081796 9:0.32589 10:0.14265 11:0.63158 12:0.40017 13:0.022989 14:0.49353 15:0.097884 16:0.38357
0.046749 0 1:0.38451 2:0.32544 3:0.5905 4:0.63869 5:0.57309 6:0.14363 7:0.53632 8:0.18219 9:0.32292 10:0.11826 11:0.57895 12:0.30478 13:0.025862 14:0.74918 15:0.12434 16:0.29657
5 0 1:0.35211 2:0.30769 3:0.62896 4:0.72183 5:0.54988 6:0.12114 7:0.52564 8:0.077401 9:0.30357 10:0.099891 11:0.57895 12:0.28398 13:0.022989 14:0.69953 15:0.097884 16:0.36257
5 0 1:0.3831 2:0.3358 3:0.66063 4:0.74972 5:0.58237 6:0.16569 7:0.54701 8:0.1653 9:0.33333 10:0.12465 11:0.63158 12:0.33311 13:0.037356 14:0.62599 15:0.20899 16:0.3283
0 0.23853 1:0.3338 2:0.31657 3:0.63348 4:0.71303 5:0.56148 6:0.12797 7:0.53419 8:0.10027 9:0.33631 10:1 11:0.52632 12:0.38781 13:0.025862 14:0.43966 15:0.14286 16:0.32761
5 0 1:0.31408 2:0.27219 3:0.56787 4:0.72623 5:0.49188 6:0.18919 7:0.47436 8:0.052788 9:0.2753 10:0.10094 11:0.57895 12:0.29583 13:0.025862 14:0.88885 15:0.15873 16:0.32037
5 0 1:0.34085 2:0.29438 3:0.6086 4:0.79915 5:0.5406 6:0.12029 7:0.51709 8:0.10867 9:0.29613 10:0.16052 11:0.78947 12:0.60297 13:0.034483 14:0.48062 15:0.18783 16:0.32737
-5 0 1:0.37324 2:0.32396 3:0.58597 4:0.72183 5:0.58005 6:0.14999 7:0.56197 8:0.074331 9:0.33036 10:0.19647 11:0.57895 12:0.32431 13:0.04023 14:0.72761 15:0.1455 16:0.30069
-5 0 1:0.34366 2:0.30769 3:0.58824 4:0.7139 5:0.54524 6:0.11372 7:0.51282 8:0.18247 9:0.31845 10:0.22454 11:0.63158 12:0.3311 13:0.04023 14:0.6059 15:0.15873 16:0.31884
-5 0 1:0.34225 2:0.32249 3:0.6448 4:0.65843 5:0.57541 6:0.095185 7:0.55128 8:0.10568 9:0.3244 10:0.1945 11:0.68421 12:0.49962 13:0.031609 14:0.3485 15:0.14286 16:0.31353
-5 0 1:0.33803 2:0.30917 3:0.59502 4:0.67007 5:0.54756 6:0.10457 7:0.53205 8:0.085443 9:0.31101 10:0.14801 11:0.63158 12:0.57358 13:0.034483 14:0.3587 15:0.15608 16:0.29783
-5 0 1:0.34507 2:0.32692 3:0.65158 4:0.67614 5:0.57773 6:0.16411 7:0.55769 8:0.12313 9:0.32887 10:0.22759 11:0.63158 12:0.56703 13:0.031609 14:0.17081 15:0.19048 16:0.30289
-5 0 1:0.35211 2:0.30917 3:0.63348 4:0.6936 5:0.55452 6:0.11918 7:0.50855 8:0.15193 9:0.3125 10:0.19138 11:0.63158 12:0.59341 13:0.0057471 14:0.28739 15:0.10317 16:0.27689
-5 0 1:0.34648 2:0.30917 3:0.62896 4:0.70769 5:0.55452 6:0.14663 7:0.52564 8:0.092362 9:0.3125 10:0.23797 11:0.57895 12:0.35039 13:0.028736 14:0.63552 15:0.14815 16:0.3186
-5 0 1:0.3507 2:0.28994 3:0.59729 4:0.7189 5:0.52204 6:0.15294 7:0.4765 8:0.17691 9:0.29167 10:0.16927 11:0.63158 12:0.3007 13:0.048851 14:0.57355 15:0.15344 16:0.34752
-5 0 1:0.35634 2:0.29882 3:0.58371 4:0.8263 5:0.53596 6:0.11499 7:0.51496 8:0.062827 9:0.29613 10:0.12851 11:0.57895 12:0.46216 13:0.037356 14:0.54154 15:0.15344 16:0.34215
-5 0 1:0.34366 2:0.32988 3:0.6267 4:0.6427 5:0.58237 6:0.15871 7:0.56197 8:0.087035 9:0.33036 10:0.16001 11:0.57895 12:0.51617 13:0.037356 14:0.37163 15:0.17725 16:0.32017
-5 0 1:0.32676 2:0.28698 3:0.59276 4:0.67752 5:0.5174 6:0.1503 7:0.49573 8:0.10908 9:0.28869 10:0.20304 11:0.68421 12:0.5655 13:0.028736 14:0.31931 15:0.21693 16:0.32151
-5 0 1:0.3662 2:0.32101 3:0.61086 4:0.68679 5:0.55684 6:0.12639 7:0.53419 8:0.089223 9:0.3244 10:0.21634 11:0.63158 12:0.30475 13:0.014368 14:0.67486 15:0.10847 16:0.31814
-5 0 1:0.35775 2:0.3003 3:0.6086 4:0.73075 5:0.53596 6:0.13921 7:0.52137 8:0.058115 9:0.30655 10:0.20277 11:0.68421 12:0.4052 13:0.017241 14:0.75417 15:0.11111 16:0.31301
-5 0 1:0.36761 2:0.30917 3:0.62443 4:0.75432 5:0.55684 6:0.15943 7:0.52991 8:0.089926 9:0.31399 10:0.18843 11:0.63158 12:0.27099 13:0.025862 14:0.73289 15:0.15608 16:0.3478
-5 0 1:0.34789 2:0.30917 3:0.61991 4:0.65016 5:0.5522 6:0.10542 7:0.52778 8:0.099379 9:0.31696 10:0.25957 11:0.63158 12:0.58577 13:0.028736 14:0.28926 15:0.1746 16:0.3431
-5 0 1:0.34789 2:0.30178 3:0.54977 4:0.74374 5:0.53828 6:0.16895 7:0.50427 8:0.14189 9:0.30804 10:0.19616 11:0.57895 12:0.33586 13:0.022989 14:0.62862 15:0.12169 16:0.31703
-5 0 1:0.36056 2:0.33136 3:0.63122 4:0.80199 5:0.57773 6:0.14058 7:0.55769 8:0.1106 9:0.32887 10:0.1749 11:0.63158 12:0.35099 13:0.037356 14:0.64747 15:0.16931 16:0.30352
-5 0 1:0.36056 2:0.3432 3:0.67873 4:0.75373 5:0.60093 6:0.10307 7:0.55556 8:0.2103 9:0.34673 10:0.2984 11:0.68421 12:0.45283 13:0.022989 14:0.39777 15:0.14021 16:0.33284
-5 0 1:0.33521 2:0.31805 3:0.57466 4:0.73368 5:0.56148 6:0.20002 7:0.52137 8:0.11518 9:0.31101 10:0.14177 11:0.57895 12:0.35093 13:0.025862 14:0.66123 15:0.16138 16:0.32825
-5 0 1:0.3507 2:0.30325 3:0.62217 4:0.76079 5:0.54756 6:0.14234 7:0.51923 8:0.10122 9:0.29911 10:0.094576 11:0.78947 12:0.49352 13:0.043103 14:0.70176 15:0.1455 16:0.31614
-5 0 1:0.36197 2:0.31213 3:0.61991 4:0.71942 5:0.54988 6:0.17959 7:0.51068 8:0.14772 9:0.31845 10:0.18137 11:0.57895 12:0.30534 13:0.034483 14:0.67413 15:0.17196 16:0.3246
-5 0 1:0.34366 2:0.31361 3:0.61312 4:0.76269 5:0.55916 6:0.17605 7:0.53846 8:0.068567 9:0.30952 10:0.15255 11:0.68421 12:0.41337 13:0.025862 14:0.60106 15:0.16402 16:0.33089
-5 0 1:0.35493 2:0.30473 3:0.61765 4:0.74115 5:0.5406 6:0.13805 7:0.50427 8:0.13403 9:0.29613 10:0.17582 11:0.63158 12:0.38181 13:0.025862 14:0.70288 15:0.095238 16:0.3873
-5 0 1:0.34789 2:0.3284 3:0.6267 4:0.78269 5:0.58469 6:0.1615 7:0.55769 8:0.10386 9:0.33185 10:0.20328 11:0.57895 12:0.31438 13:0.020115 14:0.67786 15:0.11905 16:0.28437
-5 0 1:0.34366 2:0.30178 3:0.62443 4:0.7633 5:0.54524 6:0.14808 7:0.51496 8:0.11734 9:0.29613 10:0.13238 11:0.68421 12:0.5333 13:0.043103 14:0.30592 15:0.1455 16:0.27804
-5 0 1:0.3662 2:0.32692 3:0.6448 4:0.77057 5:0.58701 6:0.16256 7:0.55556 8:0.12138 9:0.32589 10:0.17606 11:0.63158 12:0.33282 13:0.022989 14:0.69657 15:0.11905 16:0.31182
-5 0 1:0.35352 2:0.33284 3:0.66742 4:0.68627 5:0.58933 6:0.15514 7:0.56624 8:0.13759 9:0.3378 10:0.20426 11:0.57895 12:0.54411 13:0.022989 14:0.29925 15:0.13228 16:0.3069
-5 0 1:0.35915 2:0.30621 3:0.61312 4:0.72381 5:0.53828 6:0.18572 7:0.52778 8:0.056154 9:0.30506 10:0.17578 11:0.73684 12:0.47188 13:0.028736 14:0.6346 15:0.15608 16:0.35649
-5 1.7382 1:0.36197 2:0.31805 3:0.65837 4:0.71635 5:0.56613 6:0.10672 7:0.52778 8:0.10429 9:0.31696 10:0.19586 11:0.73684 12:0.50244 13:0.022989 14:0.7544 15:0.092593 16:0.32978
-5 0 1:0.35634 2:0.3432 3:0.67873 4:0.70631 5:0.61021 6:0.18241 7:0.57906 8:0.10931 9:0.3378 10:0.14357 11:0.63158 12:0.29203 13:0.048851 14:0.70418 15:0.14815 16:0.32864
-5 0 1:0.35775 2:0.3284 3:0.64932 4:0.6867 5:0.58933 6:0.13025 7:0.56838 8:0.061146 9:0.33482 10:0.18386 11:0.63158 12:0.32475 13:0.034483 14:0.58799 15:0.12169 16:0.31401
-5 0 1:0.32817 2:0.32396 3:0.64027 4:0.6755 5:0.57077 6:0.15113 7:0.55128 8:0.088537 9:0.32143 10:0.16029 11:0.73684 12:0.55045 13:0.031609 14:0.38643 15:0.12169 16:0.2842
-5 0 1:0.34085 2:0.30621 3:0.65611 4:0.68115 5:0.5522 6:0.17843 7:0.51709 8:0.13772 9:0.30506 10:0.18765 11:0.63158 12:0.31437 13:0.04023 14:0.60813 15:0.15344 16:0.34781
-5 0 1:0.3338 2:0.31657 3:0.63575 4:0.70191 5:0.56148 6:0.14738 7:0.54487 8:0.074464 9:0.32143 10:0.19789 11:0.68421 12:0.51957 13:0.022989 14:0.3307 15:0.12698 16:0.29812
-5 0 1:0.37606 2:0.32249 3:0.61086 4:0.70482 5:0.57077 6:0.16109 7:0.52778 8:0.20714 9:0.32143 10:0.2004 11:0.57895 12:0.39768 13:0.025862 14:0.58993 15:0.095238 16:0.36808
-5 0 1:0.35352 2:0.35355 3:0.681 4:0.71115 5:0.61717 6:0.14868 7:0.57051 8:0.19987 9:0.34673 10:0.22885 11:0.63158 12:0.48205 13:0.045977 14:0.39119 15:0.17196 16:0.30433
-5 0 1:0.36901 2:0.3358 3:0.66968 4:0.72149 5:0.59629 6:0.18849 7:0.56624 8:0.11115 9:0.33929 10:0.15051 11:0.63158 12:0.5241 13:0.034483 14:0.47822 15:0.12698 16:0.26124
-5 0 1:0.36761 2:0.32249 3:0.64706 4:0.68472 5:0.57309 6:0.19197 7:0.51068 8:0.31297 9:0.31994 10:0.21043 11:0.63158 12:0.39185 13:0.04023 14:0.54714 15:0.15873 16:0.3326
-5 0 1:0.32394 2:0.30769 3:0.61991 4:0.71412 5:0.54756 6:0.15932 7:0.53846 8:0.066881 9:0.31101 10:0.1749 11:0.57895 12:0.49183 13:0.034483 14:0.19967 15:0.16402 16:0.31872
-5 0 1:0.3662 2:0.33432 3:0.66516 4:0.71096 5:0.59397 6:0.12655 7:0.55769 8:0.20583 9:0.33482 10:0.28829 11:0.63158 12:0.49769 13:0.025862 14:0.26617 15:0.092593 16:0.32016
-5 0 1:0.34789 2:0.30769 3:0.58824 4:0.7198 5:0.54756 6:0.13216 7:0.54274 8:0.1127 9:0.31548 10:0.20396 11:0.57895 12:0.541 13:0.031609 14:0.31807 15:0.19841 16:0.33179
-5 0 1:0.34085 2:0.30325 3:0.60407 4:0.64542 5:0.54524 6:0.18257 7:0.51923 8:0.11422 9:0.30357 10:0.20176 11:0.68421 12:0.35318 13:0.031609 14:0.74439 15:0.16138 16:0.32536
-5 0 1:0.35493 2:0.31953 3:0.64027 4:0.65761 5:0.56613 6:0.17414 7:0.52564 8:0.11251 9:0.32292 10:0.14546 11:0.63158 12:0.31946 13:0.028736 14:0.66309 15:0.095238 16:0.36995
-5 0 1:0.34225 2:0.29438 3:0.58824 4:0.67982 5:0.53364 6:0.16582 7:0.49573 8:0.12208 9:0.29613 10:0.23099 11:0.68421 12:0.5781 13:0.022989 14:0.31174 15:0.11905 16:0.2956
-5 0 1:0.3493 2:0.31509 3:0.6267 4:0.65481 5:0.56845 6:0.11312 7:0.53846 8:0.1236 9:0.31548 10:0.20579 11:0.63158 12:0.50288 13:0.031609 14:0.30923 15:0.21164 16:0.34916
-5 0 1:0.34789 2:0.28994 3:0.59276 4:0.74807 5:0.52668 6:0.15431 7:0.49145 8:0.10967 9:0.29167 10:0.19117 11:0.63158 12:0.31946 13:0.048851 14:0.57367 15:0.16667 16:0.3249
-5 0 1:0.36197 2:0.31657 3:0.58371 4:0.72274 5:0.55916 6:0.19249 7:0.53419 8:0.12591 9:0.31696 10:0.1752 11:0.57895 12:0.27762 13:0.028736 14:0.77496 15:0.13492 16:0.34188
-5 0 1:0.34648 2:0.30178 3:0.59955 4:0.74575 5:0.5406 6:0.13104 7:0.5235 8:0.036117 9:0.30952 10:0.1536 11:0.57895 12:0.29383 13:0.025862 14:0.61367 15:0.11905 16:0.28443
-5 0 1:0.34085 2:0.30769 3:0.59729 4:0.72308 5:0.5522 6:0.15464 7:0.53205 8:0.11611 9:0.3125 10:0.20837 11:0.63158 12:0.29637 13:0.045977 14:0.60206 15:0.15873 16:0.37082
-5 0 1:0.36479 2:0.30325 3:0.6086 4:0.78545 5:0.54292 6:0.17269 7:0.5235 8:0.10643 9:0.30655 10:0.22647 11:0.57895 12:0.32876 13:0.037356 14:0.66716 15:0.19841 16:0.31751
-5 0 1:0.34366 2:0.32101 3:0.6267 4:0.73628 5:0.58005 6:0.16326 7:0.5406 8:0.074693 9:0.3244 10:0.19989 11:0.63158 12:0.36482 13:0.043103 14:0.65651 15:0.15079 16:0.32817
-5 0 1:0.33099 2:0.32396 3:0.65611 4:0.60607 5:0.57541 6:0.12368 7:0.53632 8:0.10177 9:0.32887 10:0.17134 11:0.63158 12:0.46489 13:0.037356 14:0.3917 15:0.16402 16:0.31729
-5 0 1:0.34085 2:0.30621 3:0.55656 4:0.72153 5:0.5522 6:0.13231 7:0.52778 8:0.085281 9:0.31101 10:0.15028 11:0.78947 12:0.47467 13:0.020115 14:0.57447 15:0.12698 16:0.3493
-5 0 1:0.33944 2:0.28254 3:0.61086 4:0.68007 5:0.5174 6:0.13472 7:0.51068 8:0.049326 9:0.27976 10:0.1118 11:0.68421 12:0.39931 13:0.045977 14:0.74183 15:0.15344 16:0.36166
-5 0 1:0.33099 2:0.3003 3:0.61538 4:0.71247 5:0.53132 6:0.090064 7:0.51282 8:0.058202 9:0.30655 10:0.18032 11:0.63158 12:0.53364 13:0.0086207 14:0.40315 15:0.079365 16:0.33372
-5 0 1:0.34648 2:0.30917 3:0.63122 4:0.77143 5:0.5522 6:0.098261 7:0.53205 8:0.080473 9:0.30804 10:0.12393 11:0.68421 12:0.58089 13:0.031609 14:0.43719 15:0.16402 16:0.31947
-5 0 1:0.3493 2:0.30473 3:0.56109 4:0.75666 5:0.53596 6:0.11093 7:0.51068 8:0.1001 9:0.29762 10:0.18025 11:0.57895 12:0.4874 13:0.037356 14:0.33345 15:0.16931 16:0.33945
-5 0 1:0.33944 2:0.31213 3:0.6448 4:0.71123 5:0.55916 6:0.16987 7:0.54487 8:0.072209 9:0.31548 10:0.22189 11:0.63158 12:0.56202 13:0.017241 14:0.33945 15:0.12698 16:0.3124
-5 0 1:0.33239 2:0.28994 3:0.5362 4:0.78523 5:0.529 6:0.12846 7:0.5 8:0.11456 9:0.29315 10:0.19372 11:0.57895 12:0.37537 13:0.043103 14:0.54425 15:0.15079 16:0.34175
-5 0 1:0.33521 2:0.31361 3:0.66063 4:0.70924 5:0.55916 6:0.18631 7:0.52991 8:0.10327 9:0.31696 10:0.15059 11:0.63158 12:0.31194 13:0.054598 14:0.6425 15:0.1746 16:0.32602
-5 0 1:0.33803 2:0.3284 3:0.65837 4:0.64295 5:0.58005 6:0.17303 7:0.54274 8:0.11277 9:0.32738 10:0.16595 11:0.63158 12:0.27914 13:0.043103 14:0.74149 15:0.16402 16:0.31426
-5 0 1:0.34507 2:0.31953 3:0.62896 4:0.69709 5:0.56613 6:0.1396 7:0.5235 8:0.16837 9:0.31994 10:0.16977 11:0.63158 12:0.53581 13:0.017241 14:0.3885 15:0.11905 16:0.27769
-5 0 1:0.32676 2:0.30621 3:0.6448 4:0.6571 5:0.54756 6:0.12169 7:0.52564 8:0.12035 9:0.30952 10:0.1824 11:0.57895 12:0.51629 13:0.031609 14:0.33768 15:0.16931 16:0.32961
-5 0 1:0.34648 2:0.31361 3:0.62217 4:0.66416 5:0.56381 6:0.15896 7:0.5406 8:0.1073 9:0.32143 10:0.17144 11:0.63158 12:0.33045 13:0.051724 14:0.60217 15:0.15344 16:0.29753
-5 0 1:0.36761 2:0.3284 3:0.64706 4:0.75532 5:0.58005 6:0.17633 7:0.54487 8:0.15956 9:0.32589 10:0.20321 11:0.63158 12:0.3392 13:0.043103 14:0.64367 15:0.15344 16:0.34143
-5 0 1:0.3507 2:0.30917 3:0.63122 4:0.65882 5:0.54988 6:0.1776 7:0.51496 8:0.17664 9:0.30357 10:0.25061 11:0.63158 12:0.54011 13:0.04023 14:0.38707 15:0.15344 16:0.33151
-5 0 1:0.33803 2:0.31953 3:0.65158 4:0.67774 5:0.56613 6:0.15289 7:0.55556 8:0.071667 9:0.32143 10:0.20417 11:0.68421 12:0.51173 13:0.028736 14:0.36989 15:0.12698 16:0.28291
-5 0 1:0.35634 2:0.28994 3:0.5724 4:0.7745 5:0.529 6:0.12543 7:0.49145 8:0.099831 9:0.2872 10:0.12292 11:0.63158 12:0.5272 13:0.025862 14:0.43523 15:0.1164 16:0.26529
-5 0 1:0.33521 2:0.30769 3:0.62217 4:0.78385 5:0.55452 6:0.14146 7:0.5235 8:0.065012 9:0.30952 10:0.16486 11:0.63158 12:0.32506 13:0.020115 14:0.47504 15:0.15344 16:0.36631
-5 0 1:0.33099 2:0.31213 3:0.62443 4:0.65933 5:0.54988 6:0.14464 7:0.53419 8:0.10357 9:0.31101 10:0.18416 11:0.57895 12:0.51861 13:0.034483 14:0.34633 15:0.19841 16:0.30388
-5 0 1:0.37183 2:0.32988 3:0.66063 4:0.65244 5:0.58237 6:0.17267 7:0.55769 8:0.10869 9:0.33036 10:0.20708 11:0.63158 12:0.31827 13:0.051724 14:0.70847 15:0.18254 16:0.29676
-5 0 1:0.34648 2:0.30178 3:0.60633 4:0.732 5:0.54292 6:0.17815 7:0.51068 8:0.11604 9:0.30357 10:0.17355 11:0.63158 12:0.37014 13:0.037356 14:0.67129 15:0.20106 16:0.32988
-5 0 1:0.34507 2:0.31361 3:0.63122 4:0.74226 5:0.55452 6:0.18883 7:0.51282 8:0.1048 9:0.31399 10:0.14367 11:0.73684 12:0.46433 13:0.031609 14:0.69276 15:0.16138 16:0.33664
-5 0 1:0.35352 2:0.29586 3:0.59955 4:0.718 5:0.53132 6:0.19875 7:0.50855 8:0.12322 9:0.29762 10:0.20036 11:0.63158 12:0.33014 13:0.025862 14:0.68643 15:0.1164 16:0.27051
-5 0 1:0.35211 2:0.31657 3:0.62217 4:0.74894 5:0.56845 6:0.19234 7:0.53632 8:0.12688 9:0.31101 10:0.15937 11:0.68421 12:0.41377 13:0.034483 14:0.65821 15:0.15873 16:0.32426
-5 0 1:0.36479 2:0.32692 3:0.62443 4:0.75066 5:0.58469 6:0.13869 7:0.55342 8:0.067268 9:0.32738 10:0.13933 11:0.63158 12:0.31022 13:0.028736 14:0.61585 15:0.12698 16:0.33393
-5 0 1:0.34507 2:0.30769 3:0.63575 4:0.72558 5:0.56381 6:0.093714 7:0.52991 8:0.1242 9:0.30804 10:0.17907 11:0.63158 12:0.53979 13:0.025862 14:0.37244 15:0.12169 16:0.26096
-5 0 1:0.33944 2:0.30769 3:0.61086 4:0.68753 5:0.5522 6:0.17228 7:0.5406 8:0.077106 9:0.3125 10:0.19355 11:0.63158 12:0.54297 13:0.04023 14:0.47081 15:0.18254 16:0.34262
-5 0 1:0.32535 2:0.30769 3:0.6086 4:0.67145 5:0.55452 6:0.14245 7:0.53846 8:0.093931 9:0.31548 10:0.20755 11:0.68421 12:0.33863 13:0.028736 14:0.58689 15:0.11905 16:0.32376
-5 0 1:0.35493 2:0.34024 3:0.67195 4:0.67494 5:0.59629 6:0.1479 7:0.53205 8:0.33158 9:0.33929 10:0.20583 11:0.63158 12:0.41822 13:0.025862 14:0.65247 15:0.13757 16:0.34421
-5 0 1:0.34507 2:0.32988 3:0.65158 4:0.68157 5:0.58237 6:0.16232 7:0.56624 8:0.071822 9:0.33333 10:0.10298 11:0.68421 12:0.53958 13:0.045977 14:0.40392 15:0.19048 16:0.34355
-5 0 1:0.34507 2:0.32988 3:0.63348 4:0.78019 5:0.58933 6:0.17933 7:0.55556 8:0.1384 9:0.33482 10:0.19629 11:0.63158 12:0.40034 13:0.031609 14:0.76554 15:0.15079 16:0.31444
-5 0 1:0.34789 2:0.31657 3:0.61991 4:0.67391 5:0.57077 6:0.13089 7:0.53846 8:0.12201 9:0.31845 10:0.24689 11:0.63158 12:0.56189 13:0.031609 14:0.30196 15:0.16402 16:0.29385
-5 0 1:0.34648 2:0.2855 3:0.57692 4:0.69007 5:0.52436 6:0.18262 7:0.49145 8:0.11122 9:0.28869 10:0.15981 11:0.68421 12:0.29857 13:0.034483 14:0.75094 15:0.15344 16:0.36273
-5 0 1:0.33944 2:0.31805 3:0.61312 4:0.69739 5:0.56613 6:0.17517 7:0.54487 8:0.071234 9:0.31845 10:0.16239 11:0.57895 12:0.5027 13:0.017241 14:0.45739 15:0.1164 16:0.27926
-5 0 1:0.33662 2:0.30917 3:0.62217 4:0.61305 5:0.55916 6:0.12331 7:0.52778 8:0.10953 9:0.3125 10:0.21582 11:0.63158 12:0.51645 13:0.031609 14:0.39221 15:0.097884 16:0.32561
-5 0 1:0.33239 2:0.3003 3:0.60181 4:0.68097 5:0.53132 6:0.11241 7:0.49359 8:0.18819 9:0.30804 10:0.23939 11:0.57895 12:0.41389 13:0.048851 14:0.44617 15:0.1455 16:0.31319
-5 0 1:0.32817 2:0.31509 3:0.57919 4:0.81427 5:0.56613 6:0.11778 7:0.53205 8:0.11743 9:0.30952 10:0.15232 11:0.57895 12:0.52553 13:0.028736 14:0.44274 15:0.16931 16:0.32846
-5 0 1:0.38592 2:0.31805 3:0.64706 4:0.69847 5:0.56613 6:0.15764 7:0.53419 8:0.1305 9:0.31845 10:0.17032 11:0.63158 12:0.37043 13:0.025862 14:0.81166 15:0.16402 16:0.3434
-5 0 1:0.35352 2:0.31213 3:0.60633 4:0.78075 5:0.54988 6:0.15793 7:0.51496 8:0.19593 9:0.30952 10:0.13862 11:0.63158 12:0.33263 13:0.028736 14:0.60056 15:0.16138 16:0.33563
-5 0 1:0.34366 2:0.28846 3:0.5905 4:0.6568 5:0.51972 6:0.11688 7:0.4765 8:0.18554 9:0.27976 10:0.22502 11:0.63158 12:0.54687 13:0.034483 14:0.37099 15:0.20899 16:0.33185
-5 0 1:0.37042 2:0.30621 3:0.5543 4:0.7089 5:0.54524 6:0.10235 7:0.51709 8:0.098646 9:0.30357 10:0.16639 11:0.57895 12:0.30998 13:0.045977 14:0.79505 15:0.15079 16:0.31943
-5 0 1:0.32958 2:0.32396 3:0.65837 4:0.63563 5:0.57541 6:0.098598 7:0.55342 8:0.11796 9:0.32887 10:0.23007 11:0.63158 12:0.44766 13:0.045977 14:0.40981 15:0.1455 16:0.31043
-5 0 1:0.34789 2:0.30621 3:0.60407 4:0.77756 5:0.53828 6:0.14074 7:0.5235 8:0.069793 9:0.30357 10:0.13238 11:0.57895 12:0.30117 13:0.022989 14:0.60294 15:0.12169 16:0.31537
-5 0 1:0.33521 2:0.31213 3:0.62443 4:0.68843 5:0.55684 6:0.20053 7:0.51923 8:0.17259 9:0.30952 10:0.18053 11:0.57895 12:0.30496 13:0.037356 14:0.68028 15:0.1455 16:0.31593
-5 0 1:0.35352 2:0.30917 3:0.59502 4:0.75679 5:0.55452 6:0.16677 7:0.51709 8:0.091158 9:0.3125 10:0.18114 11:0.57895 12:0.3549 13:0.045977 14:0.63497 15:0.15079 16:0.34308
-5 0 1:0.3493 2:0.2855 3:0.53167 4:0.74061 5:0.52436 6:0.151 7:0.49573 8:0.098515 9:0.28423 10:0.18192 11:0.63158 12:0.56154 13:0.017241 14:0.45781 15:0.087302 16:0.33849
-5 0 1:0.34366 2:0.30325 3:0.56335 4:0.70063 5:0.54524 6:0.085546 7:0.51496 8:0.064766 9:0.30655 10:0.20769 11:0.78947 12:0.56399 13:0.037356 14:0.51618 15:0.15344 16:0.33276
-5 0 1:0.34648 2:0.2929 3:0.60407 4:0.7642 5:0.53596 6:0.13581 7:0.51709 8:0.08246 9:0.29464 10:0.14449 11:0.73684 12:0.41654 13:0.034483 14:0.58201 15:0.16138 16:0.33794
-5 0 1:0.35634 2:0.32396 3:0.6086 4:0.63684 5:0.57541 6:0.11455 7:0.54915 8:0.10548 9:0.32738 10:0.21329 11:0.68421 12:0.57023 13:0.020115 14:0.37036 15:0.12963 16:0.3283
-5 0 1:0.3507 2:0.29438 3:0.59955 4:0.72993 5:0.53364 6:0.15343 7:0.49145 8:0.053243 9:0.2872 10:0.12631 11:0.57895 12:0.32645 13:0.020115 14:0.69941 15:0.11376 16:0.2909
-5 0 1:0.34789 2:0.30917 3:0.62443 4:0.73597 5:0.55684 6:0.18678 7:0.52991 8:0.10655 9:0.30952 10:0.1711 11:0.68421 12:0.31445 13:0.022989 14:0.74026 15:0.1455 16:0.29449
-5 0 1:0.34507 2:0.30178 3:0.59276 4:0.7832 5:0.54988 6:0.14397 7:0.5 8:0.17482 9:0.30655 10:0.22678 11:0.57895 12:0.30828 13:0.043103 14:0.58632 15:0.1455 16:0.32202
-5 0 1:0.36338 2:0.31361 3:0.65837 4:0.7373 5:0.56148 6:0.17486 7:0.5235 8:0.13463 9:0.30655 10:0.128 11:0.68421 12:0.33652 13:0.045977 14:0.64894 15:0.2037 16:0.31921
-5 0 1:0.34366 2:0.32249 3:0.61765 4:0.70119 5:0.58237 6:0.10214 7:0.5406 8:0.12666 9:0.3244 10:0.20819 11:0.63158 12:0.55426 13:0.022989 14:0.35071 15:0.1455 16:0.302
-5 0 1:0.36197 2:0.30325 3:0.58824 4:0.70542 5:0.54756 6:0.11212 7:0.5235 8:0.048278 9:0.30804 10:0.17206 11:0.68421 12:0.27541 13:0.048851 14:0.70881 15:0.16402 16:0.35185
-5 0 1:0.34366 2:0.32692 3:0.6086 4:0.77725 5:0.58005 6:0.1198 7:0.53846 8:0.15038 9:0.33333 10:0.1905 11:0.63158 12:0.35927 13:0.031609 14:0.68058 15:0.14815 16:0.373
-5 0 1:0.3507 2:0.31805 3:0.64706 4:0.67411 5:0.57309 6:0.13691 7:0.5406 8:0.17261 9:0.32292 10:0.20528 11:0.68421 12:0.57501 13:0.04023 14:0.38085 15:0.15608 16:0.32034
-5 0 1:0.35493 2:0.32101 3:0.60407 4:0.72618 5:0.57077 6:0.1845 7:0.54487 8:0.096326 9:0.3244 10:0.16561 11:0.73684 12:0.45987 13:0.031609 14:0.67807 15:0.13492 16:0.29729
-5 0 1:0.35352 2:0.30917 3:0.61765 4:0.74269 5:0.54756 6:0.1768 7:0.53205 8:0.12709 9:0.3125 10:0.19711 11:0.63158 12:0.5238 13:0.031609 14:0.30117 15:0.16402 16:0.30694
-5 0 1:0.3493 2:0.30178 3:0.6267 4:0.66834 5:0.53596 6:0.11765 7:0.5235 8:0.083502 9:0.30357 10:0.16804 11:0.68421 12:0.49641 13:0.020115 14:0.23885 15:0.11905 16:0.2788
-5 0 1:0.34789 2:0.31361 3:0.61538 4:0.75019 5:0.55452 6:0.18058 7:0.51709 8:0.13285 9:0.30655 10:0.19938 11:0.63158 12:0.38921 13:0.04023 14:0.64064 15:0.15608 16:0.3516
-5 0 1:0.35634 2:0.3003 3:0.58597 4:0.77682 5:0.54524 6:0.13459 7:0.52991 8:0.1214 9:0.30655 10:0.24187 11:0.78947 12:0.50638 13:0.045977 14:0.65107 15:0.15079 16:0.34272
-5 0 1:0.33662 2:0.29882 3:0.61086 4:0.7317 5:0.54756 6:0.15328 7:0.52564 8:0.051283 9:0.30357 10:0.17056 11:0.63158 12:0.34127 13:0.034483 14:0.64138 15:0.14815 16:0.36258
-5 0 1:0.34085 2:0.3003 3:0.5724 4:0.76214 5:0.53828 6:0.1904 7:0.51923 8:0.068773 9:0.30506 10:0.16686 11:0.57895 12:0.36175 13:0.025862 14:0.62419 15:0.13228 16:0.32461
-5 0 1:0.35634 2:0.31509 3:0.61765 4:0.67636 5:0.56381 6:0.16521 7:0.52137 8:0.20342 9:0.30952 10:0.22718 11:0.57895 12:0.57745 13:0.025862 14:0.32204 15:0.17725 16:0.34394
-5 0 1:0.34648 2:0.30917 3:0.57014 4:0.73083 5:0.55452 6:0.17346 7:0.53419 8:0.078337 9:0.31399 10:0.1515 11:0.63158 12:0.28438 13:0.048851 14:0.64195 15:0.15344 16:0.3568
-5 0 1:0.34789 2:0.28994 3:0.59955 4:0.78786 5:0.51972 6:0.12934 7:0.50214 8:0.10701 9:0.29018 10:0.16771 11:0.57895 12:0.49295 13:0.022989 14:0.28969 15:0.087302 16:0.32611
-5 0 1:0.35352 2:0.30769 3:0.59502 4:0.74868 5:0.54756 6:0.17334 7:0.50641 8:0.17232 9:0.30357 10:0.1469 11:0.63158 12:0.39326 13:0.031609 14:0.63524 15:0.12698 16:0.28208
-5 0 1:0.34507 2:0.31065 3:0.6086 4:0.78113 5:0.55452 6:0.16131 7:0.52991 8:0.098121 9:0.30655 10:0.13139 11:0.68421 12:0.55736 13:0.028736 14:0.55667 15:0.12963 16:0.24444
-5 0 1:0.34789 2:0.30325 3:0.6086 4:0.69343 5:0.54292 6:0.11877 7:0.52137 8:0.11049 9:0.30655 10:0.24238 11:0.63158 12:0.54633 13:0.022989 14:0.29413 15:0.11111 16:0.27193
-5 0 1:0.35915 2:0.30621 3:0.60181 4:0.78803 5:0.54756 6:0.13001 7:0.52564 8:0.073349 9:0.30506 10:0.17059 11:0.68421 12:0.58149 13:0.028736 14:0.38453 15:0.097884 16:0.33728
-5 0 1:0.33662 2:0.32249 3:0.62217 4:0.75497 5:0.57309 6:0.12021 7:0.54487 8:0.095252 9:0.32292 10:0.14828 11:0.63158 12:0.36509 13:0.020115 14:0.63286 15:0.1164 16:0.30639
-5 0 1:0.32394 2:0.31509 3:0.63122 4:0.66524 5:0.55452 6:0.17502 7:0.51496 8:0.17507 9:0.31399 10:0.17168 11:0.63158 12:0.35115 13:0.045977 14:0.56787 15:0.15873 16:0.34035
-5 0 1:0.34085 2:0.30473 3:0.60633 4:0.64085 5:0.55452 6:0.12642 7:0.52137 8:0.13645 9:0.30952 10:0.25893 11:0.63158 12:0.54078 13:0.04023 14:0.31252 15:0.17725 16:0.3084
-5 0 1:0.33662 2:0.2855 3:0.57692 4:0.78635 5:0.51276 6:0.18091 7:0.5 8:0.058752 9:0.28571 10:0.18579 11:0.73684 12:0.52928 13:0.025862 14:0.44363 15:0.11905 16:0.29407
-5 0 1:0.3338 2:0.32396 3:0.64932 4:0.67006 5:0.57309 6:0.15469 7:0.53632 8:0.17329 9:0.32143 10:0.19463 11:0.63158 12:0.51812 13:0.031609 14:0.33391 15:0.10053 16:0.31101
-5 0 1:0.34085 2:0.31953 3:0.63348 4:0.61386 5:0.57077 6:0.051133 7:0.54274 8:0.07551 9:0.31696 10:0.15442 11:0.68421 12:0.50693 13:0.020115 14:0.31711 15:0.1164 16:0.31489
-5 0 1:0.36338 2:0.29438 3:0.59729 4:0.68266 5:0.52436 6:0.17479 7:0.48932 8:0.15289 9:0.28869 10:0.20817 11:0.63158 12:0.38432 13:0.034483 14:0.75248 15:0.16402 16:0.32751
-5 0 1:0.36338 2:0.32249 3:0.60407 4:0.67528 5:0.58005 6:0.11987 7:0.55556 8:0.097963 9:0.32887 10:0.21664 11:0.63158 12:0.51814 13:0.043103 14:0.38483 15:0.1746 16:0.30228
-5 0 1:0.35493 2:0.31657 3:0.61765 4:0.70467 5:0.56148 6:0.19327 7:0.54701 8:0.090151 9:0.31696 10:0.17907 11:0.63158 12:0.51623 13:0.020115 14:0.44172 15:0.1164 16:0.27976
-5 0 1:0.36901 2:0.33432 3:0.66063 4:0.70791 5:0.59629 6:0.11579 7:0.57265 8:0.10969 9:0.3378 10:0.20875 11:0.57895 12:0.30281 13:0.034483 14:0.80192 15:0.15079 16:0.36152
-5 0 1:0.35493 2:0.34911 3:0.69231 4:0.70614 5:0.61253 6:0.11982 7:0.58333 8:0.11192 9:0.35268 10:0.14357 11:0.78947 12:0.60962 13:0.022989 14:0.41963 15:0.15344 16:0.32208
-5 0 1:0.35634 2:0.31361 3:0.58824 4:0.76791 5:0.55684 6:0.21214 7:0.51709 8:0.11017 9:0.31101 10:0.19694 11:0.68421 12:0.42554 13:0.048851 14:0.61914 15:0.16402 16:0.34027
-5 0 1:0.35352 2:0.30325 3:0.61765 4:0.76489 5:0.53828 6:0.15503 7:0.49786 8:0.16384 9:0.29315 10:0.16554 11:0.68421 12:0.40019 13:0.04023 14:0.65982 15:0.15608 16:0.32842
-5 0 1:0.33803 2:0.2929 3:0.59955 4:0.72385 5:0.52668 6:0.16444 7:0.50641 8:0.099127 9:0.29464 10:0.17388 11:0.57895 12:0.24888 13:0.020115 14:0.75519 15:0.14286 16:0.32413
-5 0 1:0.37183 2:0.31213 3:0.61991 4:0.68813 5:0.5522 6:0.13996 7:0.53419 8:0.088809 9:0.3125 10:0.13455 11:0.63158 12:0.32275 13:0.031609 14:0.76848 15:0.10317 16:0.37204
-5 0 1:0.33944 2:0.30178 3:0.55656 4:0.76945 5:0.5406 6:0.16219 7:0.50641 8:0.10598 9:0.30655 10:0.11956 11:0.78947 12:0.50081 13:0.031609 14:0.58913 15:0.12434 16:0.32538
-5 0 1:0.38732 2:0.3358 3:0.67647 4:0.67421 5:0.59861 6:0.122 7:0.5641 8:0.12675 9:0.34077 10:0.21331 11:0.63158 12:0.40741 13:0.031609 14:0.67669 15:0.16402 16:0.31251
-5 0 1:0.37465 2:0.31361 3:0.63122 4:0.68735 5:0.55684 6:0.13583 7:0.51923 8:0.16436 9:0.30952 10:0.19284 11:0.57895 12:0.31022 13:0.034483 14:0.64501 15:0.15873 16:0.34513
-5 0 1:0.35775 2:0.32692 3:0.65837 4:0.70114 5:0.58237 6:0.13779 7:0.53419 8:0.21055 9:0.33185 10:0.29293 11:0.63158 12:0.58328 13:0.022989 14:0.32176 15:0.16402 16:0.34629
-5 0 1:0.34085 2:0.3284 3:0.64253 4:0.72671 5:0.57309 6:0.14651 7:0.53632 8:0.14592 9:0.32738 10:0.1434 11:0.68421 12:0.37244 13:0.031609 14:0.65407 15:0.12963 16:0.28958
-5 0 1:0.3338 2:0.28402 3:0.59729 4:0.67878 5:0.52436 6:0.13676 7:0.48932 8:0.10065 9:0.2872 10:0.19518 11:0.68421 12:0.54041 13:0.020115 14:0.38861 15:0.11111 16:0.28956
-5 0 1:0.36479 2:0.32544 3:0.62443 4:0.63985 5:0.57773 6:0.17269 7:0.53419 8:0.084141 9:0.32887 10:0.11105 11:0.78947 12:0.45231 13:0.04023 14:0.68773 15:0.14815 16:0.36144
-5 0 1:0.33662 2:0.32544 3:0.6267 4:0.77463 5:0.57773 6:0.15201 7:0.54701 8:0.11295 9:0.32292 10:0.12204 11:0.78947 12:0.53873 13:0.045977 14:0.60478 15:0.20899 16:0.31566
-5 0 1:0.35775 2:0.34467 3:0.66742 4:0.69765 5:0.61253 6:0.13138 7:0.58974 8:0.11183 9:0.35119 10:0.18752 11:0.73684 12:0.58088 13:0.025862 14:0.48174 15:0.12434 16:0.28325
-5 0 1:0.35915 2:0.31805 3:0.64027 4:0.6752 5:0.57309 6:0.10664 7:0.52137 8:0.20068 9:0.31845 10:0.18731 11:0.63158 12:0.54067 13:0.022989 14:0.15844 15:0.087302 16:0.30452
-5 0 1:0.35352 2:0.32396 3:0.63801 4:0.70045 5:0.56381 6:0.14883 7:0.5235 8:0.17555 9:0.3244 10:0.17043 11:0.57895 12:0.27336 13:0.017241 14:0.66033 15:0.087302 16:0.37794
-5 0 1:0.33662 2:0.31805 3:0.64027 4:0.64356 5:0.56613 6:0.1828 7:0.53632 8:0.15077 9:0.31845 10:0.17809 11:0.63158 12:0.26186 13:0.028736 14:0.68625 15:0.16667 16:0.35266
-5 0 1:0.35775 2:0.31509 3:0.64027 4:0.7292 5:0.55916 6:0.13608 7:0.52778 8:0.12126 9:0.31548 10:0.13034 11:0.57895 12:0.54075 13:0.031609 14:0.37384 15:0.16931 16:0.29519
-5 0 1:0.34366 2:0.32101 3:0.65837 4:0.64503 5:0.57773 6:0.09343 7:0.53846 8:0.10817 9:0.31548 10:0.19769 11:0.68421 12:0.51412 13:0.045977 14:0.32636 15:0.18254 16:0.3316
-5 0 1:0.34366 2:0.3003 3:0.56787 4:0.70808 5:0.54524 6:0.15661 7:0.50855 8:0.11513 9:0.29464 10:0.1593 11:0.57895 12:0.51746 13:0.034483 14:0.30877 15:0.1746 16:0.32643
-5 0 1:0.33803 2:0.32544 3:0.65385 4:0.69425 5:0.58237 6:0.20529 7:0.54915 8:0.13215 9:0.32738 10:0.20037 11:0.68421 12:0.35252 13:0.04023 14:0.60569 15:0.18519 16:0.3626
-5 0 1:0.34366 2:0.31509 3:0.60633 4:0.69963 5:0.55684 6:0.107 7:0.53846 8:0.08733 9:0.31399 10:0.12444 11:0.57895 12:0.47117 13:0.014368 14:0.25462 15:0.11111 16:0.27748
-5 0 1:0.35211 2:0.3003 3:0.61312 4:0.7739 5:0.54988 6:0.1183 7:0.51282 8:0.11921 9:0.30208 10:0.20616 11:0.57895 12:0.31395 13:0.011494 14:0.66661 15:0.15873 16:0.31768
-5 0 1:0.36338 2:0.31213 3:0.6267 4:0.72558 5:0.55916 6:0.17871 7:0.55128 8:0.12333 9:0.31994 10:0.15153 11:0.63158 12:0.29618 13:0.028736 14:0.69229 15:0.16138 16:0.35125
-5 0 1:0.34225 2:0.32396 3:0.64706 4:0.69015 5:0.58005 6:0.12584 7:0.54274 8:0.098762 9:0.31845 10:0.11885 11:0.63158 12:0.52467 13:0.043103 14:0.368 15:0.20106 16:0.32733
-5 0 1:0.34225 2:0.28698 3:0.59276 4:0.68162 5:0.5174 6:0.17021 7:0.51068 8:0.16036 9:0.29613 10:0.25048 11:0.57895 12:0.54825 13:0.034483 14:0.31951 15:0.15608 16:0.29859
-5 0 1:0.33944 2:0.31213 3:0.54525 4:0.81001 5:0.56148 6:0.18921 7:0.53419 8:0.11784 9:0.31399 10:0.17255 11:0.68421 12:0.41758 13:0.031609 14:0.7347 15:0.17725 16:0.32839
-5 0 1:0.34366 2:0.30621 3:0.56109 4:0.6639 5:0.54524 6:0.16341 7:0.50427 8:0.12624 9:0.29762 10:0.17035 11:0.57895 12:0.2759 13:0.034483 14:0.71355 15:0.1455 16:0.36614
-5 0 1:0.3493 2:0.31953 3:0.65837 4:0.62706 5:0.58005 6:0.12786 7:0.55556 8:0.12445 9:0.32589 10:0.20521 11:0.68421 12:0.53892 13:0.031609 14:0.38148 15:0.11376 16:0.27707
-5 0 1:0.34085 2:0.30769 3:0.58371 4:0.79385 5:0.54756 6:0.20051 7:0.51282 8:0.13681 9:0.30506 10:0.22166 11:0.57895 12:0.33602 13:0.034483 14:0.76811 15:0.15079 16:0.35027
-5 0 1:0.35634 2:0.30769 3:0.59729 4:0.65735 5:0.5522 6:0.1114 7:0.52991 8:0.048755 9:0.30655 10:0.16249 11:0.68421 12:0.54964 13:0.037356 14:0.46776 15:0.16138 16:0.30218
-5 0 1:0.36901 2:0.31657 3:0.62896 4:0.76993 5:0.57309 6:0.12378 7:0.55128 8:0.053944 9:0.3244 10:0.17965 11:0.68421 12:0.4846 13:0.034483 14:0.67861 15:0.15873 16:0.30464
-5 0 1:0.3338 2:0.30473 3:0.63348 4:0.75562 5:0.54756 6:0.15103 7:0.50641 8:0.076082 9:0.3006 10:0.16289 11:0.63158 12:0.32319 13:0.04023 14:0.73294 15:0.10317 16:0.35724
-5 0 1:0.34789 2:0.29734 3:0.59955 4:0.74872 5:0.53364 6:0.19908 7:0.50214 8:0.13679 9:0.30208 10:0.13115 11:0.68421 12:0.34482 13:0.022989 14:0.67952 15:0.092593 16:0.35952
-5 0 1:0.35352 2:0.30769 3:0.63122 4:0.74127 5:0.54524 6:0.11941 7:0.52564 8:0.083937 9:0.3125 10:0.21809 11:0.57895 12:0.58286 13:0.028736 14:0.34614 15:0.18519 16:0.29761
-5 0 1:0.35352 2:0.29142 3:0.57466 4:0.73337 5:0.53364 6:0.087277 7:0.50214 8:0.074651 9:0.29018 10:0.11373 11:0.78947 12:0.56906 13:0.028736 14:0.43982 15:0.12169 16:0.2961
-5 0 1:0.34507 2:0.29882 3:0.61086 4:0.75623 5:0.53132 6:0.18536 7:0.49359 8:0.13866 9:0.3006 10:0.14211 11:0.63158 12:0.32064 13:0.022989 14:0.65433 15:0.084656 16:0.38816
-5 0 1:0.35634 2:0.29142 3:0.55204 4:0.72667 5:0.51972 6:0.15984 7:0.48291 8:0.10832 9:0.29018 10:0.16906 11:0.57895 12:0.35534 13:0.034483 14:0.64599 15:0.15079 16:0.3677
-5 0 1:0.34507 2:0.33432 3:0.64932 4:0.74652 5:0.58933 6:0.15498 7:0.56197 8:0.1029 9:0.33929 10:0.15479 11:0.68421 12:0.36184 13:0.048851 14:0.58404 15:0.22751 16:0.34294
-5 0 1:0.35493 2:0.29882 3:0.57014 4:0.74924 5:0.53596 6:0.1428 7:0.51923 8:0.041902 9:0.29762 10:0.2008 11:0.63158 12:0.38626 13:0.028736 14:0.60789 15:0.21164 16:0.30059
-5 0 1:0.37324 2:0.33728 3:0.67421 4:0.74359 5:0.59165 6:0.15692 7:0.54701 8:0.15177 9:0.34524 10:0.23841 11:0.63158 12:0.31532 13:0.045977 14:0.75976 15:0.15873 16:0.34142
-5 2.5994 1:0.38169 2:0.3358 3:0.6448 4:0.68167 5:0.59165 6:0.15465 7:0.55983 8:0.13758 9:0.33482 10:0.16357 11:0.73684 12:0.49687 13:0.022989 14:0.78693 15:0.18519 16:0.31609
-5 0 1:0.35634 2:0.35059 3:0.65158 4:0.70456 5:0.61253 6:0.11261 7:0.58974 8:0.10063 9:0.35119 10:0.13818 11:0.57895 12:0.50734 13:0.037356 14:0.36957 15:0.16402 16:0.31777
-5 0 1:0.33803 2:0.32692 3:0.64253 4:0.68998 5:0.58005 6:0.11349 7:0.54915 8:0.11564 9:0.3244 10:0.13774 11:0.68421 12:0.57846 13:0.028736 14:0.54069 15:0.15344 16:0.31294
-5 0 1:0.35493 2:0.30621 3:0.60407 4:0.80398 5:0.54524 6:0.1518 7:0.50855 8:0.15874 9:0.30655 10:0.14896 11:0.73684 12:0.51448 13:0.031609 14:0.65008 15:0.16402 16:0.32449
-5 0 1:0.34789 2:0.33136 3:0.65385 4:0.65059 5:0.58469 6:0.12259 7:0.53846 8:0.18358 9:0.33482 10:0.19585 11:0.57895 12:0.51344 13:0.037356 14:0.42723 15:0.16931 16:0.30352
-5 0 1:0.33521 2:0.31213 3:0.60181 4:0.69693 5:0.56148 6:0.15667 7:0.53205 8:0.082162 9:0.31548 10:0.14642 11:0.73684 12:0.44249 13:0.031609 14:0.54866 15:0.12698 16:0.31091
-5 0 1:0.33239 2:0.30178 3:0.59729 4:0.64611 5:0.54524 6:0.17137 7:0.50855 8:0.16448 9:0.29464 10:0.17323 11:0.68421 12:0.5453 13:0.037356 14:0.33838 15:0.10582 16:0.2998
-5 0 1:0.35634 2:0.31065 3:0.57919 4:0.73937 5:0.56148 6:0.1494 7:0.53632 8:0.083031 9:0.31399 10:0.19393 11:0.63158 12:0.32356 13:0.028736 14:0.58231 15:0.15344 16:0.33922
-5 0 1:0.35352 2:0.31953 3:0.64253 4:0.70489 5:0.56148 6:0.16524 7:0.52137 8:0.17509 9:0.32738 10:0.21979 11:0.63158 12:0.35847 13:0.045977 14:0.68561 15:0.18783 16:0.35561
-5 0 1:0.35634 2:0.3432 3:0.65385 4:0.68438 5:0.60093 6:0.15183 7:0.55983 8:0.17523 9:0.34524 10:0.22241 11:0.68421 12:0.59742 13:0.031609 14:0.27192 15:0.16138 16:0.31638
-5 0 1:0.34507 2:0.28846 3:0.57014 4:0.73459 5:0.51508 6:0.14759 7:0.50214 8:0.078834 9:0.29464 10:0.23784 11:0.52632 12:0.24926 13:0.028736 14:0.66711 15:0.095238 16:0.36203
-5 0 1:0.34789 2:0.32988 3:0.65385 4:0.71067 5:0.58237 6:0.13017 7:0.5406 8:0.11969 9:0.33036 10:0.17358 11:0.68421 12:0.54756 13:0.04023 14:0.30642 15:0.16402 16:0.3148
-5 0 1:0.32817 2:0.30769 3:0.61086 4:0.74161 5:0.54988 6:0.14477 7:0.52778 8:0.076057 9:0.30655 10:0.1459 11:0.63158 12:0.41413 13:0.031609 14:0.37162 15:0.097884 16:0.3311
-5 0 1:0.32958 2:0.31657 3:0.63122 4:0.67601 5:0.56381 6:0.15022 7:0.55983 8:0.12281 9:0.31548 10:0.22078 11:0.63158 12:0.51885 13:0.028736 14:0.36715 15:0.12169 16:0.27194
-5 0 1:0.35775 2:0.33284 3:0.6629 4:0.68183 5:0.58469 6:0.17334 7:0.54915 8:0.13668 9:0.33185 10:0.16042 11:0.68421 12:0.32767 13:0.034483 14:0.7055 15:0.15079 16:0.32108
-5 0 1:0.30986 2:0.30473 3:0.61538 4:0.6577 5:0.54524 6:0.17249 7:0.52137 8:0.098467 9:0.31399 10:0.21654 11:0.68421 12:0.54456 13:0.028736 14:0.3856 15:0.10053 16:0.35099
-5 0 1:0.3338 2:0.30769 3:0.59729 4:0.80372 5:0.54524 6:0.14793 7:0.5235 8:0.10773 9:0.31399 10:0.20664 11:0.63158 12:0.40975 13:0.020115 14:0.58905 15:0.092593 16:0.36908
-5 0 1:0.33803 2:0.2929 3:0.60407 4:0.66041 5:0.52668 6:0.13355 7:0.50641 8:0.061438 9:0.29464 10:0.16683 11:0.57895 12:0.27766 13:0.025862 14:0.81866 15:0.13492 16:0.36187
-5 0 1:0.36901 2:0.32101 3:0.66063 4:0.70925 5:0.56613 6:0.16819 7:0.52137 8:0.16375 9:0.32589 10:0.20236 11:0.57895 12:0.30339 13:0.04023 14:0.65864 15:0.16667 16:0.32355
-5 0 1:0.35211 2:0.34467 3:0.64706 4:0.71885 5:0.60093 6:0.17602 7:0.54487 8:0.2764 9:0.33929 10:0.21748 11:0.63158 12:0.48296 13:0.034483 14:0.46891 15:0.18783 16:0.32194
-5 0 1:0.32535 2:0.29734 3:0.53846 4:0.71538 5:0.529 6:0.1403 7:0.51709 8:0.071435 9:0.30208 10:0.15181 11:0.68421 12:0.43182 13:0.025862 14:0.71638 15:0.18519 16:0.32251
-5 0 1:0.34648 2:0.32249 3:0.64027 4:0.76204 5:0.57541 6:0.16897 7:0.53419 8:0.11814 9:0.32589 10:0.16934 11:0.78947 12:0.52428 13:0.037356 14:0.59532 15:0.15608 16:0.33219
-5 0 1:0.3507 2:0.31509 3:0.63122 4:0.70127 5:0.57077 6:0.11468 7:0.54487 8:0.10746 9:0.32143 10:0.21654 11:0.63158 12:0.32367 13:0.025862 14:0.5579 15:0.16138 16:0.33685
-5 0 1:0.37606 2:0.34172 3:0.66968 4:0.6874 5:0.59629 6:0.18572 7:0.55769 8:0.19524 9:0.3497 10:0.25608 11:0.68421 12:0.5271 13:0.034483 14:0.39724 15:0.12434 16:0.26068
-5 0 1:0.34507 2:0.33432 3:0.67421 4:0.6512 5:0.59397 6:0.19451 7:0.56624 8:0.11392 9:0.3378 10:0.16747 11:0.57895 12:0.34052 13:0.037356 14:0.71075 15:0.10317 16:0.38197
-5 0 1:0.33944 2:0.30917 3:0.59729 4:0.72235 5:0.5522 6:0.19032 7:0.52778 8:0.089813 9:0.31101 10:0.16605 11:0.63158 12:0.29547 13:0.04023 14:0.69847 15:0.18519 16:0.34759
-5 0 1:0.3507 2:0.32249 3:0.64027 4:0.72187 5:0.56613 6:0.17993 7:0.52991 8:0.14487 9:0.32292 10:0.1593 11:0.63158 12:0.34757 13:0.028736 14:0.7069 15:0.16138 16:0.33449
-5 0 1:0.36197 2:0.30325 3:0.56561 4:0.73329 5:0.53596 6:0.15325 7:0.51709 8:0.084668 9:0.30952 10:0.21017 11:0.57895 12:0.33684 13:0.017241 14:0.71072 15:0.12434 16:0.33842
-5 0 1:0.3338 2:0.31805 3:0.62443 4:0.70864 5:0.57077 6:0.14666 7:0.5406 8:0.082501 9:0.32143 10:0.22332 11:0.52632 12:0.34635 13:0.028736 14:0.66051 15:0.16138 16:0.3016
-5 0 1:0.35775 2:0.31953 3:0.6448 4:0.73334 5:0.57309 6:0.12887 7:0.57479 8:0.1098 9:0.33036 10:0.13546 11:0.63158 12:0.3065 13:0.034483 14:0.64641 15:0.15079 16:0.35702
-5 0 1:0.34789 2:0.30178 3:0.62443 4:0.75769 5:0.53364 6:0.20333 7:0.49786 8:0.12968 9:0.29167 10:0.16361 11:0.73684 12:0.55489 13:0.028736 14:0.55387 15:0.092593 16:0.33935
-5 0 1:0.32394 2:0.30769 3:0.63801 4:0.69248 5:0.55916 6:0.10336 7:0.5235 8:0.10081 9:0.3125 10:0.17202 11:0.68421 12:0.36259 13:0.043103 14:0.77932 15:0.22751 16:0.29834
-5 0 1:0.33521 2:0.29438 3:0.60633 4:0.71726 5:0.52668 6:0.19557 7:0.48718 8:0.12099 9:0.28571 10:0.13733 11:0.73684 12:0.44421 13:0.043103 14:0.74868 15:0.15873 16:0.35889
-5 0 1:0.35775 2:0.32692 3:0.64932 4:0.7664 5:0.57077 6:0.1313 7:0.55342 8:0.097396 9:0.3244 10:0.14333 11:0.68421 12:0.53208 13:0.031609 14:0.19668 15:0.14815 16:0.32355
-5 0 1:0.34648 2:0.30473 3:0.61991 4:0.68296 5:0.54524 6:0.15974 7:0.51923 8:0.13538 9:0.30655 10:0.16564 11:0.57895 12:0.52588 13:0.031609 14:0.38629 15:0.16402 16:0.31858
-5 0 1:0.37465 2:0.31805 3:0.61991 4:0.69835 5:0.57541 6:0.16729 7:0.53846 8:0.069478 9:0.32292 10:0.1434 11:0.78947 12:0.49618 13:0.043103 14:0.6746 15:0.14021 16:0.28383
-5 0 1:0.3507 2:0.32249 3:0.61765 4:0.70494 5:0.57077 6:0.18355 7:0.54487 8:0.11047 9:0.3244 10:0.20061 11:0.57895 12:0.2891 13:0.04023 14:0.7123 15:0.16931 16:0.30458
-5 0 1:0.33662 2:0.32544 3:0.59955 4:0.79062 5:0.58469 6:0.13275 7:0.55128 8:0.089997 9:0.3244 10:0.12052 11:0.57895 12:0.28446 13:0.031609 14:0.67553 15:0.18254 16:0.2954
-5 0 1:0.35211 2:0.32101 3:0.61538 4:0.77919 5:0.57309 6:0.15395 7:0.55556 8:0.10568 9:0.32589 10:0.22614 11:0.63158 12:0.38014 13:0.043103 14:0.59798 15:0.15079 16:0.35313
-5 0 1:0.33803 2:0.31509 3:0.62443 4:0.6761 5:0.55452 6:0.15537 7:0.51282 8:0.12879 9:0.31696 10:0.14231 11:0.68421 12:0.54988 13:0.04023 14:0.33197 15:0.18783 16:0.33387
-5 0 1:0.35352 2:0.30178 3:0.62217 4:0.75657 5:0.53596 6:0.15245 7:0.49573 8:0.17862 9:0.30357 10:0.15208 11:0.57895 12:0.29216 13:0.043103 14:0.69523 15:0.15344 16:0.35109
-5 0 1:0.34085 2:0.3003 3:0.58371 4:0.81803 5:0.53596 6:0.13254 7:0.51709 8:0.073073 9:0.30655 10:0.23431 11:0.63158 12:0.32285 13:0.043103 14:0.60863 15:0.16138 16:0.32169
-5 0 1:0.37746 2:0.33432 3:0.62896 4:0.75843 5:0.59165 6:0.16199 7:0.55769 8:0.087536 9:0.33631 10:0.21939 11:0.63158 12:0.34653 13:0.028736 14:0.73196 15:0.15344 16:0.34408
-5 0 1:0.34648 2:0.30473 3:0.58145 4:0.70829 5:0.5406 6:0.12349 7:0.5235 8:0.11618 9:0.30357 10:0.15744 11:0.57895 12:0.50385 13:0.022989 14:0.30465 15:0.1164 16:0.27673
-5 0 1:0.36761 2:0.2929 3:0.57919 4:0.64834 5:0.529 6:0.15271 7:0.50427 8:0.16434 9:0.29613 10:0.21314 11:0.63158 12:0.541 13:0.014368 14:0.34314 15:0.089947 16:0.33673
-5 1.0485 1:0.32676 2:0.30473 3:0.63575 4:0.62434 5:0.5522 6:0.14591 7:0.53419 8:0.054653 9:0.30952 10:0.14245 11:0.68421 12:0.53435 13:0.022989 14:0.57496 15:0.089947 16:0.28758
-5 0 1:0.35915 2:0.30769 3:0.61538 4:0.66472 5:0.54524 6:0.16033 7:0.50427 8:0.1776 9:0.3006 10:0.20793 11:0.57895 12:0.3123 13:0.028736 14:0.67411 15:0.11905 16:0.30287
-5 0 1:0.3507 2:0.34024 3:0.67647 4:0.69235 5:0.59861 6:0.1715 7:0.57906 8:0.060573 9:0.33929 10:0.17378 11:0.63158 12:0.33036 13:0.034483 14:0.57846 15:0.10053 16:0.36551
-5 0 1:0.34366 2:0.30325 3:0.60633 4:0.70118 5:0.54524 6:0.14182 7:0.52137 8:0.045978 9:0.3006 10:0.21522 11:0.68421 12:0.55947 13:0.025862 14:0.36201 15:0.11905 16:0.28105
-5 0 1:0.3169 2:0.31509 3:0.61765 4:0.7314 5:0.56148 6:0.12181 7:0.52778 8:0.1433 9:0.3125 10:0.14455 11:0.63158 12:0.53329 13:0.014368 14:0.37062 15:0.12169 16:0.31571
-5 0 1:0.33521 2:0.30769 3:0.5905 4:0.7054 5:0.54988 6:0.095913 7:0.5235 8:0.063925 9:0.30208 10:0.13706 11:0.68421 12:0.46903 13:0.020115 14:0.46066 15:0.11905 16:0.319
-5 0 1:0.34366 2:0.32101 3:0.65385 4:0.68782 5:0.57309 6:0.12584 7:0.53846 8:0.1032 9:0.31994 10:0.17877 11:0.63158 12:0.53867 13:0.037356 14:0.27614 15:0.1455 16:0.32199
-5 0 1:0.34366 2:0.30178 3:0.60407 4:0.70512 5:0.53596 6:0.19387 7:0.50214 8:0.11953 9:0.30208 10:0.14872 11:0.68421 12:0.31474 13:0.054598 14:0.72965 15:0.16138 16:0.33098
-5 0 1:0.35775 2:0.32988 3:0.64253 4:0.65852 5:0.59165 6:0.13211 7:0.55983 8:0.13221 9:0.32738 10:0.18087 11:0.68421 12:0.5502 13:0.031609 14:0.46354 15:0.097884 16:0.28682
-5 0 1:0.33521 2:0.30325 3:0.5543 4:0.72972 5:0.5406 6:0.14547 7:0.50427 8:0.13738 9:0.29911 10:0.18222 11:0.68421 12:0.54949 13:0.025862 14:0.37875 15:0.10053 16:0.29685
-5 0 1:0.32958 2:0.32396 3:0.61086 4:0.69338 5:0.57077 6:0.14705 7:0.54487 8:0.10939 9:0.3244 10:0.16066 11:0.68421 12:0.52619 13:0.028736 14:0.41965 15:0.1164 16:0.30095
-5 0 1:0.3662 2:0.32249 3:0.61538 4:0.69399 5:0.57309 6:0.13415 7:0.54915 8:0.053309 9:0.32738 10:0.17751 11:0.68421 12:0.55211 13:0.028736 14:0.51742 15:0.11905 16:0.25004
-5 0 1:0.32113 2:0.30621 3:0.64027 4:0.68227 5:0.54756 6:0.11695 7:0.52137 8:0.098034 9:0.31101 10:0.1596 11:0.63158 12:0.47325 13:0.028736 14:0.34315 15:0.11905 16:0.29852
-5 0 1:0.33803 2:0.26331 3:0.54751 4:0.71688 5:0.48028 6:0.17809 7:0.45513 8:0.10402 9:0.25893 10:0.13882 11:0.63158 12:0.3336 13:0.020115 14:0.76985 15:0.095238 16:0.34751
-5 0 1:0.36056 2:0.30178 3:0.61991 4:0.71485 5:0.54524 6:0.15596 7:0.51496 8:0.077083 9:0.30506 10:0.18348 11:0.63158 12:0.33105 13:0.037356 14:0.7 15:0.14815 16:0.35292
-5 0 1:0.34648 2:0.31213 3:0.6267 4:0.75385 5:0.56148 6:0.13503 7:0.53846 8:0.094297 9:0.31696 10:0.20776 11:0.63158 12:0.32887 13:0.022989 14:0.57169 15:0.092593 16:0.38331
-5 2.8416 1:0.36056 2:0.31657 3:0.62217 4:0.7105 5:0.57077 6:0.17036 7:0.52991 8:0.1119 9:0.31994 10:0.20267 11:0.73684 12:0.46168 13:0.034483 14:0.7866 15:0.16931 16:0.32371
-5 0 1:0.33944 2:0.29882 3:0.58597 4:0.70058 5:0.53596 6:0.15677 7:0.50214 8:0.1091 9:0.29613 10:0.1966 11:0.57895 12:0.33368 13:0.022989 14:0.64351 15:0.095238 16:0.34663
-5 0 1:0.34085 2:0.33136 3:0.65611 4:0.69878 5:0.58701 6:0.15535 7:0.55769 8:0.083892 9:0.33333 10:0.19524 11:0.63158 12:0.50964 13:0.025862 14:0.3942 15:0.16138 16:0.31838
-5 1.7723 1:0.31408 2:0.26183 3:0.56561 4:0.67783 5:0.48028 6:0.14994 7:0.44658 8:0.079108 9:0.25893 10:0.18382 11:0.63158 12:0.35088 13:0.028736 14:0.86002 15:0.12434 16:0.29237
-5 0 1:0.33803 2:0.31065 3:0.6086 4:0.6336 5:0.55452 6:0.18606 7:0.54274 8:0.10088 9:0.3125 10:0.18057 11:0.63158 12:0.54489 13:0.017241 14:0.35236 15:0.1164 16:0.28165
-5 0 1:0.36479 2:0.30325 3:0.60407 4:0.69605 5:0.53364 6:0.1716 7:0.5 8:0.1804 9:0.29315 10:0.20057 11:0.63158 12:0.35054 13:0.045977 14:0.70358 15:0.15873 16:0.34299
-5 0 1:0.35211 2:0.3284 3:0.66063 4:0.70296 5:0.57541 6:0.14214 7:0.55556 8:0.090248 9:0.33482 10:0.2043 11:0.57895 12:0.30083 13:0.028736 14:0.72703 15:0.16138 16:0.37007
-5 0 1:0.34648 2:0.30473 3:0.60633 4:0.7773 5:0.54756 6:0.17057 7:0.50855 8:0.11812 9:0.29911 10:0.10475 11:0.63158 12:0.30682 13:0.028736 14:0.69076 15:0.15873 16:0.32648
-5 0 1:0.32535 2:0.32249 3:0.66063 4:0.65873 5:0.57309 6:0.14089 7:0.53419 8:0.16559 9:0.31994 10:0.21979 11:0.63158 12:0.51065 13:0.028736 14:0.47407 15:0.097884 16:0.31598
-5 0 1:0.32817 2:0.29586 3:0.62443 4:0.68145 5:0.53132 6:0.14343 7:0.51496 8:0.03803 9:0.29315 10:0.14062 11:0.63158 12:0.48014 13:0.014368 14:0.47459 15:0.087302 16:0.33913
-5 0 1:0.35493 2:0.31805 3:0.61312 4:0.74179 5:0.57077 6:0.14397 7:0.53205 8:0.10869 9:0.31399 10:0.20162 11:0.68421 12:0.62068 13:0.028736 14:0.2697 15:0.14815 16:0.30585
-5 0 1:0.35493 2:0.32249 3:0.63575 4:0.72942 5:0.57077 6:0.16377 7:0.53419 8:0.11932 9:0.32143 10:0.16669 11:0.57895 12:0.29818 13:0.037356 14:0.67667 15:0.15344 16:0.32092
-5 0 1:0.32535 2:0.29882 3:0.60633 4:0.72657 5:0.53828 6:0.14663 7:0.49359 8:0.14831 9:0.30655 10:0.19813 11:0.63158 12:0.32815 13:0.048851 14:0.7053 15:0.15608 16:0.33706
-5 0 1:0.34225 2:0.32101 3:0.64706 4:0.68873 5:0.57773 6:0.12618 7:0.55128 8:0.092179 9:0.32143 10:0.14241 11:0.57895 12:0.49409 13:0.045977 14:0.32963 15:0.15873 16:0.31744
-5 -5 1:0.34085 2:0.33876 3:0.65837 4:0.68765 5:0.61253 6:0.15731 7:0.57051 8:0.10792 9:0.34375 10:0.23597 11:0.68421 12:0.46215 13:0.017241 14:0.79736 15:0.12434 16:0.3084
-5 -5 1:0.29859 2:0.27959 3:0.54751 4:0.66516 5:0.51276 6:0.14291 7:0.49786 8:0.064586 9:0.28571 10:0.1549 11:0.73684 12:0.5506 13:0.034483 14:0.79942 15:0.15873 16:0.31045
 