svm_type c_svc
kernel_type rbf
gamma 0.3125
nr_class 2
total_sv 270
rho -1.2806
label 1 3
nr_sv 155 115
SV
5 1:0.44136 2:0.28224 3:0.5612 4:0.47751 5:0.45989 6:0.58858 7:0.40964 8:0.75023 9:0.28652 10:0.17969 11:0.56522 12:0.12266 13:0.32119 14:0.12468 15:0.29927 16:0.68254
5 1:0.41358 2:0.25234 3:0.5612 4:0.47843 5:0.41444 6:0.63162 7:0.34217 8:0.79872 9:0.24906 10:0.19589 11:0.69565 12:0.11059 13:0.31457 14:0.13145 15:0.29197 16:0.68853
0.085301 1:0.3858 2:0.28785 3:0.56582 4:0.47512 5:0.45187 6:0.58135 7:0.35904 8:0.81419 9:0.28839 10:0.15587 11:0.43478 12:0.15808 13:0.31457 14:0.15112 15:0.28832 16:0.69795
5 1:0.46296 2:0.30093 3:0.59353 4:0.4759 5:0.47861 6:0.58006 7:0.38313 8:0.8081 9:0.30337 10:0.15493 11:0.52174 12:0.16361 13:0.33775 14:0.1429 15:0.29197 16:0.69765
1.208 1:0.38426 2:0.28411 3:0.58891 4:0.47573 5:0.45989 6:0.59418 7:0.40964 8:0.73065 9:0.2809 10:0.17879 11:0.043478 12:0.47383 13:0.29801 14:0.11935 15:0.29562 16:0.68521
5 1:0.41358 2:0.29907 3:0.63279 4:0.48807 5:0.48663 6:0.58778 7:0.41446 8:0.75166 9:0.29213 10:0.16226 11:0.65217 12:0.1138 13:0.29801 14:0.12507 15:0.29197 16:0.69145
5 1:0.39969 2:0.26168 3:0.59122 4:0.47207 5:0.43316 6:0.59361 7:0.37831 8:0.74503 9:0.26217 10:0.17433 11:0.82609 12:0.082941 13:0.29139 14:0.18823 15:0.28102 16:0.68957
5 1:0.45062 2:0.32336 3:0.61201 4:0.48122 5:0.50802 6:0.55557 7:0.41205 8:0.79815 9:0.32397 10:0.14663 11:0.6087 12:0.09342 13:0.31788 14:0.11764 15:0.29927 16:0.69543
5 1:0.4213 2:0.29907 3:0.60739 4:0.4742 5:0.48396 6:0.5933 7:0.41928 8:0.73221 9:0.29401 10:0.16456 11:0.56522 12:0.11638 13:0.29801 14:0.16341 15:0.28832 16:0.68125
5 1:0.44907 2:0.31215 3:0.63279 4:0.4927 5:0.49733 6:0.60755 7:0.41687 8:0.81311 9:0.31086 10:0.16899 11:0.65217 12:0.1082 13:0.3245 14:0.13422 15:0.31022 16:0.71356
0.15835 1:0.37654 2:0.26542 3:0.57968 4:0.48589 5:0.43583 6:0.61165 7:0.36386 8:0.80688 9:0.26779 10:0.17756 11:0.52174 12:0.1182 13:0.31126 14:0.075382 15:0.28467 16:0.69556
1.4427 1:0.40586 2:0.27477 3:0.53811 4:0.47551 5:0.44118 6:0.59704 7:0.36386 8:0.80639 9:0.27528 10:0.15033 11:0.52174 12:0.12741 13:0.28808 14:0.14355 15:0.25912 16:0.68796
5 1:0.41512 2:0.2785 3:0.58199 4:0.48806 5:0.44385 6:0.62031 7:0.35422 8:0.83376 9:0.27341 10:0.16949 11:0.47826 12:0.16746 13:0.30795 14:0.15954 15:0.29197 16:0.69358
5 1:0.42438 2:0.31963 3:0.59584 4:0.47498 5:0.5107 6:0.61421 7:0.41446 8:0.82623 9:0.32397 10:0.16313 11:0.56522 12:0.13358 13:0.31457 14:0.15441 15:0.28832 16:0.69313
5 1:0.37809 2:0.24673 3:0.55889 4:0.4824 5:0.3984 6:0.5515 7:0.32048 8:0.79425 9:0.25094 10:0.16676 11:0.73913 12:0.14711 13:0.31788 14:0.14808 15:0.29927 16:0.70201
5 1:0.44907 2:0.26916 3:0.58199 4:0.47415 5:0.4385 6:0.57491 7:0.35422 8:0.79825 9:0.27154 10:0.13875 11:0.65217 12:0.11503 13:0.28477 14:0.14403 15:0.29197 16:0.70519
5 1:0.39198 2:0.2972 3:0.61432 4:0.48135 5:0.46791 6:0.57991 7:0.39036 8:0.80201 9:0.29026 10:0.15761 11:0.47826 12:0.17686 13:0.32119 14:0.1285 15:0.28467 16:0.69812
1.3238 1:0.42901 2:0.31589 3:0.62818 4:0.48342 5:0.5 6:0.6072 7:0.41446 8:0.82148 9:0.32959 10:0.13458 11:0.56522 12:0.11505 13:0.31788 14:0.14553 15:0.29562 16:0.68576
2.8443 1:0.41049 2:0.30093 3:0.60277 4:0.47401 5:0.47594 6:0.56318 7:0.38072 8:0.79842 9:0.29588 10:0.14358 11:0.43478 12:0.17024 13:0.30464 14:0.15043 15:0.28467 16:0.70647
2.4188 1:0.41667 2:0.2729 3:0.57737 4:0.47 5:0.44385 6:0.56482 7:0.35181 8:0.82127 9:0.27341 10:0.17747 11:0.34783 12:0.21681 13:0.31126 14:0.13319 15:0.29927 16:0.68914
5 1:0.40432 2:0.26916 3:0.59122 4:0.48111 5:0.4385 6:0.58449 7:0.38313 8:0.75189 9:0.27154 10:0.20682 11:0.6087 12:0.11392 13:0.27483 14:0.091117 15:0.27007 16:0.69395
5 1:0.40586 2:0.28411 3:0.59815 4:0.48559 5:0.45187 6:0.62108 7:0.38072 8:0.80006 9:0.2809 10:0.18195 11:0.69565 12:0.11269 13:0.31457 14:0.12187 15:0.30292 16:0.69587
5 1:0.39506 2:0.26542 3:0.57506 4:0.46879 5:0.43048 6:0.56556 7:0.33735 8:0.8077 9:0.26592 10:0.16345 11:0.47826 12:0.13534 13:0.30795 14:0.17605 15:0.29927 16:0.69121
0.55442 1:0.45679 2:0.28598 3:0.57968 4:0.48019 5:0.46257 6:0.58839 7:0.37108 8:0.81924 9:0.28839 10:0.17269 11:0.3913 12:0.24924 13:0.3245 14:0.11282 15:0.31752 16:0.70361
5 1:0.41358 2:0.31963 3:0.58199 4:0.4733 5:0.50535 6:0.61549 7:0.41928 8:0.83044 9:0.31648 10:0.17045 11:0.65217 12:0.11973 13:0.30795 14:0.13595 15:0.29927 16:0.68848
0.47801 1:0.42747 2:0.27103 3:0.58891 4:0.4801 5:0.43316 6:0.59251 7:0.40964 8:0.73058 9:0.27154 10:0.17736 11:0.52174 12:0.13386 13:0.29801 14:0.14318 15:0.29927 16:0.70238
2.6325 1:0.43519 2:0.2785 3:0.57968 4:0.47783 5:0.45455 6:0.61441 7:0.4 8:0.74688 9:0.27715 10:0.19873 11:0.6087 12:0.10007 13:0.30795 14:0.11075 15:0.27737 16:0.69216
3.4687 1:0.4213 2:0.2785 3:0.57275 4:0.47118 5:0.45187 6:0.56871 7:0.39036 8:0.73367 9:0.27903 10:0.17043 11:0.52174 12:0.15451 13:0.28808 14:0.1212 15:0.29562 16:0.68916
5 1:0.44907 2:0.32523 3:0.62356 4:0.48203 5:0.51604 6:0.6074 7:0.41928 8:0.82484 9:0.32584 10:0.15643 11:0.6087 12:0.1247 13:0.31788 14:0.13936 15:0.29562 16:0.69588
5 1:0.38735 2:0.25421 3:0.55658 4:0.47112 5:0.41711 6:0.55838 7:0.33735 8:0.80662 9:0.25281 10:0.15125 11:0.6087 12:0.12328 13:0.2947 14:0.16939 15:0.29562 16:0.69377
1.0101 1:0.38117 2:0.29533 3:0.58199 4:0.4751 5:0.47594 6:0.57129 7:0.41205 8:0.73477 9:0.29775 10:0.15863 11:0.6087 12:0.10993 13:0.31788 14:0.12922 15:0.30292 16:0.68987
5 1:0.39198 2:0.28785 3:0.61432 4:0.48626 5:0.45989 6:0.58001 7:0.38072 8:0.79979 9:0.28464 10:0.17533 11:0.43478 12:0.18281 13:0.31788 14:0.14047 15:0.30657 16:0.70172
2.6545 1:0.39506 2:0.31589 3:0.51501 4:0.46621 5:0.49733 6:0.61763 7:0.41446 8:0.83058 9:0.31461 10:0.14499 11:0.56522 12:0.088741 13:0.32119 14:0.13277 15:0.29562 16:0.68452
5 1:0.43981 2:0.31776 3:0.60508 4:0.48135 5:0.5 6:0.60654 7:0.41205 8:0.81417 9:0.32022 10:0.16646 11:0.52174 12:0.10479 13:0.33113 14:0.11517 15:0.29927 16:0.70409
2.1686 1:0.41512 2:0.29533 3:0.57506 4:0.47267 5:0.45722 6:0.56885 7:0.39759 8:0.73312 9:0.29588 10:0.1604 11:0.43478 12:0.2134 13:0.31788 14:0.1179 15:0.29927 16:0.69104
0.14187 1:0.41204 2:0.25234 3:0.56351 4:0.47922 5:0.41979 6:0.5785 7:0.33735 8:0.82792 9:0.25094 10:0.13667 11:0.52174 12:0.11107 13:0.28477 14:0.11213 15:0.26277 16:0.70148
0.61617 1:0.40895 2:0.29533 3:0.57506 4:0.47095 5:0.46524 6:0.58929 7:0.40964 8:0.7318 9:0.29775 10:0.16587 11:0.65217 12:0.12058 13:0.2947 14:0.1283 15:0.27372 16:0.69349
5 1:0.41667 2:0.27477 3:0.58199 4:0.48306 5:0.4492 6:0.61215 7:0.35904 8:0.83764 9:0.27715 10:0.16527 11:0.52174 12:0.10198 13:0.29801 14:0.14286 15:0.28832 16:0.6726
5 1:0.41049 2:0.33458 3:0.65589 4:0.4819 5:0.52139 6:0.60808 7:0.43133 8:0.82841 9:0.33333 10:0.15996 11:0.73913 12:0.1121 13:0.3245 14:0.16742 15:0.29927 16:0.69408
0.55671 1:0.41204 2:0.27103 3:0.58661 4:0.48193 5:0.44118 6:0.57626 7:0.38554 8:0.73434 9:0.26966 10:0.17677 11:0.47826 12:0.14935 13:0.31788 14:0.13162 15:0.27737 16:0.68316
5 1:0.40278 2:0.28785 3:0.59584 4:0.48431 5:0.46257 6:0.60892 7:0.37831 8:0.82107 9:0.28839 10:0.15284 11:0.6087 12:0.11594 13:0.29139 14:0.14988 15:0.28832 16:0.68405
1.1113 1:0.41821 2:0.28785 3:0.60046 4:0.47433 5:0.46524 6:0.59625 7:0.4 8:0.73217 9:0.29213 10:0.17551 11:0.52174 12:0.13625 13:0.31126 14:0.15994 15:0.29197 16:0.68202
5 1:0.40586 2:0.24673 3:0.56351 4:0.47449 5:0.40909 6:0.55328 7:0.33253 8:0.7999 9:0.24906 10:0.14726 11:0.56522 12:0.14142 13:0.29801 14:0.1544 15:0.28832 16:0.69532
5 1:0.43056 2:0.32897 3:0.63972 4:0.48636 5:0.51872 6:0.58873 7:0.42169 8:0.81486 9:0.33146 10:0.17006 11:0.6087 12:0.10284 13:0.30132 14:0.13617 15:0.29562 16:0.70045
1.0115 1:0.39506 2:0.30654 3:0.61894 4:0.47822 5:0.4893 6:0.58275 7:0.42651 8:0.74599 9:0.29963 10:0.16843 11:0.69565 12:0.12245 13:0.30464 14:0.11902 15:0.29197 16:0.69202
5 1:0.4213 2:0.3028 3:0.54042 4:0.48176 5:0.47594 6:0.5945 7:0.39759 8:0.79613 9:0.32022 10:0.29472 11:0.6087 12:0.10718 13:0.30795 14:0.1039 15:0.29562 16:0.69669
0.1413 1:0.43056 2:0.2785 3:0.60046 4:0.48891 5:0.45989 6:0.59521 7:0.41687 8:0.7352 9:0.28277 10:0.19029 11:0.65217 12:0.11013 13:0.31126 14:0.13304 15:0.29562 16:0.69281
5 1:0.40895 2:0.34019 3:0.6582 4:0.48428 5:0.52406 6:0.58501 7:0.43133 8:0.82795 9:0.33895 10:0.15888 11:0.6087 12:0.10297 13:0.32781 14:0.15459 15:0.30657 16:0.6992
0.39222 1:0.40741 2:0.29907 3:0.62125 4:0.48661 5:0.47594 6:0.59334 7:0.41687 8:0.73675 9:0.29775 10:0.16302 11:0.56522 12:0.118 13:0.30795 14:0.16533 15:0.28102 16:0.69033
2.7662 1:0.43673 2:0.32336 3:0.58661 4:0.47695 5:0.51337 6:0.5755 7:0.44337 8:0.78526 9:0.3221 10:0.19378 11:0.26087 12:0.38202 13:0.33775 14:0.087898 15:0.29562 16:0.69553
5 1:0.43673 2:0.26729 3:0.56582 4:0.47114 5:0.43316 6:0.58103 7:0.39518 8:0.7247 9:0.26966 10:0.1728 11:0.6087 12:0.12759 13:0.32119 14:0.14845 15:0.29562 16:0.68973
5 1:0.43519 2:0.31028 3:0.57044 4:0.45802 5:0.49198 6:0.58266 7:0.42892 8:0.75288 9:0.30712 10:0.19019 11:0.52174 12:0.13637 13:0.32119 14:0.12262 15:0.29562 16:0.68746
5 1:0.41049 2:0.30093 3:0.60508 4:0.47201 5:0.47059 6:0.58182 7:0.42169 8:0.73132 9:0.30337 10:0.17009 11:0.56522 12:0.108 13:0.31788 14:0.14335 15:0.30292 16:0.69881
5 1:0.38117 2:0.26355 3:0.57044 4:0.48188 5:0.43048 6:0.5926 7:0.35422 8:0.8021 9:0.26592 10:0.16481 11:0.6087 12:0.12538 13:0.2947 14:0.1295 15:0.23358 16:0.69521
3.2787 1:0.43519 2:0.29346 3:0.60739 4:0.48377 5:0.46791 6:0.58329 7:0.40723 8:0.74475 9:0.29026 10:0.17574 11:0.47826 12:0.1536 13:0.31126 14:0.1426 15:0.29197 16:0.69184
2.8331 1:0.44136 2:0.3271 3:0.62125 4:0.47614 5:0.5107 6:0.58532 7:0.43373 8:0.80714 9:0.32959 10:0.1563 11:0.65217 12:0.13359 13:0.32781 14:0.1381 15:0.29927 16:0.70757
5 1:0.39506 2:0.2785 3:0.58891 4:0.4653 5:0.45187 6:0.58809 7:0.39518 8:0.72919 9:0.27528 10:0.18966 11:0.56522 12:0.13818 13:0.29801 14:0.11807 15:0.29562 16:0.68227
5 1:0.46914 2:0.25794 3:0.63279 4:0.45225 5:0.4893 6:0.44973 7:0.40241 8:0.74726 9:0.2603 10:0.20472 11:0.69565 12:0.11184 13:0.33113 14:0.15415 15:0.29927 16:0.69879
3.1186 1:0.44599 2:0.32523 3:0.63741 4:0.48655 5:0.51337 6:0.64139 7:0.4241 8:0.83938 9:0.3221 10:0.18471 11:0.78261 12:0.097883 13:0.32781 14:0.10124 15:0.28832 16:0.6995
5 1:0.40432 2:0.28037 3:0.59353 4:0.47377 5:0.44118 6:0.57262 7:0.41928 8:0.70377 9:0.27528 10:0.17058 11:0.6087 12:0.1096 13:0.32119 14:0.13457 15:0.28832 16:0.68922
2.6966 1:0.43673 2:0.30654 3:0.6351 4:0.48201 5:0.50267 6:0.58587 7:0.40241 8:0.81 9:0.30712 10:0.18462 11:0.43478 12:0.20341 13:0.30464 14:0.12927 15:0.28467 16:0.70411
5 1:0.375 2:0.25981 3:0.56582 4:0.47973 5:0.41979 6:0.57325 7:0.33494 8:0.81951 9:0.26592 10:0.16349 11:0.47826 12:0.13955 13:0.29801 14:0.16516 15:0.29197 16:0.68899
5 1:0.3966 2:0.25421 3:0.5612 4:0.47347 5:0.41444 6:0.57824 7:0.33735 8:0.80579 9:0.25094 10:0.16009 11:0.56522 12:0.12242 13:0.30795 14:0.1537 15:0.29197 16:0.68224
3.1163 1:0.41358 2:0.31776 3:0.60277 4:0.46995 5:0.49198 6:0.60005 7:0.44096 8:0.74387 9:0.31648 10:0.1818 11:0.6087 12:0.11492 13:0.33775 14:0.17247 15:0.28832 16:0.69617
5 1:0.41204 2:0.28411 3:0.55196 4:0.46665 5:0.45455 6:0.59358 7:0.39759 8:0.74338 9:0.2809 10:0.1688 11:0.6087 12:0.12664 13:0.30464 14:0.13281 15:0.29562 16:0.68834
0.33645 1:0.40432 2:0.28037 3:0.59122 4:0.46901 5:0.45187 6:0.58971 7:0.36867 8:0.80757 9:0.2809 10:0.16845 11:0.3913 12:0.19074 13:0.2947 14:0.13815 15:0.28832 16:0.68923
5 1:0.41512 2:0.3271 3:0.64665 4:0.48624 5:0.50802 6:0.59349 7:0.41928 8:0.81412 9:0.32397 10:0.15629 11:0.56522 12:0.12632 13:0.30795 14:0.15746 15:0.28832 16:0.70295
0.070478 1:0.39043 2:0.28411 3:0.6097 4:0.49278 5:0.48128 6:0.58087 7:0.40482 8:0.73759 9:0.28277 10:0.21276 11:0.26087 12:0.46677 13:0.31126 14:0.14037 15:0.29197 16:0.69098
2.4893 1:0.45062 2:0.29346 3:0.58891 4:0.47065 5:0.46524 6:0.58028 7:0.40482 8:0.7392 9:0.29026 10:0.17958 11:0.69565 12:0.12961 13:0.34437 14:0.12321 15:0.31387 16:0.69371
3.9211 1:0.42747 2:0.2785 3:0.59584 4:0.47768 5:0.45455 6:0.59549 7:0.40482 8:0.73286 9:0.27903 10:0.1824 11:0.56522 12:0.10389 13:0.29801 14:0.13621 15:0.28102 16:0.69733
0.86408 1:0.39506 2:0.25981 3:0.55889 4:0.4768 5:0.42513 6:0.58507 7:0.34699 8:0.82206 9:0.26404 10:0.1448 11:0.52174 12:0.13118 13:0.31126 14:0.078076 15:0.28832 16:0.68772
5 1:0.40432 2:0.28411 3:0.55889 4:0.46638 5:0.45722 6:0.59902 7:0.39759 8:0.75715 9:0.28839 10:0.17152 11:0.69565 12:0.10817 13:0.31457 14:0.11606 15:0.28467 16:0.69195
4.9019 1:0.42901 2:0.3028 3:0.62125 4:0.48223 5:0.47326 6:0.59491 7:0.38795 8:0.81478 9:0.32022 10:0.39979 11:0.52174 12:0.13267 13:0.32781 14:0.14913 15:0.31022 16:0.7054
5 1:0.41667 2:0.28972 3:0.56351 4:0.47599 5:0.46791 6:0.59877 7:0.38554 8:0.81558 9:0.28839 10:0.16411 11:0.47826 12:0.15914 13:0.30464 14:0.13899 15:0.29197 16:0.69644
5 1:0.40895 2:0.2486 3:0.5358 4:0.46647 5:0.40642 6:0.5427 7:0.31807 8:0.79373 9:0.24345 10:0.13989 11:0.69565 12:0.10851 13:0.3245 14:0.16557 15:0.28467 16:0.6816
5 1:0.37037 2:0.26916 3:0.57737 4:0.48266 5:0.43048 6:0.57145 7:0.40482 8:0.74162 9:0.26966 10:0.16616 11:0.65217 12:0.11868 13:0.30795 14:0.13043 15:0.29562 16:0.68539
0.97163 1:0.41049 2:0.28785 3:0.57737 4:0.47115 5:0.45722 6:0.60497 7:0.39759 8:0.7416 9:0.2809 10:0.16067 11:0.6087 12:0.10447 13:0.32119 14:0.13293 15:0.29927 16:0.69553
5 1:0.40586 2:0.28785 3:0.5843 4:0.48876 5:0.46524 6:0.60269 7:0.39518 8:0.76842 9:0.29026 10:0.17886 11:0.56522 12:0.10073 13:0.29801 14:0.12496 15:0.28832 16:0.68892
0.38441 1:0.43981 2:0.28972 3:0.54503 4:0.46285 5:0.45989 6:0.57351 7:0.40964 8:0.71367 9:0.28464 10:0.16461 11:0.6087 12:0.12254 13:0.32119 14:0.15619 15:0.29197 16:0.6821
5 1:0.41358 2:0.31028 3:0.57275 4:0.45905 5:0.48396 6:0.57382 7:0.39759 8:0.81404 9:0.3015 10:0.16126 11:0.43478 12:0.22334 13:0.33444 14:0.16221 15:0.29562 16:0.70016
5 1:0.41512 2:0.25421 3:0.52656 4:0.47649 5:0.41176 6:0.58587 7:0.33012 8:0.80346 9:0.25094 10:0.15417 11:0.56522 12:0.11938 13:0.31126 14:0.16465 15:0.28832 16:0.69016
0.3324 1:0.39815 2:0.29533 3:0.57737 4:0.4707 5:0.47594 6:0.57368 7:0.41687 8:0.71994 9:0.29775 10:0.15813 11:0.69565 12:0.11123 13:0.31126 14:0.14047 15:0.29562 16:0.68446
1.1899 1:0.42284 2:0.25234 3:0.54273 4:0.47759 5:0.41176 6:0.573 7:0.3253 8:0.8147 9:0.24719 10:0.17058 11:0.47826 12:0.13717 13:0.30795 14:0.15057 15:0.29927 16:0.6998
5 1:0.40895 2:0.32336 3:0.54273 4:0.4621 5:0.5107 6:0.58328 7:0.4241 8:0.79561 9:0.32397 10:0.17525 11:0.69565 12:0.10026 13:0.33113 14:0.17801 15:0.29562 16:0.69652
5 1:0.44136 2:0.28411 3:0.59353 4:0.49121 5:0.4492 6:0.61432 7:0.39518 8:0.76502 9:0.28277 10:0.17727 11:0.6087 12:0.1144 13:0.33444 14:0.11842 15:0.29197 16:0.68635
5 1:0.40278 2:0.29346 3:0.61201 4:0.48515 5:0.46791 6:0.61352 7:0.3759 8:0.8254 9:0.29026 10:0.16923 11:0.47826 12:0.15087 13:0.30795 14:0.13184 15:0.29197 16:0.68557
5 1:0.41049 2:0.28037 3:0.59584 4:0.48338 5:0.45722 6:0.59008 7:0.36627 8:0.81197 9:0.28277 10:0.14865 11:0.52174 12:0.13029 13:0.28808 14:0.14789 15:0.27007 16:0.6934
5 1:0.40278 2:0.2972 3:0.60739 4:0.46323 5:0.46791 6:0.58438 7:0.41205 8:0.71178 9:0.29775 10:0.17153 11:0.6087 12:0.12375 13:0.32119 14:0.13757 15:0.29927 16:0.68369
5 1:0.43827 2:0.26168 3:0.55196 4:0.45108 5:0.42246 6:0.55688 7:0.33976 8:0.78479 9:0.2603 10:0.15227 11:0.56522 12:0.11226 13:0.2947 14:0.23321 15:0.29562 16:0.71333
1.1906 1:0.37963 2:0.26168 3:0.59122 4:0.4824 5:0.44652 6:0.56023 7:0.35663 8:0.75971 9:0.26404 10:0.18348 11:0.26087 12:0.3806 13:0.30464 14:0.11333 15:0.25547 16:0.68338
5 1:0.42284 2:0.30093 3:0.61432 4:0.4801 5:0.4893 6:0.5884 7:0.41446 8:0.75475 9:0.29588 10:0.17122 11:0.65217 12:0.090283 13:0.30795 14:0.1208 15:0.29562 16:0.69215
4.077 1:0.40741 2:0.25794 3:0.5612 4:0.47916 5:0.43048 6:0.55387 7:0.33253 8:0.82714 9:0.25843 10:0.21768 11:0.82609 12:0.10851 13:0.31126 14:0.059363 15:0.27007 16:0.6965
0.26853 1:0.44907 2:0.30467 3:0.62818 4:0.48809 5:0.49465 6:0.60165 7:0.40482 8:0.81923 9:0.30337 10:0.18153 11:0.43478 12:0.16268 13:0.31457 14:0.069159 15:0.29197 16:0.70196
0.26445 1:0.46451 2:0.29533 3:0.57737 4:0.47463 5:0.47326 6:0.57062 7:0.41446 8:0.73987 9:0.29588 10:0.17441 11:0.56522 12:0.13357 13:0.30464 14:0.12056 15:0.29562 16:0.69669
0.77066 1:0.43519 2:0.29907 3:0.61663 4:0.47536 5:0.47594 6:0.63548 7:0.41446 8:0.76189 9:0.29588 10:0.19311 11:0.52174 12:0.15139 13:0.34437 14:0.12702 15:0.29197 16:0.68726
4.6631 1:0.40278 2:0.2729 3:0.59353 4:0.47468 5:0.45187 6:0.60459 7:0.39277 8:0.74651 9:0.27341 10:0.18388 11:0.6087 12:0.099265 13:0.3245 14:0.1095 15:0.28102 16:0.69401
0.33722 1:0.43673 2:0.29533 3:0.6097 4:0.48834 5:0.46791 6:0.61102 7:0.40964 8:0.75592 9:0.29213 10:0.18707 11:0.56522 12:0.11696 13:0.30795 14:0.1061 15:0.29197 16:0.70028
5 1:0.40278 2:0.26729 3:0.56351 4:0.48538 5:0.44385 6:0.6346 7:0.36627 8:0.81876 9:0.26592 10:0.22411 11:0.65217 12:0.11012 13:0.32119 14:0.11243 15:0.24818 16:0.69872
0.27129 1:0.40432 2:0.30093 3:0.5612 4:0.46828 5:0.47326 6:0.59652 7:0.40482 8:0.77046 9:0.29963 10:0.17214 11:0.86957 12:0.09005 13:0.30795 14:0.1464 15:0.29562 16:0.69313
5 1:0.42284 2:0.3271 3:0.63741 4:0.48172 5:0.51604 6:0.62534 7:0.42892 8:0.82525 9:0.32397 10:0.16993 11:0.56522 12:0.10314 13:0.29801 14:0.15115 15:0.29197 16:0.6922
5 1:0.44136 2:0.30841 3:0.62356 4:0.48281 5:0.49465 6:0.58581 7:0.40964 8:0.7941 9:0.30712 10:0.15563 11:0.6087 12:0.12816 13:0.3245 14:0.12496 15:0.29197 16:0.69628
5 1:0.42284 2:0.26916 3:0.57737 4:0.4607 5:0.44385 6:0.56498 7:0.34699 8:0.80788 9:0.26592 10:0.15797 11:0.52174 12:0.1505 13:0.31126 14:0.15916 15:0.29562 16:0.70719
4.9077 1:0.40586 2:0.31215 3:0.62587 4:0.46396 5:0.48128 6:0.58756 7:0.39518 8:0.78812 9:0.31835 10:0.12381 11:0.52174 12:0.095367 13:0.33444 14:0.18438 15:0.28102 16:0.70294
2.1977 1:0.41049 2:0.31589 3:0.59353 4:0.48179 5:0.49733 6:0.59736 7:0.42169 8:0.78426 9:0.31835 10:0.16386 11:0.56522 12:0.12921 13:0.31126 14:0.12486 15:0.30292 16:0.69211
5 1:0.43364 2:0.2972 3:0.60046 4:0.47557 5:0.47326 6:0.58087 7:0.39518 8:0.77145 9:0.29775 10:0.16593 11:0.56522 12:0.12482 13:0.31126 14:0.1564 15:0.22263 16:0.71672
5 1:0.39969 2:0.29533 3:0.5358 4:0.47183 5:0.47326 6:0.61896 7:0.37831 8:0.83896 9:0.29588 10:0.16501 11:0.56522 12:0.135 13:0.30795 14:0.11361 15:0.29562 16:0.69665
5 1:0.44136 2:0.2729 3:0.60277 4:0.50444 5:0.46524 6:0.57554 7:0.37108 8:0.80423 9:0.27154 10:0.23662 11:0.52174 12:0.1455 13:0.31788 14:0.059578 15:0.28102 16:0.70793
4.8602 1:0.43673 2:0.29907 3:0.61894 4:0.48872 5:0.48128 6:0.61058 7:0.42169 8:0.74194 9:0.3015 10:0.18768 11:0.6087 12:0.11986 13:0.29139 14:0.15474 15:0.29197 16:0.68471
5 1:0.43827 2:0.3028 3:0.61894 4:0.47941 5:0.48128 6:0.58624 7:0.4241 8:0.73804 9:0.30337 10:0.18242 11:0.6087 12:0.10964 13:0.31788 14:0.14217 15:0.29562 16:0.68851
5 1:0.4321 2:0.31402 3:0.64203 4:0.4919 5:0.5 6:0.60458 7:0.41687 8:0.8132 9:0.31461 10:0.16133 11:0.56522 12:0.10976 13:0.31457 14:0.077567 15:0.29927 16:0.69744
1.3278 1:0.40123 2:0.28224 3:0.62356 4:0.49644 5:0.47861 6:0.57045 7:0.4241 8:0.75761 9:0.2809 10:0.18121 11:0.34783 12:0.26974 13:0.31457 14:0.11469 15:0.29562 16:0.68615
5 1:0.40123 2:0.27664 3:0.54734 4:0.4718 5:0.44652 6:0.60137 7:0.36627 8:0.79707 9:0.27341 10:0.15845 11:0.69565 12:0.10794 13:0.2947 14:0.15328 15:0.29927 16:0.70063
5 1:0.40123 2:0.28224 3:0.55427 4:0.47378 5:0.46524 6:0.55395 7:0.36867 8:0.79719 9:0.28277 10:0.18511 11:0.47826 12:0.16291 13:0.32781 14:0.10837 15:0.29197 16:0.67902
5 1:0.4213 2:0.28972 3:0.57737 4:0.46048 5:0.45722 6:0.56009 7:0.36867 8:0.79875 9:0.28839 10:0.13839 11:0.43478 12:0.17679 13:0.32781 14:0.1564 15:0.29197 16:0.70844
5 1:0.41667 2:0.28972 3:0.62356 4:0.48723 5:0.46524 6:0.59011 7:0.40241 8:0.75861 9:0.28652 10:0.18379 11:0.56522 12:0.12383 13:0.30464 14:0.1311 15:0.30292 16:0.67687
5 1:0.42593 2:0.31589 3:0.60739 4:0.47741 5:0.49198 6:0.60174 7:0.39518 8:0.84319 9:0.31835 10:0.15957 11:0.73913 12:0.10554 13:0.35099 14:0.16966 15:0.25912 16:0.70657
5 1:0.43981 2:0.31589 3:0.58891 4:0.47708 5:0.49733 6:0.62446 7:0.40723 8:0.83144 9:0.31273 10:0.16578 11:0.56522 12:0.11473 13:0.33113 14:0.12432 15:0.29927 16:0.70464
5 1:0.4213 2:0.29533 3:0.5843 4:0.47577 5:0.47059 6:0.59111 7:0.4 8:0.75197 9:0.29401 10:0.16706 11:0.56522 12:0.12389 13:0.31788 14:0.1343 15:0.29562 16:0.68846
5 1:0.44753 2:0.30467 3:0.60046 4:0.47583 5:0.48128 6:0.60839 7:0.40241 8:0.79306 9:0.30712 10:0.14587 11:0.69565 12:0.12353 13:0.33113 14:0.13407 15:0.28832 16:0.7024
5 1:0.43364 2:0.28972 3:0.57968 4:0.47426 5:0.47059 6:0.58112 7:0.38313 8:0.81343 9:0.28839 10:0.15736 11:0.43478 12:0.17543 13:0.30132 14:0.15708 15:0.29197 16:0.69114
1.3699 1:0.41049 2:0.27664 3:0.58891 4:0.48233 5:0.4492 6:0.60806 7:0.39277 8:0.7429 9:0.27903 10:0.18099 11:0.56522 12:0.1228 13:0.2947 14:0.14507 15:0.29197 16:0.69315
1.5254 1:0.43519 2:0.28598 3:0.60277 4:0.47828 5:0.45989 6:0.61175 7:0.42651 8:0.71997 9:0.28464 10:0.17312 11:0 12:0.52931 13:0.30464 14:0.14967 15:0.28467 16:0.68998
5 1:0.42284 2:0.26542 3:0.55658 4:0.48341 5:0.43583 6:0.60552 7:0.35181 8:0.80772 9:0.26217 10:0.17575 11:0.56522 12:0.11323 13:0.30132 14:0.086665 15:0.29197 16:0.68968
5 1:0.43056 2:0.28037 3:0.58891 4:0.47885 5:0.45989 6:0.58412 7:0.36867 8:0.81414 9:0.27903 10:0.16058 11:0.43478 12:0.1549 13:0.30464 14:0.11997 15:0.29197 16:0.70383
1.7817 1:0.38117 2:0.27103 3:0.56351 4:0.47482 5:0.43048 6:0.56727 7:0.40964 8:0.72609 9:0.27154 10:0.15295 11:0.56522 12:0.11487 13:0.28477 14:0.14571 15:0.28832 16:0.69232
5 1:0.41821 2:0.31589 3:0.62818 4:0.47326 5:0.50267 6:0.5855 7:0.40482 8:0.80404 9:0.31648 10:0.14651 11:0.73913 12:0.11698 13:0.34437 14:0.1347 15:0.29927 16:0.6982
5 1:0.37191 2:0.2729 3:0.55427 4:0.46903 5:0.4385 6:0.59563 7:0.34699 8:0.82294 9:0.26966 10:0.16167 11:0.65217 12:0.11365 13:0.30795 14:0.15904 15:0.29197 16:0.6854
5 1:0.43364 2:0.2972 3:0.60739 4:0.48124 5:0.47861 6:0.60017 7:0.39277 8:0.81821 9:0.29588 10:0.15395 11:0.6087 12:0.11706 13:0.29139 14:0.14112 15:0.28102 16:0.70023
5 1:0.37191 2:0.28037 3:0.55658 4:0.48647 5:0.45187 6:0.60381 7:0.36867 8:0.82338 9:0.27715 10:0.15298 11:0.52174 12:0.10056 13:0.29801 14:0.11388 15:0.27007 16:0.6889
5 1:0.43981 2:0.28224 3:0.60739 4:0.48355 5:0.45989 6:0.58753 7:0.4 8:0.73699 9:0.28277 10:0.16302 11:0.65217 12:0.10779 13:0.30795 14:0.12596 15:0.29197 16:0.69272
3.4638 1:0.44907 2:0.34019 3:0.65358 4:0.47985 5:0.53209 6:0.5815 7:0.43133 8:0.82639 9:0.34082 10:0.16816 11:0.6087 12:0.1179 13:0.3245 14:0.11419 15:0.29197 16:0.7014
3.9166 1:0.38272 2:0.24673 3:0.55889 4:0.4775 5:0.41444 6:0.58177 7:0.33494 8:0.80291 9:0.25094 10:0.14983 11:0.6087 12:0.16551 13:0.2947 14:0.12318 15:0.29197 16:0.68168
5 1:0.4429 2:0.3215 3:0.57737 4:0.47317 5:0.50802 6:0.62525 7:0.4241 8:0.8123 9:0.32022 10:0.18146 11:0.69565 12:0.14055 13:0.32119 14:0.15694 15:0.30292 16:0.68971
0.5362 1:0.4321 2:0.28785 3:0.61432 4:0.48586 5:0.46791 6:0.56629 7:0.37831 8:0.79803 9:0.29401 10:0.17234 11:0.34783 12:0.24345 13:0.30132 14:0.11882 15:0.30292 16:0.69414
5 1:0.3858 2:0.26729 3:0.58661 4:0.48435 5:0.43583 6:0.61921 7:0.35663 8:0.82765 9:0.26966 10:0.15165 11:0.6087 12:0.11224 13:0.31457 14:0.12245 15:0.29197 16:0.69502
5 1:0.42438 2:0.30093 3:0.62587 4:0.48601 5:0.4893 6:0.6059 7:0.40482 8:0.81818 9:0.29775 10:0.16444 11:0.52174 12:0.12848 13:0.30464 14:0.14529 15:0.29197 16:0.69668
5 1:0.3858 2:0.29907 3:0.6097 4:0.47153 5:0.47059 6:0.57673 7:0.41446 8:0.71916 9:0.29401 10:0.15242 11:0.65217 12:0.090625 13:0.3245 14:0.12594 15:0.29197 16:0.69636
1.8734 1:0.43364 2:0.31028 3:0.61432 4:0.47983 5:0.4893 6:0.59549 7:0.39518 8:0.82537 9:0.31086 10:0.14406 11:0.47826 12:0.14522 13:0.31126 14:0.1473 15:0.29927 16:0.70086
3.443 1:0.36265 2:0.24486 3:0.55196 4:0.47992 5:0.38503 6:0.55078 7:0.29398 8:0.79916 9:0.24345 10:0.17391 11:0.82609 12:0.092611 13:0.29801 14:0.14104 15:0.25547 16:0.69203
5 1:0.51235 2:0.30093 3:0.62356 4:0.48145 5:0.49198 6:0.60342 7:0.40482 8:0.81368 9:0.3015 10:0.16543 11:0.69565 12:0.12103 13:0.30132 14:0.12317 15:0.29562 16:0.688
5 1:0.3966 2:0.30841 3:0.56351 4:0.47249 5:0.48663 6:0.60934 7:0.40482 8:0.81984 9:0.30524 10:0.15174 11:0.65217 12:0.11872 13:0.30464 14:0.16833 15:0.29197 16:0.69422
0.86341 1:0.42284 2:0.2729 3:0.57506 4:0.47693 5:0.43048 6:0.58277 7:0.37831 8:0.72938 9:0.26779 10:0.15415 11:0.6087 12:0.14081 13:0.31457 14:0.15235 15:0.29197 16:0.69643
5 1:0.39506 2:0.25981 3:0.5612 4:0.47425 5:0.41979 6:0.56461 7:0.34217 8:0.80756 9:0.2603 10:0.18171 11:0.6087 12:0.15394 13:0.32781 14:0.08131 15:0.29562 16:0.68394
0.2135 1:0.37809 2:0.25794 3:0.55658 4:0.47021 5:0.41979 6:0.54377 7:0.34699 8:0.75786 9:0.25843 10:0.20598 11:0.3913 12:0.21434 13:0.2947 14:0.14563 15:0.29197 16:0.67838
5 1:0.41667 2:0.28785 3:0.5843 4:0.46741 5:0.45989 6:0.58837 7:0.4 8:0.745 9:0.28839 10:0.16704 11:0.69565 12:0.11497 13:0.3245 14:0.14089 15:0.30292 16:0.68909
5 1:0.41512 2:0.28972 3:0.58199 4:0.46362 5:0.45722 6:0.63271 7:0.36627 8:0.83451 9:0.28652 10:0.14924 11:0.56522 12:0.15822 13:0.33775 14:0.13209 15:0.30657 16:0.68907
2.7384 1:0.39043 2:0.28037 3:0.59353 4:0.47926 5:0.45187 6:0.59286 7:0.39518 8:0.73576 9:0.2809 10:0.17365 11:0.56522 12:0.099851 13:0.30132 14:0.11736 15:0.29197 16:0.68259
5 1:0.42438 2:0.27477 3:0.57044 4:0.47881 5:0.4492 6:0.63007 7:0.36386 8:0.83666 9:0.27528 10:0.16438 11:0.52174 12:0.097677 13:0.31126 14:0.11857 15:0.29197 16:0.68557
2.9806 1:0.44753 2:0.26916 3:0.58199 4:0.47393 5:0.43583 6:0.55801 7:0.38072 8:0.71795 9:0.26779 10:0.1436 11:0.65217 12:0.10493 13:0.31788 14:0.1594 15:0.29197 16:0.72392
5 1:0.45833 2:0.30093 3:0.61894 4:0.4801 5:0.48396 6:0.57601 7:0.41928 8:0.74982 9:0.3015 10:0.18971 11:0.47826 12:0.17733 13:0.32781 14:0.1321 15:0.29562 16:0.69785
5 1:0.41975 2:0.30093 3:0.61663 4:0.49186 5:0.48128 6:0.61207 7:0.38795 8:0.82906 9:0.30337 10:0.14345 11:0.65217 12:0.11962 13:0.34106 14:0.098913 15:0.29927 16:0.69161
5 1:0.40432 2:0.28411 3:0.58661 4:0.47691 5:0.45187 6:0.60447 7:0.39036 8:0.73277 9:0.2809 10:0.16969 11:0.56522 12:0.096938 13:0.31457 14:0.14101 15:0.29562 16:0.68024
5 1:0.40278 2:0.28972 3:0.6097 4:0.47542 5:0.47059 6:0.6064 7:0.3759 8:0.81731 9:0.29213 10:0.13787 11:0.52174 12:0.15576 13:0.28146 14:0.15202 15:0.28832 16:0.68785
0.46751 1:0.42284 2:0.2972 3:0.55658 4:0.47058 5:0.48396 6:0.59135 7:0.42169 8:0.72739 9:0.29775 10:0.17062 11:0 12:0.68166 13:0.30464 14:0.13804 15:0.29562 16:0.68701
5 1:0.38426 2:0.28598 3:0.56813 4:0.47742 5:0.45722 6:0.60249 7:0.3759 8:0.81518 9:0.28277 10:0.16548 11:0.52174 12:0.13198 13:0.29139 14:0.14735 15:0.28832 16:0.68053
-5 1:0.41049 2:0.2785 3:0.59122 4:0.47906 5:0.45187 6:0.62944 7:0.36627 8:0.83518 9:0.28277 10:0.18768 11:0.6087 12:0.12505 13:0.30795 14:0.1482 15:0.29562 16:0.69874
-5 1:0.42901 2:0.2972 3:0.61432 4:0.47879 5:0.47861 6:0.57782 7:0.41446 8:0.73943 9:0.29401 10:0.15463 11:0.6087 12:0.10145 13:0.32119 14:0.15526 15:0.29927 16:0.68645
-5 1:0.41821 2:0.31589 3:0.62587 4:0.45855 5:0.50267 6:0.64398 7:0.4506 8:0.72443 9:0.31648 10:0.18554 11:0.56522 12:0.12737 13:0.32119 14:0.13344 15:0.29562 16:0.69682
-5 1:0.40741 2:0.28972 3:0.59122 4:0.48255 5:0.46257 6:0.5905 7:0.37108 8:0.83125 9:0.28839 10:0.1693 11:0.47826 12:0.14469 13:0.30464 14:0.13467 15:0.29927 16:0.69024
-5 1:0.40278 2:0.31589 3:0.64434 4:0.48661 5:0.50267 6:0.59693 7:0.41687 8:0.81244 9:0.31648 10:0.18382 11:0.47826 12:0.14105 13:0.30464 14:0.13089 15:0.29562 16:0.69643
-5 1:0.40278 2:0.2486 3:0.57044 4:0.47154 5:0.40909 6:0.58593 7:0.38554 8:0.74081 9:0.25094 10:0.18545 11:0.26087 12:0.33994 13:0.31126 14:0.13002 15:0.30292 16:0.70934
-5 1:0.41512 2:0.28598 3:0.54273 4:0.47184 5:0.44385 6:0.55811 7:0.40241 8:0.70242 9:0.28652 10:0.14142 11:0.56522 12:0.13915 13:0.33113 14:0.16384 15:0.29562 16:0.70345
-5 1:0.4429 2:0.28785 3:0.59122 4:0.47032 5:0.45722 6:0.59053 7:0.37349 8:0.8271 9:0.28464 10:0.18114 11:0.56522 12:0.11496 13:0.32119 14:0.14336 15:0.29197 16:0.70273
-5 1:0.44136 2:0.27664 3:0.59122 4:0.47933 5:0.44385 6:0.55018 7:0.39036 8:0.7071 9:0.27715 10:0.14241 11:0.65217 12:0.11514 13:0.33444 14:0.16061 15:0.29927 16:0.71107
-5 1:0.44907 2:0.30841 3:0.60277 4:0.47966 5:0.49198 6:0.61589 7:0.41205 8:0.80751 9:0.30899 10:0.18024 11:0.65217 12:0.12094 13:0.31457 14:0.11339 15:0.29562 16:0.6953
-5 1:0.43827 2:0.28037 3:0.58199 4:0.47563 5:0.45455 6:0.58104 7:0.3759 8:0.78452 9:0.27903 10:0.1663 11:0.6087 12:0.11118 13:0.30132 14:0.13868 15:0.28467 16:0.69753
-5 1:0.41821 2:0.3028 3:0.63279 4:0.48858 5:0.4893 6:0.59176 7:0.40241 8:0.8113 9:0.30524 10:0.17007 11:0.56522 12:0.10192 13:0.2947 14:0.13693 15:0.27737 16:0.69377
-5 1:0.39506 2:0.31963 3:0.63048 4:0.48436 5:0.50267 6:0.61539 7:0.40964 8:0.82392 9:0.32022 10:0.18262 11:0.65217 12:0.083377 13:0.32781 14:0.089624 15:0.27372 16:0.68883
-5 1:0.45062 2:0.30841 3:0.61201 4:0.4735 5:0.48128 6:0.6042 7:0.42651 8:0.73211 9:0.30712 10:0.16494 11:0.69565 12:0.11058 13:0.33444 14:0.17151 15:0.29927 16:0.69927
-5 1:0.4537 2:0.28598 3:0.60046 4:0.48945 5:0.46257 6:0.60863 7:0.37831 8:0.83372 9:0.27903 10:0.18315 11:0.56522 12:0.10749 13:0.31457 14:0.12453 15:0.29927 16:0.69266
-5 1:0.39506 2:0.28785 3:0.57737 4:0.47437 5:0.46524 6:0.58612 7:0.40241 8:0.73316 9:0.28839 10:0.17087 11:0.65217 12:0.11454 13:0.30795 14:0.15562 15:0.29562 16:0.68659
-5 1:0.41358 2:0.28411 3:0.59353 4:0.47724 5:0.45455 6:0.59522 7:0.36145 8:0.81415 9:0.27903 10:0.17542 11:0.6087 12:0.12314 13:0.29801 14:0.10459 15:0.28467 16:0.69005
-5 1:0.45062 2:0.31589 3:0.62125 4:0.48281 5:0.5 6:0.61668 7:0.45301 8:0.72089 9:0.31648 10:0.16214 11:0.52174 12:0.12885 13:0.34437 14:0.12333 15:0.29562 16:0.70569
-5 1:0.40432 2:0.2972 3:0.60508 4:0.48112 5:0.47594 6:0.6314 7:0.38072 8:0.84594 9:0.29588 10:0.17304 11:0.56522 12:0.14748 13:0.34106 14:0.14487 15:0.29927 16:0.68863
-5 1:0.41512 2:0.28972 3:0.61201 4:0.47412 5:0.47326 6:0.58519 7:0.39759 8:0.76481 9:0.30712 10:0.19157 11:0.56522 12:0.1268 13:0.30795 14:0.1288 15:0.28102 16:0.6936
-5 1:0.42284 2:0.31776 3:0.62356 4:0.46885 5:0.49733 6:0.56984 7:0.39518 8:0.8213 9:0.32022 10:0.17944 11:0.69565 12:0.13701 13:0.29801 14:0.11237 15:0.29562 16:0.68809
-5 1:0.41204 2:0.30093 3:0.56582 4:0.47745 5:0.49198 6:0.59808 7:0.40241 8:0.82323 9:0.29963 10:0.1878 11:0.69565 12:0.10451 13:0.30795 14:0.14425 15:0.29197 16:0.69893
-5 1:0.41358 2:0.3028 3:0.59353 4:0.4695 5:0.47861 6:0.56596 7:0.39277 8:0.826 9:0.30337 10:0.17195 11:0.52174 12:0.15039 13:0.34437 14:0.1674 15:0.30657 16:0.69681
-5 1:0.41975 2:0.29533 3:0.59122 4:0.47927 5:0.47326 6:0.58551 7:0.39277 8:0.80885 9:0.29401 10:0.17647 11:0.52174 12:0.12863 13:0.30795 14:0.099973 15:0.28102 16:0.69435
-5 1:0.41667 2:0.29533 3:0.61663 4:0.48937 5:0.47326 6:0.58194 7:0.41205 8:0.73255 9:0.29401 10:0.16896 11:0.6087 12:0.12187 13:0.29801 14:0.15018 15:0.29562 16:0.68579
-5 1:0.39352 2:0.28224 3:0.57044 4:0.46351 5:0.44385 6:0.57249 7:0.37108 8:0.81452 9:0.27715 10:0.17488 11:0.43478 12:0.1493 13:0.30464 14:0.14808 15:0.28832 16:0.69479
-5 1:0.43056 2:0.28598 3:0.54965 4:0.47479 5:0.46524 6:0.58125 7:0.41205 8:0.7278 9:0.28464 10:0.15778 11:0.65217 12:0.11828 13:0.30795 14:0.15765 15:0.29562 16:0.6884
-5 1:0.41204 2:0.28411 3:0.61201 4:0.47393 5:0.46257 6:0.57634 7:0.37831 8:0.82094 9:0.28464 10:0.16859 11:0.6087 12:0.10964 13:0.3245 14:0.14746 15:0.28467 16:0.70372
-5 1:0.43519 2:0.31028 3:0.60739 4:0.47728 5:0.49198 6:0.60929 7:0.44337 8:0.72663 9:0.30712 10:0.15801 11:0.69565 12:0.081584 13:0.3245 14:0.13614 15:0.29927 16:0.6948
-5 1:0.43981 2:0.27103 3:0.55889 4:0.47101 5:0.43583 6:0.56662 7:0.37831 8:0.71612 9:0.27528 10:0.15476 11:0.65217 12:0.10765 13:0.34106 14:0.15499 15:0.29562 16:0.69633
-5 1:0.41204 2:0.2785 3:0.59353 4:0.4575 5:0.45187 6:0.53509 7:0.35904 8:0.7753 9:0.27903 10:0.16812 11:0.65217 12:0.13435 13:0.31788 14:0.13813 15:0.28832 16:0.69671
-5 1:0.41512 2:0.29159 3:0.55196 4:0.46361 5:0.46791 6:0.59172 7:0.37349 8:0.82003 9:0.29401 10:0.18821 11:0.47826 12:0.15246 13:0.30132 14:0.14459 15:0.30292 16:0.68471
-5 1:0.43056 2:0.27477 3:0.5843 4:0.48098 5:0.44385 6:0.59243 7:0.35904 8:0.8166 9:0.27341 10:0.16681 11:0.69565 12:0.11231 13:0.31126 14:0.097243 15:0.28467 16:0.69009
-5 1:0.42438 2:0.28972 3:0.54965 4:0.47282 5:0.45989 6:0.57084 7:0.40241 8:0.73584 9:0.28839 10:0.15833 11:0.21739 12:0.32999 13:0.31457 14:0.10662 15:0.27007 16:0.69343
-5 1:0.41821 2:0.28411 3:0.55658 4:0.48077 5:0.45989 6:0.61436 7:0.3759 8:0.81959 9:0.28839 10:0.18442 11:0.65217 12:0.11102 13:0.32781 14:0.09975 15:0.28102 16:0.6977
-5 1:0.41358 2:0.28972 3:0.58661 4:0.46139 5:0.45455 6:0.57827 7:0.3759 8:0.80184 9:0.28652 10:0.17529 11:0.65217 12:0.096682 13:0.33775 14:0.13707 15:0.28467 16:0.6973
-5 1:0.44444 2:0.29159 3:0.5843 4:0.47598 5:0.47326 6:0.61451 7:0.39036 8:0.81798 9:0.29401 10:0.1657 11:0.6087 12:0.11003 13:0.30464 14:0.13109 15:0.29562 16:0.69377
-5 1:0.39815 2:0.28037 3:0.59122 4:0.48355 5:0.45722 6:0.5891 7:0.37349 8:0.81005 9:0.27528 10:0.15843 11:0.6087 12:0.1164 13:0.28808 14:0.13232 15:0.28467 16:0.68896
-5 1:0.40741 2:0.25421 3:0.54273 4:0.45859 5:0.41176 6:0.54201 7:0.34458 8:0.72249 9:0.25655 10:0.13656 11:0.52174 12:0.12857 13:0.31457 14:0.16377 15:0.28467 16:0.68389
-5 1:0.40432 2:0.26916 3:0.59815 4:0.48187 5:0.4385 6:0.55386 7:0.35904 8:0.79548 9:0.26779 10:0.16971 11:0.65217 12:0.10454 13:0.27152 14:0.12796 15:0.28102 16:0.68409
-5 1:0.39043 2:0.28224 3:0.57968 4:0.46914 5:0.45187 6:0.57753 7:0.3759 8:0.7784 9:0.27903 10:0.16236 11:0.56522 12:0.11311 13:0.30464 14:0.15101 15:0.28832 16:0.68865
-5 1:0.4321 2:0.3028 3:0.61663 4:0.48036 5:0.49198 6:0.61398 7:0.4506 8:0.73496 9:0.29963 10:0.17387 11:0.65217 12:0.12105 13:0.30795 14:0.14433 15:0.27372 16:0.70338
-5 1:0.39815 2:0.30654 3:0.61663 4:0.4866 5:0.4893 6:0.58367 7:0.39759 8:0.83068 9:0.30712 10:0.17632 11:0.52174 12:0.12244 13:0.31788 14:0.10278 15:0.28832 16:0.6967
-5 1:0.42284 2:0.28972 3:0.56813 4:0.46861 5:0.46257 6:0.5784 7:0.38072 8:0.78981 9:0.29213 10:0.15693 11:0.65217 12:0.11571 13:0.33113 14:0.1406 15:0.29562 16:0.70213
-5 1:0.45062 2:0.3028 3:0.61894 4:0.48457 5:0.48396 6:0.60175 7:0.40241 8:0.80056 9:0.3015 10:0.18595 11:0.47826 12:0.13833 13:0.32119 14:0.13343 15:0.29562 16:0.69902
-5 1:0.42901 2:0.31589 3:0.63741 4:0.47519 5:0.50267 6:0.63351 7:0.41687 8:0.83766 9:0.31461 10:0.22925 11:0.52174 12:0.15367 13:0.33444 14:0.11328 15:0.29927 16:0.69148
-5 1:0.43981 2:0.27477 3:0.59584 4:0.49383 5:0.44652 6:0.64083 7:0.39277 8:0.76751 9:0.27528 10:0.16883 11:0.52174 12:0.17022 13:0.32781 14:0.13227 15:0.27007 16:0.71458
-5 1:0.38426 2:0.25607 3:0.57044 4:0.47469 5:0.42246 6:0.55929 7:0.36627 8:0.71697 9:0.25843 10:0.15821 11:0.6087 12:0.10494 13:0.30464 14:0.15666 15:0.26277 16:0.68773
-5 1:0.41667 2:0.26168 3:0.57275 4:0.47743 5:0.43316 6:0.5966 7:0.35663 8:0.80928 9:0.26217 10:0.17201 11:0.56522 12:0.11399 13:0.30132 14:0.15624 15:0.28832 16:0.69936
-5 1:0.42284 2:0.29533 3:0.61663 4:0.47881 5:0.47326 6:0.57031 7:0.38795 8:0.79266 9:0.29401 10:0.17693 11:0.69565 12:0.12035 13:0.29139 14:0.1411 15:0.29197 16:0.68856
-5 1:0.43673 2:0.2972 3:0.60508 4:0.47799 5:0.47594 6:0.56004 7:0.37831 8:0.81317 9:0.29588 10:0.17985 11:0.47826 12:0.15218 13:0.29801 14:0.15817 15:0.29197 16:0.6805
-5 1:0.40278 2:0.27477 3:0.58891 4:0.47668 5:0.43583 6:0.5732 7:0.41205 8:0.71739 9:0.27341 10:0.16593 11:0.65217 12:0.10586 13:0.3245 14:0.15547 15:0.29197 16:0.68263
-5 1:0.40741 2:0.28972 3:0.56351 4:0.47221 5:0.47861 6:0.59894 7:0.39036 8:0.80986 9:0.29213 10:0.19121 11:0.56522 12:0.12253 13:0.2947 14:0.12798 15:0.29927 16:0.68575
-5 1:0.40741 2:0.27477 3:0.59122 4:0.47063 5:0.44385 6:0.58493 7:0.37108 8:0.78887 9:0.27341 10:0.16419 11:0.6087 12:0.10079 13:0.33113 14:0.14819 15:0.28832 16:0.70464
-5 1:0.42284 2:0.29533 3:0.57737 4:0.47988 5:0.47326 6:0.5824 7:0.37831 8:0.82615 9:0.29401 10:0.16633 11:0.6087 12:0.11464 13:0.30795 14:0.12324 15:0.29927 16:0.70792
-5 1:0.41667 2:0.2785 3:0.58891 4:0.49908 5:0.44652 6:0.62047 7:0.35422 8:0.82908 9:0.27341 10:0.17558 11:0.6087 12:0.095422 13:0.30795 14:0.099536 15:0.28832 16:0.70265
-5 1:0.41049 2:0.28785 3:0.58661 4:0.48351 5:0.46791 6:0.61928 7:0.3759 8:0.82542 9:0.28652 10:0.19095 11:0.65217 12:0.12114 13:0.28146 14:0.12395 15:0.29197 16:0.69219
-5 1:0.40123 2:0.26729 3:0.57044 4:0.47347 5:0.43048 6:0.58336 7:0.35422 8:0.79803 9:0.26404 10:0.16946 11:0.56522 12:0.13705 13:0.29139 14:0.14994 15:0.29927 16:0.69012
-5 1:0.37037 2:0.2785 3:0.56813 4:0.47858 5:0.44652 6:0.60316 7:0.36145 8:0.83136 9:0.27341 10:0.16196 11:0.56522 12:0.094383 13:0.29139 14:0.13029 15:0.28832 16:0.69309
-5 1:0.40895 2:0.2729 3:0.57968 4:0.47716 5:0.4385 6:0.59203 7:0.3494 8:0.82583 9:0.27154 10:0.17682 11:0.52174 12:0.12684 13:0.29139 14:0.12463 15:0.29197 16:0.68041
-5 1:0.40895 2:0.28972 3:0.59584 4:0.46926 5:0.45455 6:0.5724 7:0.36386 8:0.81062 9:0.29026 10:0.18014 11:0.34783 12:0.19027 13:0.32119 14:0.15421 15:0.29562 16:0.69692
-5 1:0.38272 2:0.25794 3:0.55196 4:0.46674 5:0.41444 6:0.56441 7:0.36627 8:0.71165 9:0.26217 10:0.13182 11:0.69565 12:0.11435 13:0.30795 14:0.17237 15:0.25547 16:0.69441
-5 1:0.46142 2:0.30654 3:0.61663 4:0.48794 5:0.49198 6:0.64549 7:0.43373 8:0.76579 9:0.31086 10:0.18128 11:0.56522 12:0.11731 13:0.31126 14:0.10751 15:0.29197 16:0.69199
-5 1:0.45062 2:0.29346 3:0.56582 4:0.47346 5:0.46524 6:0.59375 7:0.38313 8:0.81735 9:0.29213 10:0.18377 11:0.56522 12:0.11679 13:0.33113 14:0.13026 15:0.29562 16:0.70535
-5 1:0.41821 2:0.28037 3:0.60739 4:0.48661 5:0.46257 6:0.57728 7:0.36867 8:0.82079 9:0.27715 10:0.1599 11:0.56522 12:0.11307 13:0.2947 14:0.16321 15:0.28467 16:0.69638
-5 1:0.41049 2:0.29907 3:0.58199 4:0.47403 5:0.47861 6:0.5943 7:0.39759 8:0.80244 9:0.3015 10:0.18215 11:0.69565 12:0.11455 13:0.32781 14:0.13519 15:0.27737 16:0.68597
-5 1:0.41049 2:0.29346 3:0.55658 4:0.47076 5:0.47059 6:0.59268 7:0.38313 8:0.8128 9:0.29401 10:0.15859 11:0.6087 12:0.12367 13:0.30132 14:0.17928 15:0.29562 16:0.69413
-5 1:0.47685 2:0.31215 3:0.62818 4:0.49218 5:0.50267 6:0.65034 7:0.4241 8:0.79738 9:0.30899 10:0.20309 11:0.6087 12:0.10259 13:0.32119 14:0.10377 15:0.29927 16:0.69317
-5 1:0.39969 2:0.2729 3:0.54965 4:0.46787 5:0.44118 6:0.56433 7:0.36627 8:0.79598 9:0.27715 10:0.14941 11:0.6087 12:0.12827 13:0.29139 14:0.15974 15:0.28832 16:0.67946
-5 1:0.47377 2:0.31589 3:0.64896 4:0.49216 5:0.5107 6:0.64289 7:0.45301 8:0.73607 9:0.3221 10:0.16094 11:0.6087 12:0.10853 13:0.31788 14:0.11705 15:0.28832 16:0.70035
-5 1:0.45679 2:0.30841 3:0.63972 4:0.49202 5:0.49733 6:0.6067 7:0.41205 8:0.82469 9:0.30899 10:0.18307 11:0.56522 12:0.12891 13:0.31457 14:0.11573 15:0.27007 16:0.70033
-5 1:0.40586 2:0.29533 3:0.5843 4:0.48104 5:0.46257 6:0.59823 7:0.37349 8:0.82284 9:0.29026 10:0.17148 11:0.69565 12:0.11424 13:0.28477 14:0.14203 15:0.28467 16:0.68956
-5 1:0.40123 2:0.30467 3:0.59584 4:0.48447 5:0.47861 6:0.59475 7:0.38554 8:0.82628 9:0.29401 10:0.18822 11:0.47826 12:0.13718 13:0.31126 14:0.11563 15:0.29562 16:0.69728
-5 1:0.40586 2:0.26729 3:0.55658 4:0.46884 5:0.4385 6:0.56636 7:0.35181 8:0.80896 9:0.26966 10:0.17742 11:0.65217 12:0.12602 13:0.30132 14:0.12065 15:0.28832 16:0.69149
-5 1:0.41049 2:0.30654 3:0.60277 4:0.47368 5:0.48128 6:0.58937 7:0.38554 8:0.8015 9:0.29963 10:0.15065 11:0.69565 12:0.12134 13:0.31457 14:0.17089 15:0.29197 16:0.68159
-5 1:0.36574 2:0.28224 3:0.57737 4:0.46882 5:0.4492 6:0.5818 7:0.36627 8:0.80835 9:0.2809 10:0.16037 11:0.52174 12:0.12411 13:0.31457 14:0.14892 15:0.29562 16:0.69514
-5 1:0.4321 2:0.28224 3:0.58199 4:0.48074 5:0.45989 6:0.5979 7:0.39759 8:0.75317 9:0.28464 10:0.18107 11:0.65217 12:0.11891 13:0.2947 14:0.16223 15:0.28832 16:0.68491
-5 1:0.43364 2:0.27103 3:0.57968 4:0.47559 5:0.44385 6:0.57661 7:0.41205 8:0.71514 9:0.27341 10:0.17009 11:0.30435 12:0.31591 13:0.30132 14:0.15336 15:0.29197 16:0.69937
-5 1:0.39506 2:0.26355 3:0.57275 4:0.49757 5:0.43316 6:0.57608 7:0.33494 8:0.81829 9:0.26404 10:0.16916 11:0.65217 12:0.10758 13:0.31457 14:0.16994 15:0.29197 16:0.66961
-5 1:0.41049 2:0.3215 3:0.59584 4:0.47132 5:0.5107 6:0.57908 7:0.41446 8:0.81709 9:0.3221 10:0.15932 11:0.56522 12:0.13702 13:0.33775 14:0.12254 15:0.30292 16:0.69206
-5 1:0.43519 2:0.31776 3:0.60046 4:0.4778 5:0.50802 6:0.58132 7:0.41687 8:0.81541 9:0.32022 10:0.16918 11:0.47826 12:0.15284 13:0.34106 14:0.13132 15:0.29562 16:0.69391
-5 1:0.41358 2:0.29159 3:0.60277 4:0.48663 5:0.47594 6:0.59043 7:0.37831 8:0.82876 9:0.28839 10:0.16283 11:0.65217 12:0.1351 13:0.31788 14:0.12391 15:0.29197 16:0.68102
-5 1:0.41975 2:0.2729 3:0.57968 4:0.48108 5:0.44652 6:0.58194 7:0.35904 8:0.82273 9:0.27528 10:0.16557 11:0.56522 12:0.12319 13:0.30132 14:0.13385 15:0.29562 16:0.70165
-5 1:0.37346 2:0.28411 3:0.58661 4:0.47663 5:0.4492 6:0.60169 7:0.35904 8:0.8049 9:0.2809 10:0.15931 11:0.73913 12:0.11827 13:0.29801 14:0.17113 15:0.29562 16:0.68506
-5 1:0.40278 2:0.26729 3:0.57737 4:0.47552 5:0.43316 6:0.56051 7:0.37831 8:0.71844 9:0.26966 10:0.14079 11:0.65217 12:0.12309 13:0.32119 14:0.14895 15:0.29927 16:0.6939
-5 1:0.38735 2:0.28411 3:0.56351 4:0.46942 5:0.45187 6:0.58736 7:0.4 8:0.7217 9:0.28277 10:0.15264 11:0.56522 12:0.072237 13:0.30464 14:0.15632 15:0.29562 16:0.67898
-5 1:0.42284 2:0.30467 3:0.61894 4:0.4797 5:0.49465 6:0.61439 7:0.40241 8:0.82697 9:0.30899 10:0.17053 11:0.52174 12:0.1273 13:0.30132 14:0.12258 15:0.28832 16:0.69585
-5 1:0.43056 2:0.28037 3:0.5358 4:0.46805 5:0.45989 6:0.60272 7:0.37349 8:0.81141 9:0.27903 10:0.19966 11:0.65217 12:0.12255 13:0.31457 14:0.13992 15:0.28832 16:0.68582
-5 1:0.45525 2:0.30654 3:0.63741 4:0.48511 5:0.5 6:0.62384 7:0.45783 8:0.73127 9:0.30712 10:0.17426 11:0.65217 12:0.11371 13:0.30132 14:0.14736 15:0.29197 16:0.69622
-5 1:0.40895 2:0.28224 3:0.59584 4:0.47604 5:0.45455 6:0.57171 7:0.36386 8:0.80203 9:0.2809 10:0.16295 11:0.52174 12:0.11613 13:0.31457 14:0.14749 15:0.30292 16:0.69903
-5 1:0.40278 2:0.31776 3:0.61201 4:0.47999 5:0.49465 6:0.59504 7:0.40964 8:0.82153 9:0.31273 10:0.16799 11:0.56522 12:0.12605 13:0.29139 14:0.1464 15:0.29197 16:0.68575
-5 1:0.43056 2:0.28785 3:0.58199 4:0.48022 5:0.47059 6:0.58616 7:0.39036 8:0.80243 9:0.28464 10:0.17965 11:0.6087 12:0.099561 13:0.30795 14:0.15425 15:0.30292 16:0.69683
-5 1:0.38426 2:0.30093 3:0.5843 4:0.46864 5:0.46791 6:0.57957 7:0.38554 8:0.80564 9:0.29963 10:0.16608 11:0.65217 12:0.10156 13:0.3245 14:0.13903 15:0.29562 16:0.69216
-5 1:0.41821 2:0.29159 3:0.59584 4:0.47618 5:0.46791 6:0.55458 7:0.40964 8:0.72231 9:0.29026 10:0.15331 11:0.6087 12:0.11209 13:0.31457 14:0.13635 15:0.29562 16:0.68833
-5 1:0.42438 2:0.30093 3:0.61432 4:0.48529 5:0.48663 6:0.59665 7:0.39277 8:0.80985 9:0.3015 10:0.18259 11:0.52174 12:0.11701 13:0.30132 14:0.12597 15:0.28832 16:0.70267
-5 1:0.40741 2:0.28785 3:0.58891 4:0.48068 5:0.46524 6:0.57859 7:0.40482 8:0.73074 9:0.29213 10:0.16628 11:0.21739 12:0.36592 13:0.29139 14:0.12075 15:0.28467 16:0.7034
-5 1:0.39969 2:0.26168 3:0.59353 4:0.47691 5:0.43316 6:0.56254 7:0.3494 8:0.78225 9:0.25843 10:0.17054 11:0.73913 12:0.11088 13:0.30132 14:0.11584 15:0.28832 16:0.6959
-5 1:0.41358 2:0.29346 3:0.57506 4:0.47481 5:0.46257 6:0.59518 7:0.36867 8:0.82428 9:0.28839 10:0.14734 11:0.56522 12:0.12984 13:0.33113 14:0.13377 15:0.29197 16:0.69606
-5 1:0.40895 2:0.28411 3:0.59584 4:0.4639 5:0.45989 6:0.57132 7:0.4 8:0.72609 9:0.28277 10:0.1432 11:0.56522 12:0.11515 13:0.30132 14:0.17594 15:0.29927 16:0.69944
-5 1:0.39969 2:0.28972 3:0.57275 4:0.47631 5:0.45722 6:0.57816 7:0.40482 8:0.72143 9:0.29401 10:0.17115 11:0.6087 12:0.11211 13:0.31457 14:0.17925 15:0.28467 16:0.69263
-5 1:0.41512 2:0.28972 3:0.59584 4:0.47929 5:0.46257 6:0.56919 7:0.4 8:0.74066 9:0.28277 10:0.16654 11:0.78261 12:0.11637 13:0.31126 14:0.14613 15:0.29927 16:0.71599
-5 1:0.41204 2:0.3028 3:0.59815 4:0.47759 5:0.48128 6:0.5908 7:0.4506 8:0.70601 9:0.3015 10:0.15316 11:0.6087 12:0.10953 13:0.33113 14:0.15094 15:0.30292 16:0.69703
-5 1:0.38117 2:0.28972 3:0.6097 4:0.47433 5:0.45722 6:0.60568 7:0.3759 8:0.80729 9:0.28839 10:0.1728 11:0.73913 12:0.1123 13:0.31126 14:0.13744 15:0.29562 16:0.68478
-5 1:0.40278 2:0.29533 3:0.5843 4:0.47488 5:0.47059 6:0.59512 7:0.38554 8:0.81556 9:0.29588 10:0.17488 11:0.6087 12:0.11965 13:0.34437 14:0.11132 15:0.29197 16:0.70522
-5 1:0.39043 2:0.26729 3:0.57275 4:0.48595 5:0.43583 6:0.58004 7:0.33976 8:0.83727 9:0.26404 10:0.18879 11:0.56522 12:0.10288 13:0.29801 14:0.16896 15:0.29197 16:0.6905
-5 1:0.44136 2:0.31963 3:0.61432 4:0.48047 5:0.49733 6:0.60735 7:0.40482 8:0.83358 9:0.31648 10:0.18459 11:0.47826 12:0.16353 13:0.33775 14:0.13356 15:0.30657 16:0.70148
-5 1:0.42747 2:0.28972 3:0.54965 4:0.46726 5:0.46257 6:0.59544 7:0.36627 8:0.81475 9:0.28277 10:0.16644 11:0.6087 12:0.1127 13:0.33775 14:0.14767 15:0.29197 16:0.68266
-5 1:0.41049 2:0.2785 3:0.57044 4:0.47653 5:0.45455 6:0.57899 7:0.36386 8:0.82176 9:0.27715 10:0.17307 11:0.73913 12:0.12805 13:0.30132 14:0.13443 15:0.25547 16:0.67996
-5 1:0.41204 2:0.28224 3:0.61201 4:0.47527 5:0.45722 6:0.56309 7:0.4 8:0.73504 9:0.28464 10:0.14785 11:0.26087 12:0.36229 13:0.33113 14:0.044755 15:0.28102 16:0.68422
-5 1:0.42593 2:0.26916 3:0.57968 4:0.47024 5:0.44118 6:0.60958 7:0.36386 8:0.81028 9:0.26404 10:0.1698 11:0.65217 12:0.11354 13:0.30795 14:0.13289 15:0.29197 16:0.68818
-5 1:0.42438 2:0.3028 3:0.59122 4:0.47661 5:0.48396 6:0.6099 7:0.38795 8:0.83341 9:0.30524 10:0.17099 11:0.52174 12:0.12863 13:0.32119 14:0.12425 15:0.29197 16:0.6973
-5 1:0.40895 2:0.27477 3:0.55889 4:0.48266 5:0.44385 6:0.58513 7:0.36145 8:0.80685 9:0.27715 10:0.16178 11:0.52174 12:0.1272 13:0.2947 14:0.12761 15:0.29197 16:0.68589
-5 1:0.43827 2:0.30654 3:0.58661 4:0.47285 5:0.47861 6:0.61327 7:0.39036 8:0.82617 9:0.30712 10:0.1804 11:0.52174 12:0.12474 13:0.32119 14:0.12256 15:0.29562 16:0.695
-5 1:0.40895 2:0.31776 3:0.63741 4:0.48569 5:0.5 6:0.57528 7:0.40241 8:0.82493 9:0.32022 10:0.15938 11:0.69565 12:0.12912 13:0.31788 14:0.063008 15:0.29197 16:0.69759
-5 1:0.43673 2:0.29159 3:0.57737 4:0.47746 5:0.46257 6:0.60688 7:0.37831 8:0.8112 9:0.29026 10:0.17572 11:0.56522 12:0.1186 13:0.31457 14:0.13356 15:0.28832 16:0.69228
 