svm_type c_svc
kernel_type rbf
gamma 0.3125
nr_class 3
total_sv 195
rho 1.0943 -0.76136 -1.2414
label 3 1 2
nr_sv 74 119 2
SV
5 0 1:0.13344 2:0.16111 3:0.20958 4:0.39514 5:0.20037 6:0.11762 7:0.19601 8:0.2737 9:0.1615 10:0.25464 11:0.29167 12:0.45551 13:0.078358 14:0.17889 15:0.10517 16:0.43128
5 0 1:0.15297 2:0.21806 3:0.24661 4:0.38121 5:0.21958 6:0.1136 7:0.22051 8:0.24001 9:0.22104 10:0.26714 11:0.33333 12:0.54467 13:0.08209 14:0.12995 15:0.094096 16:0.48361
5 0 1:0.29211 2:0.19121 3:0.21409 4:0.42647 5:0.20311 6:0.21279 7:0.21779 8:0.17469 9:0.18923 10:0.14077 11:0.33333 12:0.41306 13:0.08209 14:0.14055 15:0.053506 16:0.56238
5 0 1:0.17006 2:0.24003 3:0.26739 4:0.40882 5:0.25435 6:0.14363 7:0.26134 8:0.18084 9:0.2398 10:0.17712 11:0.375 12:0.62621 13:0.11007 14:0.13627 15:0.14022 16:0.43972
5 0 1:0.10903 2:0.069162 3:0.082204 4:0.33293 5:0.068618 6:0.07848 7:0.078947 8:0.13223 9:0.070147 10:0.18264 11:0.375 12:0.60361 13:0.080224 14:0.15222 15:0.10701 16:0.36365
5 0 1:0.093572 2:0.06428 3:0.074977 4:0.3159 5:0.064044 6:0.038801 7:0.07078 8:0.12067 9:0.063622 10:0.13882 11:0.33333 12:0.62973 13:0.070896 14:0.1556 15:0.088561 16:0.36702
5 0 1:0.17494 2:0.16273 3:0.1897 4:0.32775 5:0.16468 6:0.11947 7:0.17241 8:0.18063 9:0.1615 10:0.17615 11:0.375 12:0.61871 13:0.072761 14:0.13463 15:0.10332 16:0.43174
5 0 1:0.12449 2:0.12286 3:0.11382 4:0.30631 5:0.096981 6:0.1258 7:0.11706 8:0.10108 9:0.1199 10:0.17078 11:0.41667 12:0.62599 13:0.057836 14:0.17259 15:0.070111 16:0.46479
5 0 1:0.11798 2:0.12775 3:0.11021 4:0.36536 5:0.088747 6:0.10597 7:0.096189 8:0.13118 9:0.1248 10:0.14079 11:0.375 12:0.59585 13:0.063433 14:0.10699 15:0.081181 16:0.44961
5 0 1:0.17168 2:0.14565 3:0.14273 4:0.37136 5:0.1226 6:0.11192 7:0.12886 8:0.20119 9:0.14682 10:0.17311 11:0.29167 12:0.62884 13:0.085821 14:0.14302 15:0.11993 16:0.45572
5 0 1:0.53784 2:0.24898 3:0.28455 4:0.41949 5:0.26807 6:0.20244 7:0.28312 8:0.17922 9:0.24959 10:0.16818 11:0.5 12:0.49761 13:0.095149 14:0.22806 15:0.066421 16:0.64693
5 0 1:0.10822 2:0.092758 3:0.090334 4:0.3932 5:0.068618 6:0.1153 7:0.08167 8:0.12239 9:0.092985 10:0.20878 11:0.33333 12:0.63004 13:0.085821 14:0.068733 15:0.095941 16:0.39451
5 0 1:0.17413 2:0.24654 3:0.24752 4:0.4075 5:0.25984 6:0.21507 7:0.24592 8:0.35312 9:0.2447 10:0.16822 11:0.45833 12:0.50627 13:0.1194 14:0.19341 15:0.19557 16:0.49342
5 3.1167 1:0.061025 2:0.32465 3:0.36043 4:0.40916 5:0.36322 6:0.20063 7:0.37205 8:0.17366 9:0.32463 10:0.15378 11:0.33333 12:0.62112 13:0.087687 14:0.15634 15:0.14945 16:0.45292
5 0 1:0.23352 2:0.26037 3:0.28455 4:0.42195 5:0.26898 6:0.2015 7:0.25953 8:0.34294 9:0.25775 10:0.14413 11:0.41667 12:0.50875 13:0.10634 14:0.21297 15:0.14576 16:0.43783
5 0 1:0.056143 2:0.17413 3:0.23577 4:0.37958 5:0.21592 6:0.11637 7:0.20599 8:0.23853 9:0.17292 10:0.23992 11:0.45833 12:0.507 13:0.074627 14:0.14427 15:0.088561 16:0.4496
5 0 1:0.12531 2:0.10903 3:0.091238 4:0.33726 5:0.079597 6:0.11413 7:0.088022 8:0.13886 9:0.10848 10:0.17418 11:0.45833 12:0.55676 13:0.087687 14:0.14757 15:0.12177 16:0.3872
5 0 1:0.5533 2:0.25549 3:0.28365 4:0.42527 5:0.27173 6:0.20141 7:0.27768 8:0.19749 9:0.25449 10:0.15075 11:0.45833 12:0.48598 13:0.11194 14:0.20976 15:0.083026 16:0.6259
5 0 1:0.09764 2:0.13914 3:0.18067 4:0.34851 5:0.15554 6:0.10086 7:0.16515 8:0.18908 9:0.13948 10:0.15643 11:0.375 12:0.63154 13:0.076493 14:0.15039 15:0.097786 16:0.40999
5 0 1:0.13995 2:0.098454 3:0.13731 4:0.38072 5:0.11711 6:0.11227 7:0.11887 8:0.19953 9:0.097879 10:0.14732 11:0.33333 12:0.62864 13:0.074627 14:0.097919 15:0.097786 16:0.43309
5 0 1:0.1367 2:0.11391 3:0.17615 4:0.3772 5:0.15462 6:0.099155 7:0.1461 8:0.23161 9:0.11582 10:0.21425 11:0.5 12:0.49763 13:0.070896 14:0.1691 15:0.10886 16:0.4017
5 0 1:0.11066 2:0.10415 3:0.11292 4:0.3355 5:0.1043 6:0.092581 7:0.11252 8:0.14342 9:0.10277 10:0.14455 11:0.29167 12:0.62447 13:0.085821 14:0.12994 15:0.10701 16:0.43275
5 0 1:0.27421 2:0.29699 3:0.32069 4:0.41934 5:0.3193 6:0.14914 7:0.30581 8:0.29236 9:0.29608 10:0.1616 11:0.45833 12:0.49985 13:0.11567 14:0.25238 15:0.2048 16:0.46764
5 0 1:0.091131 2:0.089504 3:0.093948 4:0.29069 5:0.086002 6:0.1126 7:0.093466 8:0.14132 9:0.088091 10:0.20681 11:0.375 12:0.61513 13:0.067164 14:0.093179 15:0.075646 16:0.41726
5 0 1:0.086249 2:0.19121 3:0.19151 4:0.40488 5:0.2022 6:0.20984 7:0.2069 8:0.17565 9:0.19086 10:0.16233 11:0.41667 12:0.57787 13:0.11007 14:0.13133 15:0.11993 16:0.46657
5 0 1:0.07323 2:0.1489 3:0.21409 4:0.34498 5:0.19579 6:0.12687 7:0.17604 8:0.24947 9:0.14763 10:0.24723 11:0.41667 12:0.52925 13:0.067164 14:0.12027 15:0.131 16:0.45484
5 0 1:0.20179 2:0.2319 3:0.26649 4:0.41995 5:0.2452 6:0.1937 7:0.2323 8:0.33663 9:0.23165 10:0.1562 11:0.375 12:0.48426 13:0.11194 14:0.22303 15:0.19557 16:0.49821
5 0 1:0.14402 2:0.11229 3:0.15176 4:0.34719 5:0.13449 6:0.10952 7:0.13702 8:0.1677 9:0.10685 10:0.13521 11:0.375 12:0.6693 13:0.074627 14:0.19604 15:0.10701 16:0.36176
5 0 1:0.17738 2:0.34337 3:0.26378 4:0.41211 5:0.23696 6:0.18106 7:0.23503 8:0.30383 9:0.34502 10:0.2476 11:0.375 12:0.51684 13:0.098881 14:0.13873 15:0.11624 16:0.45033
5 0 1:0.13181 2:0.13588 3:0.16983 4:0.38066 5:0.14273 6:0.10959 7:0.14338 8:0.1761 9:0.13866 10:0.22923 11:0.375 12:0.65484 13:0.072761 14:0.10398 15:0.057196 16:0.51305
5 0 1:0.24898 2:0.24247 3:0.23216 4:0.41689 5:0.25892 6:0.22965 7:0.2804 8:0.17008 9:0.24144 10:0.15604 11:0.41667 12:0.51208 13:0.10821 14:0.21007 15:0.081181 16:0.6335
5 0 1:0.053702 2:0.16029 3:0.19603 4:0.3814 5:0.18756 6:0.095795 7:0.17967 8:0.22276 9:0.16069 10:0.24698 11:0.45833 12:0.50184 13:0.044776 14:0.13175 15:0.15683 16:0.45833
5 0 1:0.13507 2:0.077299 3:0.11021 4:0.33383 5:0.096981 6:0.1108 7:0.098911 8:0.18819 9:0.076672 10:0.099068 11:0.33333 12:0.63173 13:0.10075 14:0.081899 15:0.10148 16:0.45724
5 0 1:0.10822 2:0.1131 3:0.11472 4:0.2942 5:0.10522 6:0.1163 7:0.11343 8:0.10369 9:0.11175 10:0.21125 11:0.41667 12:0.60314 13:0.061567 14:0.12808 15:0.084871 16:0.42285
5 0 1:0.42311 2:0.25712 3:0.271 4:0.42938 5:0.27356 6:0.24718 7:0.29038 8:0.20465 9:0.25612 10:0.15325 11:0.5 12:0.46977 13:0.12127 14:0.17954 15:0.095941 16:0.59383
5 0 1:0.131 2:0.10171 3:0.11201 4:0.35911 5:0.098811 6:0.098378 7:0.10708 8:0.14646 9:0.099511 10:0.15506 11:0.33333 12:0.62976 13:0.080224 14:0.13617 15:0.099631 16:0.43161
5 0 1:0.2441 2:0.10496 3:0.10479 4:0.38746 5:0.078683 6:0.10721 7:0.097096 8:0.1656 9:0.10604 10:0.23327 11:0.375 12:0.61578 13:0.070896 14:0.12334 15:0.10148 16:0.43325
5 0 1:0.16273 2:0.14076 3:0.11292 4:0.34979 5:0.096066 6:0.14213 7:0.11706 8:0.12004 9:0.13948 10:0.11556 11:0.41667 12:0.5927 13:0.039179 14:0.099685 15:0.01845 16:0.50354
5 0 1:0.12937 2:0.11391 3:0.10027 4:0.35013 5:0.080512 6:0.1212 7:0.095281 8:0.17458 9:0.11582 10:0.1886 11:0.375 12:0.60203 13:0.089552 14:0.13064 15:0.14022 16:0.39935
5 0 1:0.056957 2:0.13181 3:0.15537 4:0.37951 5:0.13449 6:0.10249 7:0.1461 8:0.13962 9:0.13214 10:0.14597 11:0.375 12:0.56405 13:0.11381 14:0.06832 15:0.11255 16:0.44674
5 0 1:0.11147 2:0.18959 3:0.24661 4:0.38371 5:0.23788 6:0.11012 7:0.22958 8:0.25965 9:0.19086 10:0.23837 11:0.54167 12:0.53711 13:0.076493 14:0.15638 15:0.13284 16:0.42799
5 0 1:0.2498 2:0.24573 3:0.26649 4:0.40857 5:0.26349 6:0.21283 7:0.27495 8:0.17916 9:0.24388 10:0.16183 11:0.54167 12:0.47462 13:0.10634 14:0.19393 15:0.077491 16:0.60352
5 0 1:0.1074 2:0.10822 3:0.14002 4:0.37393 5:0.12534 6:0.086161 7:0.12069 8:0.20392 9:0.10685 10:0.11579 11:0.29167 12:0.67281 13:0.070896 14:0.13815 15:0.10701 16:0.41885
5 2.5895 1:0.17006 2:0.16111 3:0.13098 4:0.4137 5:0.10887 6:0.065461 7:0.10526 8:0.177 9:0.15742 10:0.16464 11:0.45833 12:0.50955 13:0.10075 14:0.21982 15:0.131 16:0.42851
5 0 1:0.14076 2:0.1188 3:0.095754 4:0.33815 5:0.081427 6:0.10477 7:0.097096 8:0.13515 9:0.11909 10:0.17798 11:0.41667 12:0.61887 13:0.097015 14:0.11181 15:0.13653 16:0.38758
5 0 1:0.091131 2:0.14158 3:0.15086 4:0.36709 5:0.14913 6:0.14143 7:0.16606 8:0.17553 9:0.13948 10:0.1485 11:0.33333 12:0.61977 13:0.083955 14:0.1534 15:0.12915 16:0.40749
5 0 1:0.089504 2:0.14972 3:0.11563 4:0.35542 5:0.10156 6:0.13566 7:0.11343 8:0.14278 9:0.14927 10:0.19839 11:0.375 12:0.60796 13:0.044776 14:0.11819 15:0.079336 16:0.45631
5 0 1:0.40765 2:0.22376 3:0.24029 4:0.40851 5:0.23971 6:0.19632 7:0.22595 8:0.34624 9:0.22186 10:0.15356 11:0.41667 12:0.50315 13:0.11007 14:0.19648 15:0.16421 16:0.46359
5 0 1:0.1546 2:0.16436 3:0.22764 4:0.37645 5:0.20586 6:0.11562 7:0.19964 8:0.24314 9:0.16476 10:0.23949 11:0.5 12:0.521 13:0.080224 14:0.13078 15:0.12546 16:0.45725
5 0 1:0.067535 2:0.12856 3:0.19151 4:0.38056 5:0.16926 6:0.11757 7:0.1588 8:0.26304 9:0.12806 10:0.2359 11:0.5 12:0.51812 13:0.076493 14:0.11828 15:0.081181 16:0.4606
5 0 1:0.14727 2:0.24003 3:0.26107 4:0.40708 5:0.25435 6:0.16235 7:0.26225 8:0.17761 9:0.23654 10:0.16901 11:0.33333 12:0.64658 13:0.10821 14:0.13127 15:0.15498 16:0.48444
5 0 1:0.11798 2:0.076485 3:0.1093 4:0.3728 5:0.083257 6:0.072702 7:0.083485 8:0.17926 9:0.077488 10:0.18718 11:0.33333 12:0.62676 13:0.061567 14:0.108 15:0.11993 16:0.43069
5 0 1:0.19609 2:0.12449 3:0.15266 4:0.33997 5:0.12443 6:0.077731 7:0.12886 8:0.1664 9:0.1248 10:0.18484 11:0.33333 12:0.66013 13:0.078358 14:0.19689 15:0.12731 16:0.36946
5 0 1:0.22539 2:0.23434 3:0.27191 4:0.42756 5:0.25343 6:0.20097 7:0.26044 8:0.17524 9:0.23165 10:0.14567 11:0.45833 12:0.47955 13:0.087687 14:0.21657 15:0.060886 16:0.63255
5 0 1:0.091131 2:0.11635 3:0.099368 4:0.35781 5:0.086002 6:0.093931 7:0.097096 8:0.16205 9:0.11419 10:0.13456 11:0.375 12:0.59821 13:0.06903 14:0.14584 15:0.13838 16:0.4066
5 0 1:0.10659 2:0.18633 3:0.20777 4:0.36043 5:0.19579 6:0.11632 7:0.18784 8:0.24778 9:0.1876 10:0.26605 11:0.5 12:0.53247 13:0.10075 14:0.1343 15:0.15129 16:0.44057
5 0 1:0.13914 2:0.11066 3:0.12014 4:0.34658 5:0.10613 6:0.11141 7:0.12069 8:0.15539 9:0.1093 10:0.13152 11:0.25 12:0.68665 13:0.052239 14:0.12975 15:0.092251 16:0.433
5 0 1:0.1009 2:0.11229 3:0.14182 4:0.38579 5:0.11619 6:0.11107 7:0.1343 8:0.19055 9:0.11093 10:0.18579 11:0.375 12:0.65515 13:0.072761 14:0.16397 15:0.10886 16:0.41589
5 0 1:0.090317 2:0.052889 3:0.093044 4:0.35059 5:0.066789 6:0.055785 7:0.071688 8:0.15165 9:0.052202 10:0.1524 11:0.375 12:0.6316 13:0.072761 14:0.16938 15:0.097786 16:0.38931
5 0 1:0.18959 2:0.17331 3:0.19783 4:0.402 5:0.1839 6:0.20514 7:0.20145 8:0.17128 9:0.1721 10:0.14503 11:0.45833 12:0.52566 13:0.087687 14:0.21235 15:0.059041 16:0.62829
5 0 1:0.085435 2:0.2441 3:0.28094 4:0.39046 5:0.25801 6:0.12447 7:0.25771 8:0.22494 9:0.2447 10:0.25594 11:0.41667 12:0.48573 13:0.080224 14:0.14777 15:0.11255 16:0.41922
5 0 1:0.071603 2:0.12937 3:0.14815 4:0.37164 5:0.13083 6:0.098152 7:0.14247 8:0.14896 9:0.12969 10:0.18579 11:0.33333 12:0.62936 13:0.06903 14:0.14868 15:0.088561 16:0.40208
5 0 1:0.078112 2:0.08869 3:0.12014 4:0.3689 5:0.097896 6:0.13053 7:0.11162 8:0.15576 9:0.088907 10:0.12709 11:0.33333 12:0.61394 13:0.05597 14:0.10113 15:0.092251 16:0.41567
5 1.5516 1:0.0032547 2:0.21725 3:0.25836 4:0.39534 5:0.23696 6:0.15389 7:0.24138 8:0.21022 9:0.22104 10:0.26743 11:0.45833 12:0.4103 13:0.095149 14:0.092669 15:0.10332 16:0.43217
5 0.30857 1:0.24166 2:0.2262 3:0.2439 4:0.40781 5:0.24062 6:0.20387 7:0.26134 8:0.16612 9:0.22675 10:0.16436 11:0.5 12:0.50109 13:0.10261 14:0.2415 15:0.073801 16:0.65164
5 0 1:0.12775 2:0.09764 3:0.093948 4:0.33408 5:0.079597 6:0.10337 7:0.086207 8:0.14508 9:0.097879 10:0.19394 11:0.41667 12:0.59171 13:0.076493 14:0.077098 15:0.081181 16:0.46154
5 0 1:0.12856 2:0.069976 3:0.072267 4:0.36816 5:0.051235 6:0.088767 7:0.058076 8:0.15915 9:0.0677 10:0.183 11:0.41667 12:0.64923 13:0.061567 14:0.10836 15:0.086716 16:0.41631
5 0 1:0.077299 2:0.10822 3:0.11292 4:0.33101 5:0.097896 6:0.13203 7:0.10254 8:0.15932 9:0.1093 10:0.22613 11:0.25 12:0.65515 13:0.080224 14:0.1033 15:0.088561 16:0.41472
5 0 1:0.077299 2:0.075671 3:0.079494 4:0.32548 5:0.065874 6:0.088323 7:0.073503 8:0.12506 9:0.073409 10:0.16335 11:0.375 12:0.60833 13:0.08209 14:0.1413 15:0.10148 16:0.36445
5 0 1:0.080553 2:0.18226 3:0.25203 4:0.39193 5:0.23056 6:0.10612 7:0.22142 8:0.26743 9:0.18352 10:0.26034 11:0.375 12:0.57946 13:0.080224 14:0.1244 15:0.081181 16:0.50158
5 0 1:0.09764 2:0.074858 3:0.11111 4:0.34255 5:0.095151 6:0.089281 7:0.096189 8:0.15492 9:0.075041 10:0.14653 11:0.45833 12:0.6136 13:0.054104 14:0.13082 15:0.075646 16:0.41126
5 2.4337 1:0.26119 2:0.25549 3:0.27462 4:0.41496 5:0.26898 6:0.15039 7:0.26316 8:0.29801 9:0.25367 10:0.14219 11:0.54167 12:0.44667 13:0.093284 14:0.23896 15:0.13284 16:0.43837
5 0 1:0.10985 2:0.12368 3:0.11292 4:0.40905 5:0.1107 6:0.088872 7:0.10799 8:0.17802 9:0.12072 10:0.13649 11:0.375 12:0.64093 13:0.072761 14:0.13648 15:0.086716 16:0.44391
5 0 1:0.22376 2:0.21806 3:0.2439 4:0.41949 5:0.23147 6:0.21637 7:0.24864 8:0.16512 9:0.22023 10:0.17238 11:0.41667 12:0.47172 13:0.087687 14:0.20744 15:0.059041 16:0.61997
0 2.0794 1:0.037429 2:0.29943 3:0.3252 4:0.42418 5:0.32479 6:0.21069 7:0.33485 8:0.18825 9:0.29772 10:0.17174 11:0.625 12:0.41648 13:0.10634 14:0.18742 15:0.13284 16:0.45863
-0.022226 0 1:0.13507 2:0.12693 3:0.1879 4:0.33654 5:0.17109 6:0.092976 7:0.16062 8:0.28015 9:0.12969 10:0.31449 11:0.375 12:0.64718 13:0.070896 14:0.1519 15:0.083026 16:0.45463
0 0.41328 1:0.03987 2:0.31326 3:0.36314 4:0.4301 5:0.34401 6:0.1752 7:0.34755 8:0.17973 9:0.31321 10:0.1699 11:0.29167 12:0.38702 13:0.089552 14:0.20956 15:0.12915 16:0.45007
-5 0 1:0.10334 2:0.08869 3:0.10208 4:0.30504 5:0.087832 6:0.097104 7:0.10436 8:0.059163 9:0.08646 10:0.099353 11:0.29167 12:0.58543 13:0.080224 14:0.12229 15:0.086716 16:0.44351
-5 0 1:0.098454 2:0.074858 3:0.088528 4:0.32483 5:0.081427 6:0.10764 7:0.096189 8:0.16275 9:0.071778 10:0.12943 11:0.29167 12:0.60164 13:0.089552 14:0.12245 15:0.11624 16:0.37546
-0.91397 0.33665 1:0.035801 2:0.32465 3:0.37489 4:0.4187 5:0.3559 6:0.20939 7:0.36933 8:0.19541 9:0.32382 10:0.14912 11:0.54167 12:0 13:0.097015 14:0.36554 15:0.16236 16:0.45212
-4.0976 0 1:0.14483 2:0.082181 3:0.090334 4:0.33026 5:0.079597 6:0.091852 7:0.083485 8:0.16622 9:0.083197 10:0.18478 11:0.33333 12:0.60018 13:0.074627 14:0.16716 15:0.11993 16:0.38059
-0.73891 0 1:0.01546 2:0.090317 3:0.10388 4:0.34326 5:0.083257 6:0.081477 7:0.089837 8:0.16723 9:0.088091 10:0.18422 11:0.33333 12:0.61504 13:0.050373 14:0.084682 15:0.062731 16:0.43244
-0.097773 0 1:0.2441 2:0.075671 3:0.090334 4:0.34794 5:0.078683 6:0.11176 7:0.078947 8:0.22011 9:0.073409 10:0.16287 11:0.375 12:0.60869 13:0.085821 14:0.1156 15:0.11993 16:0.39728
-5 0 1:0.036615 2:0.24085 3:0.26829 4:0.38176 5:0.2452 6:0.15905 7:0.24682 8:0.22561 9:0.23736 10:0.2132 11:0.5 12:0.54581 13:0.067164 14:0.1517 15:0.081181 16:0.45268
-5 0 1:0.12775 2:0.12531 3:0.11924 4:0.37045 5:0.097896 6:0.072915 7:0.094374 8:0.17593 9:0.12643 10:0.18759 11:0.375 12:0.61244 13:0.067164 14:0.19937 15:0.092251 16:0.43172
-3.8111 0 1:0.24085 2:0.25793 3:0.28184 4:0.41861 5:0.27264 6:0.2183 7:0.28221 8:0.17133 9:0.25693 10:0.14952 11:0.45833 12:0.51263 13:0.11007 14:0.23315 15:0.14207 16:0.45726
-1.2609 0 1:0.093572 2:0.08869 3:0.088528 4:0.35486 5:0.073193 6:0.13554 7:0.078947 8:0.13461 9:0.090538 10:0.24046 11:0.41667 12:0.57367 13:0.097015 14:0.10792 15:0.12177 16:0.41533
-5 0 1:0.10496 2:0.074858 3:0.1364 4:0.36292 5:0.11253 6:0.090785 7:0.099819 8:0.2315 9:0.074225 10:0.20719 11:0.375 12:0.67622 13:0.074627 14:0.138 15:0.099631 16:0.39261
-4.0103 0 1:0.3751 2:0.21806 3:0.23939 4:0.40339 5:0.22781 6:0.1375 7:0.23775 8:0.15409 9:0.21697 10:0.13709 11:0.375 12:0.57345 13:0.098881 14:0.14233 15:0.14022 16:0.43897
-3.1944 0 1:0.11473 2:0.10496 3:0.15718 4:0.33514 5:0.13175 6:0.10738 7:0.12976 8:0.19929 9:0.10522 10:0.21914 11:0.5 12:0.56158 13:0.06903 14:0.14656 15:0.10886 16:0.39449
-3.6478 0 1:0.042311 2:0.22864 3:0.26739 4:0.39789 5:0.24703 6:0.13263 7:0.26407 8:0.25226 9:0.22757 10:0.19222 11:0.33333 12:0.55831 13:0.08209 14:0.068246 15:0.097786 16:0.44215
0 0.0067089 1:0.038242 2:0.013832 3:0.012647 4:0.36036 5:0.013724 6:0.48273 7:0.028131 8:0.17218 9:0.011419 10:0.14117 11:0.45833 12:0.01849 13:0.076493 14:0.27213 15:0.11255 16:0.42768
-2.7231 0 1:0.12693 2:0.11717 3:0.14092 4:0.34642 5:0.11436 6:0.078651 7:0.11162 8:0.20751 9:0.11746 10:0.21402 11:0.375 12:0.57801 13:0.080224 14:0.10746 15:0.094096 16:0.45307
-3.7294 0 1:0.22945 2:0.24573 3:0.24029 4:0.40756 5:0.26532 6:0.20739 7:0.28312 8:0.18938 9:0.24796 10:0.21261 11:0.41667 12:0.49661 13:0.097015 14:0.2298 15:0.14945 16:0.46062
-0.7381 0 1:0.098454 2:0.17738 3:0.25474 4:0.37962 5:0.22781 6:0.14049 7:0.21416 8:0.29174 9:0.17863 10:0.26827 11:0.33333 12:0.63534 13:0.074627 14:0.13224 15:0.10701 16:0.45902
-5 0 1:0.12449 2:0.10008 3:0.14453 4:0.33216 5:0.11985 6:0.065484 7:0.12432 8:0.1499 9:0.10033 10:0.10601 11:0.375 12:0.57784 13:0.067164 14:0.20036 15:0.10701 16:0.3973
0 0.042822 1:0.096827 2:0.27502 3:0.31798 4:0.42877 5:0.2946 6:0.14764 7:0.30218 8:0.17397 9:0.27651 10:0.20162 11:0.41667 12:0.51404 13:0.065299 14:0.20549 15:0.11624 16:0.43416
-0.3014 0 1:0.33116 2:0.3751 3:0.27913 4:0.44549 5:0.26349 6:0.13431 7:0.25408 8:0.26846 9:0.37439 10:0.23572 11:0.33333 12:0.53617 13:0.08209 14:0.15277 15:0.11993 16:0.46586
-5 0 1:0.13588 2:0.068348 3:0.10569 4:0.33886 5:0.078683 6:0.14131 7:0.090744 8:0.20349 9:0.069331 10:0.16925 11:0.41667 12:0.6667 13:0.087687 14:0.12868 15:0.11624 16:0.38426
-4.1269 0 1:0.11635 2:0.20016 3:0.22674 4:0.42523 5:0.20952 6:0.097736 7:0.2078 8:0.19091 9:0.19984 10:0.19099 11:0.625 12:0.51464 13:0.074627 14:0.10531 15:0.059041 16:0.51033
-5 0 1:0.13019 2:0.11635 3:0.10117 4:0.35581 5:0.079597 6:0.10522 7:0.095281 8:0.19719 9:0.11338 10:0.15482 11:0.45833 12:0.56845 13:0.089552 14:0.1576 15:0.10886 16:0.4361
-1.662 0 1:0.094386 2:0.082994 3:0.10569 4:0.36278 5:0.091491 6:0.10902 7:0.10436 8:0.1246 9:0.084013 10:0.19075 11:0.29167 12:0.6001 13:0.05597 14:0.079123 15:0.088561 16:0.44191
-5 0 1:0.43531 2:0.25631 3:0.27462 4:0.4141 5:0.27173 6:0.2062 7:0.25771 8:0.35022 9:0.2553 10:0.14455 11:0.54167 12:0.47846 13:0.12127 14:0.21918 15:0.092251 16:0.6383
0 1.3431 1:0.084622 2:0.16273 3:0.15086 4:0.29792 5:0.14456 6:0.23964 7:0.15699 8:0.16976 9:0.15987 10:0.11657 11:0.29167 12:0.56017 13:0.19776 14:0.42713 15:0.23063 16:0.33029
-5 0 1:0.032547 2:0.26444 3:0.29449 4:0.41968 5:0.2882 6:0.21281 7:0.29038 8:0.27565 9:0.26346 10:0.21406 11:0.33333 12:0.54009 13:0.098881 14:0.1393 15:0.12546 16:0.47591
-5 0 1:0.12124 2:0.19609 3:0.19241 4:0.37917 5:0.17383 6:0.12093 7:0.19691 8:0.10496 9:0.19657 10:0.24226 11:0.375 12:0.59716 13:0.070896 14:0.16368 15:0.092251 16:0.43535
-5 0 1:0.11473 2:0.18714 3:0.25565 4:0.39399 5:0.23879 6:0.11924 7:0.21779 8:0.22402 9:0.18515 10:0.2517 11:0.41667 12:0.59665 13:0.063433 14:0.12139 15:0.081181 16:0.4714
-5 0 1:0.096013 2:0.2498 3:0.19422 4:0.40671 5:0.17658 6:0.1464 7:0.1824 8:0.18537 9:0.24878 10:0.17551 11:0.33333 12:0.57449 13:0.080224 14:0.14472 15:0.10332 16:0.45192
-0.63218 0 1:0.017901 2:0.1074 3:0.13369 4:0.36455 5:0.11528 6:0.059831 7:0.10708 8:0.18257 9:0.10604 10:0.13972 11:0 12:1 13:0.076493 14:0.14451 15:0.099631 16:0.38922
-5 0 1:0.2441 2:0.23759 3:0.27462 4:0.41779 5:0.25984 6:0.19863 7:0.27042 8:0.16696 9:0.23736 10:0.14061 11:0.33333 12:0.51579 13:0.089552 14:0.20318 15:0.064576 16:0.6169
-5 0 1:0.14076 2:0.11147 3:0.081301 4:0.38277 5:0.077768 6:0.068214 7:0.077132 8:0.19226 9:0.1093 10:0.15187 11:0.33333 12:0.62601 13:0.063433 14:0.16226 15:0.10148 16:0.43017
-5 0 1:0.15541 2:0.09764 3:0.10027 4:0.37031 5:0.074108 6:0.091816 7:0.079855 8:0.19964 9:0.097879 10:0.148 11:0.41667 12:0.58919 13:0.063433 14:0.1129 15:0.14022 16:0.41841
-4.3232 0 1:0.28804 2:0.29699 3:0.33966 4:0.44328 5:0.31839 6:0.18093 7:0.31307 8:0.29426 9:0.29608 10:0.17508 11:0.375 12:0.4744 13:0.11567 14:0.18586 15:0.15867 16:0.4594
-0.097507 0 1:0.08869 2:0.10903 3:0.13369 4:0.40235 5:0.12168 6:0.10336 7:0.12976 8:0.18277 9:0.10604 10:0.12772 11:0.54167 12:0.57937 13:0.093284 14:0.088433 15:0.12546 16:0.40119
-5 0 1:0.16111 2:0.19854 3:0.22403 4:0.39599 5:0.20769 6:0.18563 7:0.21869 8:0.13049 9:0.19821 10:0.15735 11:0.375 12:0.54293 13:0.11567 14:0.14451 15:0.15129 16:0.45246
0 0.96301 1:0.018714 2:0.12449 3:0.14002 4:0.29773 5:0.13175 6:0.15313 7:0.15064 8:0.18119 9:0.12561 10:0.19716 11:0.33333 12:0.52735 13:0.16231 14:0.88289 15:0.17159 16:0.41673
-2.3843 0 1:0.24817 2:0.25224 3:0.27823 4:0.41532 5:0.2699 6:0.20686 7:0.28221 8:0.18395 9:0.24959 10:0.13273 11:0.33333 12:0.50832 13:0.11754 14:0.19257 15:0.092251 16:0.6058
-4.165 0 1:0.13914 2:0.10252 3:0.071364 4:0.36114 5:0.086002 6:0.099931 7:0.095281 8:0.14465 9:0.10359 10:0.22998 11:0.45833 12:0.55834 13:0.065299 14:0.12608 15:0.081181 16:0.40974
-2.8811 0 1:0.098454 2:0.074044 3:0.10659 4:0.32535 5:0.082342 6:0.10367 7:0.091652 8:0.19781 9:0.070147 10:0.18102 11:0.33333 12:0.60381 13:0.097015 14:0.066262 15:0.15314 16:0.37594
0 0.81399 1:0.050448 2:0.35313 3:0.38031 4:0.41749 5:0.38152 6:0.15281 7:0.38838 8:0.18315 9:0.354 10:0.1741 11:0.375 12:0.51899 13:0.089552 14:0.22671 15:0.12731 16:0.4678
-0.99789 0 1:0.46461 2:0.038242 3:0.019874 4:0.36236 5:0.027447 6:0.26085 7:0.03902 8:0.089256 9:0.036705 10:0.098678 11:0.33333 12:0.54162 13:0.08209 14:0.2083 15:0.075646 16:0.59148
-2.1075 0 1:0.5712 2:0.23434 3:0.25203 4:0.42258 5:0.24703 6:0.22564 7:0.26225 8:0.16385 9:0.23328 10:0.16775 11:0.54167 12:0.46598 13:0.11754 14:0.20518 15:0.090406 16:0.6136
-0.19716 0 1:0.086249 2:0.096013 3:0.13098 4:0.38843 5:0.10704 6:0.14288 7:0.11797 8:0.14949 9:0.097879 10:0.17535 11:0.375 12:0.59121 13:0.065299 14:0.13167 15:0.11439 16:0.41679
-1.4985 0 1:0.03336 2:0.23922 3:0.22313 4:0.38576 5:0.21409 6:0.14619 7:0.22142 8:0.22266 9:0.24144 10:0.29235 11:0.5 12:0.52086 13:0.25373 14:0.10924 15:0.30627 16:0.44652
-1.5614 0 1:0.040683 2:0.15053 3:0.19512 4:0.38771 5:0.17292 6:0.11392 7:0.17877 8:0.20047 9:0.14927 10:0.19117 11:0.45833 12:0.57488 13:0.065299 14:0.15112 15:0.10332 16:0.43761
-5 0 1:0.084622 2:0.12205 3:0.11563 4:0.35898 5:0.088747 6:0.1278 7:0.1098 8:0.10848 9:0.12153 10:0.15689 11:0.33333 12:0.55965 13:0.070896 14:0.15308 15:0.084871 16:0.42295
-2.8065 0 1:0.074858 2:0.11066 3:0.092141 4:0.35893 5:0.075023 6:0.12411 7:0.080762 8:0.13937 9:0.11093 10:0.19245 11:0.041667 12:0.89584 13:0.089552 14:0.16556 15:0.10701 16:0.39764
-3.0749 0 1:0.16111 2:0.14809 3:0.1075 4:0.37759 5:0.10156 6:0.10771 7:0.097096 8:0.18575 9:0.14845 10:0.19847 11:0.45833 12:0.53084 13:0.089552 14:0.14104 15:0.1107 16:0.44447
-5 0 1:0.069162 2:0.17087 3:0.14995 4:0.33186 5:0.17475 6:0.15891 7:0.19238 8:0.18934 9:0.16884 10:0.21307 11:0.5 12:0.5204 13:0.06903 14:0.14148 15:0.12546 16:0.46985
-0.76375 0 1:0.22864 2:0.25142 3:0.28455 4:0.40676 5:0.26715 6:0.20172 7:0.27586 8:0.14931 9:0.25938 10:0.5015 11:0.45833 12:0.54204 13:0.11007 14:0.17955 15:0.14391 16:0.45947
-0.24904 0 1:0.12449 2:0.2319 3:0.16531 4:0.42641 5:0.15645 6:0.11376 7:0.15608 8:0.21163 9:0.2292 10:0.2051 11:0.33333 12:0.58377 13:0.074627 14:0.13838 15:0.095941 16:0.46825
-5 0 1:0.1489 2:0.1367 3:0.15718 4:0.37984 5:0.14456 6:0.099879 7:0.1461 8:0.17594 9:0.13458 10:0.15804 11:0.41667 12:0.56885 13:0.067164 14:0.12766 15:0.04428 16:0.54912
-5 0 1:0.10008 2:0.092758 3:0.10569 4:0.33584 5:0.080512 6:0.12198 7:0.097096 8:0.12513 9:0.09217 10:0.19392 11:0.33333 12:0.5929 13:0.06903 14:0.1501 15:0.081181 16:0.45399
-5 0 1:0.10334 2:0.17494 3:0.243 4:0.39945 5:0.22141 6:0.098955 7:0.20871 8:0.23917 9:0.1721 10:0.20915 11:0.45833 12:0.5485 13:0.087687 14:0.12595 15:0.10148 16:0.45207
-0.49834 0 1:0.11229 2:0.098454 3:0.14995 4:0.39309 5:0.12351 6:0.077362 7:0.1225 8:0.18915 9:0.097879 10:0.14906 11:0.45833 12:0.59073 13:0.054104 14:0.11778 15:0.11624 16:0.40057
-5 0 1:0.14972 2:0.075671 3:0.1084 4:0.33439 5:0.095151 6:0.10042 7:0.098004 8:0.17737 9:0.074225 10:0.11969 11:0.375 12:0.58976 13:0.08209 14:0.11308 15:0.094096 16:0.41557
0 0.97031 1:0.037429 2:0.29373 3:0.33875 4:0.41584 5:0.31473 6:0.18777 7:0.32123 8:0.16951 9:0.29772 10:0.26256 11:0.5 12:0.44709 13:0.15672 14:0.96739 15:0.17159 16:0.38347
-5 0 1:0.074858 2:0.12449 3:0.14724 4:0.3358 5:0.11985 6:0.097951 7:0.14519 8:0.165 9:0.12235 10:0.15668 11:0.41667 12:0.55024 13:0.039179 14:0.13504 15:0.077491 16:0.45072
-0.078086 0 1:0.22376 2:0.22864 3:0.25565 4:0.40843 5:0.24245 6:0.2432 7:0.24864 8:0.1937 9:0.23002 10:0.17748 11:0.375 12:0.54897 13:0.10821 14:0.22992 15:0.15314 16:0.45545
-5 0 1:0.16029 2:0.2441 3:0.23577 4:0.38826 5:0.21958 6:0.14483 7:0.23775 8:0.21217 9:0.24633 10:0.24859 11:0.41667 12:0.57578 13:0.08209 14:0.14563 15:0.097786 16:0.48038
-5 0 1:0.14321 2:0.12775 3:0.13189 4:0.37533 5:0.10796 6:0.12229 7:0.10889 8:0.138 9:0.13132 10:0.25744 11:0.45833 12:0.56306 13:0.078358 14:0.12287 15:0.11255 16:0.43521
0 0.26327 1:0.17331 2:0.045566 3:0.058717 4:0.59644 5:0.031107 6:0.24824 7:0.049909 8:0.10441 9:0.044046 10:0.10972 11:0.45833 12:0.51857 13:0.085821 14:0.20823 15:0.14576 16:0.38735
-0.53808 0 1:0.28641 2:0.24329 3:0.27281 4:0.39756 5:0.25984 6:0.20741 7:0.26679 8:0.15048 9:0.24144 10:0.12214 11:0.41667 12:0.54123 13:0.10075 14:0.24612 15:0.13838 16:0.44841
-5 0 1:0.13751 2:0.16599 3:0.22313 4:0.38869 5:0.2022 6:0.10203 7:0.19782 8:0.22325 9:0.16721 10:0.24873 11:0.41667 12:0.56118 13:0.10075 14:0.10938 15:0.13469 16:0.44063
-5 0 1:0.1489 2:0.15704 3:0.18609 4:0.33701 5:0.17749 6:0.11711 7:0.18603 8:0.20802 9:0.15579 10:0.15322 11:0.41667 12:0.59098 13:0.083955 14:0.15247 15:0.11993 16:0.44777
-5 0 1:0.14076 2:0.1489 3:0.18157 4:0.36765 5:0.16377 6:0.12918 7:0.15971 8:0.23293 9:0.14845 10:0.15148 11:0.33333 12:0.59491 13:0.091418 14:0.11184 15:0.12731 16:0.47477
-1.0063 0 1:0.16436 2:0.24736 3:0.28004 4:0.42235 5:0.26075 6:0.22982 7:0.24682 8:0.36183 9:0.24551 10:0.13351 11:0.33333 12:0.51984 13:0.10821 14:0.21996 15:0.079336 16:0.63526
0 0.73175 1:0.14565 2:0.25468 3:0.1635 4:0.3309 5:0.172 6:0.17897 7:0.18966 8:0.12696 9:0.25693 10:0.20716 11:0.33333 12:0.5047 13:0.1847 14:0.45974 15:0.23247 16:0.36792
-3.7816 0 1:0.065907 2:0.21725 3:0.24481 4:0.3886 5:0.23056 6:0.10195 7:0.22051 8:0.21766 9:0.21778 10:0.21226 11:0.375 12:0.55583 13:0.059701 14:0.14988 15:0.068266 16:0.43574
-5 0 1:0.25712 2:0.25712 3:0.271 4:0.42154 5:0.2763 6:0.21798 7:0.26679 8:0.33337 9:0.25449 10:0.1356 11:0.54167 12:0.46253 13:0.11754 14:0.17863 15:0.19557 16:0.48862
-4.319 0 1:0.11798 2:0.052889 3:0.072267 4:0.36327 5:0.05581 6:0.083742 7:0.058076 8:0.15287 9:0.052202 10:0.19334 11:0.29167 12:0.65501 13:0.050373 14:0.095634 15:0.027675 16:0.51223
-5 0 1:0.26444 2:0.26444 3:0.30262 4:0.42839 5:0.28637 6:0.20644 7:0.2931 8:0.18193 9:0.26346 10:0.15856 11:0.375 12:0.54141 13:0.11007 14:0.23647 15:0.081181 16:0.64685
-5 0 1:0.12205 2:0.076485 3:0.11563 4:0.36128 5:0.096981 6:0.090292 7:0.097096 8:0.20078 9:0.075856 10:0.16177 11:0.41667 12:0.59626 13:0.065299 14:0.10449 15:0.083026 16:0.43393
-0.20666 0 1:0.087876 2:0.11798 3:0.084914 4:0.35286 5:0.11436 6:0.11653 7:0.11343 8:0.21545 9:0.11664 10:0.17141 11:0.41667 12:0.5843 13:0.078358 14:0.14464 15:0.11255 16:0.40776
-3.2933 0 1:0.069976 2:0.10415 3:0.099368 4:0.31948 5:0.099726 6:0.11095 7:0.10889 8:0.13465 9:0.10522 10:0.24474 11:0.29167 12:0.61305 13:0.070896 14:0.12672 15:0.13838 16:0.3704
-5 0 1:0.28723 2:0.262 3:0.30352 4:0.4127 5:0.28271 6:0.22989 7:0.30036 8:0.18648 9:0.26101 10:0.14737 11:0.33333 12:0.52705 13:0.098881 14:0.19687 15:0.073801 16:0.60288
-5 0 1:0.14646 2:0.10171 3:0.11292 4:0.34799 5:0.088747 6:0.11767 7:0.10254 8:0.14873 9:0.10196 10:0.20204 11:0.33333 12:0.58901 13:0.070896 14:0.13566 15:0.075646 16:0.44374
-0.0062743 0 1:0.24654 2:0.25061 3:0.28817 4:0.40089 5:0.26898 6:0.20517 7:0.27858 8:0.17328 9:0.25285 10:0.1963 11:0.41667 12:0.52032 13:0.10821 14:0.23559 15:0.15129 16:0.44667
-5 0 1:0.089504 2:0.10985 3:0.13911 4:0.37125 5:0.11619 6:0.093597 7:0.11162 8:0.1796 9:0.1093 10:0.16572 11:0.41667 12:0.59105 13:0.074627 14:0.12944 15:0.10332 16:0.4356
-5 0 1:0.10008 2:0.12775 3:0.17254 4:0.36141 5:0.15096 6:0.08867 7:0.15426 8:0.22917 9:0.12643 10:0.17785 11:0.33333 12:0.65483 13:0.05597 14:0.18493 15:0.11993 16:0.38822
-5 0 1:0.23759 2:0.24654 3:0.26016 4:0.41585 5:0.26167 6:0.22166 7:0.27314 8:0.18036 9:0.2447 10:0.15333 11:0.5 12:0.50175 13:0.10448 14:0.21641 15:0.15129 16:0.46964
-5 0 1:0.11798 2:0.11798 3:0.16621 4:0.36335 5:0.14822 6:0.10409 7:0.14519 8:0.20345 9:0.11501 10:0.17607 11:0.375 12:0.59237 13:0.08209 14:0.10889 15:0.13284 16:0.4268
0 1.4348 1:0.007323 2:0.19121 3:0.21951 4:0.41772 5:0.2022 6:0.22532 7:0.21143 8:0.16424 9:0.19413 10:0.23735 11:0.375 12:0.51673 13:0.078358 14:0.14811 15:0.097786 16:0.43512
-5 0 1:0.17901 2:0.21644 3:0.21409 4:0.39347 5:0.23422 6:0.18212 7:0.2323 8:0.25418 9:0.21533 10:0.15205 11:0.41667 12:0.53528 13:0.10448 14:0.208 15:0.075646 16:0.6167
-0.29379 0 1:0.072417 2:0.084622 3:0.077687 4:0.37495 5:0.058554 6:0.094502 7:0.060799 8:0.14245 9:0.084829 10:0.14589 11:0.33333 12:0.59013 13:0.065299 14:0.1106 15:0.094096 16:0.42278
-0.32267 0 1:0.076485 2:0.43124 3:0.33153 4:0.44853 5:0.31656 6:0.13494 7:0.30581 8:0.26695 9:0.43148 10:0.20495 11:0.375 12:0.50494 13:0.076493 14:0.19102 15:0.14391 16:0.45085
-5 0 1:0.17982 2:0.17494 3:0.19241 4:0.34309 5:0.1839 6:0.11156 7:0.17604 8:0.24445 9:0.17374 10:0.15678 11:0.375 12:0.59568 13:0.087687 14:0.1174 15:0.097786 16:0.44621
-3.254 0 1:0.25142 2:0.24491 3:0.26739 4:0.43551 5:0.26715 6:0.22695 7:0.27949 8:0.20883 9:0.24633 10:0.18257 11:0.5 12:0.49 13:0.11194 14:0.19748 15:0.19188 16:0.48965
-5 0 1:0.13263 2:0.10578 3:0.15176 4:0.36805 5:0.13724 6:0.1288 7:0.1343 8:0.19406 9:0.10767 10:0.15225 11:0.375 12:0.57663 13:0.10634 14:0.11047 15:0.12915 16:0.43364
-5 0 1:0.080553 2:0.15622 3:0.16621 4:0.36835 5:0.1473 6:0.12263 7:0.15336 8:0.1644 9:0.15579 10:0.20127 11:0.375 12:0.55761 13:0.067164 14:0.11588 15:0.099631 16:0.4545
-5 0 1:0.092758 2:0.10496 3:0.094851 4:0.32644 5:0.084172 6:0.097103 7:0.11343 8:0.17856 9:0.10114 10:0.18871 11:0.45833 12:0.57988 13:0.089552 14:0.11785 15:0.131 16:0.37322
-5 0 1:0.027665 2:0.10822 3:0.14724 4:0.34112 5:0.12626 6:0.12367 7:0.11797 8:0.24217 9:0.10522 10:0.16046 11:0.41667 12:0.6228 13:0.083955 14:0.18304 15:0.095941 16:0.39334
-0.0676 0 1:0.10171 2:0.13507 3:0.1075 4:0.36082 5:0.095151 6:0.082213 7:0.092559 8:0.16897 9:0.13458 10:0.2217 11:0.375 12:0.56504 13:0.076493 14:0.12244 15:0.079336 16:0.44719
-5 0 1:0.10659 2:0.12612 3:0.15086 4:0.36016 5:0.12717 6:0.079343 7:0.12523 8:0.20729 9:0.12235 10:0.11591 11:0.375 12:0.63624 13:0.070896 14:0.16383 15:0.131 16:0.40655
-3.1742 0 1:0.15216 2:0.027665 3:0.018067 4:0.34699 5:0.019213 6:0.12479 7:0.029946 8:0.15674 9:0.028548 10:0.14052 11:0.33333 12:0.61866 13:0.08209 14:0.11528 15:0.11624 16:0.41746
-5 0 1:0.11147 2:0.15216 3:0.21771 4:0.41409 5:0.1903 6:0.07396 7:0.18149 8:0.21436 9:0.14927 10:0.17418 11:0.41667 12:0.61387 13:0.080224 14:0.18656 15:0.1107 16:0.41274
-5 0 1:0.56387 2:0.22701 3:0.24571 4:0.41594 5:0.24154 6:0.19267 7:0.25227 8:0.17992 9:0.2292 10:0.20308 11:0.5 12:0.46197 13:0.091418 14:0.21414 15:0.064576 16:0.62674
-2.7211 0 1:0.22701 2:0.25875 3:0.28997 4:0.40219 5:0.27722 6:0.19428 7:0.28403 8:0.16346 9:0.26101 10:0.18455 11:0.54167 12:0.49638 13:0.11194 14:0.24451 15:0.15867 16:0.45867
-1.4099 0 1:0.37754 2:0.33849 3:0.36947 4:0.42088 5:0.35865 6:0.21353 7:0.35935 8:0.30954 9:0.33605 10:0.16985 11:0.54167 12:0.43093 13:0.098881 14:0.18275 15:0.2048 16:0.48198
-5 0 1:0.085435 2:0.059398 3:0.068654 4:0.32542 5:0.043001 6:0.10336 7:0.07078 8:0.097088 9:0.059543 10:0.23374 11:0.25 12:0.64064 13:0.057836 14:0.096952 15:0.079336 16:0.36793
-5 0 1:0.1074 2:0.13181 3:0.11653 4:0.37781 5:0.098811 6:0.11489 7:0.11434 8:0.13621 9:0.12969 10:0.15973 11:0.54167 12:0.54899 13:0.070896 14:0.13273 15:0.083026 16:0.45491
-5 0 1:0.19447 2:0.14321 3:0.1879 4:0.3693 5:0.17841 6:0.086346 7:0.17514 8:0.19466 9:0.14111 10:0.16562 11:0.33333 12:0.61477 13:0.06903 14:0.12639 15:0.083026 16:0.49074
-5 0 1:0.11473 2:0.1546 3:0.22222 4:0.36721 5:0.2022 6:0.090443 7:0.18421 8:0.19069 9:0.15498 10:0.23264 11:0.45833 12:0.55793 13:0.091418 14:0.11513 15:0.16421 16:0.46197
-0.72227 0 1:0.085435 2:0.15785 3:0.22222 4:0.38371 5:0.20586 6:0.12515 7:0.18512 8:0.21587 9:0.15579 10:0.25825 11:0.33333 12:0.61496 13:0.089552 14:0.098806 15:0.095941 16:0.43873
0 0.60086 1:0.03987 2:0.33767 3:0.36224 4:0.41001 5:0.36322 6:0.16984 7:0.37205 8:0.18315 9:0.33687 10:0.16027 11:0.83333 12:0.24565 13:0.083955 14:0.34575 15:0.15867 16:0.44609
-5 0 1:0.069162 2:0.15216 3:0.12556 4:0.37462 5:0.12077 6:0.13305 7:0.12886 8:0.14905 9:0.15334 10:0.17822 11:0.375 12:0.58552 13:0.070896 14:0.14889 15:0.084871 16:0.43448
-4.4685 0 1:0.11391 2:0.096827 3:0.11201 4:0.39613 5:0.097896 6:0.0907 7:0.10073 8:0.12223 9:0.097879 10:0.24774 11:0.41667 12:0.59829 13:0.050373 14:0.12629 15:0.10517 16:0.39851
-0.8648 0 1:0.10415 2:0.10252 3:0.11382 4:0.37063 5:0.099726 6:0.090257 7:0.1098 8:0.097729 9:0.097879 10:0.158 11:0.29167 12:0.5828 13:0.041045 14:0.11425 15:0.046125 16:0.5059
-4.8527 0 1:0.42555 2:0.25061 3:0.28004 4:0.42586 5:0.26807 6:0.22929 7:0.25408 8:0.37289 9:0.24959 10:0.15489 11:0.41667 12:0.49937 13:0.12687 14:0.18701 15:0.10148 16:0.60066
-5 0 1:0.20016 2:0.098454 3:0.1364 4:0.37098 5:0.11162 6:0.11176 7:0.11978 8:0.18538 9:0.097879 10:0.17412 11:0.375 12:0.58893 13:0.087687 14:0.13803 15:0.10886 16:0.44669
-0.42509 0 1:0.26444 2:0.39707 3:0.32972 4:0.41741 5:0.30558 6:0.10444 7:0.32123 8:0.21065 9:0.39478 10:0.21259 11:0.45833 12:0.54085 13:0.28731 14:0.41336 15:0.27122 16:0.75027
-0.8801 0 1:0.30513 2:0.26119 3:0.14815 4:0.34583 5:0.18115 6:0.2952 7:0.16969 8:0.43213 9:0.25856 10:0.10681 11:0.375 12:0.54602 13:0.095149 14:0.24483 15:0.13469 16:0.40576
-5 0 1:0.081367 2:0.24491 3:0.18067 4:0.40468 5:0.16926 6:0.16885 7:0.1833 8:0.17095 9:0.24225 10:0.20009 11:0.375 12:0.55274 13:0.026119 14:0.097104 15:0.031365 16:0.44133
-5 -5 1:0.043124 2:0.32954 3:0.37669 4:0.40767 5:0.36414 6:0.1685 7:0.36751 8:0.20017 9:0.32871 10:0.17028 11:0.45833 12:0.39755 13:0.089552 14:0.28862 15:0.10701 16:0.47138
-5 -5 1:0.018714 2:0.17982 3:0.14815 4:0.38988 5:0.12168 6:0.25059 7:0.14338 8:0.12093 9:0.17945 10:0.1735 11:0.45833 12:0.51596 13:0.12687 14:0.5219 15:0.16236 16:0.33689
 