svm_type c_svc
kernel_type rbf
gamma 0.3125
nr_class 3
total_sv 1853
rho -1.1575 -1.0687 -1.0133
label 1 3 2
nr_sv 1051 798 4
SV
5 0 1:0.09365 2:0.07582 3:0.091454 4:0.50009 5:0.071214 6:0.40526 7:0.066898 8:0.63654 9:0.078119 10:0.26405 11:0.3913 12:0.24188 13:0.0538 14:0.22746 15:0.084656 16:0.72439
5 0 1:0.14389 2:0.12623 3:0.16842 4:0.49219 5:0.15346 6:0.45295 7:0.15362 8:0.55734 9:0.12474 10:0.067928 11:0.28261 12:0.18616 13:0.061197 14:0.34538 15:0.082672 16:0.6935
5 0 1:0.09365 2:0.07459 3:0.087456 4:0.49152 5:0.071715 6:0.39924 7:0.087215 8:0.5544 9:0.076483 10:0.21944 11:0.36957 12:0.24056 13:0.050437 14:0.24752 15:0.083995 16:0.70667
0.025568 0 1:0.15153 2:0.082377 3:0.12144 4:0.46454 5:0.098295 6:0.54449 7:0.10109 8:0.53394 9:0.083436 10:0.046951 11:0.28261 12:0.29502 13:0.065232 14:0.17596 15:0.080026 16:0.71202
0.92302 0 1:0.13987 2:0.11721 3:0.15842 4:0.49456 5:0.14243 6:0.45409 7:0.14866 8:0.56436 9:0.11861 10:0.083227 11:0.26087 12:0.22673 13:0.063215 14:0.31694 15:0.1045 16:0.70511
5 0 1:0.14027 2:0.12295 3:0.17091 4:0.50378 5:0.14895 6:0.46609 7:0.15114 8:0.56924 9:0.1227 10:0.064102 11:0.23913 12:0.14962 13:0.065905 14:0.36763 15:0.089947 16:0.70117
5 0 1:0.10289 2:0.083607 3:0.12144 4:0.48615 5:0.1003 6:0.45881 7:0.098612 8:0.65371 9:0.084663 10:0.10117 11:0.32609 12:0.28988 13:0.066577 14:0.12198 15:0.084656 16:0.68394
5 0 1:0.14349 2:0.11721 3:0.15292 4:0.4953 5:0.13942 6:0.4808 7:0.14618 8:0.54004 9:0.11902 10:0.083589 11:0.26087 12:0.19129 13:0.06456 14:0.35625 15:0.089286 16:0.71329
5 0 1:0.14912 2:0.12459 3:0.15692 4:0.49118 5:0.14945 6:0.47029 7:0.15114 8:0.5897 9:0.12352 10:0.060611 11:0.23913 12:0.1701 13:0.059852 14:0.37267 15:0.082672 16:0.69447
5 0 1:0.094051 2:0.078279 3:0.090955 4:0.48726 5:0.076229 6:0.39098 7:0.070367 8:0.62045 9:0.080982 10:0.28706 11:0.34783 12:0.2334 13:0.051782 14:0.23662 15:0.074074 16:0.70636
0.22689 0 1:0.14068 2:0.12705 3:0.16792 4:0.4964 5:0.15296 6:0.48427 7:0.15709 8:0.56236 9:0.12761 10:0.068725 11:0.28261 12:0.20859 13:0.06456 14:0.33396 15:0.091931 16:0.70186
5 0 1:0.08963 2:0.070082 3:0.07996 4:0.49613 5:0.069208 6:0.3911 7:0.081269 8:0.57223 9:0.071166 10:0.23923 11:0.32609 12:0.22965 13:0.047075 14:0.2179 15:0.070106 16:0.71111
0.85608 0 1:0.088424 2:0.039754 3:0.066467 4:0.48109 5:0.049649 6:0.36724 7:0.054014 8:0.59199 9:0.039264 10:0.10468 11:0.26087 12:0.29975 13:0.053127 14:0.046889 15:0.060185 16:0.69227
5 0 1:0.086013 2:0.079508 3:0.13693 4:0.47297 5:0.11284 6:0.42351 7:0.10605 8:0.7512 9:0.081391 10:0.20817 11:0.32609 12:0.22417 13:0.050437 14:0.24367 15:0.078042 16:0.7005
5 0 1:0.090434 2:0.07623 3:0.093453 4:0.47706 5:0.071214 6:0.38581 7:0.079286 8:0.56167 9:0.077301 10:0.22066 11:0.36957 12:0.24955 13:0.049765 14:0.2245 15:0.068783 16:0.70246
2.6188 0 1:0.099277 2:0.07541 3:0.097451 4:0.49159 5:0.07673 6:0.40165 7:0.086224 8:0.56426 9:0.075665 10:0.13456 11:0.34783 12:0.24023 13:0.051782 14:0.2315 15:0.070767 16:0.70925
5 0 1:0.099277 2:0.071311 3:0.12844 4:0.47859 5:0.10281 6:0.40246 7:0.095144 8:0.66346 9:0.073211 10:0.24095 11:0.3913 12:0.25171 13:0.049765 14:0.23816 15:0.072751 16:0.69488
5 0 1:0.076768 2:0.04877 3:0.072964 4:0.48347 5:0.056169 6:0.39296 7:0.065411 8:0.59696 9:0.04908 10:0.10462 11:0.21739 12:0.30429 13:0.036987 14:0.061312 15:0.03836 16:0.72198
5 0 1:0.088424 2:0.071311 3:0.081959 4:0.48652 5:0.068706 6:0.41448 7:0.083746 8:0.55341 9:0.071575 10:0.25291 11:0.30435 12:0.2402 13:0.047075 14:0.20473 15:0.042989 16:0.83009
5 0 1:0.11977 2:0.10205 3:0.14493 4:0.50141 5:0.12187 6:0.47077 7:0.12042 8:0.64847 9:0.10266 10:0.093179 11:0.32609 12:0.27982 13:0.067249 14:0.15229 15:0.083333 16:0.69251
5 0 1:0.1455 2:0.12213 3:0.16442 4:0.50705 5:0.14794 6:0.46394 7:0.14817 8:0.5865 9:0.12025 10:0.068323 11:0.26087 12:0.20922 13:0.058507 14:0.32601 15:0.080026 16:0.69252
5 0 1:0.086415 2:0.034426 3:0.068966 4:0.46383 5:0.043129 6:0.39992 7:0.049554 8:0.59929 9:0.034765 10:0.10198 11:0.26087 12:0.32496 13:0.049092 14:0.087399 15:0.064815 16:0.67083
0.54133 0 1:0.10249 2:0.061475 3:0.11194 4:0.46046 5:0.090772 6:0.37836 7:0.083251 8:0.62567 9:0.060941 10:0.11664 11:0.21739 12:0.31043 13:0.04304 14:0.10343 15:0.065476 16:0.67441
0.12103 0 1:0.096463 2:0.082377 3:0.12194 4:0.49474 5:0.098796 6:0.49264 7:0.097621 8:0.6672 9:0.083027 10:0.084657 11:0.23913 12:0.31788 13:0.065905 14:0.14201 15:0.082011 16:0.67209
4.0125 0 1:0.098875 2:0.083607 3:0.09995 4:0.49129 5:0.079238 6:0.41085 7:0.072844 8:0.63551 9:0.084663 10:0.27729 11:0.3913 12:0.25015 13:0.052455 14:0.23713 15:0.079365 16:0.70881
5 0 1:0.13585 2:0.12418 3:0.16692 4:0.49168 5:0.15095 6:0.47692 7:0.15362 8:0.5623 9:0.12434 10:0.074874 11:0.23913 12:0.15293 13:0.063215 14:0.33513 15:0.089947 16:0.71497
5 0 1:0.10169 2:0.081557 3:0.10045 4:0.48804 5:0.07673 6:0.39464 7:0.070367 8:0.6265 9:0.082618 10:0.26268 11:0.41304 12:0.26886 13:0.050437 14:0.22483 15:0.045635 16:0.84186
1.6225 0 1:0.098875 2:0.07459 3:0.069965 4:0.4804 5:0.055667 6:0.37706 7:0.053023 8:0.59037 9:0.074438 10:0.11127 11:0.28261 12:0.29477 13:0.049765 14:0.095555 15:0.062831 16:0.69976
5 0 1:0.14108 2:0.12992 3:0.17491 4:0.50457 5:0.15597 6:0.4821 7:0.16254 8:0.56408 9:0.13333 10:0.082236 11:0.26087 12:0.19034 13:0.065905 14:0.33313 15:0.090608 16:0.69762
4.5887 0 1:0.13465 2:0.11598 3:0.15092 4:0.5028 5:0.13992 6:0.47298 7:0.1442 8:0.56036 9:0.11575 10:0.07415 11:0.23913 12:0.16357 13:0.058507 14:0.32786 15:0.056878 16:0.90315
0.77796 0 1:0.25523 2:0.23033 3:0.29185 4:0.49561 5:0.27583 6:0.41662 7:0.27552 8:0.59787 9:0.22822 10:0.10661 11:0.086957 12:0.34714 13:0.10155 14:0.29464 15:0.11045 16:0.53565
5 0 1:0.040193 2:0.11516 3:0.15842 4:0.48909 5:0.13541 6:0.39402 7:0.1442 8:0.62383 9:0.11411 10:0.10928 11:0.21739 12:0.30088 13:0.047075 14:0.04752 15:0.058201 16:0.69864
5 0 1:0.098473 2:0.078689 3:0.097951 4:0.49089 5:0.074724 6:0.40695 7:0.089693 8:0.56767 9:0.080573 10:0.23336 11:0.41304 12:0.24275 13:0.0538 14:0.2356 15:0.073413 16:0.69793
1.5925 0 1:0.097267 2:0.07459 3:0.12444 4:0.47423 5:0.10682 6:0.39325 7:0.097621 8:0.62769 9:0.075256 10:0.22154 11:0.32609 12:0.22899 13:0.043712 14:0.2554 15:0.079365 16:0.70421
5 0 1:0.085611 2:0.065164 3:0.11394 4:0.45676 5:0.095286 6:0.41669 7:0.087711 8:0.69385 9:0.067076 10:0.3022 11:0.3913 12:0.24526 13:0.043712 14:0.23266 15:0.078704 16:0.67673
5 0 1:0.095659 2:0.072541 3:0.097951 4:0.47992 5:0.07673 6:0.3326 7:0.084737 8:0.51087 9:0.074438 10:0.26019 11:0.45652 12:0.25896 13:0.050437 14:0.2805 15:0.046296 16:0.87627
1.5089 0 1:0.093248 2:0.077049 3:0.12794 4:0.46296 5:0.10983 6:0.445 7:0.10307 8:0.79288 9:0.078528 10:0.2853 11:0.26087 12:0.23909 13:0.047075 14:0.24226 15:0.042328 16:0.85365
5 0 1:0.11133 2:0.10123 3:0.13843 4:0.48962 5:0.12036 6:0.47652 7:0.11943 8:0.65076 9:0.10143 10:0.090467 11:0.36957 12:0.27167 13:0.068594 14:0.17384 15:0.085979 16:0.70111
5 0 1:0.079984 2:0.060656 3:0.081459 4:0.4914 5:0.061184 6:0.38776 7:0.070862 8:0.56618 9:0.063395 10:0.37182 11:0.34783 12:0.24545 13:0.04842 14:0.21066 15:0.044312 16:0.83218
5 0 1:0.096061 2:0.077459 3:0.13443 4:0.47379 5:0.11033 6:0.465 7:0.10505 8:0.85455 9:0.080573 10:0.21206 11:0.3913 12:0.23462 13:0.049765 14:0.20539 15:0.045635 16:0.83054
5 0 1:0.095257 2:0.081148 3:0.093953 4:0.49032 5:0.07673 6:0.4016 7:0.088206 8:0.5588 9:0.083436 10:0.21908 11:0.34783 12:0.21529 13:0.052455 14:0.23327 15:0.079365 16:0.71179
0 0.95808 1:0.11053 2:0.087295 3:0.12294 4:0.53016 5:0.10983 6:0.56631 7:0.10555 8:0.51703 9:0.087526 10:0.039908 11:0.26087 12:0.25304 13:0.06456 14:0.42295 15:0.093254 16:0.79242
5 0 1:0.085611 2:0.065984 3:0.07946 4:0.48983 5:0.057673 6:0.39841 7:0.052527 8:0.59869 9:0.066258 10:0.24561 11:0.32609 12:0.25008 13:0.044385 14:0.2225 15:0.040344 16:0.83721
5 0 1:0.13947 2:0.11885 3:0.16342 4:0.50052 5:0.14343 6:0.47814 7:0.14371 8:0.56879 9:0.11902 10:0.05718 11:0.23913 12:0.16772 13:0.059852 14:0.38288 15:0.087963 16:0.69808
5 0 1:0.094855 2:0.083197 3:0.097451 4:0.47929 5:0.080241 6:0.42681 7:0.072844 8:0.66063 9:0.085481 10:0.23983 11:0.5 12:0.24014 13:0.0538 14:0.19061 15:0.079365 16:0.7052
2.0183 0 1:0.16198 2:0.086066 3:0.12494 4:0.47064 5:0.10532 6:0.42086 7:0.111 8:0.56268 9:0.08589 10:0.070104 11:0.26087 12:0.30311 13:0.06456 14:0.19187 15:0.081349 16:0.69768
5 0 1:0.13264 2:0.11762 3:0.15142 4:0.49743 5:0.14193 6:0.43614 7:0.14272 8:0.58053 9:0.11738 10:0.071787 11:0.28261 12:0.24444 13:0.05649 14:0.31877 15:0.078042 16:0.69137
5 0 1:0.075965 2:0.094262 3:0.15192 4:0.48742 5:0.13089 6:0.38491 7:0.11893 8:0.60962 9:0.092843 10:0.1282 11:0.26087 12:0.3094 13:0.04035 14:0.082586 15:0.052249 16:0.71269
5 0 1:0.13706 2:0.12336 3:0.16892 4:0.5055 5:0.15045 6:0.48287 7:0.15411 8:0.56177 9:0.12352 10:0.073445 11:0.23913 12:0.16814 13:0.063887 14:0.35215 15:0.085979 16:0.70306
5 0 1:0.097669 2:0.078279 3:0.091954 4:0.48381 5:0.074724 6:0.40099 7:0.088206 8:0.57772 9:0.080573 10:0.18275 11:0.36957 12:0.22914 13:0.050437 14:0.24575 15:0.077381 16:0.70431
5 0 1:0.094051 2:0.07377 3:0.13043 4:0.46436 5:0.10582 6:0.40723 7:0.098117 8:0.67277 9:0.075665 10:0.23961 11:0.32609 12:0.24059 13:0.051782 14:0.23727 15:0.066138 16:0.70094
5 0 1:0.076768 2:0.055738 3:0.064468 4:0.508 5:0.049649 6:0.42921 7:0.060951 8:0.57882 9:0.057669 10:0.2422 11:0.36957 12:0.23741 13:0.04573 14:0.2466 15:0.061508 16:0.71305
5 0 1:0.11133 2:0.095902 3:0.13493 4:0.48954 5:0.11434 6:0.46243 7:0.12289 8:0.59142 9:0.096115 10:0.10284 11:0.36957 12:0.27543 13:0.066577 14:0.1644 15:0.083333 16:0.69029
5 0 1:0.11415 2:0.093033 3:0.13393 4:0.49119 5:0.11184 6:0.47639 7:0.11546 8:0.59743 9:0.09407 10:0.10156 11:0.32609 12:0.27077 13:0.06456 14:0.16325 15:0.084656 16:0.68851
5 0 1:0.13826 2:0.12131 3:0.15892 4:0.50157 5:0.14644 6:0.46631 7:0.14718 8:0.56588 9:0.12065 10:0.082644 11:0.26087 12:0.25671 13:0.05918 14:0.29159 15:0.082672 16:0.69358
5 0 1:0.10852 2:0.086885 3:0.13543 4:0.46103 5:0.10883 6:0.42848 7:0.10654 8:0.55958 9:0.087117 10:0.072428 11:0.28261 12:0.28642 13:0.05918 14:0.2928 15:0.078704 16:0.65807
1.496 0 1:0.1041 2:0.07377 3:0.11394 4:0.49667 5:0.091274 6:0.47374 7:0.092666 8:0.59763 9:0.074029 10:0.089346 11:0.41304 12:0.27385 13:0.057835 14:0.12805 15:0.07209 16:0.71783
5 0 1:0.10772 2:0.096721 3:0.12594 4:0.48522 5:0.11635 6:0.50016 7:0.11447 8:0.67223 9:0.096933 10:0.094959 11:0.34783 12:0.27512 13:0.062542 14:0.15903 15:0.085317 16:0.68848
0.20222 0 1:0.07918 2:0.064754 3:0.072464 4:0.45419 5:0.069709 6:0.59415 7:0.084737 8:0.52565 9:0.065849 10:0.038548 11:0.28261 12:0.32114 13:0.060525 14:0.15823 15:0.082011 16:0.66275
5 0 1:0.088826 2:0.077459 3:0.12644 4:0.47088 5:0.11033 6:0.45596 7:0.10258 8:0.72819 9:0.079346 10:0.27773 11:0.36957 12:0.24562 13:0.051782 14:0.2249 15:0.099868 16:0.68893
1.7805 0 1:0.11294 2:0.10451 3:0.14543 4:0.49401 5:0.12538 6:0.48834 7:0.12091 8:0.66495 9:0.1047 10:0.082632 11:0.21739 12:0.3045 13:0.069939 14:0.16223 15:0.085979 16:0.70459
3.1288 0 1:0.091238 2:0.079508 3:0.094953 4:0.49053 5:0.074724 6:0.43529 7:0.097126 8:0.59263 9:0.080982 10:0.22543 11:0.34783 12:0.23087 13:0.049765 14:0.22827 15:0.082672 16:0.68895
5 0 1:0.089228 2:0.081967 3:0.098951 4:0.48748 5:0.078235 6:0.41611 7:0.094648 8:0.57123 9:0.083436 10:0.19374 11:0.36957 12:0.23972 13:0.05111 14:0.25321 15:0.080026 16:0.7067
5 0 1:0.11013 2:0.098361 3:0.13793 4:0.49344 5:0.11836 6:0.50817 7:0.11645 8:0.66803 9:0.098569 10:0.094674 11:0.30435 12:0.26797 13:0.060525 14:0.16934 15:0.083995 16:0.6922
5 0 1:0.085611 2:0.072951 3:0.13043 4:0.46373 5:0.10481 6:0.41388 7:0.097126 8:0.69757 9:0.074847 10:0.24087 11:0.3913 12:0.2398 13:0.047747 14:0.25877 15:0.070767 16:0.68834
5 0 1:0.088424 2:0.069672 3:0.12544 4:0.48498 5:0.1008 6:0.4061 7:0.093657 8:0.70264 9:0.071984 10:0.26575 11:0.36957 12:0.25709 13:0.047075 14:0.2266 15:0.074735 16:0.671
5 0 1:0.048633 2:0.07459 3:0.09995 4:0.47671 5:0.072718 6:0.36984 7:0.074827 8:0.58772 9:0.074438 10:0.12333 11:0.23913 12:0.30016 13:0.043712 14:0.075282 15:0.055556 16:0.70028
5 0 1:0.10651 2:0.097541 3:0.11744 4:0.47427 5:0.11735 6:0.47399 7:0.11546 8:0.64404 9:0.098569 10:0.097605 11:0.36957 12:0.26673 13:0.067249 14:0.18756 15:0.084656 16:0.69652
2.084 0 1:0.14912 2:0.12459 3:0.16692 4:0.49565 5:0.14794 6:0.47258 7:0.15362 8:0.5387 9:0.12393 10:0.064063 11:0.23913 12:0.18123 13:0.057835 14:0.36563 15:0.078704 16:0.69764
0.69749 0 1:0.12178 2:0.10328 3:0.13743 4:0.48942 5:0.12387 6:0.47477 7:0.12785 8:0.60233 9:0.1047 10:0.1027 11:0.30435 12:0.28409 13:0.069939 14:0.14828 15:0.083995 16:0.70525
5 0 1:0.098071 2:0.076639 3:0.089955 4:0.48715 5:0.073721 6:0.40916 7:0.08672 8:0.5616 9:0.078937 10:0.22565 11:0.34783 12:0.22518 13:0.049765 14:0.24843 15:0.080688 16:0.70141
5 0 1:0.084003 2:0.077459 3:0.12844 4:0.47135 5:0.11033 6:0.40921 7:0.10307 8:0.69748 9:0.079755 10:0.29633 11:0.36957 12:0.26289 13:0.050437 14:0.27483 15:0.080026 16:0.72061
1.4854 0 1:0.11415 2:0.098361 3:0.13893 4:0.49903 5:0.11836 6:0.51392 7:0.11695 8:0.67202 9:0.098978 10:0.099408 11:0.23913 12:0.30509 13:0.066577 14:0.13991 15:0.084656 16:0.69284
3.927 0 1:0.092042 2:0.07459 3:0.07996 4:0.48843 5:0.069709 6:0.42165 7:0.080278 8:0.571 9:0.074438 10:0.19805 11:0.30435 12:0.2194 13:0.047747 14:0.25642 15:0.077381 16:0.71404
5 0 1:0.13384 2:0.12582 3:0.17041 4:0.49131 5:0.15045 6:0.46519 7:0.15312 8:0.57389 9:0.12434 10:0.082456 11:0.28261 12:0.25168 13:0.063215 14:0.3377 15:0.088624 16:0.68886
1.1404 0 1:0.11174 2:0.10246 3:0.14443 4:0.49922 5:0.12187 6:0.49183 7:0.12289 8:0.64007 9:0.10348 10:0.096293 11:0.23913 12:0.31706 13:0.063887 14:0.15298 15:0.083995 16:0.68467
5 0 1:0.086415 2:0.07541 3:0.078961 4:0.49559 5:0.066199 6:0.39538 7:0.064916 8:0.63104 9:0.07771 10:0.27219 11:0.36957 12:0.2497 13:0.050437 14:0.23859 15:0.07672 16:0.7209
3.0292 0 1:0.075965 2:0.052869 3:0.097451 4:0.46224 5:0.072217 6:0.37684 7:0.070862 8:0.59718 9:0.052761 10:0.11784 11:0.30435 12:0.3016 13:0.042367 14:0.099195 15:0.062169 16:0.67575
0 0.13545 1:0.030145 2:0.067623 3:0.10045 4:0.47051 5:0.077733 6:0.42922 7:0.0778 8:0.59338 9:0.067894 10:0.10405 11:0.17391 12:0.31916 13:0.081372 14:0.51683 15:0.093915 16:0.69063
0.8565 0 1:0.094453 2:0.071721 3:0.11244 4:0.4569 5:0.085757 6:0.52954 7:0.091675 8:0.50843 9:0.069939 10:0.026661 11:0.26087 12:0.29282 13:0.060525 14:0.25995 15:0.082672 16:0.64083
4.4944 0 1:0.11736 2:0.10287 3:0.14043 4:0.49658 5:0.12237 6:0.49957 7:0.12141 8:0.66941 9:0.10348 10:0.090885 11:0.28261 12:0.28865 13:0.068594 14:0.16577 15:0.085979 16:0.70221
5 0 1:0.094855 2:0.07459 3:0.094953 4:0.48839 5:0.076229 6:0.38916 7:0.089693 8:0.56652 9:0.074847 10:0.21534 11:0.34783 12:0.22221 13:0.051782 14:0.22854 15:0.094577 16:0.71023
1.4502 0 1:0.14148 2:0.1291 3:0.17241 4:0.50908 5:0.15496 6:0.49945 7:0.15709 8:0.57985 9:0.12761 10:0.079861 11:0.26087 12:0.21661 13:0.06187 14:0.34919 15:0.099206 16:0.69777
5 0 1:0.14148 2:0.12049 3:0.16042 4:0.49195 5:0.14544 6:0.4754 7:0.14668 8:0.54194 9:0.11779 10:0.066509 11:0.26087 12:0.18049 13:0.05918 14:0.35261 15:0.080026 16:0.70026
5 0 1:0.088826 2:0.07623 3:0.093953 4:0.50194 5:0.07322 6:0.41959 7:0.068385 8:0.63642 9:0.07771 10:0.35836 11:0.41304 12:0.24013 13:0.049765 14:0.19569 15:0.045635 16:0.82544
5 0 1:0.086817 2:0.069262 3:0.08096 4:0.5043 5:0.067202 6:0.40416 7:0.076809 8:0.56141 9:0.072393 10:0.29289 11:0.36957 12:0.2407 13:0.045057 14:0.32319 15:0.073413 16:0.72511
0.15571 0 1:0.10651 2:0.083607 3:0.12444 4:0.49508 5:0.10281 6:0.48194 7:0.10159 8:0.64508 9:0.085072 10:0.088411 11:0.32609 12:0.27803 13:0.057835 14:0.11071 15:0.078042 16:0.70025
5 0 1:0.061093 2:0.061475 3:0.074463 4:0.47244 5:0.048646 6:0.39073 7:0.05996 8:0.5515 9:0.060941 10:0.098051 11:0.21739 12:0.30117 13:0.04304 14:0.1035 15:0.053571 16:0.68942
0.19726 0 1:0.13947 2:0.12582 3:0.17091 4:0.49552 5:0.15095 6:0.48468 7:0.15263 8:0.57567 9:0.12474 10:0.060988 11:0.26087 12:0.20421 13:0.06187 14:0.37608 15:0.085317 16:0.68409
5 0 1:0.088424 2:0.079098 3:0.13343 4:0.45266 5:0.11234 6:0.42056 7:0.10406 8:0.65917 9:0.080573 10:0.27447 11:0.41304 12:0.25379 13:0.050437 14:0.22644 15:0.07672 16:0.71139
1.1735 0 1:0.1672 2:0.07582 3:0.074463 4:0.48617 5:0.057172 6:0.38971 7:0.067393 8:0.57753 9:0.073211 10:0.10918 11:0.19565 12:0.3016 13:0.055817 14:0.13285 15:0.077381 16:0.69564
5 0 1:0.13304 2:0.11434 3:0.15842 4:0.49396 5:0.13892 6:0.47495 7:0.13974 8:0.56865 9:0.11329 10:0.080896 11:0.23913 12:0.16066 13:0.063215 14:0.329 15:0.089947 16:0.72219
0.34151 0 1:0.076768 2:0.059016 3:0.067466 4:0.48184 5:0.059178 6:0.36505 7:0.069871 8:0.51108 9:0.06135 10:0.16375 11:0.32609 12:0.22776 13:0.046402 14:0.23454 15:0.06746 16:0.68841
5 0 1:0.14349 2:0.11803 3:0.16242 4:0.49688 5:0.14193 6:0.47798 7:0.14321 8:0.57728 9:0.11697 10:0.076909 11:0.30435 12:0.21665 13:0.05918 14:0.3384 15:0.082011 16:0.69784
5 0 1:0.088023 2:0.07418 3:0.12894 4:0.44985 5:0.10632 6:0.38984 7:0.098612 8:0.68238 9:0.076074 10:0.32804 11:0.32609 12:0.21897 13:0.049092 14:0.22821 15:0.044974 16:0.84308
5 0 1:0.098875 2:0.079098 3:0.087956 4:0.48926 5:0.076229 6:0.41724 7:0.078791 8:0.59697 9:0.080982 10:0.27177 11:0.36957 12:0.22146 13:0.051782 14:0.2413 15:0.079365 16:0.71061
5 0 1:0.14429 2:0.12254 3:0.16792 4:0.49368 5:0.14694 6:0.5041 7:0.15064 8:0.56501 9:0.12188 10:0.074908 11:0.26087 12:0.19962 13:0.061197 14:0.35835 15:0.091931 16:0.7103
5 0 1:0.086415 2:0.071721 3:0.10445 4:0.51012 5:0.10331 6:0.45214 7:0.096135 8:0.75674 9:0.074029 10:0.3319 11:0.34783 12:0.24447 13:0.049765 14:0.20079 15:0.092593 16:0.69507
0.14575 0 1:0.10088 2:0.082377 3:0.12044 4:0.48308 5:0.099799 6:0.45375 7:0.097621 8:0.65294 9:0.083027 10:0.084368 11:0.32609 12:0.27665 13:0.059852 14:0.18171 15:0.084656 16:0.69377
5 0 1:0.096463 2:0.07418 3:0.12844 4:0.46584 5:0.10632 6:0.41798 7:0.099108 8:0.70406 9:0.076483 10:0.25001 11:0.32609 12:0.23424 13:0.04842 14:0.23692 15:0.068122 16:0.69709
5 0 1:0.093248 2:0.071721 3:0.082959 4:0.49347 5:0.068706 6:0.40701 7:0.088206 8:0.57084 9:0.074438 10:0.32587 11:0.34783 12:0.23911 13:0.047075 14:0.19672 15:0.042989 16:0.82469
5 0 1:0.086013 2:0.068443 3:0.10845 4:0.4887 5:0.083751 6:0.47588 7:0.091179 8:0.61586 9:0.069939 10:0.096253 11:0.36957 12:0.27779 13:0.062542 14:0.086701 15:0.064815 16:0.7152
1.0684 0 1:0.13907 2:0.11434 3:0.14843 4:0.50321 5:0.13892 6:0.45766 7:0.14718 8:0.57371 9:0.11616 10:0.077735 11:0.26087 12:0.25651 13:0.061197 14:0.31066 15:0.095899 16:0.71943
5 0 1:0.14469 2:0.11967 3:0.16542 4:0.49976 5:0.14544 6:0.45912 7:0.14965 8:0.56483 9:0.12065 10:0.077419 11:0.28261 12:0.25322 13:0.061197 14:0.31406 15:0.089947 16:0.6974
5 0 1:0.092042 2:0.076639 3:0.10945 4:0.50442 5:0.10933 6:0.40827 7:0.10159 8:0.67067 9:0.078528 10:0.24043 11:0.34783 12:0.263 13:0.047747 14:0.25541 15:0.072751 16:0.71954
5 0 1:0.095257 2:0.073361 3:0.12694 4:0.4658 5:0.10532 6:0.41643 7:0.097126 8:0.65617 9:0.074847 10:0.29118 11:0.36957 12:0.24311 13:0.049092 14:0.22048 15:0.085979 16:0.69072
3.0611 0 1:0.088826 2:0.075 3:0.11094 4:0.47615 5:0.089769 6:0.39167 7:0.087215 8:0.6141 9:0.074438 10:0.09633 11:0.21739 12:0.30901 13:0.050437 14:0.076289 15:0.068783 16:0.71431
5 0 1:0.14228 2:0.1168 3:0.16342 4:0.50719 5:0.14193 6:0.47249 7:0.14618 8:0.56134 9:0.11656 10:0.077037 11:0.28261 12:0.26645 13:0.057835 14:0.30008 15:0.078704 16:0.68531
3.0407 0 1:0.16117 2:0.083197 3:0.12344 4:0.46369 5:0.1008 6:0.40603 7:0.099108 8:0.54721 9:0.084254 10:0.082547 11:0.30435 12:0.28868 13:0.05649 14:0.19978 15:0.073413 16:0.70644
0.10662 0 1:0.14027 2:0.125 3:0.16942 4:0.50693 5:0.15196 6:0.47631 7:0.14618 8:0.65213 9:0.12515 10:0.079912 11:0.23913 12:0.23101 13:0.06456 14:0.29463 15:0.10185 16:0.6985
5 0 1:0.10289 2:0.083607 3:0.12094 4:0.48864 5:0.1013 6:0.47544 7:0.099604 8:0.66545 9:0.085481 10:0.080812 11:0.28261 12:0.28006 13:0.063215 14:0.11978 15:0.083333 16:0.68772
5 0 1:0.12138 2:0.09877 3:0.12844 4:0.48213 5:0.11986 6:0.48195 7:0.11596 8:0.67221 9:0.098569 10:0.093791 11:0.23913 12:0.30272 13:0.063887 14:0.15303 15:0.084656 16:0.69467
5 0 1:0.097267 2:0.079098 3:0.093453 4:0.4879 5:0.075226 6:0.39489 7:0.068385 8:0.62889 9:0.080573 10:0.19982 11:0.36957 12:0.22675 13:0.054472 14:0.2424 15:0.07672 16:0.71115
5 0 1:0.090032 2:0.081148 3:0.098451 4:0.47759 5:0.079238 6:0.41102 7:0.094648 8:0.56643 9:0.083436 10:0.19247 11:0.32609 12:0.21141 13:0.04842 14:0.27375 15:0.044312 16:0.87296
5 0 1:0.21141 2:0.070082 3:0.088956 4:0.50167 5:0.069208 6:0.4136 7:0.078791 8:0.56175 9:0.072393 10:0.17065 11:0.3913 12:0.26167 13:0.04842 14:0.21722 15:0.043651 16:0.84036
4.5004 0 1:0.094453 2:0.07623 3:0.12044 4:0.48815 5:0.094283 6:0.49496 7:0.096135 8:0.63857 9:0.078119 10:0.10552 11:0.23913 12:0.30609 13:0.057835 14:0.091037 15:0.070106 16:0.70476
4.5679 0 1:0.087219 2:0.063934 3:0.11944 4:0.48562 5:0.093781 6:0.44859 7:0.08672 8:0.73085 9:0.066258 10:0.3236 11:0.34783 12:0.23497 13:0.046402 14:0.20496 15:0.070767 16:0.6753
4.2718 0 1:0.08119 2:0.063934 3:0.081959 4:0.50137 5:0.060181 6:0.4392 7:0.071853 8:0.54911 9:0.065849 10:0.21375 11:0.3913 12:0.22901 13:0.047075 14:0.24001 15:0.066799 16:0.71063
5 0 1:0.11696 2:0.10123 3:0.14143 4:0.49162 5:0.12136 6:0.47254 7:0.11695 8:0.66895 9:0.10225 10:0.093695 11:0.32609 12:0.27433 13:0.065905 14:0.14427 15:0.083995 16:0.7014
4.2766 0 1:0.09164 2:0.068033 3:0.07996 4:0.51313 5:0.070712 6:0.40159 7:0.074827 8:0.56868 9:0.068303 10:0.11682 11:0.34783 12:0.21461 13:0.053127 14:0.247 15:0.092593 16:0.71815
5 0 1:0.086415 2:0.070902 3:0.09995 4:0.51456 5:0.10231 6:0.40781 7:0.094648 8:0.67305 9:0.072802 10:0.30323 11:0.30435 12:0.2173 13:0.045057 14:0.21076 15:0.06746 16:0.71043
5 0 1:0.13907 2:0.11885 3:0.15692 4:0.50521 5:0.14343 6:0.46475 7:0.14916 8:0.55873 9:0.11902 10:0.086353 11:0.26087 12:0.21621 13:0.063215 14:0.29778 15:0.092593 16:0.70557
5 0 1:0.10209 2:0.080328 3:0.11994 4:0.47432 5:0.11384 6:0.4064 7:0.10605 8:0.6633 9:0.082209 10:0.25258 11:0.34783 12:0.23101 13:0.050437 14:0.21636 15:0.082011 16:0.69601
5 0 1:0.090032 2:0.069672 3:0.085457 4:0.4977 5:0.066199 6:0.39791 7:0.085728 8:0.55852 9:0.071984 10:0.32976 11:0.36957 12:0.25716 13:0.046402 14:0.27042 15:0.042328 16:0.87438
5 0 1:0.13786 2:0.095492 3:0.13893 4:0.48967 5:0.11735 6:0.47007 7:0.11348 8:0.65494 9:0.096524 10:0.095896 11:0.28261 12:0.27953 13:0.063215 14:0.1103 15:0.083333 16:0.69402
0.86917 0 1:0.088023 2:0.051639 3:0.049975 4:0.47336 5:0.047141 6:0.37178 7:0.052032 8:0.56969 9:0.051943 10:0.12129 11:0.28261 12:0.30088 13:0.041022 14:0.085686 15:0.052249 16:0.68307
0.27603 0 1:0.098473 2:0.081967 3:0.12144 4:0.50833 5:0.1008 6:0.50894 7:0.099108 8:0.6763 9:0.084254 10:0.10115 11:0.30435 12:0.27314 13:0.063887 14:0.11039 15:0.080688 16:0.71328
5 0 1:0.10209 2:0.078689 3:0.13043 4:0.46149 5:0.11184 6:0.41202 7:0.10357 8:0.65296 9:0.080164 10:0.24419 11:0.32609 12:0.23787 13:0.05111 14:0.22612 15:0.046958 16:0.8465
0 0.047626 1:0.13907 2:0.1209 3:0.16892 4:0.4938 5:0.14544 6:0.46947 7:0.14718 8:0.55994 9:0.11779 10:0.065169 11:0.30435 12:0.25354 13:0.057162 14:0.38128 15:0.083333 16:0.69914
2.1038 0 1:0.099277 2:0.083197 3:0.14343 4:0.48154 5:0.11735 6:0.46377 7:0.1115 8:0.80319 9:0.084663 10:0.21288 11:0.3913 12:0.2454 13:0.051782 14:0.21985 15:0.081349 16:0.70343
5 0 1:0.11294 2:0.091803 3:0.12994 4:0.48744 5:0.11033 6:0.47203 7:0.10951 8:0.62447 9:0.092843 10:0.092465 11:0.30435 12:0.27732 13:0.063215 14:0.1729 15:0.071429 16:0.71672
5 0 1:0.13505 2:0.11393 3:0.15892 4:0.50725 5:0.13791 6:0.44849 7:0.14123 8:0.56379 9:0.11411 10:0.070712 11:0.28261 12:0.2299 13:0.05918 14:0.3187 15:0.093254 16:0.72069
0.055746 0 1:0.13987 2:0.11926 3:0.16442 4:0.49102 5:0.14493 6:0.48373 7:0.14569 8:0.599 9:0.1227 10:0.09253 11:0.30435 12:0.27387 13:0.061197 14:0.31525 15:0.095238 16:0.71511
5 0 1:0.20458 2:0.081148 3:0.11294 4:0.50192 5:0.11484 6:0.44085 7:0.10753 8:0.73777 9:0.083436 10:0.34562 11:0.41304 12:0.24302 13:0.051782 14:0.1997 15:0.046958 16:0.82847
0.44362 0 1:0.083601 2:0.07459 3:0.097451 4:0.48613 5:0.071715 6:0.39965 7:0.082755 8:0.55845 9:0.075256 10:0.22389 11:0.34783 12:0.23445 13:0.050437 14:0.22665 15:0.07672 16:0.71754
5 0 1:0.081994 2:0.07459 3:0.12844 4:0.47047 5:0.10682 6:0.45475 7:0.099108 8:0.71014 9:0.076483 10:0.33805 11:0.32609 12:0.24359 13:0.047747 14:0.1991 15:0.070767 16:0.70877
5 0 1:0.092042 2:0.07459 3:0.13093 4:0.46777 5:0.10682 6:0.41567 7:0.099108 8:0.70514 9:0.076483 10:0.253 11:0.36957 12:0.24692 13:0.050437 14:0.24601 15:0.074074 16:0.69911
5 0 1:0.14068 2:0.11639 3:0.15692 4:0.50064 5:0.13992 6:0.45553 7:0.14172 8:0.58066 9:0.11534 10:0.08322 11:0.26087 12:0.22979 13:0.065905 14:0.28874 15:0.084656 16:0.70579
5 0 1:0.13545 2:0.12664 3:0.17541 4:0.51036 5:0.15095 6:0.49245 7:0.15758 8:0.55425 9:0.12597 10:0.052338 11:0.28261 12:0.22371 13:0.05649 14:0.36836 15:0.081349 16:0.69479
5 0 1:0.21865 2:0.078689 3:0.11344 4:0.50639 5:0.11184 6:0.42398 7:0.10357 8:0.66166 9:0.080164 10:0.3225 11:0.3913 12:0.23885 13:0.051782 14:0.22453 15:0.046958 16:0.83981
5 0 1:0.088023 2:0.064344 3:0.11044 4:0.45544 5:0.094283 6:0.36968 7:0.087215 8:0.68533 9:0.066667 10:0.29344 11:0.36957 12:0.25922 13:0.04304 14:0.23343 15:0.068122 16:0.65854
0.1844 0 1:0.063103 2:0.054918 3:0.084458 4:0.491 5:0.0667 6:0.37411 7:0.070862 8:0.58887 9:0.05317 10:0.088775 11:0.32609 12:0.30556 13:0.05111 14:0.060841 15:0.068122 16:0.67897
0.11648 0 1:0.11415 2:0.085656 3:0.12594 4:0.47815 5:0.10381 6:0.44672 7:0.10704 8:0.57662 9:0.087117 10:0.082346 11:0.30435 12:0.29009 13:0.057835 14:0.1649 15:0.082672 16:0.70656
4.8589 0 1:0.08119 2:0.080738 3:0.13743 4:0.47342 5:0.11434 6:0.44306 7:0.10605 8:0.67554 9:0.082209 10:0.30693 11:0.34783 12:0.24322 13:0.04573 14:0.20206 15:0.075397 16:0.69734
5 0 1:0.13304 2:0.12418 3:0.16692 4:0.50525 5:0.14995 6:0.47294 7:0.1442 8:0.6423 9:0.12311 10:0.090218 11:0.26087 12:0.25614 13:0.060525 14:0.29902 15:0.083333 16:0.6821
5 0 1:0.1467 2:0.1377 3:0.17391 4:0.50259 5:0.15948 6:0.42867 7:0.16402 8:0.59856 9:0.13661 10:0.090078 11:0.28261 12:0.28087 13:0.050437 14:0.12927 15:0.074735 16:0.70679
0 0.78026 1:0.036977 2:0.16352 3:0.21789 4:0.49799 5:0.19509 6:0.44623 7:0.20168 8:0.59523 9:0.16237 10:0.095579 11:0.32609 12:0.17681 13:0.052455 14:0.2437 15:0.081349 16:0.70343
5 0 1:0.13666 2:0.11598 3:0.16092 4:0.51134 5:0.14243 6:0.45901 7:0.14668 8:0.56037 9:0.11616 10:0.068679 11:0.32609 12:0.2746 13:0.06187 14:0.31884 15:0.098545 16:0.70525
5 0 1:0.088424 2:0.072131 3:0.095452 4:0.4891 5:0.068706 6:0.39632 7:0.08226 8:0.55182 9:0.074438 10:0.22314 11:0.36957 12:0.22654 13:0.05111 14:0.24121 15:0.080688 16:0.70112
5 0 1:0.13424 2:0.1209 3:0.16242 4:0.50484 5:0.14544 6:0.48204 7:0.14767 8:0.56101 9:0.11984 10:0.074442 11:0.28261 12:0.19715 13:0.059852 14:0.32544 15:0.079365 16:0.70491
0 0.072009 1:0.10008 2:0.090984 3:0.12844 4:0.46893 5:0.10782 6:0.50434 7:0.10803 8:0.55764 9:0.091207 10:0.074157 11:0.26087 12:0.29992 13:0.059852 14:0.30492 15:0.082011 16:0.66434
5 0 1:0.095257 2:0.078279 3:0.086957 4:0.49131 5:0.078235 6:0.4052 7:0.090188 8:0.56562 9:0.080573 10:0.21688 11:0.34783 12:0.22546 13:0.054472 14:0.23204 15:0.078042 16:0.70228
1.8633 0 1:0.096865 2:0.20205 3:0.17391 4:0.47375 5:0.15998 6:0.71998 7:0.15213 8:0.86802 9:0.20409 10:0.21553 11:0.36957 12:0.23815 13:0.047075 14:0.28446 15:0.042989 16:0.88058
5 0 1:0.13585 2:0.11557 3:0.16242 4:0.49488 5:0.14092 6:0.47649 7:0.14668 8:0.56549 9:0.11738 10:0.088153 11:0.28261 12:0.2617 13:0.060525 14:0.29804 15:0.077381 16:0.69314
0.15503 0 1:0.09365 2:0.082377 3:0.12144 4:0.50726 5:0.099298 6:0.47591 7:0.10208 8:0.60359 9:0.084254 10:0.081861 11:0.17391 12:0.34584 13:0.060525 14:0.10082 15:0.082672 16:0.70341
0.49755 0 1:0.14188 2:0.11721 3:0.16192 4:0.49767 5:0.14193 6:0.45246 7:0.14817 8:0.55097 9:0.11902 10:0.07663 11:0.26087 12:0.22467 13:0.063887 14:0.34274 15:0.09127 16:0.71391
5 0 1:0.092444 2:0.071721 3:0.10395 4:0.5028 5:0.10331 6:0.45558 7:0.095144 8:0.68464 9:0.073211 10:0.29163 11:0.3913 12:0.22516 13:0.050437 14:0.21029 15:0.062831 16:0.72713
5 0 1:0.11937 2:0.10164 3:0.14493 4:0.49583 5:0.12337 6:0.47675 7:0.11943 8:0.66926 9:0.10184 10:0.088522 11:0.28261 12:0.2772 13:0.063887 14:0.16265 15:0.084656 16:0.68854
5 0 1:0.1242 2:0.10082 3:0.14493 4:0.49404 5:0.12187 6:0.46937 7:0.12141 8:0.63115 9:0.10225 10:0.088647 11:0.36957 12:0.2743 13:0.065905 14:0.16702 15:0.084656 16:0.69814
2.21 0 1:0.090836 2:0.065164 3:0.10795 4:0.46248 5:0.081244 6:0.39801 7:0.086224 8:0.54584 9:0.064622 10:0.06043 11:0.21739 12:0.33301 13:0.057162 14:0.25162 15:0.073413 16:0.64155
0.004087 0 1:0.089228 2:0.072131 3:0.088956 4:0.49554 5:0.068205 6:0.41072 7:0.080773 8:0.5315 9:0.074029 10:0.15813 11:0.32609 12:0.23312 13:0.050437 14:0.22079 15:0.068122 16:0.71031
1.4605 0 1:0.12661 2:0.072541 3:0.077961 4:0.49518 5:0.053661 6:0.35567 7:0.051536 8:0.59095 9:0.070757 10:0.10523 11:0.26087 12:0.29895 13:0.046402 14:0.09661 15:0.058201 16:0.71038
2.2321 0 1:0.043408 2:0.065984 3:0.091454 4:0.47116 5:0.067202 6:0.40247 7:0.072349 8:0.5767 9:0.064622 10:0.10108 11:0.19565 12:0.29838 13:0.052455 14:0.061076 15:0.05754 16:0.71131
5 0 1:0.14349 2:0.1291 3:0.17491 4:0.49777 5:0.15597 6:0.45177 7:0.15659 8:0.57956 9:0.12761 10:0.084327 11:0.32609 12:0.26757 13:0.06187 14:0.30415 15:0.082672 16:0.68896
0.105 0 1:0.046222 2:0.065574 3:0.11994 4:0.46934 5:0.095787 6:0.4178 7:0.088702 8:0.71206 9:0.067894 10:0.26037 11:0.30435 12:0.2423 13:0.04304 14:0.21192 15:0.065476 16:0.69934
5 0 1:0.090032 2:0.07418 3:0.096452 4:0.47697 5:0.071214 6:0.39413 7:0.077304 8:0.55758 9:0.074438 10:0.22344 11:0.34783 12:0.22527 13:0.049765 14:0.2413 15:0.069444 16:0.70822
5 0 1:0.096865 2:0.085246 3:0.14443 4:0.46377 5:0.11986 6:0.42923 7:0.11199 8:0.68598 9:0.087117 10:0.23716 11:0.3913 12:0.24047 13:0.0538 14:0.21706 15:0.094577 16:0.7221
0.69218 0 1:0.13947 2:0.11926 3:0.15892 4:0.50106 5:0.14042 6:0.43478 7:0.14172 8:0.59225 9:0.11943 10:0.097562 11:0.30435 12:0.2823 13:0.055817 14:0.16899 15:0.070767 16:0.70059
5 0 1:0.072347 2:0.066393 3:0.074963 4:0.4805 5:0.054162 6:0.38195 7:0.062438 8:0.56545 9:0.065031 10:0.098952 11:0.32609 12:0.2988 13:0.04304 14:0.090072 15:0.05291 16:0.70477
5 0 1:0.096463 2:0.071311 3:0.12644 4:0.48966 5:0.10281 6:0.46692 7:0.094648 8:0.69289 9:0.072802 10:0.37087 11:0.34783 12:0.23168 13:0.042367 14:0.15563 15:0.039021 16:0.79355
5 0 1:0.1463 2:0.12951 3:0.16042 4:0.49921 5:0.15145 6:0.45206 7:0.14569 8:0.66463 9:0.12761 10:0.091282 11:0.32609 12:0.27959 13:0.059852 14:0.12036 15:0.093254 16:0.72096
5 0 1:0.11937 2:0.10164 3:0.14243 4:0.50587 5:0.12136 6:0.48437 7:0.12686 8:0.59825 9:0.10389 10:0.086258 11:0.19565 12:0.35436 13:0.065232 14:0.12154 15:0.084656 16:0.69161
5 0 1:0.099277 2:0.082787 3:0.13743 4:0.47261 5:0.11685 6:0.42791 7:0.10852 8:0.66451 9:0.084254 10:0.23695 11:0.34783 12:0.2216 13:0.053127 14:0.24013 15:0.090608 16:0.7064
5 0 1:0.093248 2:0.07459 3:0.10895 4:0.51089 5:0.10682 6:0.38977 7:0.099108 8:0.6542 9:0.076483 10:0.30056 11:0.30435 12:0.24828 13:0.047747 14:0.19024 15:0.069444 16:0.70624
5 0 1:0.14349 2:0.11967 3:0.16342 4:0.50264 5:0.14493 6:0.46726 7:0.14519 8:0.57233 9:0.11984 10:0.073478 11:0.30435 12:0.26727 13:0.062542 14:0.30493 15:0.091931 16:0.69678
0.18464 0 1:0.059084 2:0.07459 3:0.076962 4:0.48906 5:0.058676 6:0.36909 7:0.058969 8:0.59294 9:0.074029 10:0.098029 11:0.28261 12:0.29308 13:0.045057 14:0.071001 15:0.053571 16:0.71017
4.345 0 1:0.13023 2:0.1168 3:0.15542 4:0.50075 5:0.14092 6:0.43061 7:0.14519 8:0.55627 9:0.11534 10:0.055226 11:0.23913 12:0.21328 13:0.06187 14:0.29459 15:0.099206 16:0.70362
4.2317 0 1:0.10772 2:0.10328 3:0.14043 4:0.49969 5:0.12387 6:0.48035 7:0.11943 8:0.65556 9:0.1047 10:0.087053 11:0.30435 12:0.2814 13:0.066577 14:0.16262 15:0.084656 16:0.7019
5 0 1:0.13987 2:0.11803 3:0.16142 4:0.48871 5:0.14243 6:0.45041 7:0.1447 8:0.55603 9:0.11779 10:0.06192 11:0.30435 12:0.23081 13:0.060525 14:0.34274 15:0.08664 16:0.70962
5 0 1:0.099678 2:0.087295 3:0.11694 4:0.48296 5:0.10481 6:0.48116 7:0.10902 8:0.58225 9:0.088344 10:0.078812 11:0.32609 12:0.2775 13:0.059852 14:0.17656 15:0.083333 16:0.68308
5 0 1:0.059084 2:0.078689 3:0.10245 4:0.47645 5:0.080742 6:0.38722 7:0.083746 8:0.57963 9:0.078119 10:0.11216 11:0.23913 12:0.30072 13:0.041695 14:0.078953 15:0.058862 16:0.70458
2.0626 0 1:0.082797 2:0.07418 3:0.12644 4:0.45351 5:0.10632 6:0.40524 7:0.098117 8:0.64803 9:0.075665 10:0.26502 11:0.32609 12:0.2275 13:0.047747 14:0.23079 15:0.080688 16:0.69489
5 0 1:0.099277 2:0.079098 3:0.11394 4:0.48378 5:0.096289 6:0.48947 7:0.094153 8:0.64714 9:0.080573 10:0.10002 11:0.30435 12:0.28338 13:0.06456 14:0.15459 15:0.080026 16:0.69165
5 0 1:0.086817 2:0.068852 3:0.084458 4:0.49825 5:0.066199 6:0.40024 7:0.083251 8:0.57866 9:0.070757 10:0.20627 11:0.32609 12:0.23431 13:0.043712 14:0.26056 15:0.070106 16:0.71167
5 0 1:0.14268 2:0.12254 3:0.15342 4:0.49745 5:0.14794 6:0.4489 7:0.15312 8:0.54449 9:0.12229 10:0.065074 11:0.28261 12:0.22249 13:0.062542 14:0.31592 15:0.10384 16:0.69751
5 0 1:0.14389 2:0.12746 3:0.16692 4:0.51318 5:0.15496 6:0.4607 7:0.15709 8:0.57695 9:0.12802 10:0.086747 11:0.26087 12:0.26146 13:0.062542 14:0.25994 15:0.096561 16:0.70823
5 0 1:0.10088 2:0.068443 3:0.070965 4:0.47456 5:0.050652 6:0.36312 7:0.053023 8:0.5737 9:0.069121 10:0.13225 11:0.23913 12:0.29968 13:0.049765 14:0.071696 15:0.055556 16:0.71284
3.8152 0 1:0.076768 2:0.10082 3:0.13593 4:0.50079 5:0.11484 6:0.37028 7:0.11348 8:0.59296 9:0.1002 10:0.10889 11:0.36957 12:0.29117 13:0.044385 14:0.071977 15:0.044312 16:0.73139
5 0 1:0.090836 2:0.07459 3:0.085957 4:0.48993 5:0.065697 6:0.42202 7:0.059465 8:0.64374 9:0.076074 10:0.27166 11:0.30435 12:0.25281 13:0.044385 14:0.20663 15:0.040344 16:0.83357
5 0 1:0.13666 2:0.12459 3:0.16792 4:0.49791 5:0.15145 6:0.48465 7:0.15659 8:0.57162 9:0.12597 10:0.082268 11:0.28261 12:0.2344 13:0.059852 14:0.29074 15:0.080688 16:0.69056
5 0 1:0.092042 2:0.069672 3:0.08046 4:0.53501 5:0.068205 6:0.46925 7:0.080278 8:0.54839 9:0.072393 10:0.2904 11:0.36957 12:0.24754 13:0.049092 14:0.27646 15:0.044974 16:0.86867
2.9543 0 1:0.11093 2:0.09959 3:0.12994 4:0.48132 5:0.11735 6:0.48125 7:0.11893 8:0.61044 9:0.10389 10:0.14047 11:0.32609 12:0.27445 13:0.067249 14:0.15639 15:0.084656 16:0.6964
5 0 1:0.12138 2:0.098361 3:0.14293 4:0.50352 5:0.11836 6:0.47924 7:0.11596 8:0.64704 9:0.098569 10:0.10375 11:0.28261 12:0.28537 13:0.065232 14:0.15852 15:0.08664 16:0.69293
5 0 1:0.089228 2:0.07377 3:0.12144 4:0.47983 5:0.10582 6:0.39895 7:0.097126 8:0.62605 9:0.074847 10:0.31534 11:0.41304 12:0.24165 13:0.046402 14:0.25633 15:0.076058 16:0.69946
5 0 1:0.084405 2:0.07582 3:0.10695 4:0.50936 5:0.10832 6:0.42405 7:0.10208 8:0.809 9:0.07771 10:0.25729 11:0.32609 12:0.21593 13:0.05111 14:0.21571 15:0.073413 16:0.7006
1.5058 0 1:0.11535 2:0.094262 3:0.13443 4:0.49146 5:0.11484 6:0.48031 7:0.12537 8:0.58852 9:0.097751 10:0.044782 11:0.32609 12:0.27044 13:0.065232 14:0.15392 15:0.084656 16:0.69393
5 0 1:0.13826 2:0.12336 3:0.17041 4:0.50778 5:0.14895 6:0.48825 7:0.14916 8:0.57647 9:0.12515 10:0.068672 11:0.28261 12:0.20146 13:0.06456 14:0.35267 15:0.093254 16:0.71127
0.97335 0 1:0.13223 2:0.11926 3:0.15442 4:0.48759 5:0.14493 6:0.4621 7:0.14916 8:0.55004 9:0.11984 10:0.088128 11:0.26087 12:0.23272 13:0.063887 14:0.31444 15:0.094577 16:0.69699
5 0 1:0.080788 2:0.072541 3:0.081459 4:0.50374 5:0.069208 6:0.40525 7:0.062934 8:0.63588 9:0.074029 10:0.31017 11:0.43478 12:0.25611 13:0.050437 14:0.24326 15:0.070106 16:0.72255
0 0.060388 1:0.094051 2:0.18566 3:0.15742 4:0.44727 5:0.15145 6:0.5947 7:0.16204 8:0.49808 9:0.18855 10:0.16614 11:0.36957 12:0.26361 13:0.04842 14:0.2581 15:0.070767 16:0.72992
0.82958 0 1:0.059486 2:0.12336 3:0.11044 4:0.49199 5:0.092778 6:0.41865 7:0.1001 8:0.58293 9:0.12147 10:0.11178 11:0.23913 12:0.29964 13:0.0269 14:0.066563 15:0.034392 16:0.69825
5 0 1:0.087219 2:0.078689 3:0.092954 4:0.48022 5:0.074724 6:0.40163 7:0.084242 8:0.56946 9:0.079755 10:0.22848 11:0.36957 12:0.22974 13:0.050437 14:0.2479 15:0.076058 16:0.70187
0.89811 0 1:0.14027 2:0.11762 3:0.15542 4:0.49936 5:0.14193 6:0.48827 7:0.15064 8:0.57328 9:0.11943 10:0.073968 11:0.28261 12:0.24352 13:0.062542 14:0.2938 15:0.084656 16:0.70452
5 0 1:0.14068 2:0.12172 3:0.16792 4:0.49882 5:0.14794 6:0.47778 7:0.14767 8:0.56949 9:0.12188 10:0.058606 11:0.26087 12:0.17756 13:0.06456 14:0.35238 15:0.089947 16:0.71275
0.34301 0 1:0.14469 2:0.12254 3:0.16892 4:0.49668 5:0.14845 6:0.48026 7:0.15164 8:0.56111 9:0.12106 10:0.061719 11:0.23913 12:0.16803 13:0.05918 14:0.37039 15:0.090608 16:0.70266
0.40622 0 1:0.13706 2:0.11885 3:0.16142 4:0.48496 5:0.14443 6:0.45948 7:0.15015 8:0.54923 9:0.12025 10:0.080134 11:0.26087 12:0.21361 13:0.06456 14:0.32313 15:0.089286 16:0.70176
5 0 1:0.093248 2:0.071311 3:0.088956 4:0.525 5:0.068706 6:0.45002 7:0.075322 8:0.59482 9:0.07362 10:0.33591 11:0.30435 12:0.23539 13:0.04573 14:0.20614 15:0.041667 16:0.83074
5 0 1:0.14389 2:0.11393 3:0.15042 4:0.48946 5:0.13641 6:0.47279 7:0.13726 8:0.57159 9:0.1137 10:0.063824 11:0.26087 12:0.19139 13:0.05918 14:0.37657 15:0.091931 16:0.7112
2.2608 0 1:0.095257 2:0.077049 3:0.091454 4:0.48014 5:0.074724 6:0.40077 7:0.082755 8:0.56578 9:0.076892 10:0.20698 11:0.41304 12:0.25962 13:0.05111 14:0.23154 15:0.092593 16:0.7076
5 0 1:0.094051 2:0.07623 3:0.12494 4:0.49044 5:0.10883 6:0.44704 7:0.10159 8:0.71009 9:0.078528 10:0.24451 11:0.34783 12:0.2303 13:0.049765 14:0.20369 15:0.072751 16:0.70411
4.4061 0 1:0.092444 2:0.070902 3:0.12094 4:0.47134 5:0.10231 6:0.38956 7:0.094153 8:0.63663 9:0.072393 10:0.30016 11:0.34783 12:0.25027 13:0.047075 14:0.24507 15:0.093254 16:0.70927
5 0 1:0.13465 2:0.12049 3:0.15192 4:0.49615 5:0.14393 6:0.46364 7:0.15064 8:0.54917 9:0.11861 10:0.079757 11:0.23913 12:0.23529 13:0.062542 14:0.28006 15:0.093915 16:0.70161
2.5192 0 1:0.092846 2:0.072541 3:0.089955 4:0.48272 5:0.071214 6:0.39709 7:0.084242 8:0.57554 9:0.074847 10:0.26885 11:0.34783 12:0.23007 13:0.050437 14:0.23478 15:0.077381 16:0.70578
5 0 1:0.11133 2:0.10328 3:0.14693 4:0.49641 5:0.12487 6:0.47424 7:0.12289 8:0.65425 9:0.10511 10:0.081318 11:0.34783 12:0.26753 13:0.069939 14:0.15353 15:0.083333 16:0.70361
4.5706 0 1:0.13465 2:0.12705 3:0.17391 4:0.51723 5:0.15296 6:0.46543 7:0.15263 8:0.56461 9:0.12761 10:0.07321 11:0.21739 12:0.16519 13:0.063215 14:0.3637 15:0.098545 16:0.70502
5 0 1:0.13304 2:0.12377 3:0.16542 4:0.50148 5:0.14945 6:0.44262 7:0.15362 8:0.54965 9:0.12434 10:0.065266 11:0.26087 12:0.20353 13:0.05918 14:0.32143 15:0.076058 16:0.72492
5 0 1:0.13907 2:0.1209 3:0.15592 4:0.51214 5:0.14594 6:0.48012 7:0.15064 8:0.53708 9:0.12147 10:0.050557 11:0.28261 12:0.19454 13:0.062542 14:0.3777 15:0.095899 16:0.70724
4.4763 0 1:0.082395 2:0.072131 3:0.088456 4:0.47978 5:0.068706 6:0.37939 7:0.084242 8:0.55945 9:0.073211 10:0.28649 11:0.43478 12:0.26918 13:0.049765 14:0.24186 15:0.073413 16:0.7075
5 0 1:0.098473 2:0.089754 3:0.12744 4:0.48179 5:0.10732 6:0.47585 7:0.11695 8:0.56356 9:0.090389 10:0.077019 11:0.34783 12:0.28568 13:0.061197 14:0.18465 15:0.084656 16:0.67805
1.853 0 1:0.090836 2:0.076639 3:0.092454 4:0.48963 5:0.072217 6:0.40415 7:0.065411 8:0.6327 9:0.07771 10:0.29417 11:0.30435 12:0.27046 13:0.047747 14:0.21077 15:0.043651 16:0.82855
5 0 1:0.12138 2:0.096311 3:0.13893 4:0.48646 5:0.11685 6:0.4609 7:0.11943 8:0.58198 9:0.097342 10:0.089551 11:0.32609 12:0.27202 13:0.062542 14:0.17433 15:0.058201 16:0.7969
5 0 1:0.10209 2:0.091803 3:0.13293 4:0.49309 5:0.10933 6:0.47125 7:0.10852 8:0.64921 9:0.091207 10:0.087874 11:0.26087 12:0.29976 13:0.065232 14:0.15398 15:0.082672 16:0.69812
0 1.1864 1:0.070338 2:0.12008 3:0.11394 4:0.4465 5:0.1008 6:0.49325 7:0.10753 8:0.54373 9:0.11984 10:0.12669 11:0.21739 12:0.29877 13:0.097512 14:0.29928 15:0.125 16:0.65317
5 0 1:0.096463 2:0.07623 3:0.093453 4:0.49214 5:0.07322 6:0.41077 7:0.087215 8:0.56171 9:0.078528 10:0.26637 11:0.32609 12:0.25664 13:0.044385 14:0.19618 15:0.040344 16:0.82026
3.8442 0 1:0.13424 2:0.11844 3:0.15242 4:0.50347 5:0.14142 6:0.46586 7:0.14767 8:0.52882 9:0.1182 10:0.050959 11:0.26087 12:0.16782 13:0.05918 14:0.34762 15:0.080688 16:0.70278
5 0 1:0.13384 2:0.12254 3:0.16392 4:0.50353 5:0.14644 6:0.47803 7:0.15164 8:0.54894 9:0.1227 10:0.082755 11:0.28261 12:0.26012 13:0.062542 14:0.28602 15:0.10516 16:0.70677
5 0 1:0.083601 2:0.07623 3:0.13243 4:0.46645 5:0.10883 6:0.41715 7:0.1001 8:0.62498 9:0.077301 10:0.26844 11:0.36957 12:0.24401 13:0.050437 14:0.20126 15:0.045635 16:0.83122
0 0.39472 1:0.12701 2:0.12172 3:0.15992 4:0.50085 5:0.14443 6:0.49907 7:0.14817 8:0.55164 9:0.12065 10:0.056365 11:0.41304 12:0.27195 13:0.061197 14:0.38588 15:0.083333 16:0.69052
5 0 1:0.11495 2:0.088934 3:0.12844 4:0.50272 5:0.10582 6:0.49921 7:0.10951 8:0.61927 9:0.089571 10:0.098721 11:0.32609 12:0.27282 13:0.067922 14:0.14714 15:0.083995 16:0.68635
0 0.036444 1:0.037781 2:0.14795 3:0.1979 4:0.49677 5:0.17252 6:0.43152 7:0.17542 8:0.5822 9:0.14928 10:0.13165 11:0.30435 12:0.27616 13:0.073974 14:0.64085 15:0.084656 16:0.67045
5 0 1:0.090836 2:0.072541 3:0.08096 4:0.49573 5:0.069208 6:0.41528 7:0.062934 8:0.63458 9:0.072802 10:0.18698 11:0.30435 12:0.22915 13:0.050437 14:0.21902 15:0.05754 16:0.72522
5 0 1:0.13063 2:0.1168 3:0.16042 4:0.49574 5:0.14042 6:0.48637 7:0.14668 8:0.53979 9:0.11779 10:0.073942 11:0.26087 12:0.17295 13:0.06456 14:0.34077 15:0.090608 16:0.70825
5 0 1:0.11937 2:0.09959 3:0.13893 4:0.50101 5:0.12086 6:0.50897 7:0.11695 8:0.66137 9:0.10102 10:0.086034 11:0.32609 12:0.27043 13:0.063887 14:0.16354 15:0.083995 16:0.69894
3.7437 0 1:0.14027 2:0.1168 3:0.16642 4:0.51138 5:0.14393 6:0.4743 7:0.14916 8:0.5427 9:0.11779 10:0.08028 11:0.26087 12:0.25009 13:0.061197 14:0.29845 15:0.10053 16:0.69295
5 0 1:0.078778 2:0.071721 3:0.092954 4:0.48363 5:0.071715 6:0.3902 7:0.079286 8:0.57684 9:0.07362 10:0.32492 11:0.3913 12:0.24664 13:0.050437 14:0.20756 15:0.046296 16:0.83198
5 0 1:0.099678 2:0.078279 3:0.13443 4:0.47426 5:0.11133 6:0.46447 7:0.10208 8:0.64004 9:0.078937 10:0.23975 11:0.30435 12:0.22384 13:0.049765 14:0.23216 15:0.044974 16:0.85219
5 0 1:0.14268 2:0.12705 3:0.17391 4:0.50897 5:0.15396 6:0.45191 7:0.16056 8:0.57432 9:0.12843 10:0.080825 11:0.26087 12:0.24309 13:0.065232 14:0.26974 15:0.091931 16:0.69966
2.9301 0 1:0.097267 2:0.07418 3:0.085957 4:0.49171 5:0.069208 6:0.40123 7:0.062438 8:0.63352 9:0.076074 10:0.25353 11:0.36957 12:0.24081 13:0.046402 14:0.25441 15:0.092593 16:0.70888
4.1597 0 1:0.13304 2:0.11557 3:0.15542 4:0.4991 5:0.13992 6:0.45526 7:0.13925 8:0.5736 9:0.11616 10:0.065105 11:0.26087 12:0.21695 13:0.062542 14:0.35325 15:0.092593 16:0.70343
5 0 1:0.094453 2:0.086066 3:0.14643 4:0.47497 5:0.12086 6:0.44643 7:0.1115 8:0.64915 9:0.086708 10:0.1929 11:0.34783 12:0.22834 13:0.05111 14:0.25048 15:0.085317 16:0.71213
0.51855 0 1:0.095257 2:0.071721 3:0.086957 4:0.4944 5:0.069208 6:0.39573 7:0.080773 8:0.55608 9:0.071984 10:0.2344 11:0.36957 12:0.24418 13:0.047075 14:0.22666 15:0.073413 16:0.71585
0.56031 0 1:0.093248 2:0.079918 3:0.086457 4:0.48545 5:0.077733 6:0.43 7:0.071358 8:0.64963 9:0.082209 10:0.25298 11:0.36957 12:0.23367 13:0.050437 14:0.24162 15:0.073413 16:0.69844
5 0 1:0.14469 2:0.11803 3:0.15742 4:0.49178 5:0.14293 6:0.49242 7:0.15213 8:0.57143 9:0.12065 10:0.070718 11:0.26087 12:0.18845 13:0.061197 14:0.34315 15:0.089286 16:0.70638
0 1.3033 1:0.042605 2:0.11967 3:0.17441 4:0.47886 5:0.14845 6:0.45737 7:0.15263 8:0.56741 9:0.11902 10:0.076545 11:0.43478 12:0.26193 13:0 14:0.35926 15:0.005291 16:0.58723
5 0 1:0.092846 2:0.081148 3:0.14043 4:0.46664 5:0.11484 6:0.40475 7:0.10704 8:0.67735 9:0.083027 10:0.21484 11:0.41304 12:0.25772 13:0.05111 14:0.2569 15:0.07672 16:0.70938
5 0 1:0.088424 2:0.081967 3:0.093453 4:0.49794 5:0.080742 6:0.42074 7:0.095144 8:0.55721 9:0.084663 10:0.20366 11:0.3913 12:0.24059 13:0.0538 14:0.23412 15:0.07209 16:0.72038
0.64818 0 1:0.11696 2:0.094262 3:0.13593 4:0.48811 5:0.11384 6:0.4715 7:0.12289 8:0.58543 9:0.095706 10:0.09338 11:0.30435 12:0.28774 13:0.070612 14:0.13135 15:0.08664 16:0.69323
1.9001 0 1:0.13384 2:0.12664 3:0.16192 4:0.48682 5:0.14493 6:0.44325 7:0.1561 8:0.57591 9:0.12393 10:0.093817 11:0.28261 12:0.2844 13:0.05649 14:0.16097 15:0.078704 16:0.70216
5 0 1:0.086817 2:0.065574 3:0.12144 4:0.46342 5:0.095787 6:0.39667 7:0.088206 8:0.65084 9:0.067485 10:0.25995 11:0.32609 12:0.22162 13:0.049765 14:0.21972 15:0.07672 16:0.70914
5 0 1:0.08963 2:0.071311 3:0.092454 4:0.50157 5:0.068706 6:0.42362 7:0.078295 8:0.56534 9:0.071984 10:0.21693 11:0.3913 12:0.23483 13:0.04842 14:0.24518 15:0.064815 16:0.69993
5 0 1:0.071945 2:0.063525 3:0.093953 4:0.47294 5:0.069709 6:0.35777 7:0.068385 8:0.60121 9:0.06135 10:0.08502 11:0.23913 12:0.31819 13:0.04304 14:0.11059 15:0.070106 16:0.68154
5 0 1:0.10571 2:0.080738 3:0.12194 4:0.48638 5:0.098295 6:0.44961 7:0.09663 8:0.64751 9:0.082209 10:0.082165 11:0.30435 12:0.28448 13:0.060525 14:0.17154 15:0.083333 16:0.69532
5 0 1:0.087621 2:0.079508 3:0.11294 4:0.51142 5:0.11284 6:0.41275 7:0.10555 8:0.71238 9:0.0818 10:0.24691 11:0.34783 12:0.23264 13:0.052455 14:0.23526 15:0.084656 16:0.7046
5 0 1:0.1045 2:0.087295 3:0.11844 4:0.48375 5:0.10532 6:0.48869 7:0.10357 8:0.64522 9:0.087526 10:0.08834 11:0.36957 12:0.27004 13:0.059852 14:0.17078 15:0.085317 16:0.70063
1.2654 0 1:0.091238 2:0.07541 3:0.096452 4:0.48905 5:0.07322 6:0.39125 7:0.066402 8:0.62331 9:0.077301 10:0.23668 11:0.3913 12:0.26093 13:0.052455 14:0.26667 15:0.075397 16:0.70504
4.8886 0 1:0.059887 2:0.047951 3:0.069965 4:0.45552 5:0.046138 6:0.38572 7:0.055996 8:0.56282 9:0.047444 10:0.12105 11:0.21739 12:0.30024 13:0.04842 14:0.06482 15:0.058201 16:0.70414
2.6775 0 1:0.085611 2:0.064344 3:0.11944 4:0.46893 5:0.094283 6:0.44206 7:0.087215 8:0.76807 9:0.066667 10:0.2415 11:0.36957 12:0.23636 13:0.049765 14:0.19378 15:0.070106 16:0.69714
5 0 1:0.14148 2:0.1291 3:0.17241 4:0.50079 5:0.15747 6:0.47496 7:0.15907 8:0.54888 9:0.12965 10:0.072913 11:0.26087 12:0.20279 13:0.059852 14:0.35389 15:0.073413 16:0.71737
0.3601 0 1:0.081994 2:0.07377 3:0.13093 4:0.46652 5:0.10582 6:0.39276 7:0.097126 8:0.61278 9:0.074847 10:0.22556 11:0.34783 12:0.23205 13:0.04842 14:0.24203 15:0.071429 16:0.70437
0.99899 0 1:0.09164 2:0.084016 3:0.13443 4:0.47624 5:0.11836 6:0.42345 7:0.10803 8:0.60935 9:0.083845 10:0.22859 11:0.34783 12:0.23232 13:0.053127 14:0.22814 15:0.082011 16:0.72193
5 0 1:0.14108 2:0.13115 3:0.17891 4:0.51109 5:0.15998 6:0.47555 7:0.16353 8:0.56164 9:0.13292 10:0.074707 11:0.26087 12:0.20582 13:0.061197 14:0.35905 15:0.077381 16:0.71356
5 0 1:0.088826 2:0.079508 3:0.13843 4:0.46875 5:0.11284 6:0.40807 7:0.10505 8:0.682 9:0.081391 10:0.21891 11:0.36957 12:0.22477 13:0.0538 14:0.23296 15:0.087302 16:0.70583
5 0 1:0.13625 2:0.12049 3:0.16492 4:0.51267 5:0.14694 6:0.48245 7:0.15164 8:0.55955 9:0.11861 10:0.056126 11:0.26087 12:0.17521 13:0.059852 14:0.36527 15:0.089286 16:0.70329
0.55411 0 1:0.09164 2:0.07582 3:0.13143 4:0.50292 5:0.10832 6:0.46841 7:0.10059 8:0.72543 9:0.07771 10:0.32404 11:0.21739 12:0.23779 13:0.049092 14:0.17891 15:0.045635 16:0.81358
2.9311 0 1:0.14389 2:0.12295 3:0.17191 4:0.50138 5:0.14895 6:0.48413 7:0.14569 8:0.6337 9:0.11493 10:0.077504 11:0.21739 12:0.14151 13:0.06187 14:0.35922 15:0.070767 16:0.76953
5 0 1:0.094051 2:0.073361 3:0.092954 4:0.49438 5:0.072718 6:0.40916 7:0.086224 8:0.60477 9:0.075665 10:0.15808 11:0.32609 12:0.22679 13:0.047747 14:0.28883 15:0.093254 16:0.71025
5 0 1:0.10088 2:0.084426 3:0.081459 4:0.5023 5:0.084253 6:0.41293 7:0.097621 8:0.56136 9:0.086299 10:0.20416 11:0.32609 12:0.20492 13:0.05111 14:0.30243 15:0.081349 16:0.7225
0 1.5225 1:0.039389 2:0.11475 3:0.16292 4:0.5026 5:0.13892 6:0.48524 7:0.13578 8:0.6206 9:0.10675 10:0.071269 11:0.26087 12:0.1844 13:0.057162 14:0.37406 15:0.072751 16:0.71572
5 0 1:0.090434 2:0.082787 3:0.14193 4:0.46355 5:0.11685 6:0.39698 7:0.10852 8:0.64203 9:0.084254 10:0.26454 11:0.32609 12:0.23336 13:0.05111 14:0.22258 15:0.091931 16:0.70989
5 0 1:0.097669 2:0.075 3:0.091954 4:0.48837 5:0.072217 6:0.41232 7:0.084737 8:0.57349 9:0.076483 10:0.28301 11:0.3913 12:0.23387 13:0.04842 14:0.26195 15:0.080026 16:0.7167
0.3955 0 1:0.15916 2:0.077049 3:0.11194 4:0.4537 5:0.092277 6:0.54077 7:0.099108 8:0.51289 9:0.076483 10:0.035654 11:0.36957 12:0.26027 13:0.065232 14:0.24187 15:0.08664 16:0.69831
0.49389 0 1:0.067926 2:0.072951 3:0.097451 4:0.48908 5:0.073721 6:0.39583 7:0.078295 8:0.59624 9:0.072393 10:0.13175 11:0.28261 12:0.29388 13:0.049092 14:0.084884 15:0.062831 16:0.70733
1.1496 0 1:0.071945 2:0.04918 3:0.086457 4:0.48338 5:0.063691 6:0.36829 7:0.060951 8:0.59235 9:0.04908 10:0.10176 11:0.26087 12:0.30162 13:0.027572 14:0.053819 15:0.035053 16:0.71303
5 0 1:0.087621 2:0.081557 3:0.13943 4:0.45892 5:0.11535 6:0.41581 7:0.10654 8:0.64117 9:0.082618 10:0.2561 11:0.41304 12:0.24526 13:0.051782 14:0.23563 15:0.087302 16:0.70441
0.69558 0 1:0.15756 2:0.080738 3:0.12094 4:0.4605 5:0.096289 6:0.54328 7:0.10505 8:0.53084 9:0.080164 10:0.04315 11:0.28261 12:0.29024 13:0.063215 14:0.20909 15:0.081349 16:0.70402
1.3793 0 1:0.12741 2:0.11516 3:0.16042 4:0.49547 5:0.13992 6:0.49592 7:0.1442 8:0.57409 9:0.11534 10:0.091047 11:0.28261 12:0.24526 13:0.065232 14:0.27557 15:0.092593 16:0.70556
5 0 1:0.090836 2:0.072131 3:0.092454 4:0.48124 5:0.070211 6:0.39211 7:0.081269 8:0.54809 9:0.074438 10:0.22091 11:0.34783 12:0.23752 13:0.04842 14:0.26145 15:0.07209 16:0.70652
5 0 1:0.13666 2:0.125 3:0.16642 4:0.49985 5:0.15095 6:0.48984 7:0.15213 8:0.56148 9:0.12352 10:0.062917 11:0.26087 12:0.15683 13:0.063887 14:0.34547 15:0.083995 16:0.71468
5 0 1:0.063103 2:0.046721 3:0.062469 4:0.46413 5:0.047141 6:0.3581 7:0.050545 8:0.56729 9:0.047444 10:0.11941 11:0.21739 12:0.30492 13:0.042367 14:0.074228 15:0.050926 16:0.69103
5 0 1:0.094453 2:0.077459 3:0.095452 4:0.48217 5:0.074223 6:0.40185 7:0.067889 8:0.63092 9:0.079346 10:0.28848 11:0.41304 12:0.24449 13:0.049765 14:0.236 15:0.045635 16:0.84943
5 0 1:0.077572 2:0.059426 3:0.10245 4:0.47431 5:0.081244 6:0.3746 7:0.079286 8:0.59928 9:0.057669 10:0.10415 11:0.23913 12:0.30845 13:0.047075 14:0.07434 15:0.070767 16:0.69127
5 0 1:0.084807 2:0.069672 3:0.089455 4:0.4889 5:0.069709 6:0.40113 7:0.062934 8:0.62073 9:0.071575 10:0.3437 11:0.34783 12:0.23499 13:0.047075 14:0.22249 15:0.043651 16:0.84197
1.869 0 1:0.082797 2:0.07541 3:0.13243 4:0.46315 5:0.10782 6:0.4646 7:0.1001 8:0.72894 9:0.077301 10:0.25038 11:0.34783 12:0.23712 13:0.050437 14:0.2445 15:0.074735 16:0.69591
4.7473 0 1:0.065916 2:0.041803 3:0.068966 4:0.47407 5:0.05015 6:0.37796 7:0.056987 8:0.55961 9:0.042127 10:0.10882 11:0.19565 12:0.31016 13:0.03766 14:0.054698 15:0.054894 16:0.69853
0.8152 0.65132 1:0.13344 2:0.12541 3:0.16742 4:0.50249 5:0.15095 6:0.5013 7:0.15263 8:0.57649 9:0.12883 10:0.099503 11:0.28261 12:0.26121 13:0.062542 14:0.31412 15:0.094577 16:0.69472
5 0 1:0.09365 2:0.069672 3:0.094453 4:0.49125 5:0.070712 6:0.39823 7:0.081269 8:0.55549 9:0.071984 10:0.21778 11:0.36957 12:0.24075 13:0.0538 14:0.24051 15:0.072751 16:0.69549
5 0 1:0.092846 2:0.079098 3:0.11344 4:0.46304 5:0.097292 6:0.38346 7:0.10159 8:0.60157 9:0.078119 10:0.096882 11:0.26087 12:0.30814 13:0.047747 14:0.1031 15:0.066138 16:0.70134
5 0 1:0.1463 2:0.12869 3:0.17391 4:0.50373 5:0.15647 6:0.46301 7:0.16105 8:0.56249 9:0.12965 10:0.088555 11:0.23913 12:0.23962 13:0.057835 14:0.29253 15:0.085979 16:0.68554
0.5155 0.37858 1:0.13987 2:0.13197 3:0.16942 4:0.50797 5:0.15747 6:0.49352 7:0.15808 8:0.57562 9:0.13129 10:0.059978 11:0.30435 12:0.26278 13:0.063887 14:0.35974 15:0.088624 16:0.69996
3.2907 0 1:0.13987 2:0.1209 3:0.15642 4:0.4955 5:0.14443 6:0.47864 7:0.14965 8:0.55382 9:0.11984 10:0.068886 11:0.28261 12:0.22804 13:0.06187 14:0.35554 15:0.090608 16:0.70236
1.9352 0 1:0.20418 2:0.07418 3:0.13193 4:0.46244 5:0.10632 6:0.44808 7:0.098612 8:0.71399 9:0.076074 10:0.2457 11:0.34783 12:0.21723 13:0.051782 14:0.25835 15:0.079365 16:0.70301
5 0 1:0.09365 2:0.072951 3:0.084958 4:0.49646 5:0.069208 6:0.40956 7:0.075818 8:0.57735 9:0.071984 10:0.14224 11:0.34783 12:0.25119 13:0.047747 14:0.21955 15:0.056878 16:0.7167
5 0 1:0.13947 2:0.11885 3:0.15242 4:0.50698 5:0.14544 6:0.48075 7:0.14866 8:0.58065 9:0.11984 10:0.097975 11:0.32609 12:0.274 13:0.063215 14:0.28997 15:0.095899 16:0.68761
5 0 1:0.14429 2:0.12623 3:0.17091 4:0.50252 5:0.15346 6:0.48542 7:0.15758 8:0.57092 9:0.12638 10:0.069262 11:0.28261 12:0.21393 13:0.059852 14:0.35774 15:0.090608 16:0.70508
5 0 1:0.098473 2:0.076639 3:0.082959 4:0.49316 5:0.074724 6:0.40808 7:0.08672 8:0.56327 9:0.078937 10:0.23759 11:0.36957 12:0.23259 13:0.05111 14:0.22116 15:0.077381 16:0.71144
0.25238 0 1:0.14108 2:0.12131 3:0.16592 4:0.50784 5:0.14544 6:0.46161 7:0.14519 8:0.56964 9:0.11984 10:0.057997 11:0.23913 12:0.19612 13:0.060525 14:0.37047 15:0.093915 16:0.70384
5 0 1:0.08963 2:0.081557 3:0.13593 4:0.46556 5:0.11535 6:0.42507 7:0.10951 8:0.82201 9:0.083436 10:0.24214 11:0.32609 12:0.22877 13:0.051782 14:0.20735 15:0.046958 16:0.82998
0.45752 0 1:0.14309 2:0.12705 3:0.17291 4:0.49666 5:0.15296 6:0.48234 7:0.15312 8:0.57077 9:0.12393 10:0.07788 11:0.32609 12:0.26243 13:0.058507 14:0.32925 15:0.080026 16:0.69585
5 0 1:0.14228 2:0.11803 3:0.14793 4:0.49756 5:0.14092 6:0.49808 7:0.14222 8:0.56827 9:0.1182 10:0.060529 11:0.26087 12:0.18069 13:0.065232 14:0.35549 15:0.099868 16:0.70617
2.055 0 1:0.14188 2:0.11434 3:0.16092 4:0.49366 5:0.1349 6:0.44356 7:0.14222 8:0.58177 9:0.11207 10:0.087214 11:0.28261 12:0.28856 13:0.051782 14:0.16367 15:0.079365 16:0.69656
0.26022 0 1:0.1033 2:0.084426 3:0.12894 4:0.49284 5:0.10331 6:0.48493 7:0.11051 8:0.59943 9:0.086299 10:0.090841 11:0.32609 12:0.2771 13:0.065905 14:0.092982 15:0.074735 16:0.69848
1.4859 0 1:0.19654 2:0.07541 3:0.12594 4:0.46859 5:0.10782 6:0.38113 7:0.10109 8:0.73763 9:0.078119 10:0.35946 11:0.32609 12:0.24958 13:0.05111 14:0.204 15:0.091931 16:0.68783
4.5939 0 1:0.09164 2:0.073361 3:0.092954 4:0.50148 5:0.072217 6:0.41144 7:0.064916 8:0.64914 9:0.075665 10:0.27042 11:0.30435 12:0.20791 13:0.05111 14:0.21352 15:0.093915 16:0.71767
1.3615 0 1:0.088023 2:0.068852 3:0.10795 4:0.44588 5:0.08325 6:0.41083 7:0.084737 8:0.50896 9:0.067894 10:0.052558 11:0.26087 12:0.29995 13:0.058507 14:0.31492 15:0.082011 16:0.62876
4.7898 0 1:0.13424 2:0.12295 3:0.16142 4:0.50841 5:0.14845 6:0.47163 7:0.15114 8:0.56883 9:0.12311 10:0.090367 11:0.23913 12:0.24509 13:0.061197 14:0.2587 15:0.10053 16:0.70476
5 0 1:0.14108 2:0.11967 3:0.15942 4:0.50785 5:0.14493 6:0.45484 7:0.14371 8:0.60271 9:0.11861 10:0.073314 11:0.26087 12:0.26477 13:0.060525 14:0.29765 15:0.082672 16:0.69312
5 0 1:0.166 2:0.081967 3:0.12294 4:0.45036 5:0.098796 6:0.53337 7:0.10505 8:0.51076 9:0.081391 10:0.038775 11:0.26087 12:0.28915 13:0.063215 14:0.25656 15:0.078042 16:0.68249
5 0 1:0.09164 2:0.070082 3:0.081459 4:0.49465 5:0.069208 6:0.41925 7:0.08226 8:0.5764 9:0.071984 10:0.28181 11:0.36957 12:0.25693 13:0.047747 14:0.19733 15:0.042989 16:0.82325
5 0 1:0.1459 2:0.12541 3:0.15992 4:0.51113 5:0.15196 6:0.46365 7:0.1556 8:0.56204 9:0.1272 10:0.093003 11:0.26087 12:0.24564 13:0.061197 14:0.29951 15:0.093254 16:0.71044
5 0 1:0.078376 2:0.067623 3:0.12244 4:0.47512 5:0.098295 6:0.40758 7:0.091179 8:0.72505 9:0.069939 10:0.31744 11:0.34783 12:0.25776 13:0.04304 14:0.26941 15:0.066799 16:0.72
5 0 1:0.09164 2:0.07459 3:0.12944 4:0.47244 5:0.10682 6:0.4187 7:0.098117 8:0.64045 9:0.075665 10:0.26572 11:0.3913 12:0.24471 13:0.051782 14:0.20561 15:0.071429 16:0.69166
5 0 1:0.13826 2:0.1168 3:0.15992 4:0.495 5:0.13992 6:0.46869 7:0.14222 8:0.58123 9:0.11493 10:0.069851 11:0.30435 12:0.22569 13:0.063887 14:0.34893 15:0.090608 16:0.71635
5 0 1:0.065113 2:0.10246 3:0.16692 4:0.51556 5:0.14092 6:0.49179 7:0.1333 8:0.75643 9:0.1047 10:0.28994 11:0.30435 12:0 13:0.0538 14:0.38516 15:0.087302 16:0.73256
5 0 1:0.10852 2:0.089754 3:0.12644 4:0.47946 5:0.10782 6:0.47812 7:0.11051 8:0.60307 9:0.090798 10:0.093079 11:0.36957 12:0.27307 13:0.065905 14:0.16238 15:0.085979 16:0.68909
1.2597 0 1:0.075965 2:0.077869 3:0.13343 4:0.47596 5:0.11083 6:0.36532 7:0.10059 8:0.59285 9:0.07771 10:0.12213 11:0.28261 12:0.30079 13:0.050437 14:0.078458 15:0.082011 16:0.70816
5 0 1:0.089228 2:0.065574 3:0.12344 4:0.50801 5:0.095787 6:0.43374 7:0.089197 8:0.73633 9:0.068303 10:0.31805 11:0.30435 12:0.22419 13:0.047075 14:0.21126 15:0.095238 16:0.68266
5 0 1:0.075965 2:0.061885 3:0.067466 4:0.48079 5:0.056169 6:0.37089 7:0.064916 8:0.58118 9:0.062577 10:0.1168 11:0.32609 12:0.28191 13:0.045057 14:0.079611 15:0.050265 16:0.70704
5 0 1:0.088424 2:0.068852 3:0.093453 4:0.48415 5:0.069208 6:0.37667 7:0.084242 8:0.55921 9:0.070757 10:0.25555 11:0.34783 12:0.25085 13:0.047747 14:0.21868 15:0.05754 16:0.7235
5 0 1:0.093248 2:0.076639 3:0.12994 4:0.46652 5:0.10933 6:0.43866 7:0.10208 8:0.77686 9:0.078937 10:0.33627 11:0.47826 12:0.23799 13:0.053127 14:0.20403 15:0.082672 16:0.69752
5 0 1:0.14349 2:0.11844 3:0.15592 4:0.50298 5:0.14293 6:0.4809 7:0.14767 8:0.55657 9:0.11902 10:0.07031 11:0.26087 12:0.20527 13:0.060525 14:0.34761 15:0.097884 16:0.70042
5 0 1:0.092444 2:0.070082 3:0.08046 4:0.49585 5:0.062688 6:0.42513 7:0.08226 8:0.55134 9:0.072393 10:0.30204 11:0.28261 12:0.23406 13:0.04304 14:0.24245 15:0.03836 16:0.85189
5 0 1:0.13706 2:0.1209 3:0.16242 4:0.50002 5:0.14644 6:0.49912 7:0.14718 8:0.55984 9:0.11943 10:0.064678 11:0.26087 12:0.18387 13:0.06456 14:0.37313 15:0.089947 16:0.70003
5 0 1:0.1045 2:0.083607 3:0.12244 4:0.48569 5:0.1003 6:0.47142 7:0.10605 8:0.57325 9:0.084663 10:0.093568 11:0.32609 12:0.26934 13:0.059852 14:0.17109 15:0.072751 16:0.70025
0.59166 0 1:0.13786 2:0.12336 3:0.16442 4:0.50004 5:0.14895 6:0.47445 7:0.15114 8:0.58635 9:0.12679 10:0.10697 11:0.21739 12:0.2391 13:0.06187 14:0.29022 15:0.092593 16:0.70421
5 0 1:0.14309 2:0.12541 3:0.16942 4:0.51002 5:0.15145 6:0.48716 7:0.15362 8:0.57699 9:0.12434 10:0.073432 11:0.28261 12:0.21846 13:0.05649 14:0.33607 15:0.079365 16:0.70525
0 0.17344 1:0.046222 2:0.12131 3:0.098451 4:0.58117 5:0.089268 6:0.43416 7:0.092666 8:0.59731 9:0.12188 10:0.085475 11:0.34783 12:0.60259 13:0 14:0.4536 15:0.0059524 16:0.59233
0.11636 0 1:0.090032 2:0.066393 3:0.11944 4:0.46223 5:0.09679 6:0.39621 7:0.089197 8:0.66191 9:0.068303 10:0.24629 11:0.32609 12:0.23409 13:0.047075 14:0.25021 15:0.070767 16:0.68824
0.43663 0 1:0.11254 2:0.1041 3:0.14443 4:0.49798 5:0.12337 6:0.48044 7:0.13181 8:0.59523 9:0.10634 10:0.074304 11:0.17391 12:0.33665 13:0.065232 14:0.15095 15:0.084656 16:0.69541
0.23545 0 1:0.15756 2:0.087295 3:0.12394 4:0.45544 5:0.10431 6:0.53042 7:0.111 8:0.52295 9:0.087117 10:0.04789 11:0.28261 12:0.28611 13:0.063215 14:0.28392 15:0.079365 16:0.67597
5 0 1:0.1865 2:0.1291 3:0.16492 4:0.48963 5:0.15095 6:0.44398 7:0.14272 8:0.6757 9:0.12802 10:0.09527 11:0.21739 12:0.29043 13:0.061197 14:0.14307 15:0.095238 16:0.72183
5 0 1:0.093248 2:0.038115 3:0.070465 4:0.46192 5:0.052156 6:0.37211 7:0.053518 8:0.58615 9:0.037219 10:0.086223 11:0.23913 12:0.30787 13:0.047075 14:0.077105 15:0.056878 16:0.68587
5 0 1:0.089228 2:0.072131 3:0.081959 4:0.48629 5:0.067202 6:0.37701 7:0.061943 8:0.62721 9:0.073211 10:0.33977 11:0.34783 12:0.26041 13:0.047747 14:0.20258 15:0.043651 16:0.82301
5 0 1:0.11576 2:0.09918 3:0.12744 4:0.486 5:0.11986 6:0.51888 7:0.12686 8:0.5889 9:0.10102 10:0.092225 11:0.32609 12:0.27549 13:0.067922 14:0.15255 15:0.063492 16:0.79651
5 0 1:0.091238 2:0.077869 3:0.074463 4:0.492 5:0.075226 6:0.39921 7:0.083746 8:0.5618 9:0.079755 10:0.39238 11:0.43478 12:0.25045 13:0.051782 14:0.21023 15:0.046958 16:0.83729
0.18944 0 1:0.11616 2:0.092623 3:0.13443 4:0.49267 5:0.11133 6:0.45177 7:0.11298 8:0.59153 9:0.094888 10:0.081936 11:0.26087 12:0.29926 13:0.06456 14:0.14525 15:0.084656 16:0.68776
5 0 1:0.08963 2:0.068033 3:0.08046 4:0.53434 5:0.0667 6:0.46471 7:0.083251 8:0.5815 9:0.069939 10:0.29977 11:0.32609 12:0.22096 13:0.04842 14:0.24768 15:0.043651 16:0.85687
5 0 1:0.096061 2:0.077049 3:0.12994 4:0.47194 5:0.10983 6:0.42386 7:0.10208 8:0.69345 9:0.078937 10:0.23936 11:0.36957 12:0.23593 13:0.051782 14:0.23889 15:0.072751 16:0.70257
5 0 1:0.1455 2:0.12664 3:0.16042 4:0.50935 5:0.15446 6:0.47599 7:0.15857 8:0.56312 9:0.12679 10:0.082865 11:0.28261 12:0.25802 13:0.061197 14:0.2853 15:0.091931 16:0.70246
5 0 1:0.094051 2:0.079098 3:0.094953 4:0.48583 5:0.077733 6:0.38509 7:0.070367 8:0.62182 9:0.079755 10:0.23692 11:0.45652 12:0.25284 13:0.0538 14:0.21366 15:0.079365 16:0.70284
4.4858 0 1:0.037379 2:0.12131 3:0.15892 4:0.48219 5:0.1344 6:0.41198 7:0.13479 8:0.61042 9:0.11902 10:0.11595 11:0.30435 12:0.2981 13:0.041695 14:0.10259 15:0.052249 16:0.7037
1.526 0 1:0.1242 2:0.10369 3:0.14443 4:0.49851 5:0.12538 6:0.50249 7:0.12834 8:0.60112 9:0.10429 10:0.091146 11:0.30435 12:0.28424 13:0.069267 14:0.15972 15:0.074074 16:0.72123
0.0346 0 1:0.096463 2:0.073361 3:0.10745 4:0.46335 5:0.089268 6:0.5323 7:0.087215 8:0.53494 9:0.076074 10:0.015869 11:0.21739 12:0.32217 13:0.060525 14:0.27409 15:0.083995 16:0.65167
0.80664 0 1:0.092444 2:0.075 3:0.08096 4:0.50566 5:0.072217 6:0.4145 7:0.065411 8:0.64856 9:0.076483 10:0.27545 11:0.36957 12:0.23488 13:0.05111 14:0.23316 15:0.079365 16:0.7
5 0 1:0.095659 2:0.073361 3:0.092454 4:0.49398 5:0.075226 6:0.40258 7:0.082755 8:0.58062 9:0.074029 10:0.16207 11:0.34783 12:0.24842 13:0.047075 14:0.23471 15:0.043651 16:0.84404
5 0 1:0.092042 2:0.07541 3:0.081459 4:0.50287 5:0.070211 6:0.41178 7:0.070367 8:0.61183 9:0.07771 10:0.16466 11:0.34783 12:0.24667 13:0.047747 14:0.24188 15:0.043651 16:0.85127
4.6804 0 1:0.080788 2:0.05041 3:0.090455 4:0.46096 5:0.065697 6:0.34835 7:0.067889 8:0.57233 9:0.050307 10:0.081874 11:0.23913 12:0.30522 13:0.041695 14:0.1347 15:0.061508 16:0.6771
5 0 1:0.11576 2:0.09877 3:0.13593 4:0.49379 5:0.11785 6:0.4653 7:0.11695 8:0.63025 9:0.098569 10:0.085364 11:0.30435 12:0.27008 13:0.063887 14:0.16739 15:0.084656 16:0.69602
5 0 1:0.1246 2:0.11189 3:0.15342 4:0.49333 5:0.1339 6:0.46374 7:0.13479 8:0.56352 9:0.11084 10:0.070136 11:0.26087 12:0.16064 13:0.063887 14:0.39902 15:0.093254 16:0.69355
0.23243 0 1:0.13947 2:0.13156 3:0.17691 4:0.5005 5:0.15747 6:0.48261 7:0.16254 8:0.53275 9:0.13006 10:0.062762 11:0.26087 12:0.19078 13:0.06187 14:0.37862 15:0.092593 16:0.70141
5 0 1:0.084807 2:0.077049 3:0.086957 4:0.52137 5:0.074724 6:0.44585 7:0.076809 8:0.62526 9:0.076892 10:0.18885 11:0.28261 12:0.20959 13:0.05111 14:0.23608 15:0.088624 16:0.73897
5 0 1:0.097669 2:0.081557 3:0.084958 4:0.5088 5:0.061184 6:0.39718 7:0.05996 8:0.60783 9:0.082209 10:0.046051 11:0.17391 12:0.36136 13:0.063887 14:0.13809 15:0.082672 16:0.69533
3.7086 2.7839 1:0.14188 2:0.13689 3:0.18691 4:0.50953 5:0.166 6:0.48231 7:0.17146 8:0.56116 9:0.13783 10:0.077445 11:0.32609 12:0.25632 13:0.062542 14:0.35479 15:0.090608 16:0.70804
5 0 1:0.090434 2:0.070492 3:0.074963 4:0.49213 5:0.0667 6:0.38327 7:0.080773 8:0.54309 9:0.072393 10:0.26342 11:0.34783 12:0.23096 13:0.047747 14:0.23098 15:0.065476 16:0.71036
1.3624 0 1:0.10973 2:0.093033 3:0.11694 4:0.49349 5:0.11083 6:0.48311 7:0.11001 8:0.64446 9:0.097751 10:0.16351 11:0.32609 12:0.26971 13:0.062542 14:0.1373 15:0.084656 16:0.69669
5 0 1:0.086415 2:0.067623 3:0.08096 4:0.4994 5:0.067703 6:0.40677 7:0.077304 8:0.56514 9:0.067485 10:0.14196 11:0.41304 12:0.24434 13:0.045057 14:0.2243 15:0.041005 16:0.84656
5 0 1:0.14871 2:0.12746 3:0.17241 4:0.50513 5:0.15145 6:0.48095 7:0.15362 8:0.58296 9:0.12638 10:0.06183 11:0.26087 12:0.18003 13:0.062542 14:0.34798 15:0.10384 16:0.70557
5 0 1:0.10169 2:0.083607 3:0.12294 4:0.48951 5:0.1013 6:0.49562 7:0.097126 8:0.66097 9:0.084663 10:0.10348 11:0.26087 12:0.29306 13:0.06187 14:0.1115 15:0.083333 16:0.69735
5 0 1:0.063505 2:0.055328 3:0.087456 4:0.47769 5:0.063691 6:0.36747 7:0.060951 8:0.58728 9:0.054806 10:0.10086 11:0.26087 12:0.30815 13:0.044385 14:0.087898 15:0.060185 16:0.6955
0.15912 0 1:0.10812 2:0.091393 3:0.12444 4:0.48461 5:0.10732 6:0.46226 7:0.11001 8:0.59345 9:0.092434 10:0.089415 11:0.23913 12:0.31552 13:0.06456 14:0.14679 15:0.085317 16:0.69104
3.7923 0 1:0.10852 2:0.090164 3:0.13493 4:0.49883 5:0.10883 6:0.47954 7:0.111 8:0.61408 9:0.090389 10:0.10232 11:0.30435 12:0.27689 13:0.06187 14:0.15575 15:0.085979 16:0.67687
4.8732 0 1:0.086817 2:0.07377 3:0.13093 4:0.44934 5:0.10582 6:0.39825 7:0.098612 8:0.72333 9:0.076074 10:0.2834 11:0.34783 12:0.24781 13:0.04304 14:0.27055 15:0.039021 16:0.86908
5 0 1:0.10812 2:0.090574 3:0.12944 4:0.48082 5:0.10632 6:0.48453 7:0.1115 8:0.58425 9:0.090798 10:0.074058 11:0.30435 12:0.27809 13:0.063887 14:0.16907 15:0.083995 16:0.68153
5 0 1:0.13424 2:0.12295 3:0.15142 4:0.49797 5:0.14794 6:0.48694 7:0.14965 8:0.57743 9:0.12147 10:0.079187 11:0.30435 12:0.19534 13:0.065232 14:0.34163 15:0.089286 16:0.70021
1.7402 0 1:0.090434 2:0.072131 3:0.11294 4:0.4302 5:0.088265 6:0.50446 7:0.094153 8:0.52755 9:0.071984 10:0.046388 11:0.23913 12:0.30785 13:0.060525 14:0.27386 15:0.082672 16:0.63487
5 0 1:0.14389 2:0.125 3:0.17141 4:0.50533 5:0.15196 6:0.50631 7:0.15411 8:0.58073 9:0.12515 10:0.079555 11:0.28261 12:0.20758 13:0.059852 14:0.36069 15:0.080026 16:0.69785
5 0 1:0.08963 2:0.072951 3:0.12694 4:0.46774 5:0.10481 6:0.40452 7:0.097621 8:0.70505 9:0.075256 10:0.30005 11:0.34783 12:0.2678 13:0.047075 14:0.25024 15:0.089947 16:0.68901
5 0 1:0.096061 2:0.07377 3:0.096452 4:0.50158 5:0.072718 6:0.40923 7:0.072844 8:0.56192 9:0.076892 10:0.1726 11:0.3913 12:0.23304 13:0.051782 14:0.25154 15:0.074074 16:0.72841
5 0 1:0.1041 2:0.091393 3:0.11594 4:0.48379 5:0.11033 6:0.50298 7:0.10605 8:0.67913 9:0.092434 10:0.09196 11:0.30435 12:0.28171 13:0.062542 14:0.14388 15:0.084656 16:0.69665
1.0718 0 1:0.12018 2:0.10328 3:0.14743 4:0.50069 5:0.12538 6:0.47775 7:0.12091 8:0.65465 9:0.10429 10:0.094582 11:0.21739 12:0.32646 13:0.069267 14:0.15916 15:0.084656 16:0.70018
5 0 1:0.076768 2:0.062295 3:0.10045 4:0.49006 5:0.076229 6:0.45158 7:0.076809 8:0.60646 9:0.063804 10:0.057519 11:0.1087 12:0.35592 13:0.057162 14:0.070443 15:0.068783 16:0.67849
3.411 0 1:0.086415 2:0.080328 3:0.094953 4:0.48102 5:0.077733 6:0.37607 7:0.091675 8:0.53536 9:0.082618 10:0.23261 11:0.32609 12:0.23532 13:0.049765 14:0.23495 15:0.073413 16:0.69092
4.8794 0 1:0.11254 2:0.10697 3:0.14993 4:0.49992 5:0.12688 6:0.47955 7:0.1333 8:0.58313 9:0.10757 10:0.090531 11:0.36957 12:0.26782 13:0.069939 14:0.18292 15:0.085979 16:0.6912
5 0 1:0.11294 2:0.091803 3:0.13143 4:0.49298 5:0.11133 6:0.48772 7:0.10902 8:0.66233 9:0.092434 10:0.085855 11:0.32609 12:0.27397 13:0.05918 14:0.16254 15:0.082011 16:0.70023
5 0 1:0.10048 2:0.085246 3:0.12694 4:0.49602 5:0.10331 6:0.50318 7:0.10159 8:0.66997 9:0.086708 10:0.084586 11:0.32609 12:0.27189 13:0.063887 14:0.14988 15:0.083995 16:0.69502
5 0 1:0.092846 2:0.068852 3:0.097451 4:0.48137 5:0.079238 6:0.37174 7:0.079782 8:0.58543 9:0.067485 10:0.098416 11:0.26087 12:0.30322 13:0.041695 14:0.086725 15:0.039021 16:0.75003
5 0 1:0.11736 2:0.097541 3:0.13243 4:0.49296 5:0.11685 6:0.45147 7:0.11298 8:0.64609 9:0.098569 10:0.08182 11:0.32609 12:0.26378 13:0.06456 14:0.14662 15:0.085317 16:0.69543
5 0 1:0.13826 2:0.11926 3:0.16092 4:0.49742 5:0.14493 6:0.48803 7:0.14618 8:0.54244 9:0.1182 10:0.057387 11:0.28261 12:0.16364 13:0.063215 14:0.39713 15:0.13492 16:0.6656
0.36369 0 1:0.14268 2:0.12049 3:0.16092 4:0.4935 5:0.14594 6:0.48619 7:0.14618 8:0.57325 9:0.12065 10:0.068906 11:0.32609 12:0.25115 13:0.062542 14:0.36515 15:0.093254 16:0.70122
5 0 1:0.13465 2:0.11516 3:0.16092 4:0.50157 5:0.13842 6:0.4615 7:0.1442 8:0.54167 9:0.11452 10:0.058838 11:0.28261 12:0.22867 13:0.062542 14:0.35261 15:0.097884 16:0.70753
5 0 1:0.096061 2:0.07459 3:0.093453 4:0.50161 5:0.075727 6:0.41014 7:0.068385 8:0.64539 9:0.07771 10:0.3144 11:0.41304 12:0.24169 13:0.051782 14:0.24637 15:0.078042 16:0.71952
5 0 1:0.13947 2:0.11844 3:0.15642 4:0.50573 5:0.14343 6:0.46452 7:0.14817 8:0.57155 9:0.11943 10:0.085868 11:0.23913 12:0.19758 13:0.063215 14:0.31485 15:0.083333 16:0.70815
5 0 1:0.075161 2:0.072541 3:0.08096 4:0.48437 5:0.055667 6:0.38235 7:0.062438 8:0.57361 9:0.072802 10:0.10969 11:0.23913 12:0.30176 13:0.049092 14:0.10099 15:0.081349 16:0.67548
5 0 1:0.13545 2:0.12213 3:0.15692 4:0.49507 5:0.14744 6:0.50128 7:0.15461 8:0.539 9:0.12229 10:0.069819 11:0.28261 12:0.19049 13:0.05918 14:0.34942 15:0.082011 16:0.7039
5 0 1:0.094051 2:0.072541 3:0.10745 4:0.51747 5:0.10431 6:0.4047 7:0.094648 8:0.5834 9:0.072802 10:0.25855 11:0.36957 12:0.25909 13:0.049765 14:0.24042 15:0.045635 16:0.85012
2.7165 0 1:0.11535 2:0.10041 3:0.12894 4:0.48186 5:0.12036 6:0.48312 7:0.11695 8:0.66028 9:0.10061 10:0.091431 11:0.26087 12:0.29802 13:0.061197 14:0.1555 15:0.084656 16:0.6889
5 0 1:0.093248 2:0.070902 3:0.085957 4:0.48487 5:0.069208 6:0.4596 7:0.079286 8:0.62564 9:0.07362 10:0.27799 11:0.34783 12:0.25052 13:0.046402 14:0.21848 15:0.041667 16:0.84253
5 0 1:0.085209 2:0.07541 3:0.13143 4:0.47579 5:0.10782 6:0.45614 7:0.1001 8:0.71112 9:0.077301 10:0.28469 11:0.30435 12:0.23006 13:0.05111 14:0.23298 15:0.070767 16:0.70233
5 0 1:0.10169 2:0.07582 3:0.11544 4:0.49324 5:0.09328 6:0.45878 7:0.090684 8:0.6361 9:0.076892 10:0.10674 11:0.32609 12:0.26755 13:0.063887 14:0.13834 15:0.07672 16:0.70439
5 0 1:0.13706 2:0.11516 3:0.14943 4:0.4908 5:0.13942 6:0.45776 7:0.14321 8:0.56082 9:0.11656 10:0.080638 11:0.26087 12:0.19769 13:0.061197 14:0.32984 15:0.090608 16:0.70901
5 0 1:0.088424 2:0.082787 3:0.093953 4:0.49053 5:0.076229 6:0.40389 7:0.070367 8:0.64256 9:0.084254 10:0.24911 11:0.36957 12:0.25211 13:0.04842 14:0.2372 15:0.078042 16:0.7152
5 0 1:0.093248 2:0.070492 3:0.083458 4:0.49713 5:0.0667 6:0.44642 7:0.059465 8:0.67453 9:0.072802 10:0.3331 11:0.36957 12:0.24299 13:0.047747 14:0.20187 15:0.042989 16:0.82798
5 0 1:0.10048 2:0.077869 3:0.086957 4:0.50475 5:0.078235 6:0.4235 7:0.089197 8:0.5477 9:0.076892 10:0.14237 11:0.3913 12:0.22312 13:0.051782 14:0.21141 15:0.04828 16:0.83434
0.14236 0 1:0.13826 2:0.12746 3:0.16942 4:0.50174 5:0.15296 6:0.50086 7:0.15709 8:0.57845 9:0.1272 10:0.075224 11:0.28261 12:0.19487 13:0.059852 14:0.33894 15:0.058201 16:0.89781
5 0 1:0.087219 2:0.070082 3:0.095452 4:0.50537 5:0.069208 6:0.41409 7:0.063925 8:0.64563 9:0.073211 10:0.26018 11:0.36957 12:0.24292 13:0.05111 14:0.24463 15:0.065476 16:0.71627
5 0 1:0.14831 2:0.12541 3:0.17291 4:0.51164 5:0.15045 6:0.45477 7:0.15461 8:0.5547 9:0.12679 10:0.081609 11:0.23913 12:0.15728 13:0.061197 14:0.37866 15:0.090608 16:0.70301
5 0 1:0.13867 2:0.11926 3:0.15542 4:0.50177 5:0.14493 6:0.47038 7:0.14718 8:0.54391 9:0.1182 10:0.05208 11:0.26087 12:0.19955 13:0.063215 14:0.38554 15:0.090608 16:0.70939
0 0.26605 1:0.079582 2:0.18361 3:0.16192 4:0.41822 5:0.14995 6:0.48348 7:0.15709 8:0.50462 9:0.18569 10:0.23037 11:0.36957 12:0.28039 13:0.049765 14:0.22587 15:0.071429 16:0.69827
0 0.12764 1:0.055466 2:0.14795 3:0.21139 4:0.47988 5:0.18405 6:0.43316 7:0.18186 8:0.55138 9:0.14765 10:0.06752 11:0.41304 12:0.28576 13:0 14:0.27081 15:0.005291 16:0.59528
5 0 1:0.13545 2:0.11639 3:0.14443 4:0.50734 5:0.13892 6:0.46286 7:0.14767 8:0.56014 9:0.11411 10:0.080041 11:0.26087 12:0.21869 13:0.061197 14:0.31296 15:0.085979 16:0.69972
5 0 1:0.085209 2:0.070902 3:0.085457 4:0.50284 5:0.070211 6:0.40529 7:0.071853 8:0.59258 9:0.073211 10:0.27397 11:0.45652 12:0.25022 13:0.049092 14:0.23013 15:0.092593 16:0.71361
5 0 1:0.093248 2:0.077459 3:0.11044 4:0.51794 5:0.11033 6:0.4478 7:0.10258 8:0.71094 9:0.079346 10:0.23964 11:0.30435 12:0.22743 13:0.043712 14:0.27174 15:0.081349 16:0.72315
5 0 1:0.14309 2:0.12049 3:0.16342 4:0.50695 5:0.14594 6:0.47261 7:0.14916 8:0.58107 9:0.11984 10:0.083207 11:0.26087 12:0.25933 13:0.05918 14:0.29448 15:0.089286 16:0.70133
5 0.1255 1:0.14027 2:0.13033 3:0.17491 4:0.49711 5:0.15797 6:0.45121 7:0.16303 8:0.55007 9:0.13129 10:0.07057 11:0.26087 12:0.23283 13:0.05918 14:0.33992 15:0.074735 16:0.71112
5 0 1:0.096463 2:0.079918 3:0.091954 4:0.47547 5:0.075226 6:0.39355 7:0.070862 8:0.6283 9:0.082209 10:0.31553 11:0.43478 12:0.25222 13:0.050437 14:0.22207 15:0.046296 16:0.84346
0.82184 0 1:0.20458 2:0.064344 3:0.077961 4:0.50184 5:0.061685 6:0.41219 7:0.0555 8:0.63436 9:0.06544 10:0.23624 11:0.36957 12:0.25526 13:0.04573 14:0.23247 15:0.041667 16:0.8415
5 0 1:0.13625 2:0.12254 3:0.16592 4:0.49884 5:0.14995 6:0.48747 7:0.15213 8:0.54632 9:0.12147 10:0.049438 11:0.30435 12:0.22176 13:0.063887 14:0.38995 15:0.09127 16:0.71505
0 0.023657 1:0.037781 2:0.15082 3:0.1904 4:0.50034 5:0.17803 6:0.44711 7:0.18285 8:0.59162 9:0.14928 10:0.10277 11:0.36957 12:0.26936 13:0.055817 14:0.12616 15:0.070767 16:0.70656
0.58615 0 1:0.090032 2:0.079918 3:0.091954 4:0.48322 5:0.075226 6:0.4167 7:0.096135 8:0.56529 9:0.082618 10:0.25515 11:0.34783 12:0.2432 13:0.047075 14:0.24381 15:0.064815 16:0.70762
0 0.18028 1:0.08119 2:0.071311 3:0.090455 4:0.50077 5:0.067703 6:0.4275 7:0.079286 8:0.55233 9:0.07362 10:0.16117 11:0.32609 12:0.27168 13:0.04842 14:0.23963 15:0.070767 16:0.72132
5 0 1:0.092444 2:0.078689 3:0.13543 4:0.45521 5:0.11184 6:0.42689 7:0.10406 8:0.70124 9:0.080573 10:0.23156 11:0.36957 12:0.23802 13:0.0538 14:0.22124 15:0.074735 16:0.69852
5 0 1:0.13786 2:0.12787 3:0.17341 4:0.50539 5:0.15246 6:0.4802 7:0.15659 8:0.55376 9:0.12843 10:0.066368 11:0.28261 12:0.20794 13:0.062542 14:0.3561 15:0.090608 16:0.71103
1.7511 0 1:0.10129 2:0.079508 3:0.10145 4:0.48647 5:0.078736 6:0.38108 7:0.072349 8:0.61539 9:0.0818 10:0.23011 11:0.34783 12:0.24372 13:0.051782 14:0.2295 15:0.083333 16:0.70813
0.16248 0 1:0.14791 2:0.125 3:0.17491 4:0.50463 5:0.15145 6:0.49031 7:0.15461 8:0.56966 9:0.12597 10:0.076274 11:0.21739 12:0.13795 13:0.059852 14:0.36799 15:0.056878 16:0.92287
5 0 1:0.085209 2:0.070082 3:0.08096 4:0.4869 5:0.069709 6:0.39232 7:0.079782 8:0.55896 9:0.071575 10:0.2983 11:0.34783 12:0.24799 13:0.04842 14:0.20495 15:0.043651 16:0.83208
5 0 1:0.14389 2:0.12049 3:0.15692 4:0.49681 5:0.14293 6:0.47446 7:0.14965 8:0.54012 9:0.11943 10:0.059648 11:0.26087 12:0.18799 13:0.061197 14:0.36299 15:0.076058 16:0.71765
5 0 1:0.086013 2:0.070082 3:0.07996 4:0.49605 5:0.067202 6:0.4023 7:0.060951 8:0.6329 9:0.072393 10:0.2616 11:0.28261 12:0.20873 13:0.04842 14:0.25002 15:0.073413 16:0.70979
5 0 1:0.081994 2:0.065164 3:0.08046 4:0.49176 5:0.067202 6:0.39056 7:0.077304 8:0.56297 9:0.066258 10:0.26716 11:0.34783 12:0.25441 13:0.04842 14:0.22704 15:0.043651 16:0.84729
5 0 1:0.092042 2:0.07582 3:0.13193 4:0.472 5:0.10832 6:0.45605 7:0.10109 8:0.76528 9:0.078119 10:0.28401 11:0.34783 12:0.25575 13:0.049765 14:0.22059 15:0.068122 16:0.66209
1.2739 0 1:0.13826 2:0.11926 3:0.16292 4:0.49345 5:0.14544 6:0.45271 7:0.15064 8:0.57939 9:0.12065 10:0.089656 11:0.21739 12:0.22214 13:0.060525 14:0.29347 15:0.081349 16:0.68862
5 0 1:0.11977 2:0.10697 3:0.15142 4:0.49575 5:0.12889 6:0.47249 7:0.13082 8:0.59545 9:0.10757 10:0.095982 11:0.30435 12:0.29433 13:0.066577 14:0.15459 15:0.085979 16:0.69669
1.3662 0 1:0.13867 2:0.12418 3:0.16792 4:0.50055 5:0.14995 6:0.49073 7:0.14916 8:0.57704 9:0.12025 10:0.046738 11:0.28261 12:0.19997 13:0.061197 14:0.35507 15:0.089286 16:0.7115
5 0 1:0.14027 2:0.11475 3:0.14293 4:0.50301 5:0.13842 6:0.47423 7:0.14073 8:0.57799 9:0.11411 10:0.093865 11:0.26087 12:0.24414 13:0.057835 14:0.26292 15:0.07209 16:0.7206
5 0 1:0.11174 2:0.10287 3:0.14693 4:0.50101 5:0.12187 6:0.47297 7:0.12091 8:0.65931 9:0.1047 10:0.087734 11:0.32609 12:0.27226 13:0.068594 14:0.16356 15:0.085317 16:0.69643
0.097228 0 1:0.094855 2:0.07377 3:0.093453 4:0.48762 5:0.072718 6:0.38841 7:0.087711 8:0.55584 9:0.075665 10:0.22422 11:0.36957 12:0.2562 13:0.04842 14:0.25348 15:0.079365 16:0.70581
5 0 1:0.047428 2:0.069672 3:0.10145 4:0.48745 5:0.074724 6:0.36717 7:0.079286 8:0.58098 9:0.069939 10:0.12823 11:0.34783 12:0.29815 13:0.055817 14:0.059464 15:0.068783 16:0.70335
5 0 1:0.094855 2:0.076639 3:0.094453 4:0.49408 5:0.074223 6:0.4073 7:0.089693 8:0.58475 9:0.075665 10:0.15707 11:0.34783 12:0.22983 13:0.04842 14:0.22392 15:0.044312 16:0.8448
2.364 0 1:0.1242 2:0.10738 3:0.14743 4:0.49617 5:0.13139 6:0.48643 7:0.13231 8:0.54773 9:0.10716 10:0.061318 11:0.23913 12:0.16885 13:0.060525 14:0.39677 15:0.090608 16:0.70368
5 0 1:0.10772 2:0.096311 3:0.13043 4:0.48194 5:0.11384 6:0.48761 7:0.11893 8:0.60215 9:0.096933 10:0.10122 11:0.32609 12:0.27305 13:0.068594 14:0.1838 15:0.083333 16:0.69617
1.064 0 1:0.089228 2:0.077869 3:0.085957 4:0.4772 5:0.075226 6:0.39625 7:0.068385 8:0.63586 9:0.080164 10:0.31087 11:0.36957 12:0.24049 13:0.054472 14:0.20097 15:0.078704 16:0.70034
5 0 1:0.14228 2:0.12008 3:0.16692 4:0.50527 5:0.14443 6:0.4949 7:0.1447 8:0.59302 9:0.11984 10:0.076656 11:0.23913 12:0.2259 13:0.063215 14:0.28755 15:0.079365 16:0.7001
0.10811 0 1:0.15514 2:0.086885 3:0.11994 4:0.47046 5:0.10682 6:0.57842 7:0.11249 8:0.53483 9:0.087117 10:0.067275 11:0.34783 12:0.25992 13:0.067922 14:0.24399 15:0.082672 16:0.71085
5 0 1:0.092846 2:0.072951 3:0.10895 4:0.50621 5:0.10481 6:0.43416 7:0.097621 8:0.71553 9:0.075256 10:0.27173 11:0.34783 12:0.22646 13:0.049765 14:0.22796 15:0.072751 16:0.69937
5 0 1:0.097669 2:0.082787 3:0.094453 4:0.4988 5:0.078736 6:0.41892 7:0.080278 8:0.61505 9:0.084663 10:0.24838 11:0.32609 12:0.21441 13:0.052455 14:0.24742 15:0.090608 16:0.7283
4.4121 0 1:0.23432 2:0.1291 3:0.16242 4:0.49603 5:0.14895 6:0.44405 7:0.14073 8:0.67311 9:0.12802 10:0.094128 11:0.32609 12:0.28313 13:0.061197 14:0.14712 15:0.056217 16:0.79287
5 0 1:0.098473 2:0.078689 3:0.076462 4:0.49698 5:0.063691 6:0.40163 7:0.066898 8:0.61871 9:0.078937 10:0.20613 11:0.3913 12:0.23479 13:0.0538 14:0.20984 15:0.087302 16:0.70811
0.089364 0 1:0.059486 2:0.093443 3:0.15192 4:0.46651 5:0.12989 6:0.40158 7:0.1224 8:0.64807 9:0.093252 10:0.13452 11:0.17391 12:0.30179 13:0.051782 14:0.072425 15:0.069444 16:0.69521
2.143 0 1:0.053457 2:0.086066 3:0.093453 4:0.46083 5:0.095787 6:0.41189 7:0.10505 8:0.59218 9:0.084663 10:0.11591 11:0.30435 12:0.29245 13:0.042367 14:0.095847 15:0.068122 16:0.71195
5 0 1:0.082797 2:0.07418 3:0.094953 4:0.49314 5:0.071715 6:0.38763 7:0.065411 8:0.62625 9:0.074847 10:0.28655 11:0.3913 12:0.24137 13:0.049765 14:0.20196 15:0.068122 16:0.71421
5 0 1:0.090434 2:0.070082 3:0.07946 4:0.49065 5:0.068205 6:0.40541 7:0.081764 8:0.56481 9:0.072393 10:0.21448 11:0.34783 12:0.22759 13:0.046402 14:0.23481 15:0.05754 16:0.72007
5 0 1:0.090836 2:0.069262 3:0.11694 4:0.4825 5:0.1003 6:0.41218 7:0.092666 8:0.66189 9:0.071166 10:0.29983 11:0.36957 12:0.24313 13:0.043712 14:0.25325 15:0.074735 16:0.71424
0.45853 0 1:0.13505 2:0.12623 3:0.17841 4:0.50079 5:0.15446 6:0.46708 7:0.15164 8:0.60667 9:0.11984 10:0.074215 11:0.26087 12:0.24688 13:0.061197 14:0.31498 15:0.10185 16:0.70476
0.2989 0 1:0.11254 2:0.096721 3:0.11444 4:0.48223 5:0.11535 6:0.47246 7:0.11397 8:0.65144 9:0.097342 10:0.090505 11:0.19565 12:0.32843 13:0.062542 14:0.15065 15:0.083995 16:0.69201
1.673 0 1:0.092042 2:0.068033 3:0.11894 4:0.4698 5:0.098796 6:0.39553 7:0.094648 8:0.87348 9:0.070757 10:0.25212 11:0.43478 12:0.24383 13:0.04573 14:0.22182 15:0.042328 16:0.84013
5 0 1:0.1455 2:0.12254 3:0.16392 4:0.50673 5:0.14895 6:0.47133 7:0.14965 8:0.57162 9:0.12188 10:0.066587 11:0.23913 12:0.18627 13:0.05918 14:0.34596 15:0.074074 16:0.72536
0.058833 0 1:0.086013 2:0.064344 3:0.11394 4:0.46747 5:0.094283 6:0.43988 7:0.08672 8:0.70491 9:0.066258 10:0.30228 11:0.41304 12:0.25989 13:0.041695 14:0.21236 15:0.11111 16:0.72776
5 0 1:0.09365 2:0.070082 3:0.082459 4:0.47924 5:0.069208 6:0.32413 7:0.08226 8:0.51701 9:0.073211 10:0.24439 11:0.32609 12:0.23659 13:0.05111 14:0.23401 15:0.08664 16:0.69825
5 0 1:0.086817 2:0.066803 3:0.082459 4:0.5027 5:0.062187 6:0.41619 7:0.0555 8:0.6472 9:0.069939 10:0.19399 11:0.41304 12:0.25358 13:0.04573 14:0.24034 15:0.041005 16:0.85613
0.21556 0 1:0.1467 2:0.094262 3:0.12894 4:0.49739 5:0.10883 6:0.41463 7:0.11596 8:0.57879 9:0.090798 10:0.087501 11:0.23913 12:0.29957 13:0.055817 14:0.11479 15:0.093254 16:0.72052
3.246 0 1:0.086817 2:0.068443 3:0.08096 4:0.50174 5:0.066199 6:0.39819 7:0.05996 8:0.63394 9:0.070757 10:0.28461 11:0.34783 12:0.23838 13:0.050437 14:0.23419 15:0.068783 16:0.71062
0.25174 0 1:0.090836 2:0.071721 3:0.11494 4:0.44982 5:0.088265 6:0.4015 7:0.089693 8:0.54371 9:0.071166 10:0.067825 11:0.28261 12:0.29144 13:0.057162 14:0.24897 15:0.081349 16:0.6382
5 0 1:0.096061 2:0.079918 3:0.13893 4:0.4766 5:0.11334 6:0.42307 7:0.10555 8:0.67616 9:0.0818 10:0.2408 11:0.34783 12:0.23104 13:0.052455 14:0.22862 15:0.083333 16:0.71199
5 0 1:0.13947 2:0.12008 3:0.16642 4:0.50505 5:0.14744 6:0.45697 7:0.15114 8:0.5584 9:0.12188 10:0.08089 11:0.26087 12:0.24979 13:0.06187 14:0.28749 15:0.093254 16:0.71167
3.7761 0 1:0.11455 2:0.088525 3:0.13143 4:0.49524 5:0.10782 6:0.47744 7:0.11051 8:0.59658 9:0.089571 10:0.09086 11:0.34783 12:0.26997 13:0.062542 14:0.15226 15:0.083995 16:0.69272
0.13363 0 1:0.097267 2:0.082787 3:0.12294 4:0.48697 5:0.1003 6:0.48179 7:0.10555 8:0.59148 9:0.083845 10:0.0861 11:0.17391 12:0.33161 13:0.059852 14:0.1045 15:0.083333 16:0.69955
5 0 1:0.096463 2:0.085656 3:0.12494 4:0.49437 5:0.10231 6:0.46437 7:0.1115 8:0.60033 9:0.086708 10:0.092595 11:0.34783 12:0.27467 13:0.062542 14:0.15529 15:0.084656 16:0.68539
4.5129 0 1:0.097669 2:0.075 3:0.13243 4:0.43731 5:0.10732 6:0.31563 7:0.098117 8:0.55763 9:0.075665 10:0.2519 11:0.32609 12:0.22482 13:0.04842 14:0.25255 15:0.091931 16:0.68369
5 0 1:0.090434 2:0.077869 3:0.13443 4:0.47784 5:0.11083 6:0.42972 7:0.10258 8:0.66583 9:0.079346 10:0.2509 11:0.3913 12:0.24644 13:0.049765 14:0.21771 15:0.045635 16:0.83521
5 0 1:0.092042 2:0.07541 3:0.091454 4:0.50012 5:0.072217 6:0.4221 7:0.064916 8:0.65704 9:0.076892 10:0.2705 11:0.3913 12:0.22954 13:0.050437 14:0.2149 15:0.069444 16:0.7334
5 0 1:0.098875 2:0.070492 3:0.12544 4:0.46657 5:0.10181 6:0.40101 7:0.093657 8:0.64496 9:0.071984 10:0.28366 11:0.43478 12:0.24888 13:0.049765 14:0.20974 15:0.091931 16:0.70219
5 0 1:0.091238 2:0.080328 3:0.11944 4:0.46377 5:0.09679 6:0.52396 7:0.095639 8:0.66998 9:0.080982 10:0.072044 11:0.26087 12:0.32735 13:0.061197 14:0.14694 15:0.099206 16:0.69074
5 0 1:0.08963 2:0.073361 3:0.08096 4:0.48326 5:0.072718 6:0.38874 7:0.08672 8:0.56616 9:0.073211 10:0.15586 11:0.34783 12:0.23925 13:0.04842 14:0.2295 15:0.044312 16:0.84674
4.7607 0 1:0.14228 2:0.12295 3:0.16942 4:0.50169 5:0.14845 6:0.48602 7:0.14321 8:0.65149 9:0.12106 10:0.072454 11:0.23913 12:0.16968 13:0.05918 14:0.37999 15:0.080688 16:0.70481
5 0 1:0.13585 2:0.12131 3:0.16542 4:0.49422 5:0.14744 6:0.46487 7:0.14668 8:0.57616 9:0.12147 10:0.066516 11:0.23913 12:0.23295 13:0.05918 14:0.27631 15:0.083333 16:0.68666
5 0 1:0.090836 2:0.068443 3:0.07946 4:0.49772 5:0.063691 6:0.40977 7:0.073835 8:0.56023 9:0.070757 10:0.22172 11:0.34783 12:0.25739 13:0.044385 14:0.26407 15:0.040344 16:0.85528
5 0 1:0.094051 2:0.069672 3:0.11744 4:0.43213 5:0.1008 6:0.35097 7:0.093657 8:0.67486 9:0.071984 10:0.25788 11:0.32609 12:0.24686 13:0.047075 14:0.26431 15:0.084656 16:0.67961
5 0 1:0.097267 2:0.081557 3:0.091454 4:0.52058 5:0.078736 6:0.44485 7:0.08672 8:0.60504 9:0.083436 10:0.28666 11:0.34783 12:0.20096 13:0.051782 14:0.36598 15:0.093254 16:0.77669
5 0 1:0.093248 2:0.076639 3:0.13393 4:0.4677 5:0.10933 6:0.40372 7:0.10159 8:0.6818 9:0.078528 10:0.20677 11:0.36957 12:0.2291 13:0.054472 14:0.22409 15:0.085979 16:0.69883
5 0 1:0.086415 2:0.069672 3:0.078961 4:0.51542 5:0.065196 6:0.41992 7:0.062438 8:0.58728 9:0.071166 10:0.20963 11:0.30435 12:0.23918 13:0.041695 14:0.28075 15:0.039021 16:0.85145
3.9374 0 1:0.13384 2:0.11721 3:0.15992 4:0.50918 5:0.14243 6:0.49236 7:0.14569 8:0.56535 9:0.11779 10:0.077167 11:0.26087 12:0.19727 13:0.061197 14:0.34267 15:0.083333 16:0.69239
1.1535 0 1:0.30265 2:0.12131 3:0.16292 4:0.50277 5:0.14443 6:0.49556 7:0.15015 8:0.54335 9:0.1227 10:0.082172 11:0.23913 12:0.1512 13:0.06187 14:0.35894 15:0.087963 16:0.72217
5 0 1:0.092444 2:0.070082 3:0.07996 4:0.50413 5:0.0667 6:0.41082 7:0.060456 8:0.63915 9:0.071575 10:0.31139 11:0.41304 12:0.23422 13:0.05111 14:0.23219 15:0.091931 16:0.7157
2.3287 0 1:0.11455 2:0.098361 3:0.13593 4:0.48601 5:0.11735 6:0.46514 7:0.12686 8:0.59519 9:0.099387 10:0.098468 11:0.34783 12:0.27648 13:0.067249 14:0.16038 15:0.084656 16:0.7027
5 0 1:0.09365 2:0.073361 3:0.10495 4:0.50332 5:0.10532 6:0.41734 7:0.097621 8:0.67412 9:0.075256 10:0.20844 11:0.34783 12:0.21151 13:0.05111 14:0.23508 15:0.071429 16:0.73826
2.836 0 1:0.086013 2:0.07582 3:0.084958 4:0.50069 5:0.07322 6:0.42161 7:0.087215 8:0.56267 9:0.076892 10:0.21109 11:0.54348 12:0.26339 13:0.053127 14:0.24003 15:0.081349 16:0.70657
5 0 1:0.13746 2:0.12418 3:0.16442 4:0.5052 5:0.15045 6:0.45156 7:0.1556 8:0.57072 9:0.12515 10:0.077328 11:0.28261 12:0.23846 13:0.057835 14:0.28571 15:0.089286 16:0.70528
1.7965 0 1:0.14188 2:0.1209 3:0.16442 4:0.48695 5:0.14493 6:0.46248 7:0.15114 8:0.52592 9:0.12025 10:0.056133 11:0.26087 12:0.20564 13:0.06187 14:0.37223 15:0.091931 16:0.70643
5 0 1:0.10691 2:0.090574 3:0.13243 4:0.47068 5:0.10682 6:0.45016 7:0.10753 8:0.54729 9:0.08998 10:0.065307 11:0.28261 12:0.287 13:0.060525 14:0.28748 15:0.082672 16:0.6553
5 0 1:0.094453 2:0.079918 3:0.097451 4:0.48774 5:0.076229 6:0.39739 7:0.069871 8:0.628 9:0.082209 10:0.25915 11:0.32609 12:0.20664 13:0.052455 14:0.22086 15:0.085979 16:0.71028
5 0 1:0.086817 2:0.068443 3:0.087956 4:0.48831 5:0.067202 6:0.38836 7:0.079286 8:0.54535 9:0.071166 10:0.15943 11:0.36957 12:0.25357 13:0.049092 14:0.25263 15:0.044974 16:0.86052
5 0 1:0.099678 2:0.079098 3:0.11294 4:0.50967 5:0.11234 6:0.40386 7:0.10456 8:0.66713 9:0.080982 10:0.27346 11:0.34783 12:0.23665 13:0.050437 14:0.21677 15:0.080026 16:0.6984
5 0 1:0.14268 2:0.12951 3:0.17141 4:0.50309 5:0.15848 6:0.44836 7:0.15857 8:0.56951 9:0.12883 10:0.062069 11:0.26087 12:0.2291 13:0.059852 14:0.31051 15:0.082672 16:0.68579
4.5445 0 1:0.1041 2:0.085656 3:0.11744 4:0.47863 5:0.10231 6:0.46119 7:0.10555 8:0.5667 9:0.086299 10:0.079362 11:0.28261 12:0.26302 13:0.05649 14:0.26339 15:0.079365 16:0.69284
5 0 1:0.13907 2:0.11926 3:0.16342 4:0.50157 5:0.14443 6:0.47926 7:0.15114 8:0.53916 9:0.11984 10:0.079743 11:0.32609 12:0.26143 13:0.062542 14:0.33309 15:0.088624 16:0.70639
4.7372 0 1:0.088023 2:0.07459 3:0.11844 4:0.50428 5:0.10682 6:0.44117 7:0.097126 8:0.65584 9:0.074847 10:0.2526 11:0.36957 12:0.23854 13:0.050437 14:0.17289 15:0.12897 16:0.74786
5 0 1:0.099277 2:0.084426 3:0.12344 4:0.49361 5:0.10231 6:0.48156 7:0.10109 8:0.64929 9:0.08589 10:0.09185 11:0.32609 12:0.27756 13:0.059852 14:0.15466 15:0.073413 16:0.69521
5 0 1:0.070338 2:0.088115 3:0.14493 4:0.48976 5:0.12136 6:0.37111 7:0.11397 8:0.61724 9:0.086299 10:0.11466 11:0.28261 12:0.2987 13:0.049092 14:0.085596 15:0.059524 16:0.70341
2.522 0 1:0.086415 2:0.068852 3:0.091454 4:0.48425 5:0.068205 6:0.39197 7:0.076809 8:0.54623 9:0.071984 10:0.14849 11:0.47826 12:0.25387 13:0.046402 14:0.24586 15:0.077381 16:0.68722
5 0 1:0.086013 2:0.07541 3:0.12894 4:0.48055 5:0.10782 6:0.45924 7:0.10059 8:0.76236 9:0.07771 10:0.34781 11:0.45652 12:0.23497 13:0.050437 14:0.16609 15:0.095899 16:0.72261
0.43306 0 1:0.07918 2:0.057787 3:0.094453 4:0.47676 5:0.070712 6:0.45448 7:0.073835 8:0.59657 9:0.058487 10:0.083855 11:0.17391 12:0.32645 13:0.05649 14:0.12609 15:0.068783 16:0.65104
5 0 1:0.081592 2:0.075 3:0.097951 4:0.48813 5:0.074223 6:0.40409 7:0.084737 8:0.56764 9:0.077301 10:0.17916 11:0.36957 12:0.23484 13:0.054472 14:0.24158 15:0.069444 16:0.71224
5 0 1:0.090836 2:0.070492 3:0.078461 4:0.50646 5:0.067202 6:0.40241 7:0.085233 8:0.5676 9:0.071984 10:0.21282 11:0.32609 12:0.25056 13:0.044385 14:0.2443 15:0.040344 16:0.8515
5 0 1:0.094051 2:0.083197 3:0.10245 4:0.48613 5:0.082748 6:0.4132 7:0.091179 8:0.56943 9:0.084663 10:0.2103 11:0.3913 12:0.25045 13:0.049092 14:0.28513 15:0.08664 16:0.71263
5 0 1:0.10531 2:0.10697 3:0.14293 4:0.49612 5:0.12538 6:0.43818 7:0.13132 8:0.58539 9:0.10634 10:0.10205 11:0.26087 12:0.28918 13:0.05111 14:0.15407 15:0.078042 16:0.70677
0.25115 0 1:0.11495 2:0.098361 3:0.13443 4:0.48799 5:0.11735 6:0.47564 7:0.11744 8:0.65337 9:0.099796 10:0.087151 11:0.34783 12:0.2811 13:0.066577 14:0.16049 15:0.085317 16:0.70757
5 0 1:0.13907 2:0.12541 3:0.16892 4:0.4961 5:0.15145 6:0.47323 7:0.1556 8:0.55903 9:0.12638 10:0.081116 11:0.26087 12:0.25285 13:0.060525 14:0.30924 15:0.095899 16:0.71209
4.7019 0 1:0.13666 2:0.12295 3:0.16942 4:0.51023 5:0.14694 6:0.46843 7:0.15312 8:0.53715 9:0.12229 10:0.064147 11:0.26087 12:0.22195 13:0.063215 14:0.31635 15:0.080026 16:0.68616
5 0 1:0.088424 2:0.065574 3:0.11744 4:0.46927 5:0.095787 6:0.41623 7:0.088702 8:0.71382 9:0.067894 10:0.25085 11:0.3913 12:0.24966 13:0.05111 14:0.20381 15:0.074074 16:0.68616
5 0 1:0.10169 2:0.080328 3:0.11894 4:0.49544 5:0.09679 6:0.48706 7:0.1001 8:0.60306 9:0.080982 10:0.092315 11:0.26087 12:0.26886 13:0.062542 14:0.10884 15:0.059524 16:0.75363
5 0 1:0.14389 2:0.12459 3:0.16942 4:0.50722 5:0.15095 6:0.47388 7:0.15263 8:0.55049 9:0.12188 10:0.061636 11:0.28261 12:0.20488 13:0.063215 14:0.37086 15:0.093254 16:0.70275
0.58467 0 1:0.052251 2:0.12623 3:0.17441 4:0.48121 5:0.15547 6:0.45041 7:0.1551 8:0.55006 9:0.12434 10:0.07035 11:0.30435 12:0.70133 13:0 14:0.26191 15:0.040344 16:0.23023
5 0 1:0.14389 2:0.12869 3:0.16442 4:0.50094 5:0.15547 6:0.46524 7:0.16105 8:0.5459 9:0.12761 10:0.083616 11:0.26087 12:0.23264 13:0.06187 14:0.292 15:0.084656 16:0.7057
5 0 1:0.096865 2:0.07582 3:0.13443 4:0.47045 5:0.10832 6:0.40145 7:0.10109 8:0.68882 9:0.078119 10:0.29387 11:0.28261 12:0.24349 13:0.043712 14:0.23747 15:0.039021 16:0.84493
5 0 1:0.095257 2:0.070902 3:0.12844 4:0.47736 5:0.10231 6:0.41287 7:0.094648 8:0.67063 9:0.072802 10:0.27917 11:0.32609 12:0.229 13:0.049092 14:0.2147 15:0.080026 16:0.6991
5 0 1:0.13987 2:0.12049 3:0.15942 4:0.50035 5:0.14493 6:0.48188 7:0.14569 8:0.57674 9:0.12065 10:0.067093 11:0.23913 12:0.145 13:0.061197 14:0.37435 15:0.084656 16:0.70782
0.20784 0 1:0.09164 2:0.070902 3:0.10595 4:0.50688 5:0.10231 6:0.41355 7:0.095144 8:0.70191 9:0.073211 10:0.2396 11:0.34783 12:0.24799 13:0.047747 14:0.23687 15:0.081349 16:0.69267
5 0 1:0.095257 2:0.07418 3:0.083458 4:0.49589 5:0.071715 6:0.38816 7:0.064916 8:0.62309 9:0.076483 10:0.25692 11:0.36957 12:0.23288 13:0.049765 14:0.22401 15:0.082672 16:0.70494
5 0 1:0.089228 2:0.068852 3:0.077961 4:0.48808 5:0.064694 6:0.37267 7:0.057978 8:0.62315 9:0.071575 10:0.26266 11:0.32609 12:0.22837 13:0.04573 14:0.26225 15:0.041667 16:0.86544
5 0 1:0.093248 2:0.07582 3:0.084458 4:0.49248 5:0.07673 6:0.3994 7:0.09217 8:0.57713 9:0.07771 10:0.17871 11:0.3913 12:0.26323 13:0.049092 14:0.26142 15:0.082011 16:0.70955
4.2238 0 1:0.092444 2:0.07582 3:0.13293 4:0.45891 5:0.10832 6:0.42408 7:0.10059 8:0.69078 9:0.07771 10:0.22731 11:0.45652 12:0.26234 13:0.050437 14:0.23132 15:0.073413 16:0.69164
1.4253 0 1:0.090836 2:0.065164 3:0.073463 4:0.47549 5:0.048144 6:0.39592 7:0.062934 8:0.56084 9:0.06544 10:0.10648 11:0.30435 12:0.29407 13:0.047747 14:0.089827 15:0.078042 16:0.68551
5 0 1:0.13786 2:0.12172 3:0.16392 4:0.50968 5:0.14594 6:0.46721 7:0.15015 8:0.57849 9:0.12106 10:0.082852 11:0.26087 12:0.21978 13:0.059852 14:0.30758 15:0.081349 16:0.69902
0 0.18356 1:0.13867 2:0.12418 3:0.16642 4:0.50328 5:0.14995 6:0.46511 7:0.15263 8:0.56274 9:0.1227 10:0.076416 11:0.30435 12:0.26457 13:0.063215 14:0.34009 15:0.087963 16:0.70816
5 0 1:0.13786 2:0.11926 3:0.16292 4:0.50564 5:0.14493 6:0.48529 7:0.14767 8:0.5436 9:0.1182 10:0.053607 11:0.26087 12:0.18014 13:0.058507 14:0.36814 15:0.080026 16:0.70276
0.16013 0 1:0.14268 2:0.12746 3:0.17041 4:0.49157 5:0.15145 6:0.451 7:0.14519 8:0.66801 9:0.12843 10:0.082509 11:0.23913 12:0.22108 13:0.062542 14:0.33755 15:0.083333 16:0.7036
5 0 1:0.15916 2:0.084016 3:0.11494 4:0.47034 5:0.1013 6:0.40763 7:0.111 8:0.55203 9:0.083436 10:0.070298 11:0.34783 12:0.2876 13:0.065232 14:0.18928 15:0.082672 16:0.69287
5 0 1:0.13384 2:0.125 3:0.16542 4:0.50095 5:0.15095 6:0.4442 7:0.1556 8:0.54374 9:0.12393 10:0.064309 11:0.23913 12:0.23334 13:0.060525 14:0.30962 15:0.082011 16:0.68386
5 0 1:0.053457 2:0.076639 3:0.07996 4:0.47913 5:0.066199 6:0.3943 7:0.070367 8:0.5719 9:0.076892 10:0.10483 11:0.23913 12:0.30692 13:0.04304 14:0.10074 15:0.053571 16:0.69496
4.4764 0 1:0.13987 2:0.125 3:0.16642 4:0.5102 5:0.14995 6:0.47956 7:0.1561 8:0.55129 9:0.12679 10:0.080786 11:0.23913 12:0.19045 13:0.060525 14:0.34906 15:0.082672 16:0.69334
5 0 1:0.096865 2:0.081967 3:0.097951 4:0.47946 5:0.078235 6:0.41795 7:0.096135 8:0.55518 9:0.0818 10:0.19286 11:0.34783 12:0.22193 13:0.05111 14:0.24451 15:0.078704 16:0.706
3.3475 0 1:0.093248 2:0.07623 3:0.093453 4:0.49613 5:0.073721 6:0.41594 7:0.066402 8:0.65559 9:0.078119 10:0.28218 11:0.28261 12:0.22997 13:0.046402 14:0.24949 15:0.054894 16:0.73207
2.5986 0.3345 1:0.14068 2:0.12131 3:0.15692 4:0.50902 5:0.14594 6:0.49702 7:0.15312 8:0.52434 9:0.12147 10:0.071639 11:0.28261 12:0.22319 13:0.05918 14:0.39104 15:0.091931 16:0.71796
5 0 1:0.094855 2:0.07623 3:0.092454 4:0.48521 5:0.07322 6:0.38656 7:0.081764 8:0.57562 9:0.07771 10:0.29034 11:0.36957 12:0.2211 13:0.054472 14:0.22125 15:0.080026 16:0.69584
5 0 1:0.090434 2:0.068443 3:0.087456 4:0.47296 5:0.065196 6:0.34753 7:0.058969 8:0.59592 9:0.070757 10:0.27845 11:0.34783 12:0.23573 13:0.045057 14:0.22233 15:0.041005 16:0.84086
4.3756 0 1:0.13947 2:0.12828 3:0.17141 4:0.4984 5:0.15145 6:0.42134 7:0.1551 8:0.58749 9:0.12883 10:0.10984 11:0.30435 12:0.28108 13:0.047747 14:0.13803 15:0.078704 16:0.71183
5 0 1:0.094453 2:0.072541 3:0.085457 4:0.51228 5:0.067202 6:0.43324 7:0.060951 8:0.65702 9:0.075256 10:0.29727 11:0.32609 12:0.21174 13:0.051782 14:0.21096 15:0.064153 16:0.73331
1.2559 0 1:0.061897 2:0.044262 3:0.076962 4:0.47677 5:0.053159 6:0.37352 7:0.0555 8:0.5971 9:0.044581 10:0.10499 11:0.21739 12:0.3127 13:0.027572 14:0.059413 15:0.036376 16:0.71779
5 0 1:0.090032 2:0.07418 3:0.084458 4:0.48325 5:0.072217 6:0.39176 7:0.079782 8:0.56101 9:0.076483 10:0.2719 11:0.34783 12:0.23528 13:0.051782 14:0.22906 15:0.060847 16:0.71972
5 0 1:0.15233 2:0.12582 3:0.16642 4:0.50664 5:0.15246 6:0.45622 7:0.15907 8:0.56451 9:0.1272 10:0.088613 11:0.28261 12:0.23959 13:0.063215 14:0.32158 15:0.093915 16:0.69147
5 0 1:0.067926 2:0.037295 3:0.069465 4:0.45805 5:0.045135 6:0.37432 7:0.05005 8:0.59644 9:0.035174 10:0.10572 11:0.21739 12:0.31099 13:0.052455 14:0.046211 15:0.078042 16:0.66684
0 0.018136 1:0.094453 2:0.079918 3:0.11794 4:0.46082 5:0.095787 6:0.53934 7:0.10159 8:0.50851 9:0.079755 10:0.042348 11:0.26087 12:0.2895 13:0.06187 14:0.33335 15:0.081349 16:0.66121
0.72759 0 1:0.11254 2:0.10328 3:0.12494 4:0.47557 5:0.12136 6:0.47533 7:0.12934 8:0.58268 9:0.1047 10:0.085791 11:0.23913 12:0.30049 13:0.067922 14:0.17003 15:0.083995 16:0.69836
5 0 1:0.081592 2:0.047541 3:0.065967 4:0.48377 5:0.044132 6:0.38957 7:0.053518 8:0.57708 9:0.047035 10:0.10222 11:0.30435 12:0.2879 13:0.017485 14:0.053447 15:0.023148 16:0.71601
4.8678 0 1:0.15233 2:0.084426 3:0.11094 4:0.46149 5:0.1013 6:0.48017 7:0.10852 8:0.54554 9:0.085072 10:0.064458 11:0.26087 12:0.30294 13:0.06456 14:0.2542 15:0.082011 16:0.68656
4.5957 0 1:0.10048 2:0.082377 3:0.11294 4:0.48915 5:0.1008 6:0.48657 7:0.10109 8:0.64698 9:0.083436 10:0.11472 11:0.36957 12:0.27644 13:0.065232 14:0.10133 15:0.083333 16:0.6914
5 0 1:0.13384 2:0.1209 3:0.16142 4:0.50015 5:0.14744 6:0.45907 7:0.15015 8:0.56031 9:0.11984 10:0.066161 11:0.26087 12:0.23744 13:0.062542 14:0.2995 15:0.097884 16:0.70072
0.45519 0 1:0.14711 2:0.11967 3:0.15542 4:0.50052 5:0.14042 6:0.43547 7:0.1328 8:0.66921 9:0.11943 10:0.086606 11:0.17391 12:0.28721 13:0.05111 14:0.16088 15:0.092593 16:0.71705
4.6348 0 1:0.14871 2:0.14426 3:0.17991 4:0.49475 5:0.17101 6:0.41509 7:0.17294 8:0.58205 9:0.14192 10:0.092653 11:0.26087 12:0.28831 13:0.058507 14:0.16513 15:0.074735 16:0.69619
5 0 1:0.13706 2:0.12541 3:0.17391 4:0.51163 5:0.15045 6:0.49008 7:0.15114 8:0.57678 9:0.12474 10:0.05937 11:0.32609 12:0.22901 13:0.063887 14:0.34327 15:0.09127 16:0.71482
3.2075 0 1:0.13505 2:0.12623 3:0.16442 4:0.48723 5:0.15045 6:0.47902 7:0.15114 8:0.56574 9:0.12556 10:0.061629 11:0.28261 12:0.25517 13:0.06187 14:0.34132 15:0.097884 16:0.70402
5 0 1:0.13706 2:0.11885 3:0.16192 4:0.50356 5:0.14493 6:0.48403 7:0.15114 8:0.55033 9:0.12065 10:0.081019 11:0.26087 12:0.17871 13:0.06456 14:0.3463 15:0.087963 16:0.69764
4.0227 0 1:0.089228 2:0.077049 3:0.098451 4:0.48558 5:0.074724 6:0.40252 7:0.085233 8:0.56536 9:0.078528 10:0.23573 11:0.28261 12:0.19236 13:0.050437 14:0.24713 15:0.071429 16:0.69582
0.68069 0 1:0.088424 2:0.068033 3:0.10095 4:0.46293 5:0.081244 6:0.39985 7:0.08226 8:0.51866 9:0.067894 10:0.07079 11:0.23913 12:0.33388 13:0.05918 14:0.28182 15:0.081349 16:0.63032
5 0 1:0.13465 2:0.11844 3:0.16792 4:0.49177 5:0.14293 6:0.47352 7:0.1447 8:0.58246 9:0.11779 10:0.081234 11:0.30435 12:0.27156 13:0.059852 14:0.30297 15:0.076058 16:0.70301
5 0 1:0.091238 2:0.081148 3:0.096952 4:0.47259 5:0.074724 6:0.39017 7:0.088702 8:0.53565 9:0.083436 10:0.24082 11:0.3913 12:0.24272 13:0.049765 14:0.25376 15:0.074074 16:0.70097
5 0 1:0.14429 2:0.12377 3:0.16092 4:0.50063 5:0.15095 6:0.48065 7:0.1561 8:0.56826 9:0.12556 10:0.083881 11:0.26087 12:0.24705 13:0.063887 14:0.28182 15:0.09127 16:0.71557
3.5983 0.6782 1:0.091238 2:0.12828 3:0.10095 4:0.46042 5:0.094283 6:0.42554 7:0.10357 8:0.56079 9:0.12883 10:0.11403 11:0.21739 12:0.28896 13:0.084062 14:0.30586 15:0.10648 16:0.66298
5 0 1:0.14228 2:0.12254 3:0.16392 4:0.50208 5:0.14644 6:0.45703 7:0.15213 8:0.5398 9:0.12229 10:0.064348 11:0.23913 12:0.14287 13:0.063887 14:0.35813 15:0.089286 16:0.71969
5 0 1:0.097267 2:0.077869 3:0.096952 4:0.47802 5:0.075226 6:0.40161 7:0.068385 8:0.63681 9:0.078528 10:0.23437 11:0.36957 12:0.25294 13:0.050437 14:0.24366 15:0.045635 16:0.85811
2.3348 0 1:0.11696 2:0.095082 3:0.13693 4:0.50418 5:0.11484 6:0.49371 7:0.11397 8:0.6582 9:0.095706 10:0.094156 11:0.34783 12:0.27015 13:0.065905 14:0.15786 15:0.087302 16:0.71356
5 0 1:0.13867 2:0.11762 3:0.16292 4:0.4926 5:0.14142 6:0.47615 7:0.14371 8:0.56016 9:0.11697 10:0.067778 11:0.23913 12:0.15382 13:0.061197 14:0.36587 15:0.09127 16:0.70501
5 0 1:0.097267 2:0.080328 3:0.090955 4:0.48385 5:0.075727 6:0.39898 7:0.091675 8:0.57003 9:0.082618 10:0.26642 11:0.34783 12:0.22293 13:0.051782 14:0.23352 15:0.080688 16:0.70362
4.6202 0 1:0.11777 2:0.097131 3:0.13693 4:0.49058 5:0.11836 6:0.44725 7:0.1224 8:0.55041 9:0.09816 10:0.073141 11:0.23913 12:0.18429 13:0.059852 14:0.35724 15:0.075397 16:0.71632
5 0 1:0.095659 2:0.077459 3:0.077961 4:0.48757 5:0.074724 6:0.38503 7:0.067393 8:0.63019 9:0.078528 10:0.31475 11:0.3913 12:0.23883 13:0.054472 14:0.20346 15:0.078042 16:0.7004
5 0 1:0.090434 2:0.07377 3:0.088456 4:0.47996 5:0.071214 6:0.39341 7:0.078791 8:0.56491 9:0.076074 10:0.27043 11:0.34783 12:0.25122 13:0.04573 14:0.24297 15:0.042328 16:0.8562
5 0 1:0.095257 2:0.079508 3:0.076462 4:0.50728 5:0.07673 6:0.40852 7:0.069376 8:0.6451 9:0.078528 10:0.15508 11:0.41304 12:0.24108 13:0.049765 14:0.24276 15:0.044974 16:0.85769
0 0.06651 1:0.096865 2:0.083197 3:0.12044 4:0.45695 5:0.099799 6:0.58518 7:0.10109 8:0.52353 9:0.087526 10:0.14873 11:0.21739 12:0.32396 13:0.059852 14:0.30371 15:0.080026 16:0.6748
0 0.56106 1:0.096865 2:0.078279 3:0.063468 4:0.51582 5:0.071214 6:0.37834 7:0.069871 8:0.5626 9:0.080164 10:0.16434 11:0.3913 12:0.28136 13:0.047075 14:0.39658 15:0.070106 16:0.72809
5 0 1:0.14188 2:0.12664 3:0.17141 4:0.50556 5:0.15095 6:0.47867 7:0.15659 8:0.54022 9:0.12802 10:0.076902 11:0.26087 12:0.18352 13:0.06187 14:0.36284 15:0.081349 16:0.70992
5 0 1:0.09164 2:0.070492 3:0.089955 4:0.48092 5:0.072718 6:0.39258 7:0.079286 8:0.57221 9:0.073211 10:0.30257 11:0.32609 12:0.23266 13:0.04842 14:0.22851 15:0.043651 16:0.84975
5 0 1:0.14429 2:0.12746 3:0.17241 4:0.50552 5:0.15396 6:0.49587 7:0.15659 8:0.57386 9:0.12761 10:0.068154 11:0.23913 12:0.16454 13:0.061197 14:0.36229 15:0.085979 16:0.71062
5 0.057152 1:0.13625 2:0.12664 3:0.16442 4:0.49453 5:0.15196 6:0.45293 7:0.15758 8:0.53149 9:0.1272 10:0.052182 11:0.28261 12:0.23838 13:0.063215 14:0.36606 15:0.096561 16:0.69408
