svm_type c_svc
kernel_type rbf
gamma 0.3125
nr_class 2
total_sv 606
rho -2.6645
label 1 3
nr_sv 309 297
SV
5 1:0.033291 2:0.0098882 3:0.069828 4:0.16486 5:0.037428 6:0.17845 7:0.028169 8:0.49126 9:0.012012 10:0.6184 11:0.57692 12:0.49858 13:0.016598 14:0.22645 15:0.032104 16:0.26395
5 1:0.043405 2:0.024076 3:0.039604 4:0.25473 5:0.02214 6:0.08364 7:0.037559 8:0.17971 9:0.027027 10:0.66615 11:0.53846 12:0.51454 13:0.020055 14:0.2077 15:0.010929 16:0.72901
5 1:0.042141 2:0.025365 3:0.06149 4:0.31949 5:0.056405 6:0.13468 7:0.046948 8:0.41515 9:0.027456 10:0.70037 11:0.5 12:0.45766 13:0.017981 14:0.20733 15:0.036885 16:0.33001
5 1:0.053097 2:0.040413 3:0.10787 4:0.1921 5:0.074855 6:0.16598 7:0.065206 8:0.43998 9:0.042471 10:0.50989 11:0.65385 12:0.50645 13:0.026971 14:0.21822 15:0.064891 16:0.36749
5 1:0.052255 2:0.029235 3:0.054716 4:0.28701 5:0.028466 6:0.1381 7:0.019301 8:0.36204 9:0.032604 10:0.73259 11:0.69231 12:0.50902 13:0.024896 14:0.26895 15:0.047814 16:0.3592
5 1:0.040034 2:0.030525 3:0.068786 4:0.30644 5:0.062731 6:0.15841 7:0.054773 8:0.67619 9:0.032604 10:0.56793 11:0.53846 12:0.45476 13:0.024205 14:0.21589 15:0.043033 16:0.29844
5 1:0.046776 2:0.029235 3:0.046899 4:0.25771 5:0.017923 6:0.15545 7:0.0099113 8:0.35887 9:0.030888 10:0.60936 11:0.5 12:0.53245 13:0.017289 14:0.20019 15:0.0088798 16:0.72545
5 1:0.04804 2:0.031814 3:0.096925 4:0.20901 5:0.064312 6:0.15116 7:0.054773 8:0.43095 9:0.033891 10:0.68785 11:0.57692 12:0.53093 13:0.02213 14:0.29546 15:0.014344 16:0.82364
0.96279 1:0.046776 2:0.030525 3:0.054716 4:0.25571 5:0.026357 6:0.12164 7:0.034429 8:0.22649 9:0.032604 10:0.88197 11:0.53846 12:0.49721 13:0.02213 14:0.22459 15:0.014344 16:0.73723
5 1:0.044669 2:0.027945 3:0.092236 4:0.24129 5:0.059568 6:0.20254 7:0.049557 8:0.43553 9:0.029601 10:0.61246 11:0.57692 12:0.50825 13:0.017981 14:0.27615 15:0.037568 16:0.29602
5 1:0.054362 2:0.031384 3:0.051068 4:0.25075 5:0.026357 6:0.13666 7:0.038602 8:0.20114 9:0.033891 10:0.47671 11:0.57692 12:0.47425 13:0.022822 14:0.27251 15:0.050546 16:0.30105
5 1:0.042562 2:0.022786 3:0.041688 4:0.28733 5:0.01845 6:0.12063 7:0.010433 8:0.34005 9:0.025311 10:0.64669 11:0.57692 12:0.50206 13:0.023513 14:0.24786 15:0.038251 16:0.33062
5 1:0.048883 2:0.028375 3:0.048984 4:0.29281 5:0.023722 6:0.18754 7:0.018258 8:0.38036 9:0.030888 10:0.942 11:0.57692 12:0.47918 13:0.023513 14:0.14416 15:0.014344 16:0.6414
5 1:0.043405 2:0.034824 3:0.051589 4:0.25104 5:0.031102 6:0.11908 7:0.022431 8:0.31752 9:0.037323 10:0.64669 11:0.57692 12:0.51519 13:0.02213 14:0.24454 15:0.013661 16:0.74542
5 1:0.042984 2:0.028805 3:0.083898 4:0.17435 5:0.060622 6:0.13684 7:0.051122 8:0.44481 9:0.030888 10:0.50291 11:0.57692 12:0.48891 13:0.022822 14:0.22077 15:0.027322 16:0.34486
5 1:0.053519 2:0.033964 3:0.05211 4:0.24452 5:0.030047 6:0.14481 7:0.0506 8:0.20664 9:0.035607 10:0.52304 11:0.61538 12:0.4945 13:0.022822 14:0.26656 15:0.029372 16:0.38178
5 1:0.049305 2:0.031814 3:0.090672 4:0.19007 5:0.064312 6:0.18904 7:0.055816 8:0.64525 9:0.033462 10:0.64867 11:0.42308 12:0.50355 13:0.020055 14:0.26182 15:0.010929 16:0.78994
5 1:0.037927 2:0.019347 3:0.071912 4:0.19314 5:0.049025 6:0.18624 7:0.038602 8:0.36984 9:0.020592 10:0.64057 11:0.76923 12:0.52953 13:0.017981 14:0.27338 15:0.025273 16:0.3236
5 1:0.040455 2:0.024076 3:0.050547 4:0.25513 5:0.02214 6:0.12492 7:0.013563 8:0.31468 9:0.026169 10:0.81705 11:0.57692 12:0.49491 13:0.020055 14:0.22763 15:0.012295 16:0.75242
5 1:0.046776 2:0.023646 3:0.079208 4:0.23909 5:0.054296 6:0.14107 7:0.044862 8:0.39371 9:0.02574 10:0.69057 11:0.61538 12:0.51205 13:0.016598 14:0.28084 15:0.044399 16:0.34225
5 1:0.041719 2:0.028375 3:0.0010422 4:0.61994 5:0.021086 6:0.20062 7:0.015649 8:0.38459 9:0.030888 10:0.72904 11:0.61538 12:0.51546 13:0.019364 14:0.26306 15:0.010929 16:0.78347
5 1:0.043826 2:0.029235 3:0.080771 4:0.29371 5:0.061149 6:0.18343 7:0.049557 8:0.3821 9:0.029601 10:0.55439 11:0.61538 12:0.50239 13:0.023513 14:0.1418 15:0.10041 16:0.45021
5 1:0.051412 2:0.027515 3:0.053674 4:0.2888 5:0.024249 6:0.11905 7:0.023474 8:0.23311 9:0.03003 10:0.54989 11:0.61538 12:0.50801 13:0.016598 14:0.2717 15:0.049863 16:0.35439
4.0704 1:0.05394 2:0.029665 3:0.095362 4:0.12575 5:0.061676 6:0 7:0.0506 8:0.19352 9:0.030459 10:0.55239 11:0.53846 12:0.47349 13:0.021438 14:0.27964 15:0.062158 16:0.24413
5 1:0.05099 2:0.038263 3:0.058885 4:0.23104 5:0.03321 6:0.16244 7:0.023996 8:0.39129 9:0.040755 10:0.51758 11:0.84615 12:0.50575 13:0.026971 14:0.17247 15:0.04918 16:0.31322
5 1:0.04804 2:0.029235 3:0.093799 4:0.20215 5:0.061149 6:0.14617 7:0.051643 8:0.47676 9:0.031317 10:0.55557 11:0.61538 12:0.52003 13:0.023513 14:0.26831 15:0.043716 16:0.29365
5 1:0.040877 2:0.024506 3:0.041688 4:0.25013 5:0.02214 6:0.11205 7:0.031299 8:0.19608 9:0.026169 10:0.68615 11:0.57692 12:0.52228 13:0.021438 14:0.19728 15:0.012295 16:0.72068
5 1:0.049726 2:0.027515 3:0.042209 4:0.25374 5:0.024249 6:0.1239 7:0.016171 8:0.34672 9:0.028743 10:0.5788 11:0.80769 12:0.52828 13:0.018672 14:0.24007 15:0.037568 16:0.33319
5 1:0.045512 2:0.021066 3:0.039604 4:0.26345 5:0.017396 6:0.11218 7:0.008868 8:0.33142 9:0.023595 10:0.67562 11:0.73077 12:0.51673 13:0.026279 14:0.24197 15:0.060792 16:0.30635
5 1:0.039612 2:0.035684 3:0.10057 4:0.19847 5:0.069056 6:0.14693 7:0.059468 8:0.44924 9:0.037752 10:0.54073 11:0.57692 12:0.49785 13:0.024205 14:0.25349 15:0.038251 16:0.30992
5 1:0.047198 2:0.022356 3:0.046378 4:0.23492 5:0.015287 6:0.10861 7:0.021388 8:0.21277 9:0.024882 10:0.64723 11:0.53846 12:0.49079 13:0.015906 14:0.2158 15:0.0081967 16:0.70958
5 1:0.043405 2:0.031814 3:0.058885 4:0.24381 5:0.024776 6:0.12235 7:0.032342 8:0.19784 9:0.033462 10:0.50349 11:0.65385 12:0.50304 13:0.023513 14:0.21608 15:0.036885 16:0.35494
4.5841 1:0.056047 2:0.027945 3:0.042209 4:0.27672 5:0.023195 6:0.14852 7:0.014085 8:0.36757 9:0.028743 10:0.54006 11:0.65385 12:0.52485 13:0.02213 14:0.26811 15:0.064208 16:0.32436
5 1:0.042562 2:0.021066 3:0.043252 4:0.28975 5:0.014233 6:0.14693 7:0.0057381 8:0.36551 9:0.024453 10:0.38543 11:0.69231 12:0.53406 13:0.018672 14:0.25851 15:0.0095628 16:0.79789
5 1:0.046355 2:0.037833 3:0.10526 4:0.19155 5:0.071692 6:0.11887 7:0.061555 8:0.35558 9:0.039468 10:0.58883 11:0.53846 12:0.49148 13:0.024205 14:0.22778 15:0.062158 16:0.32828
5 1:0.047619 2:0.024506 3:0.042209 4:0.26954 5:0.021613 6:0.1514 7:0.033907 8:0.22957 9:0.026598 10:0.63861 11:0.61538 12:0.54112 13:0.020747 14:0.18409 15:0.011612 16:0.69231
5 1:0.050569 2:0.029665 3:0.031787 4:0.27913 5:0.024776 6:0.15091 7:0.018258 8:0.3652 9:0.032175 10:0.71109 11:0.61538 12:0.50579 13:0.019364 14:0.2311 15:0.035519 16:0.3238
5 1:0.048883 2:0.024506 3:0.040646 4:0.26687 5:0.020559 6:0.12465 7:0.011998 8:0.34875 9:0.027027 10:0.53608 11:0.57692 12:0.48258 13:0.022822 14:0.23608 15:0.062158 16:0.31099
5 1:0.041719 2:0.032244 3:0.09432 4:0.25659 5:0.064839 6:0.21299 7:0.057903 8:0.76182 9:0.034749 10:0.48138 11:0.61538 12:0.45109 13:0.023513 14:0.27133 15:0.050546 16:0.41284
5 1:0.039191 2:0.019776 3:0.041167 4:0.2769 5:0.012124 6:0.12775 7:0.0036515 8:0.35144 9:0.022308 10:0.6195 11:0.53846 12:0.5171 13:0.016598 14:0.24054 15:0.0075137 16:0.78034
5 1:0.043405 2:0.022356 3:0.048984 4:0.248 5:0.021086 6:0.094079 7:0.027126 8:0.14206 9:0.024882 10:0.5531 11:0.61538 12:0.52181 13:0.020055 14:0.31998 15:0.047814 16:0.32694
5 1:0.16603 2:0.036113 3:0.075039 4:0.28778 5:0.069584 6:0.18297 7:0.060511 8:0.53942 9:0.03861 10:0.8226 11:0.69231 12:0.51182 13:0.024896 14:0.18819 15:0.01571 16:0.70908
5 1:0.049726 2:0.028805 3:0.048984 4:0.28715 5:0.02583 6:0.13435 7:0.035472 8:0.23637 9:0.032175 10:0.64268 11:0.57692 12:0.48277 13:0.025588 14:0.24431 15:0.058743 16:0.34743
5 1:0.056469 2:0.029665 3:0.094841 4:0.26671 5:0.061676 6:0.15786 7:0.052165 8:0.42657 9:0.031746 10:0.63109 11:0.53846 12:0.47767 13:0.024205 14:0.24185 15:0.048497 16:0.2951
5 1:0.051833 2:0.026655 3:0.053153 4:0.26673 5:0.020559 6:0.14047 7:0.039124 8:0.24221 9:0.028743 10:0.51213 11:0.61538 12:0.52037 13:0.019364 14:0.26383 15:0.045765 16:0.33501
5 1:0.038348 2:0.028805 3:0.089109 4:0.16637 5:0.060622 6:0.13093 7:0.0506 8:0.3671 9:0.030459 10:0.59021 11:0.53846 12:0.47914 13:0.020747 14:0.24199 15:0.050546 16:0.28011
4.8861 1:0.042984 2:0.018057 3:0.081813 4:0.2469 5:0.047443 6:0.19427 7:0.038602 8:0.52614 9:0.020592 10:0.75911 11:0.57692 12:0.49486 13:0.019364 14:0.1973 15:0.040301 16:0.2172
5 1:0.053519 2:0.028805 3:0.046899 4:0.26217 5:0.021613 6:0.12507 7:0.013041 8:0.33925 9:0.030888 10:0.55709 11:0.61538 12:0.50716 13:0.019364 14:0.28285 15:0.062842 16:0.32503
5 1:0.044669 2:0.032244 3:0.09432 4:0.19767 5:0.064839 6:0.096431 7:0.055295 8:0.39566 9:0.03432 10:0.58582 11:0.61538 12:0.51941 13:0.024205 14:0.23591 15:0.015027 16:0.77065
5 1:0.046355 2:0.031384 3:0.049505 4:0.23511 5:0.02583 6:0.14175 7:0.017214 8:0.3448 9:0.032175 10:0.76341 11:0.65385 12:0.53965 13:0.024896 14:0.28781 15:0.016393 16:0.81529
5 1:0.05099 2:0.030954 3:0.053674 4:0.24587 5:0.02583 6:0.10364 7:0.033385 8:0.22807 9:0.032604 10:0.66321 11:0.61538 12:0.46566 13:0.027663 14:0.22548 15:0.049863 16:0.28316
5 1:0.042562 2:0.023646 3:0.041688 4:0.29376 5:0.019504 6:0.12936 7:0.028169 8:0.20077 9:0.027027 10:0.67057 11:0.61538 12:0.50693 13:0.017981 14:0.40185 15:0.043033 16:0.37714
5 1:0.050569 2:0.024506 3:0.090151 4:0.21077 5:0.055351 6:0.11589 7:0.049035 8:0.77314 9:0.027027 10:0.56443 11:0.61538 12:0.49904 13:0.026279 14:0.20925 15:0.065574 16:0.29384
5 1:0.053519 2:0.032674 3:0.089109 4:0.18783 5:0.065366 6:0.098986 7:0.058946 8:0.73467 9:0.035178 10:0.55323 11:0.53846 12:0.4791 13:0.021438 14:0.27173 15:0.054645 16:0.23655
5 1:0.052255 2:0.031814 3:0.092757 4:0.21261 5:0.064312 6:0.15814 7:0.054773 8:0.45432 9:0.033891 10:0.51622 11:0.61538 12:0.49688 13:0.024896 14:0.25599 15:0.04235 16:0.30475
5 1:0.050569 2:0.030954 3:0.05211 4:0.27751 5:0.02952 6:0.15923 7:0.037559 8:0.23288 9:0.033462 10:0.42695 11:0.61538 12:0.55819 13:0.017981 14:0.30636 15:0.010929 16:0.82512
5 1:0.041719 2:0.021926 3:0.077645 4:0.11322 5:0.052188 6:0.10827 7:0.042775 8:0.42821 9:0.024024 10:0.60115 11:0.53846 12:0.53679 13:0.020747 14:0.22816 15:0.011612 16:0.73637
5 1:0.045933 2:0.022356 3:0.083898 4:0.14076 5:0.052715 6:0.046484 7:0.043818 8:0.45802 9:0.024882 10:0.52089 11:0.53846 12:0.48905 13:0.020055 14:0.29207 15:0.061475 16:0.22536
5 1:0.05099 2:0.029665 3:0.094841 4:0.19755 5:0.061676 6:0.10412 7:0.052165 8:0.36377 9:0.031746 10:0.58648 11:0.61538 12:0.5187 13:0.02213 14:0.2347 15:0.034836 16:0.31444
5 1:0.042984 2:0.028805 3:0.042209 4:0.28946 5:0.023195 6:0.15279 7:0.014606 8:0.35301 9:0.030888 10:0.59579 11:0.61538 12:0.51887 13:0.02213 14:0.31236 15:0.04918 16:0.35059
0.68761 1:0.051833 2:0.027945 3:0.053674 4:0.26787 5:0.027939 6:0.12704 7:0.034429 8:0.23766 9:0.028743 10:0.29339 11:0.57692 12:0.52318 13:0.020055 14:0.24876 15:0.012295 16:0.75907
0.35404 1:0.054362 2:0.033534 3:0.073476 4:0.31098 5:0.066421 6:0.19442 7:0.056338 8:0.42778 9:0.035178 10:0.6927 11:0.61538 12:0.49381 13:0.026279 14:0.2007 15:0.056011 16:0.26685
5 1:0.053519 2:0.036543 3:0.091714 4:0.25895 5:0.069056 6:0.18671 7:0.060511 8:0.35921 9:0.03861 10:0.62244 11:0.61538 12:0.50331 13:0.026971 14:0.19186 15:0.038934 16:0.31064
5 1:0.042562 2:0.021066 3:0.043252 4:0.26151 5:0.016342 6:0.11058 7:0.013563 8:0.28908 9:0.024453 10:0.50416 11:0.5 12:0.45421 13:0.018672 14:0.2402 15:0.036885 16:0.31619
5 1:0.041298 2:0.019347 3:0.076081 4:0.17453 5:0.049025 6:0.14766 7:0.039645 8:0.45509 9:0.02145 10:0.69739 11:0.65385 12:0.51653 13:0.016598 14:0.24522 15:0.048497 16:0.22179
5 1:0.037927 2:0.039553 3:0.10787 4:0.23155 5:0.073801 6:0.14759 7:0.064163 8:0.46672 9:0.041613 10:0.54274 11:0.65385 12:0.52391 13:0.023513 14:0.23928 15:0.01571 16:0.7599
5 1:0.050569 2:0.027085 3:0.057322 4:0.25333 5:0.027412 6:0.10408 7:0.033385 8:0.23115 9:0.029601 10:0.65446 11:0.69231 12:0.51869 13:0.026971 14:0.25231 15:0.048497 16:0.30885
4.9094 1:0.052255 2:0.028375 3:0.057843 4:0.28693 5:0.025303 6:0.13677 7:0.023996 8:0.20175 9:0.031746 10:0.32375 11:0.65385 12:0.49079 13:0.024896 14:0.27788 15:0.043716 16:0.38775
5 1:0.045933 2:0.024076 3:0.046378 4:0.27719 5:0.01845 6:0.12021 7:0.037559 8:0.19523 9:0.026598 10:0.77687 11:0.61538 12:0.54161 13:0.019364 14:0.31055 15:0.010929 16:0.85649
5 1:0.049726 2:0.030525 3:0.052632 4:0.28319 5:0.023722 6:0.13096 7:0.017736 8:0.34504 9:0.033033 10:0.58741 11:0.65385 12:0.50942 13:0.026971 14:0.23623 15:0.054645 16:0.37484
5 1:0.041719 2:0.018487 3:0.076081 4:0.20139 5:0.04797 6:0.18155 7:0.038602 8:0.47633 9:0.020592 10:0.69763 11:0.69231 12:0.54734 13:0.014523 14:0.2101 15:0.081967 16:0.38567
5 1:0.048462 2:0.038693 3:0.055237 4:0.23997 5:0.035319 6:0.14034 7:0.051122 8:0.2058 9:0.041184 10:0.60216 11:0.57692 12:0.48363 13:0.024896 14:0.27179 15:0.062842 16:0.32542
5 1:0.053519 2:0.035254 3:0.05211 4:0.24247 5:0.028466 6:0.12178 7:0.043818 8:0.21732 9:0.037752 10:0.59424 11:0.57692 12:0.46951 13:0.024896 14:0.24672 15:0.050546 16:0.30815
5 1:0.047198 2:0.036113 3:0.058364 4:0.21424 5:0.027412 6:0.10892 7:0.040689 8:0.15132 9:0.03861 10:0.52045 11:0.65385 12:0.51119 13:0.022822 14:0.28173 15:0.043716 16:0.29963
5 1:0.046776 2:0.021926 3:0.082856 4:0.17521 5:0.052188 6:0.11166 7:0.043297 8:0.47558 9:0.024453 10:0.55213 11:0.57692 12:0.50669 13:0.021438 14:0.22599 15:0.036885 16:0.28103
5 1:0.043826 2:0.018487 3:0.072434 4:0.17122 5:0.04797 6:0.078971 7:0.039124 8:0.43873 9:0.021021 10:0.67214 11:0.61538 12:0.54595 13:0.015906 14:0.24655 15:0.037568 16:0.16337
5 1:0.048462 2:0.024506 3:0.040646 4:0.29333 5:0.018977 6:0.13908 7:0.010955 8:0.35006 9:0.026169 10:0.72389 11:0.69231 12:0.4933 13:0.024205 14:0.2444 15:0.062158 16:0.34692
5 1:0.048462 2:0.027085 3:0.093278 4:0.20019 5:0.058513 6:0.13915 7:0.049035 8:0.39137 9:0.029172 10:0.71527 11:0.76923 12:0.53804 13:0.024205 14:0.2158 15:0.051913 16:0.22496
5 1:0.055204 2:0.029235 3:0.056279 4:0.26334 5:0.021613 6:0.15137 7:0.028169 8:0.23229 9:0.03003 10:0.68871 11:0.80769 12:0.51222 13:0.020055 14:0.23679 15:0.034836 16:0.3679
5 1:0.040877 2:0.025365 3:0.046378 4:0.2901 5:0.022667 6:0.131 7:0.022953 8:0.26063 9:0.027885 10:0.61601 11:0.76923 12:0.52699 13:0.02213 14:0.24084 15:0.062842 16:0.34023
5 1:0.055204 2:0.038693 3:0.06149 4:0.26111 5:0.032156 6:0.13914 7:0.023996 8:0.34307 9:0.039897 10:0.62558 11:0.65385 12:0.52683 13:0.025588 14:0.25296 15:0.04918 16:0.3248
5 1:0.048462 2:0.026225 3:0.065659 4:0.28998 5:0.057459 6:0.20449 7:0.04747 8:0.4374 9:0.027885 10:0.66694 11:0.65385 12:0.47421 13:0.023513 14:0.20652 15:0.032104 16:0.38363
5 1:0.052255 2:0.028805 3:0.086503 4:0.22958 5:0.060622 6:0.19297 7:0.05373 8:0.78556 9:0.031317 10:0.60111 11:0.57692 12:0.48685 13:0.024896 14:0.24171 15:0.050546 16:0.26834
5 1:0.050569 2:0.034394 3:0.093799 4:0.19032 5:0.067475 6:0.10514 7:0.055816 8:0.27001 9:0.034749 10:0.46201 11:0.53846 12:0.46216 13:0.024205 14:0.26858 15:0.01571 16:0.80431
5 1:0.044248 2:0.037833 3:0.055237 4:0.25923 5:0.028993 6:0.12896 7:0.021388 8:0.3566 9:0.039468 10:0.54433 11:0.61538 12:0.53096 13:0.021438 14:0.25307 15:0.047814 16:0.34532
5 1:0.04804 2:0.030095 3:0.052632 4:0.28327 5:0.024776 6:0.15556 7:0.015649 8:0.3844 9:0.031746 10:0.606 11:0.65385 12:0.48344 13:0.023513 14:0.2145 15:0.038934 16:0.40377
5 1:0.051412 2:0.033104 3:0.047942 4:0.26116 5:0.031102 6:0.13087 7:0.042254 8:0.20887 9:0.035607 10:0.45143 11:0.57692 12:0.47485 13:0.027663 14:0.24415 15:0.047814 16:0.30384
5 1:0.051833 2:0.035684 3:0.05211 4:0.28778 5:0.033737 6:0.16193 7:0.050078 8:0.20165 9:0.037752 10:0.49795 11:0.65385 12:0.50831 13:0.026971 14:0.23166 15:0.061475 16:0.36386
5 1:0.042984 2:0.027085 3:0.089109 4:0.18708 5:0.058513 6:0.18037 7:0.049035 8:0.44752 9:0.029172 10:0.54303 11:0.69231 12:0.53923 13:0.02213 14:0.26272 15:0.037568 16:0.29031
5 1:0.045933 2:0.024506 3:0.048463 4:0.25318 5:0.020032 6:0.13429 7:0.031299 8:0.17172 9:0.024882 10:0.39296 11:0.53846 12:0.51174 13:0.017981 14:0.27241 15:0.0095628 16:0.7982
5 1:0.041719 2:0.018057 3:0.038562 4:0.2949 5:0.012124 6:0.14804 7:0.0031299 8:0.37521 9:0.019734 10:0.77161 11:0.57692 12:0.45679 13:0.018672 14:0.2425 15:0.059426 16:0.34904
5 1:0.16603 2:0.018487 3:0.038562 4:0.28759 5:0.013706 6:0.14109 7:0.0057381 8:0.34085 9:0.019734 10:0.50725 11:0.61538 12:0.53761 13:0.018672 14:0.24489 15:0.010246 16:0.75092
5 1:0.052676 2:0.025795 3:0.089109 4:0.25703 5:0.056932 6:0.22106 7:0.046948 8:0.45324 9:0.027456 10:0.89537 11:0.57692 12:0.48795 13:0.015214 14:0.11194 15:0.0075137 16:0.59694
5 1:0.039612 2:0.030095 3:0.054716 4:0.26775 5:0.026357 6:0.16125 7:0.040167 8:0.22875 9:0.032604 10:0.64733 11:0.73077 12:0.52435 13:0.021438 14:0.25499 15:0.041667 16:0.32339
5 1:0.042562 2:0.024936 3:0.042209 4:0.26581 5:0.020559 6:0.12594 7:0.011476 8:0.36232 9:0.027027 10:0.70663 11:0.65385 12:0.52195 13:0.023513 14:0.20063 15:0.035519 16:0.32091
2.9337 1:0.045933 2:0.025795 3:0.0026055 4:0.62232 5:0.0047443 6:0.13369 7:0.013041 8:0.32324 9:0.028314 10:0.58321 11:0.61538 12:0.51436 13:0.023513 14:0.25755 15:0.068306 16:0.38833
5 1:0.044248 2:0.025795 3:0.042731 4:0.24918 5:0.021086 6:0.14443 7:0.035472 8:0.18541 9:0.026169 10:0.55531 11:0.5 12:0.50588 13:0.020055 14:0.1969 15:0.011612 16:0.71428
5 1:0.043405 2:0.036543 3:0.10266 4:0.17995 5:0.070111 6:0.14638 7:0.059468 8:0.35393 9:0.037752 10:0.56451 11:0.69231 12:0.51655 13:0.024896 14:0.25035 15:0.057377 16:0.31066
5 1:0.044248 2:0.033964 3:0.096404 4:0.16425 5:0.066948 6:0.15332 7:0.05686 8:0.3885 9:0.035607 10:0.61747 11:0.69231 12:0.53451 13:0.023513 14:0.23447 15:0.046448 16:0.3331
4.7679 1:0.045091 2:0.034394 3:0.099531 4:0.21638 5:0.067475 6:0.18122 7:0.061033 8:0.82984 9:0.037323 10:0.63096 11:0.53846 12:0.51644 13:0.023513 14:0.26168 15:0.043716 16:0.23733
5 1:0.05099 2:0.029235 3:0.056279 4:0.25385 5:0.028993 6:0.10744 7:0.041732 8:0.21059 9:0.029601 10:0.44698 11:0.57692 12:0.46799 13:0.024896 14:0.2381 15:0.064891 16:0.32935
5 1:0.050147 2:0.032674 3:0.050547 4:0.27609 5:0.027939 6:0.14655 7:0.04121 8:0.21717 9:0.03432 10:0.616 11:0.65385 12:0.49505 13:0.024205 14:0.26164 15:0.05806 16:0.33295
5 1:0.038348 2:0.026655 3:0.047942 4:0.27542 5:0.02214 6:0.13657 7:0.022431 8:0.24856 9:0.028743 10:0.64305 11:0.53846 12:0.4762 13:0.020747 14:0.25052 15:0.038934 16:0.34052
5 1:0.038348 2:0.029665 3:0.063054 4:0.27463 5:0.027939 6:0.13863 7:0.03495 8:0.21234 9:0.031746 10:0.78326 11:0.57692 12:0.53396 13:0.024205 14:0.21324 15:0.015027 16:0.73996
5 1:0.044248 2:0.036973 3:0.054716 4:0.2778 5:0.033737 6:0.15357 7:0.04747 8:0.19271 9:0.039897 10:0.4133 11:0.65385 12:0.5067 13:0.026971 14:0.24775 15:0.041667 16:0.36195
5 1:0.043826 2:0.022786 3:0.040125 4:0.28043 5:0.01845 6:0.11689 7:0.032864 8:0.15507 9:0.025311 10:0.56433 11:0.5 12:0.50447 13:0.017289 14:0.26368 15:0.0088798 16:0.80931
5 1:0.03582 2:0.028805 3:0.031266 4:0.2873 5:0.021086 6:0.13653 7:0.031299 8:0.19713 9:0.030888 10:0.21955 11:0.65385 12:0.53974 13:0.015214 14:0.2845 15:0.0095628 16:0.8276
5 1:0.043405 2:0.034394 3:0.075039 4:0.31161 5:0.067475 6:0.14191 7:0.058425 8:0.49066 9:0.036894 10:0.538 11:0.57692 12:0.48997 13:0.025588 14:0.24973 15:0.054645 16:0.31129
5 1:0.048462 2:0.024506 3:0.041167 4:0.27256 5:0.01476 6:0.15999 7:0.033907 8:0.18145 9:0.027027 10:0.69694 11:0.46154 12:0.49296 13:0.015906 14:0.26216 15:0.0068306 16:0.78428
5 1:0.048462 2:0.029665 3:0.041688 4:0.29716 5:0.024776 6:0.14446 7:0.016171 8:0.36813 9:0.031317 10:0.62028 11:0.61538 12:0.49468 13:0.024205 14:0.24609 15:0.04918 16:0.2965
5 1:0.041298 2:0.030954 3:0.094841 4:0.19304 5:0.063258 6:0.18068 7:0.051643 8:0.28013 9:0.031317 10:0.60591 11:0.61538 12:0.50761 13:0.024205 14:0.23332 15:0.01571 16:0.74879
5 1:0.054783 2:0.033534 3:0.059406 4:0.26012 5:0.027412 6:0.13343 7:0.041732 8:0.21279 9:0.035607 10:0.49893 11:0.69231 12:0.51125 13:0.026971 14:0.2503 15:0.043033 16:0.28986
5 1:0.049305 2:0.025365 3:0.046899 4:0.24502 5:0.021613 6:0.21037 7:0.030777 8:0.32411 9:0.028314 10:0.6276 11:0.57692 12:0.52761 13:0.019364 14:0.22068 15:0.010246 16:0.75421
5 1:0.045512 2:0.024506 3:0.040646 4:0.27325 5:0.021613 6:0.11027 7:0.032864 8:0.22156 9:0.02574 10:0.51586 11:0.53846 12:0.48367 13:0.020055 14:0.21969 15:0.039617 16:0.33219
4.8203 1:0.049305 2:0.032244 3:0.072434 4:0.32796 5:0.064839 6:0.19312 7:0.055295 8:0.48791 9:0.03432 10:0.51704 11:0.5 12:0.47898 13:0.016598 14:0.31284 15:0.05123 16:0.37085
5 1:0.042984 2:0.026655 3:0.091714 4:0.23632 5:0.057986 6:0.18281 7:0.046427 8:0.33191 9:0.027027 10:0.54306 11:0.57692 12:0.48282 13:0.020747 14:0.21065 15:0.02459 16:0.34395
5 1:0.045933 2:0.027515 3:0.042209 4:0.26346 5:0.023195 6:0.11343 7:0.014606 8:0.34275 9:0.029172 10:0.4538 11:0.61538 12:0.51025 13:0.02213 14:0.23952 15:0.041667 16:0.34137
5 1:0.04804 2:0.025795 3:0.050547 4:0.28076 5:0.021613 6:0.15946 7:0.013041 8:0.37711 9:0.028314 10:0.49286 11:0.61538 12:0.47476 13:0.024205 14:0.26414 15:0.060792 16:0.32424
5 1:0.049726 2:0.029235 3:0.048463 4:0.2617 5:0.024249 6:0.12216 7:0.039124 8:0.18731 9:0.031317 10:0.45881 11:0.61538 12:0.50665 13:0.023513 14:0.27093 15:0.053962 16:0.31794
5 1:0.050147 2:0.028805 3:0.05211 4:0.27515 5:0.023722 6:0.1531 7:0.039645 8:0.23595 9:0.030459 10:0.6851 11:0.61538 12:0.52805 13:0.018672 14:0.20086 15:0.010929 16:0.70177
5 1:0.042562 2:0.022786 3:0.048984 4:0.25366 5:0.019504 6:0.10627 7:0.030777 8:0.16994 9:0.02574 10:0.28579 11:0.61538 12:0.53403 13:0.02213 14:0.27977 15:0.013661 16:0.81199
5 1:0.052676 2:0.037403 3:0.095883 4:0.16929 5:0.071165 6:0.11857 7:0.058946 8:0.25378 9:0.037323 10:0.44686 11:0.65385 12:0.54262 13:0.023513 14:0.2798 15:0.015027 16:0.80519
5 1:0.046355 2:0.033534 3:0.097447 4:0.2094 5:0.066421 6:0.14492 7:0.055295 8:0.31445 9:0.03432 10:0.60178 11:0.65385 12:0.52379 13:0.02213 14:0.23052 15:0.045082 16:0.32551
5 1:0.053519 2:0.032674 3:0.058364 4:0.22784 5:0.027939 6:0.12563 7:0.019301 8:0.34556 9:0.033462 10:0.50184 11:0.61538 12:0.53272 13:0.023513 14:0.26425 15:0.014344 16:0.80425
5 1:0.049305 2:0.030525 3:0.051589 4:0.28516 5:0.028466 6:0.12917 7:0.023474 8:0.3084 9:0.032175 10:0.67131 11:0.53846 12:0.47256 13:0.021438 14:0.26711 15:0.053962 16:0.31727
5 1:0.043826 2:0.027945 3:0.058364 4:0.2381 5:0.02583 6:0.12078 7:0.033385 8:0.18513 9:0.03003 10:0.56135 11:0.65385 12:0.50901 13:0.025588 14:0.22329 15:0.032104 16:0.32437
5 1:0.053519 2:0.027515 3:0.058364 4:0.22214 5:0.028993 6:0.083112 7:0.041732 8:0.21537 9:0.030459 10:0.55986 11:0.69231 12:0.52181 13:0.026279 14:0.25688 15:0.062842 16:0.28843
5 1:0.048883 2:0.034394 3:0.10162 4:0.22164 5:0.067475 6:0.1394 7:0.057903 8:0.44747 9:0.036465 10:0.56242 11:0.53846 12:0.48471 13:0.021438 14:0.19736 15:0.012978 16:0.71519
5 1:0.047198 2:0.030954 3:0.054716 4:0.22789 5:0.026885 6:0.12121 7:0.018258 8:0.34657 9:0.033033 10:0.54549 11:0.53846 12:0.51864 13:0.019364 14:0.2387 15:0.010929 16:0.76699
5 1:0.05099 2:0.025795 3:0.086503 4:0.23406 5:0.056932 6:0.22883 7:0.050078 8:0.80585 9:0.028314 10:0.68684 11:0.61538 12:0.49266 13:0.02213 14:0.23658 15:0.053279 16:0.18958
1.7795 1:0.047619 2:0.029235 3:0.092236 4:0.21386 5:0.061149 6:0.1506 7:0.0506 8:0.35256 9:0.030459 10:0.59223 11:0.65385 12:0.51539 13:0.024896 14:0.19842 15:0.040984 16:0.26972
5 1:0.050569 2:0.028805 3:0.050026 4:0.24499 5:0.021086 6:0.12653 7:0.01252 8:0.35702 9:0.03003 10:0.63723 11:0.57692 12:0.48234 13:0.024205 14:0.23533 15:0.064891 16:0.28623
5 1:0.044248 2:0.026655 3:0.042731 4:0.2573 5:0.02214 6:0.11078 7:0.013563 8:0.32985 9:0.029172 10:0.58596 11:0.53846 12:0.45299 13:0.021438 14:0.24885 15:0.045765 16:0.25404
5 1:0.04804 2:0.028375 3:0.055237 4:0.23433 5:0.020559 6:0.12324 7:0.028691 8:0.19207 9:0.029601 10:0.5008 11:0.57692 12:0.47801 13:0.02213 14:0.26671 15:0.034836 16:0.29867
5 1:0.04804 2:0.027945 3:0.048984 4:0.26233 5:0.023722 6:0.086068 7:0.039645 8:0.15649 9:0.030459 10:0.54138 11:0.57692 12:0.50414 13:0.022822 14:0.29211 15:0.038251 16:0.3799
5 1:0.049726 2:0.027945 3:0.066701 4:0.2913 5:0.059568 6:0.14861 7:0.050078 8:0.4172 9:0.03003 10:0.42709 11:0.57692 12:0.44546 13:0.024205 14:0.24941 15:0.040984 16:0.41937
5 1:0.036662 2:0.018057 3:0.042731 4:0.28641 5:0.012124 6:0.18055 7:0.022953 8:0.17716 9:0.020163 10:0.4424 11:0.65385 12:0.48231 13:0.020055 14:0.25793 15:0.036202 16:0.33064
5 1:0.034134 2:0.026225 3:0.054195 4:0.24192 5:0.024249 6:0.10895 7:0.030777 8:0.23041 9:0.028314 10:0.7629 11:0.65385 12:0.51944 13:0.023513 14:0.20179 15:0.015027 16:0.72034
5 1:0.048883 2:0.027085 3:0.051068 4:0.23964 5:0.023722 6:0.11903 7:0.035994 8:0.22791 9:0.029601 10:0.60124 11:0.57692 12:0.48454 13:0.023513 14:0.24889 15:0.047131 16:0.31507
5 1:0.049305 2:0.034824 3:0.047421 4:0.24649 5:0.030575 6:0.16711 7:0.022431 8:0.37019 9:0.037323 10:0.55549 11:0.61538 12:0.49213 13:0.023513 14:0.26073 15:0.043033 16:0.2915
5 1:0.042562 2:0.019776 3:0.083898 4:0.19122 5:0.049552 6:0.11841 7:0.040167 8:0.37251 9:0.021879 10:0.5756 11:0.53846 12:0.46675 13:0.022822 14:0.22283 15:0.046448 16:0.32585
5 1:0.038348 2:0.028805 3:0.056279 4:0.26577 5:0.024249 6:0.10519 7:0.016171 8:0.32528 9:0.029601 10:0.65229 11:0.65385 12:0.50834 13:0.022822 14:0.1921 15:0.037568 16:0.34215
5 1:0.048462 2:0.025365 3:0.083377 4:0.2111 5:0.056405 6:0.10803 7:0.046427 8:0.34522 9:0.027027 10:0.69151 11:0.57692 12:0.5271 13:0.020055 14:0.2667 15:0.063525 16:0.32627
5 1:0.042562 2:0.028375 3:0.093799 4:0.15591 5:0.060095 6:0.12072 7:0.051122 8:0.51169 9:0.030888 10:0.64322 11:0.57692 12:0.52192 13:0.015906 14:0.31077 15:0.0075137 16:0.83948
5 1:0.044669 2:0.023646 3:0.085982 4:0.19165 5:0.054296 6:0.098938 7:0.048513 8:0.79829 9:0.026169 10:0.62803 11:0.53846 12:0.50769 13:0.020055 14:0.27779 15:0.030738 16:0.28997
5 1:0.049305 2:0.030525 3:0.060969 4:0.24325 5:0.030047 6:0.12176 7:0.040167 8:0.19028 9:0.033033 10:0.56374 11:0.57692 12:0.47789 13:0.023513 14:0.23766 15:0.039617 16:0.29468
5 1:0.051412 2:0.028805 3:0.044815 4:0.30975 5:0.020559 6:0.1881 7:0.039645 8:0.14561 9:0.030888 10:0.50521 11:0.57692 12:0.46007 13:0.02213 14:0.25041 15:0.040984 16:0.35711
5 1:0.050147 2:0.024076 3:0.079729 4:0.11277 5:0.054823 6:0.05163 7:0.045905 8:0.41862 9:0.026598 10:0.56964 11:0.53846 12:0.5199 13:0.020055 14:0.29998 15:0.054645 16:0.23102
5 1:0.05689 2:0.032674 3:0.047942 4:0.29488 5:0.031102 6:0.15761 7:0.04121 8:0.17446 9:0.031746 10:0.23661 11:0.65385 12:0.4699 13:0.024896 14:0.20846 15:0.017077 16:0.72791
5 1:0.040455 2:0.021066 3:0.048463 4:0.26672 5:0.015287 6:0.12401 7:0.026082 8:0.12341 9:0.023595 10:0.51854 11:0.61538 12:0.51078 13:0.019364 14:0.28682 15:0.037568 16:0.35269
5 1:0.055626 2:0.037833 3:0.10057 4:0.21428 5:0.071692 6:0.16405 7:0.061555 8:0.39876 9:0.039468 10:0.50928 11:0.57692 12:0.4667 13:0.026279 14:0.25815 15:0.060792 16:0.31707
5 1:0.045091 2:0.028375 3:0.083898 4:0.23238 5:0.060095 6:0.12174 7:0.049557 8:0.32489 9:0.029601 10:0.73529 11:0.69231 12:0.50894 13:0.019364 14:0.28617 15:0.045765 16:0.29478
0.67969 1:0.048883 2:0.032244 3:0.050026 4:0.26317 5:0.027412 6:0.11844 7:0.04434 8:0.19587 9:0.033891 10:0.61793 11:0.57692 12:0.49679 13:0.023513 14:0.23995 15:0.045082 16:0.31817
5 1:0.042984 2:0.033534 3:0.054195 4:0.23336 5:0.027412 6:0.12565 7:0.035994 8:0.21624 9:0.034749 10:0.48488 11:0.61538 12:0.48384 13:0.023513 14:0.2716 15:0.045765 16:0.30253
2.2593 1:0.050569 2:0.032244 3:0.091714 4:0.18622 5:0.064839 6:0.1082 7:0.05373 8:0.27127 9:0.033033 10:0.52331 11:0.5 12:0.51746 13:0.011757 14:0.21183 15:0.0061475 16:0.7412
5 1:0.040034 2:0.033104 3:0.10005 4:0.21585 5:0.065894 6:0.17016 7:0.058425 8:0.76185 9:0.035607 10:0.54235 11:0.57692 12:0.47837 13:0.022822 14:0.24663 15:0.047814 16:0.29905
0.296 1:0.045933 2:0.022356 3:0.082856 4:0.23326 5:0.052715 6:0.13445 7:0.043818 8:0.481 9:0.024882 10:0.50543 11:0.53846 12:0.45914 13:0.020747 14:0.23717 15:0.044399 16:0.24871
5 1:0.05394 2:0.037833 3:0.055758 4:0.27996 5:0.031629 6:0.15093 7:0.031821 8:0.30377 9:0.039897 10:0.54224 11:0.53846 12:0.45157 13:0.025588 14:0.27076 15:0.060792 16:0.3874
5 1:0.044248 2:0.026655 3:0.0568 4:0.25564 5:0.021086 6:0.1179 7:0.033907 8:0.18236 9:0.029172 10:0.46946 11:0.61538 12:0.47711 13:0.024205 14:0.26002 15:0.050546 16:0.30009
5 1:0.046355 2:0.024076 3:0.051068 4:0.26005 5:0.01845 6:0.11808 7:0.0099113 8:0.33215 9:0.025311 10:0.56462 11:0.69231 12:0.54925 13:0.020747 14:0.22482 15:0.038934 16:0.35055
0.91697 1:0.052255 2:0.032244 3:0.097447 4:0.21724 5:0.064839 6:0.21825 7:0.057903 8:0.76367 9:0.035607 10:0.43753 11:0.65385 12:0.49413 13:0.022822 14:0.19803 15:0.014344 16:0.71572
5 1:0.042141 2:0.030095 3:0.039604 4:0.27191 5:0.01845 6:0.11652 7:0.015649 8:0.33449 9:0.032604 10:0.61089 11:0.61538 12:0.52589 13:0.023513 14:0.25548 15:0.046448 16:0.36362
5 1:0.050569 2:0.032244 3:0.0568 4:0.23826 5:0.026885 6:0.12598 7:0.018779 8:0.33424 9:0.03432 10:0.65784 11:0.69231 12:0.51492 13:0.022822 14:0.25099 15:0.014344 16:0.7764
5 1:0.045512 2:0.027945 3:0.041688 4:0.24099 5:0.025303 6:0.10682 7:0.038602 8:0.2099 9:0.027885 10:0.27551 11:0.57692 12:0.50388 13:0.021438 14:0.23976 15:0.012978 16:0.76773
5 1:0.050569 2:0.027085 3:0.042731 4:0.25922 5:0.023195 6:0.13465 7:0.032342 8:0.22959 9:0.029601 10:0.67852 11:0.57692 12:0.53966 13:0.017289 14:0.23554 15:0.0095628 16:0.76239
5 1:0.043826 2:0.032674 3:0.09432 4:0.20745 5:0.065366 6:0.16347 7:0.054773 8:0.37045 9:0.033891 10:0.58123 11:0.73077 12:0.53939 13:0.026279 14:0.2241 15:0.048497 16:0.30625
5 1:0.042984 2:0.024506 3:0.0568 4:0.29645 5:0.021613 6:0.14387 7:0.014606 8:0.3625 9:0.027885 10:0.57627 11:0.61538 12:0.5116 13:0.024205 14:0.26594 15:0.034836 16:0.34876
5 1:0.048883 2:0.034824 3:0.096404 4:0.20446 5:0.068002 6:0.14854 7:0.058425 8:0.42856 9:0.036894 10:0.53684 11:0.57692 12:0.48344 13:0.023513 14:0.24562 15:0.015027 16:0.77518
5 1:0.058576 2:0.033534 3:0.093278 4:0.18639 5:0.066421 6:0.14084 7:0.056338 8:0.37657 9:0.035178 10:0.53017 11:0.53846 12:0.50098 13:0.024205 14:0.23391 15:0.01571 16:0.76699
5 1:0.046776 2:0.030525 3:0.058364 4:0.23436 5:0.026885 6:0.11147 7:0.03808 8:0.16699 9:0.032175 10:0.49516 11:0.69231 12:0.51158 13:0.022822 14:0.21044 15:0.04235 16:0.29539
0.89006 1:0.042562 2:0.021926 3:0.048984 4:0.28592 5:0.01845 6:0.14314 7:0.027126 8:0.16434 9:0.024453 10:0.50965 11:0.57692 12:0.48483 13:0.021438 14:0.24697 15:0.043716 16:0.33914
5 1:0.049305 2:0.031384 3:0.092757 4:0.19901 5:0.063785 6:0.17976 7:0.054773 8:0.61449 9:0.033891 10:0.79564 11:0.80769 12:0.50123 13:0.026279 14:0.19569 15:0.052596 16:0.28854
5 1:0.054362 2:0.030095 3:0.054716 4:0.23485 5:0.023722 6:0.13004 7:0.029212 8:0.20475 9:0.032175 10:0.47752 11:0.57692 12:0.47022 13:0.02213 14:0.27133 15:0.040301 16:0.30911
5 1:0.046355 2:0.024506 3:0.040125 4:0.25951 5:0.020559 6:0.13118 7:0.033385 8:0.20732 9:0.027027 10:0.44449 11:0.57692 12:0.47933 13:0.019364 14:0.24895 15:0.026639 16:0.36095
5 1:0.036241 2:0.027085 3:0.042209 4:0.29234 5:0.021613 6:0.13094 7:0.013563 8:0.34378 9:0.028743 10:0.72038 11:0.73077 12:0.5394 13:0.023513 14:0.26356 15:0.039617 16:0.36893
5 1:0.046776 2:0.032244 3:0.09901 4:0.1976 5:0.064839 6:0.17279 7:0.054773 8:0.40711 9:0.033891 10:0.57937 11:0.57692 12:0.48013 13:0.023513 14:0.23197 15:0.053962 16:0.30266
5 1:0.051412 2:0.026225 3:0.047942 4:0.26892 5:0.021613 6:0.11704 7:0.032342 8:0.19054 9:0.026598 10:0.50192 11:0.61538 12:0.51426 13:0.020055 14:0.23484 15:0.043033 16:0.34742
5 1:0.044248 2:0.022356 3:0.051589 4:0.25051 5:0.01845 6:0.11737 7:0.0093897 8:0.35378 9:0.023595 10:0.58788 11:0.53846 12:0.51796 13:0.020747 14:0.22942 15:0.012295 16:0.74359
5 1:0.047198 2:0.029665 3:0.09432 4:0.22867 5:0.061676 6:0.15354 7:0.051643 8:0.38871 9:0.031317 10:0.56441 11:0.69231 12:0.55125 13:0.017981 14:0.25308 15:0.036885 16:0.32108
5 1:0.052676 2:0.034824 3:0.053153 4:0.22146 5:0.027939 6:0.11384 7:0.021909 8:0.32922 9:0.037323 10:0.73582 11:0.73077 12:0.5312 13:0.023513 14:0.2269 15:0.015027 16:0.75722
5 1:0.042141 2:0.024076 3:0.039604 4:0.32164 5:0.017396 6:0.15239 7:0.013041 8:0.25046 9:0.02574 10:0.43053 11:0.5 12:0.50373 13:0.014523 14:0.32843 15:0.0075137 16:0.78286
5 1:0.043826 2:0.028805 3:0.091714 4:0.15719 5:0.060622 6:0.10843 7:0.051122 8:0.43306 9:0.030888 10:0.7719 11:0.53846 12:0.46116 13:0.02213 14:0.23751 15:0.013661 16:0.75599
5 1:0.043826 2:0.021926 3:0.041167 4:0.26676 5:0.015287 6:0.12664 7:0.0073031 8:0.33897 9:0.024882 10:0.70215 11:0.57692 12:0.50896 13:0.020055 14:0.21885 15:0.010929 16:0.73607
5 1:0.046355 2:0.024936 3:0.035435 4:0.26323 5:0.018977 6:0.098822 7:0.032342 8:0.1656 9:0.027027 10:0.5856 11:0.57692 12:0.48643 13:0.020747 14:0.24232 15:0.034836 16:0.32977
5 1:0.044669 2:0.032244 3:0.089109 4:0.20993 5:0.064839 6:0.20504 7:0.055295 8:0.52103 9:0.03432 10:0.62685 11:0.61538 12:0.5173 13:0.024896 14:0.2318 15:0.070355 16:0.26096
1.6623 1:0.055626 2:0.032244 3:0.098489 4:0.21712 5:0.064839 6:0.13971 7:0.055816 8:0.50265 9:0.034749 10:0.39172 11:0.53846 12:0.47742 13:0.020747 14:0.27981 15:0.012295 16:0.81801
5 1:0.040877 2:0.032244 3:0.0568 4:0.2362 5:0.024776 6:0.12248 7:0.035472 8:0.17455 9:0.033033 10:0.54207 11:0.61538 12:0.4645 13:0.024896 14:0.2707 15:0.043716 16:0.32085
5 1:0.044669 2:0.035254 3:0.040646 4:0.29372 5:0.030575 6:0.14958 7:0.04747 8:0.18611 9:0.037323 10:0.5484 11:0.61538 12:0.51256 13:0.026971 14:0.2372 15:0.04235 16:0.31276
5 1:0.050147 2:0.036543 3:0.053153 4:0.2698 5:0.031102 6:0.12244 7:0.023474 8:0.34361 9:0.039039 10:0.5454 11:0.57692 12:0.48917 13:0.027663 14:0.19597 15:0.062158 16:0.33805
5 1:0.045091 2:0.028805 3:0.08494 4:0.13861 5:0.060622 6:0.17887 7:0.051643 8:0.5283 9:0.031317 10:0.84552 11:0.65385 12:0.55068 13:0.02213 14:0.1744 15:0.040984 16:0.30272
5 1:0.049305 2:0.030525 3:0.09432 4:0.19858 5:0.062731 6:0.14989 7:0.052165 8:0.3408 9:0.031746 10:0.58485 11:0.69231 12:0.51806 13:0.026279 14:0.24654 15:0.044399 16:0.29255
5 1:0.047619 2:0.029235 3:0.092757 4:0.24526 5:0.061149 6:0.19808 7:0.0506 8:0.38166 9:0.030459 10:0.66071 11:0.53846 12:0.49603 13:0.017981 14:0.21988 15:0.0095628 16:0.73143
5 1:0.055204 2:0.035254 3:0.098489 4:0.16717 5:0.068529 6:0.10408 7:0.057903 8:0.29087 9:0.036465 10:0.61869 11:0.61538 12:0.49555 13:0.02213 14:0.3078 15:0.013661 16:0.8329
5 1:0.051412 2:0.028805 3:0.044294 4:0.27267 5:0.024249 6:0.10598 7:0.015649 8:0.31921 9:0.031317 10:0.56686 11:0.61538 12:0.49048 13:0.022822 14:0.23026 15:0.052596 16:0.31237
5 1:0.058576 2:0.030954 3:0.057322 4:0.22298 5:0.030575 6:0.045846 7:0.021388 8:0.28555 9:0.032175 10:0.31801 11:0.53846 12:0.46726 13:0.020055 14:0.35793 15:0.012978 16:0.91821
5 1:0.047198 2:0.022356 3:0.048463 4:0.21095 5:0.014233 6:0.17171 7:0.011476 8:0.30308 9:0.024024 10:0.58375 11:0.65385 12:0.51442 13:0.018672 14:0.28355 15:0.03347 16:0.34945
5 1:0.058154 2:0.036543 3:0.062011 4:0.25298 5:0.02952 6:0.11545 7:0.021388 8:0.32577 9:0.037752 10:0.58346 11:0.69231 12:0.56624 13:0.023513 14:0.23168 15:0.014344 16:0.75207
5 1:0.050569 2:0.034394 3:0.10266 4:0.1825 5:0.067475 6:0.14939 7:0.05686 8:0.3625 9:0.035607 10:0.50095 11:0.65385 12:0.50213 13:0.024205 14:0.27971 15:0.04235 16:0.34458
5 1:0.056047 2:0.033104 3:0.097447 4:0.21842 5:0.065894 6:0.21748 7:0.054773 8:0.35177 9:0.033891 10:0.51735 11:0.5 12:0.47142 13:0.022822 14:0.24436 15:0.013661 16:0.78525
5 1:0.019806 2:0.058469 3:0.13132 4:0.322 5:0.096995 6:0.2574 7:0.087637 8:0.57525 9:0.060918 10:0.66205 11:0.5 12:0 13:0.026971 14:0.50907 15:0.057377 16:0.40108
5 1:0.037505 2:0.028375 3:0.093799 4:0.19901 5:0.060095 6:0.11269 7:0.049557 8:0.29941 9:0.029601 10:0.47644 11:0.57692 12:0.48871 13:0.021438 14:0.26143 15:0.040984 16:0.31055
5 1:0.040455 2:0.024076 3:0.041688 4:0.26565 5:0.01845 6:0.093806 7:0.028169 8:0.14891 9:0.026169 10:0.3343 11:0.46154 12:0.43837 13:0.015906 14:0.26883 15:0.0081967 16:0.788
5 1:0.045933 2:0.028805 3:0.057843 4:0.22522 5:0.023722 6:0.1147 7:0.028691 8:0.19343 9:0.029172 10:0.47034 11:0.57692 12:0.47445 13:0.022822 14:0.26017 15:0.038934 16:0.3229
5 1:0.050569 2:0.027085 3:0.046378 4:0.31376 5:0.019504 6:0.17185 7:0.011476 8:0.38437 9:0.03003 10:0.68318 11:0.53846 12:0.44594 13:0.024896 14:0.20767 15:0.03347 16:0.40347
5 1:0.045512 2:0.025795 3:0.053674 4:0.2869 5:0.021086 6:0.15779 7:0.029734 8:0.20833 9:0.026598 10:0.45158 11:0.65385 12:0.49457 13:0.021438 14:0.26689 15:0.034153 16:0.29629
0.17227 1:0.044669 2:0.025795 3:0.05211 4:0.28754 5:0.022667 6:0.15903 7:0.029734 8:0.21133 9:0.028314 10:0.58663 11:0.57692 12:0.47055 13:0.021438 14:0.25495 15:0.046448 16:0.30728
5 1:0.052676 2:0.031814 3:0.0568 4:0.24103 5:0.064312 6:0.13675 7:0.054773 8:0.39493 9:0.033891 10:0.48284 11:0.57692 12:0.46628 13:0.026279 14:0.23039 15:0.044399 16:0.30764
5 1:0.049305 2:0.026225 3:0.043773 4:0.26659 5:0.021086 6:0.13352 7:0.040167 8:0.21889 9:0.029172 10:0.76564 11:0.57692 12:0.50358 13:0.020055 14:0.18304 15:0.011612 16:0.69693
5 1:0.049305 2:0.025795 3:0.050026 4:0.34568 5:0.021086 6:0.19636 7:0.026604 8:0.26493 9:0.028314 10:0.79458 11:0.5 12:0.49576 13:0.018672 14:0.19934 15:0.010246 16:0.71636
5 1:0.043405 2:0.018917 3:0.051068 4:0.21745 5:0.016869 6:0.074247 7:0.028691 8:0.15463 9:0.021879 10:0.54187 11:0.53846 12:0.46684 13:0.017981 14:0.26972 15:0.054645 16:0.30216
5 1:0.047198 2:0.030095 3:0.057843 4:0.2555 5:0.02583 6:0.11049 7:0.017214 8:0.31965 9:0.032175 10:0.5085 11:0.65385 12:0.54955 13:0.025588 14:0.30406 15:0.045082 16:0.3127
5 1:0.045933 2:0.020206 3:0.076602 4:0.16847 5:0.050079 6:0.11994 7:0.040167 8:0.3566 9:0.021879 10:0.73982 11:0.73077 12:0.54177 13:0.015906 14:0.25749 15:0.057377 16:0.26868
5 1:0.042984 2:0.021066 3:0.077645 4:0.18568 5:0.051133 6:0.12206 7:0.041732 8:0.37999 9:0.023166 10:0.59542 11:0.57692 12:0.5012 13:0.019364 14:0.22637 15:0.053962 16:0.26909
5 1:0.046355 2:0.029665 3:0.055237 4:0.24297 5:0.025303 6:0.11946 7:0.016171 8:0.32767 9:0.031746 10:0.57059 11:0.61538 12:0.46874 13:0.023513 14:0.23377 15:0.037568 16:0.29156
5 1:0.045512 2:0.030954 3:0.053674 4:0.24384 5:0.025303 6:0.13865 7:0.042254 8:0.19877 9:0.032604 10:0.71658 11:0.61538 12:0.54962 13:0.021438 14:0.18621 15:0.012978 16:0.70001
5 1:0.052676 2:0.023646 3:0.051589 4:0.3132 5:0.01476 6:0.19345 7:0.026604 8:0.19781 9:0.02574 10:0.74825 11:0.61538 12:0.42832 13:0.023513 14:0.27548 15:0.043033 16:0.40167
5 1:0.051833 2:0.027085 3:0.059406 4:0.23262 5:0.02952 6:0.024785 7:0.036515 8:0.10374 9:0.029172 10:0.5763 11:0.76923 12:0.54539 13:0.023513 14:0.32799 15:0.015027 16:0.86257
5 1:0.050147 2:0.033104 3:0.05211 4:0.25101 5:0.028993 6:0.1101 7:0.021388 8:0.31415 9:0.036036 10:0.65377 11:0.57692 12:0.49156 13:0.024896 14:0.25207 15:0.043716 16:0.31692
3.9115 1:0.30552 2:0.027085 3:0.038562 4:0.30059 5:0.021613 6:0.10569 7:0.013563 8:0.33106 9:0.029601 10:0.60217 11:0.5 12:0.42205 13:0.021438 14:0.28596 15:0.012978 16:0.80883
5 1:0.044248 2:0.028375 3:0.048984 4:0.29732 5:0.023722 6:0.16192 7:0.015128 8:0.37296 9:0.029601 10:0.66331 11:0.69231 12:0.52373 13:0.023513 14:0.16923 15:0.015027 16:0.66064
5 1:0.053097 2:0.033964 3:0.051589 4:0.2304 5:0.033737 6:0.096122 7:0.034429 8:0.23342 9:0.034749 10:0.56337 11:0.65385 12:0.49687 13:0.027663 14:0.21371 15:0.059426 16:0.29126
5 1:0.044669 2:0.031814 3:0.058364 4:0.24801 5:0.02583 6:0.11463 7:0.017214 8:0.32955 9:0.032604 10:0.62224 11:0.53846 12:0.49984 13:0.024205 14:0.24605 15:0.047814 16:0.3224
5 1:0.052676 2:0.030095 3:0.092757 4:0.21009 5:0.062203 6:0.12697 7:0.052686 8:0.40237 9:0.032175 10:0.52651 11:0.57692 12:0.48741 13:0.023513 14:0.23324 15:0.05123 16:0.32703
2.0028 1:0.049305 2:0.032244 3:0.058885 4:0.24776 5:0.026885 6:0.13622 7:0.019301 8:0.31412 9:0.03432 10:0.29272 11:0.65385 12:0.53188 13:0.023513 14:0.23093 15:0.015027 16:0.76236
5 1:0.051412 2:0.034394 3:0.036998 4:0.30122 5:0.02952 6:0.13572 7:0.020344 8:0.36148 9:0.033462 10:0.27326 11:0.69231 12:0.50773 13:0.022822 14:0.2627 15:0.013661 16:0.80292
5 1:0.042562 2:0.025795 3:0.092236 4:0.22206 5:0.056932 6:0.17544 7:0.04747 8:0.4759 9:0.027885 10:0.76758 11:0.57692 12:0.48867 13:0.018672 14:0.14054 15:0.034836 16:0.26599
5 1:0.051412 2:0.025365 3:0.091193 4:0.22619 5:0.056405 6:0.14208 7:0.046948 8:0.41049 9:0.027456 10:0.63101 11:0.53846 12:0.48228 13:0.02213 14:0.21414 15:0.049863 16:0.29361
5 1:0.047198 2:0.027945 3:0.063054 4:0.26843 5:0.026885 6:0.11629 7:0.03495 8:0.19094 9:0.030459 10:0.60689 11:0.61538 12:0.50435 13:0.022822 14:0.30906 15:0.014344 16:0.84985
5 1:0.044669 2:0.030954 3:0.055237 4:0.28782 5:0.02583 6:0.1519 7:0.019301 8:0.34481 9:0.032604 10:0.85933 11:0.69231 12:0.50573 13:0.022822 14:0.18126 15:0.014344 16:0.69934
5 1:0.054783 2:0.026225 3:0.088588 4:0.24704 5:0.057459 6:0.25845 7:0.047992 8:0.51067 9:0.028314 10:0.66198 11:0.53846 12:0.46561 13:0.024896 14:0.2502 15:0.035519 16:0.30661
5 1:0.050569 2:0.034824 3:0.058885 4:0.25222 5:0.028993 6:0.11946 7:0.020866 8:0.32864 9:0.037323 10:0.57328 11:0.53846 12:0.4352 13:0.025588 14:0.2248 15:0.056011 16:0.32952
5 1:0.045091 2:0.026655 3:0.042731 4:0.24858 5:0.019504 6:0.08968 7:0.01252 8:0.32713 9:0.027885 10:0.80572 11:0.57692 12:0.54845 13:0.020747 14:0.19317 15:0.012295 16:0.69155
5 1:0.051412 2:0.036113 3:0.055237 4:0.25869 5:0.02952 6:0.12561 7:0.040167 8:0.19577 9:0.03861 10:0.45776 11:0.57692 12:0.45341 13:0.025588 14:0.24628 15:0.04918 16:0.33438
5 1:0.044248 2:0.028805 3:0.07087 4:0.26143 5:0.060622 6:0.12177 7:0.051643 8:0.49135 9:0.031317 10:0.65437 11:0.65385 12:0.56822 13:0.024205 14:0.29998 15:0.04918 16:0.25283
5 1:0.049305 2:0.024936 3:0.044294 4:0.27578 5:0.018977 6:0.1911 7:0.0099113 8:0.41799 9:0.027456 10:0.7865 11:0.61538 12:0.51177 13:0.020747 14:0.19196 15:0.011612 16:0.7075
5 1:0.055204 2:0.024936 3:0.088067 4:0.19914 5:0.055878 6:0.12476 7:0.045905 8:0.3612 9:0.026598 10:0.64397 11:0.73077 12:0.52416 13:0.022822 14:0.20557 15:0.062158 16:0.30353
5 1:0.045091 2:0.031814 3:0.059927 4:0.24681 5:0.027412 6:0.12696 7:0.037037 8:0.20836 9:0.033462 10:0.50577 11:0.46154 12:0.40512 13:0.023513 14:0.27026 15:0.040984 16:0.2831
5 1:0.045512 2:0.034824 3:0.10318 4:0.24652 5:0.068002 6:0.1685 7:0.057903 8:0.40301 9:0.036465 10:0.74025 11:0.65385 12:0.5127 13:0.024205 14:0.23136 15:0.040984 16:0.27947
5 1:0.044248 2:0.028805 3:0.048984 4:0.22761 5:0.024249 6:0.11397 7:0.016171 8:0.31633 9:0.030888 10:0.61593 11:0.73077 12:0.54837 13:0.023513 14:0.25082 15:0.045765 16:0.27514
5 1:0.043405 2:0.024076 3:0.090151 4:0.21045 5:0.054823 6:0.14823 7:0.045383 8:0.45641 9:0.026169 10:0.73558 11:0.53846 12:0.51125 13:0.018672 14:0.26925 15:0.010246 16:0.79971
5 1:0.050569 2:0.026655 3:0.041167 4:0.28145 5:0.027939 6:0.13149 7:0.036515 8:0.20826 9:0.028743 10:0.56886 11:0.65385 12:0.48977 13:0.028354 14:0.22892 15:0.045082 16:0.30477
5 1:0.050147 2:0.033964 3:0.056279 4:0.24744 5:0.030575 6:0.10149 7:0.021388 8:0.31677 9:0.034749 10:0.5092 11:0.76923 12:0.53251 13:0.026971 14:0.21235 15:0.04918 16:0.30564
5 1:0.047198 2:0.027945 3:0.047942 4:0.32573 5:0.024776 6:0.16576 7:0.032342 8:0.2089 9:0.030888 10:0.5554 11:0.57692 12:0.49192 13:0.025588 14:0.22288 15:0.034836 16:0.3641
5 1:0.041719 2:0.030095 3:0.091714 4:0.23419 5:0.062203 6:0.20984 7:0.053208 8:0.58664 9:0.032604 10:0.82889 11:0.76923 12:0.49488 13:0.023513 14:0.13005 15:0.066257 16:0.36911
5 1:0.043826 2:0.027515 3:0.052632 4:0.25761 5:0.02214 6:0.12574 7:0.014606 8:0.343 9:0.029601 10:0.62472 11:0.57692 12:0.50415 13:0.021438 14:0.27001 15:0.046448 16:0.29787
5 1:0.053519 2:0.033964 3:0.054716 4:0.25261 5:0.027939 6:0.11581 7:0.019301 8:0.33035 9:0.035607 10:0.40223 11:0.61538 12:0.47756 13:0.027663 14:0.26207 15:0.046448 16:0.3323
5 1:0.18078 2:0.033534 3:0.07556 4:0.29899 5:0.066421 6:0.15832 7:0.056338 8:0.39327 9:0.035178 10:0.75592 11:0.65385 12:0.50304 13:0.024896 14:0.23115 15:0.01571 16:0.74548
5 1:0.039191 2:0.030954 3:0.058364 4:0.23744 5:0.027412 6:0.13341 7:0.04121 8:0.1909 9:0.032175 10:0.70036 11:0.46154 12:0.51106 13:0.023513 14:0.29312 15:0.01571 16:0.8269
5 1:0.039191 2:0.029235 3:0.058885 4:0.24818 5:0.024249 6:0.12277 7:0.034429 8:0.1951 9:0.03003 10:0.47163 11:0.57692 12:0.49377 13:0.023513 14:0.23482 15:0.046448 16:0.35285
5 1:0.045512 2:0.036543 3:0.09901 4:0.1966 5:0.070111 6:0.15991 7:0.062598 8:0.70118 9:0.03861 10:0.52424 11:0.53846 12:0.48182 13:0.024896 14:0.20142 15:0.01571 16:0.71391
5 1:0.044248 2:0.026225 3:0.055758 4:0.26387 5:0.023195 6:0.11467 7:0.031299 8:0.19219 9:0.028314 10:0.44611 11:0.57692 12:0.49209 13:0.022822 14:0.26589 15:0.036885 16:0.34943
5 1:0.052255 2:0.034824 3:0.10214 4:0.22428 5:0.068002 6:0.15699 7:0.058425 8:0.42113 9:0.036894 10:0.52038 11:0.57692 12:0.48658 13:0.025588 14:0.23823 15:0.053279 16:0.33501
5 1:0.049726 2:0.030095 3:0.057843 4:0.27685 5:0.024776 6:0.13567 7:0.029212 8:0.20161 9:0.032604 10:0.69925 11:0.61538 12:0.45643 13:0.024896 14:0.23467 15:0.060109 16:0.36733
5 1:0.040455 2:0.018917 3:0.073476 4:0.17101 5:0.048498 6:0.11673 7:0.040167 8:0.45688 9:0.021879 10:0.6549 11:0.65385 12:0.56103 13:0.017981 14:0.23349 15:0.040984 16:0.24063
5 1:0.045933 2:0.025365 3:0.043252 4:0.27217 5:0.020032 6:0.076268 7:0.01252 8:0.30897 9:0.027456 10:0.76794 11:0.5 12:0.50326 13:0.017981 14:0.22895 15:0.0088798 16:0.76096
5 1:0.044669 2:0.024506 3:0.039604 4:0.31317 5:0.02214 6:0.15416 7:0.035994 8:0.20294 9:0.027027 10:0.62922 11:0.57692 12:0.52998 13:0.020747 14:0.24709 15:0.011612 16:0.77667
5 1:0.043405 2:0.034394 3:0.10266 4:0.24588 5:0.067475 6:0.23079 7:0.057381 8:0.46253 9:0.036036 10:0.62344 11:0.57692 12:0.48502 13:0.024896 14:0.25913 15:0.049863 16:0.30567
5 1:0.045512 2:0.022786 3:0.088588 4:0.26249 5:0.053242 6:0.16306 7:0.04434 8:0.46349 9:0.025311 10:0.65294 11:0.61538 12:0.49509 13:0.023513 14:0.18854 15:0.039617 16:0.27902
5 1:0.044669 2:0.034394 3:0.10162 4:0.2046 5:0.067475 6:0.13507 7:0.057903 8:0.43233 9:0.036465 10:0.45727 11:0.61538 12:0.47338 13:0.026971 14:0.24574 15:0.057377 16:0.31523
5 1:0.051412 2:0.027945 3:0.08963 4:0.19721 5:0.059568 6:0.14728 7:0.049557 8:0.38273 9:0.029601 10:0.66562 11:0.61538 12:0.512 13:0.02213 14:0.22415 15:0.056011 16:0.26671
5 1:0.047619 2:0.027945 3:0.054195 4:0.28669 5:0.024776 6:0.13999 7:0.015649 8:0.36924 9:0.030459 10:0.60579 11:0.5 12:0.43789 13:0.024205 14:0.21211 15:0.064208 16:0.35324
3.4544 1:0.044248 2:0.025795 3:0.085461 4:0.19425 5:0.056932 6:0.16918 7:0.04747 8:0.4704 9:0.027885 10:0.82495 11:0.53846 12:0.54291 13:0.015906 14:0.30723 15:0.034153 16:0.36482
5 1:0.054783 2:0.031384 3:0.071391 4:0.29723 5:0.063785 6:0.10905 7:0.054251 8:0.37401 9:0.033462 10:0.5907 11:0.61538 12:0.54381 13:0.02213 14:0.31955 15:0.03347 16:0.37033
5 1:0.048883 2:0.033104 3:0.096925 4:0.2146 5:0.065894 6:0.17346 7:0.055295 8:0.35194 9:0.03432 10:0.58588 11:0.61538 12:0.50228 13:0.024896 14:0.2449 15:0.039617 16:0.32769
5 1:0.045512 2:0.029665 3:0.055758 4:0.23408 5:0.02214 6:0.10883 7:0.031299 8:0.20716 9:0.032175 10:0.52428 11:0.57692 12:0.50028 13:0.020055 14:0.28037 15:0.040301 16:0.31274
5 1:0.040455 2:0.031814 3:0.055758 4:0.25371 5:0.026885 6:0.13726 7:0.018779 8:0.33444 9:0.034749 10:0.68376 11:0.61538 12:0.48978 13:0.022822 14:0.26296 15:0.053279 16:0.34648
5 1:0.057311 2:0.039553 3:0.042209 4:0.28874 5:0.037428 6:0.14216 7:0.050078 8:0.20068 9:0.041613 10:0.41475 11:0.53846 12:0.43157 13:0.024205 14:0.36594 15:0.05123 16:0.36878
5 1:0.045091 2:0.028375 3:0.055237 4:0.27965 5:0.024249 6:0.16252 7:0.030777 8:0.28864 9:0.03003 10:0.65416 11:0.73077 12:0.55099 13:0.020055 14:0.25388 15:0.011612 16:0.7607
5 1:0.046776 2:0.027945 3:0.044815 4:0.27109 5:0.022667 6:0.11835 7:0.021909 8:0.2682 9:0.030459 10:0.65321 11:0.53846 12:0.46377 13:0.021438 14:0.24892 15:0.037568 16:0.3022
5 1:0.17952 2:0.029665 3:0.05211 4:0.27151 5:0.024776 6:0.13704 7:0.025039 8:0.28599 9:0.031317 10:0.52865 11:0.57692 12:0.50069 13:0.020747 14:0.2682 15:0.012295 16:0.80327
5 1:0.051833 2:0.033534 3:0.095362 4:0.17617 5:0.066421 6:0.10289 7:0.061033 8:0.96048 9:0.036465 10:0.82571 11:0.61538 12:0.52865 13:0.024896 14:0.1543 15:0.044399 16:0.26426
5 1:0.044248 2:0.024936 3:0.050547 4:0.24062 5:0.022667 6:0.1373 7:0.030777 8:0.20615 9:0.026169 10:0.71391 11:0.57692 12:0.48477 13:0.02213 14:0.23658 15:0.012978 16:0.75114
5 1:0.04804 2:0.025795 3:0.087546 4:0.19331 5:0.056932 6:0.13359 7:0.047992 8:0.45877 9:0.028314 10:0.66995 11:0.53846 12:0.482 13:0.020747 14:0.23392 15:0.011612 16:0.75425
5 1:0.050147 2:0.025795 3:0.041688 4:0.24904 5:0.020559 6:0.11188 7:0.011476 8:0.34787 9:0.028743 10:0.64886 11:0.61538 12:0.51109 13:0.022822 14:0.20982 15:0.036885 16:0.30085
5 1:0.053519 2:0.036973 3:0.056279 4:0.23951 5:0.031629 6:0.14507 7:0.047992 8:0.19664 9:0.03861 10:0.57954 11:0.61538 12:0.48118 13:0.024896 14:0.22177 15:0.056011 16:0.31589
5 1:0.040034 2:0.018057 3:0.040125 4:0.31396 5:0.015814 6:0.20184 7:0.026082 8:0.26937 9:0.020592 10:0.72407 11:0.53846 12:0.54902 13:0.020055 14:0.20035 15:0.011612 16:0.72818
5 1:0.046776 2:0.024936 3:0.039083 4:0.29918 5:0.019504 6:0.1268 7:0.037037 8:0.21267 9:0.026598 10:0.43973 11:0.53846 12:0.5277 13:0.017289 14:0.26536 15:0.0088798 16:0.78304
5 1:0.041298 2:0.020206 3:0.040125 4:0.25746 5:0.0094887 6:0.12094 7:0.0026082 8:0.27237 9:0.020592 10:0.53425 11:0.53846 12:0.5267 13:0.017289 14:0.22764 15:0.0088798 16:0.73712
5 1:0.032027 2:0.0094583 3:0.024492 4:0.30303 5:0.0010543 6:0.16596 7:0.011476 8:0.23421 9:0.011583 10:0.52443 11:0.61538 12:0.50001 13:0.018672 14:0.26934 15:0.030738 16:0.3384
5 1:0.046355 2:0.028375 3:0.049505 4:0.2327 5:0.023722 6:0.11364 7:0.030256 8:0.20749 9:0.030888 10:0.60581 11:0.57692 12:0.52909 13:0.018672 14:0.26306 15:0.010929 16:0.79813
5 1:0.053519 2:0.032244 3:0.097447 4:0.19432 5:0.064839 6:0.09733 7:0.055295 8:0.35678 9:0.03432 10:0.59281 11:0.57692 12:0.53077 13:0.02213 14:0.28952 15:0.051913 16:0.34568
5 1:0.045933 2:0.028805 3:0.045336 4:0.24096 5:0.024776 6:0.11123 7:0.031299 8:0.20002 9:0.031317 10:0.61005 11:0.57692 12:0.49553 13:0.024896 14:0.23899 15:0.030055 16:0.35983
5 1:0.045512 2:0.027515 3:0.08963 4:0.20206 5:0.059041 6:0.12989 7:0.050078 8:0.47659 9:0.03003 10:0.69121 11:0.57692 12:0.56402 13:0.020055 14:0.27563 15:0.060109 16:0.26123
5 1:0.041298 2:0.027515 3:0.093278 4:0.19201 5:0.059041 6:0.14356 7:0.049557 8:0.46224 9:0.029601 10:0.52059 11:0.65385 12:0.50504 13:0.020747 14:0.2904 15:0.040301 16:0.25906
5 1:0.048883 2:0.024076 3:0.053674 4:0.28333 5:0.01845 6:0.13948 7:0.011998 8:0.36079 9:0.02574 10:0.46011 11:0.57692 12:0.52467 13:0.015214 14:0.28269 15:0.0068306 16:0.81663
5 1:0.041719 2:0.028375 3:0.092757 4:0.22342 5:0.060095 6:0.12923 7:0.0506 8:0.42561 9:0.030459 10:0.62 11:0.73077 12:0.55006 13:0.022822 14:0.2171 15:0.014344 16:0.72675
5 1:0.046355 2:0.029665 3:0.095883 4:0.24506 5:0.061676 6:0.17557 7:0.051122 8:0.3878 9:0.030888 10:0.6329 11:0.61538 12:0.49078 13:0.02213 14:0.2796 15:0.03347 16:0.29785
5 1:0.049726 2:0.030954 3:0.092757 4:0.23024 5:0.063258 6:0.15352 7:0.05373 8:0.46712 9:0.033033 10:0.58715 11:0.53846 12:0.43753 13:0.02213 14:0.24462 15:0.039617 16:0.29949
5 1:0.044669 2:0.026225 3:0.085461 4:0.23748 5:0.057459 6:0.1502 7:0.048513 8:0.52905 9:0.028743 10:0.65664 11:0.5 12:0.49302 13:0.015214 14:0.22657 15:0.038251 16:0.29237
5 1:0.04804 2:0.030095 3:0.042209 4:0.29016 5:0.022667 6:0.14049 7:0.021388 8:0.2976 9:0.032604 10:0.30088 11:0.57692 12:0.51952 13:0.020747 14:0.26117 15:0.012295 16:0.7823
5 1:0.041298 2:0.024506 3:0.046378 4:0.30265 5:0.019504 6:0.11897 7:0.026082 8:0.16818 9:0.027027 10:0.55614 11:0.5 12:0.36162 13:0.018672 14:0.1712 15:0.03347 16:0.3401
5 1:0.044669 2:0.022786 3:0.051589 4:0.24887 5:0.020559 6:0.11866 7:0.035472 8:0.21385 9:0.025311 10:0.66235 11:0.57692 12:0.55649 13:0.018672 14:0.25161 15:0.010246 16:0.79021
5 1:0.046355 2:0.032674 3:0.097447 4:0.22738 5:0.065366 6:0.1667 7:0.055295 8:0.40129 9:0.03432 10:0.54951 11:0.65385 12:0.51902 13:0.022822 14:0.21935 15:0.014344 16:0.73071
5 1:0.040877 2:0.030095 3:0.09432 4:0.22225 5:0.062203 6:0.20531 7:0.052686 8:0.48826 9:0.032175 10:0.64692 11:0.5 12:0.48452 13:0.024205 14:0.24578 15:0.040301 16:0.30399
5 1:0.05099 2:0.031384 3:0.055758 4:0.26813 5:0.026885 6:0.13394 7:0.041732 8:0.24559 9:0.030459 10:0.27898 11:0.57692 12:0.48403 13:0.021438 14:0.2301 15:0.012978 16:0.76152
5 1:0.043826 2:0.033534 3:0.097968 4:0.19869 5:0.066421 6:0.1329 7:0.056338 8:0.36899 9:0.035178 10:0.66441 11:0.57692 12:0.52031 13:0.023513 14:0.24588 15:0.017077 16:0.76542
5 1:0.051833 2:0.032244 3:0.038562 4:0.2518 5:0.027412 6:0.1014 7:0.018258 8:0.33285 9:0.033462 10:0.73358 11:0.65385 12:0.50301 13:0.027663 14:0.19469 15:0.047814 16:0.29781
5 1:0.042141 2:0.021926 3:0.041688 4:0.28146 5:0.020032 6:0.13317 7:0.028691 8:0.20794 9:0.021879 10:0.23541 11:0.69231 12:0.51459 13:0.017981 14:0.23076 15:0.0095628 16:0.76716
5 1:0.058576 2:0.035254 3:0.082335 4:0.21857 5:0.068529 6:0.13262 7:0.058946 8:0.39643 9:0.037323 10:0.55434 11:0.57692 12:0.48654 13:0.023513 14:0.21703 15:0.051913 16:0.2837
2.017 1:0.046776 2:0.14875 3:0.12715 4:0.19665 5:0.11123 6:0.46039 7:0.13928 8:0.30231 9:0.15187 10:0.57711 11:0.34615 12:0.33393 13:0.020747 14:0.29 15:0.011612 16:0.83219
5 1:0.055626 2:0.025795 3:0.091193 4:0.22928 5:0.056932 6:0.12687 7:0.04747 8:0.39673 9:0.027885 10:0.52083 11:0.65385 12:0.53013 13:0.022822 14:0.25473 15:0.04235 16:0.28005
5 1:0.040034 2:0.021496 3:0.069307 4:0.23163 5:0.051661 6:0.14056 7:0.045383 8:0.82459 9:0.024024 10:0.60378 11:0.61538 12:0.53561 13:0.020055 14:0.23537 15:0.037568 16:0.30511
5 1:0.042141 2:0.026225 3:0.06618 4:0.30836 5:0.057459 6:0.19947 7:0.048513 8:0.57585 9:0.028743 10:0.78302 11:0.57692 12:0.51488 13:0.022822 14:0.19008 15:0.062842 16:0.28069
5 1:0.037505 2:0.019347 3:0.041167 4:0.2623 5:0.019504 6:0.10948 7:0.028691 8:0.20377 9:0.020592 10:0.59639 11:0.57692 12:0.53581 13:0.021438 14:0.2355 15:0.012295 16:0.76951
5 1:0.051412 2:0.027085 3:0.088588 4:0.18281 5:0.058513 6:0.081594 7:0.049557 8:0.46959 9:0.029601 10:0.47648 11:0.57692 12:0.51504 13:0.017289 14:0.28072 15:0.0095628 16:0.79702
5 1:0.04804 2:0.027085 3:0.040646 4:0.35898 5:0.023195 6:0.11906 7:0.030777 8:0.16019 9:0.029601 10:0.44421 11:0.53846 12:0.41349 13:0.022822 14:0.26703 15:0.014344 16:0.79029
1.9819 1:0.054783 2:0.027515 3:0.0568 4:0.26056 5:0.026885 6:0.14058 7:0.017736 8:0.36422 9:0.029601 10:0.71383 11:0.57692 12:0.48746 13:0.025588 14:0.22389 15:0.046448 16:0.30443
5 1:0.043405 2:0.033534 3:0.099531 4:0.20686 5:0.066421 6:0.17624 7:0.05686 8:0.44929 9:0.035607 10:0.5699 11:0.5 12:0.48578 13:0.020747 14:0.23088 15:0.011612 16:0.75108
5 1:0.049726 2:0.031814 3:0.093799 4:0.19482 5:0.064312 6:0.13275 7:0.05373 8:0.33546 9:0.033033 10:0.63909 11:0.57692 12:0.51843 13:0.025588 14:0.25181 15:0.040984 16:0.32061
-5 1:0.045933 2:0.021926 3:0.05211 4:0.21844 5:0.018977 6:0.053696 7:0.025561 8:0.13797 9:0.024453 10:0.51583 11:0.69231 12:0.54959 13:0.017289 14:0.33019 15:0.029372 16:0.31446
-5 1:0.041298 2:0.031814 3:0.094841 4:0.21338 5:0.064312 6:0.21002 7:0.054773 8:0.53749 9:0.033891 10:0.64273 11:0.73077 12:0.54437 13:0.022822 14:0.2662 15:0.028005 16:0.38806
-5 1:0.056047 2:0.030954 3:0.043773 4:0.26566 5:0.027939 6:0.13049 7:0.019301 8:0.36054 9:0.033462 10:0.48602 11:0.73077 12:0.54274 13:0.025588 14:0.27552 15:0.05123 16:0.35343
-5 1:0.053097 2:0.028375 3:0.093278 4:0.20325 5:0.060095 6:0.19197 7:0.051122 8:0.61334 9:0.030888 10:0.74663 11:0.61538 12:0.48634 13:0.022822 14:0.23546 15:0.014344 16:0.75003
-5 1:0.045933 2:0.028375 3:0.092757 4:0.18695 5:0.060095 6:0.13073 7:0.051122 8:0.54422 9:0.030888 10:0.83594 11:0.61538 12:0.48606 13:0.022822 14:0.2107 15:0.014344 16:0.73162
-5 1:0.048462 2:0.031384 3:0.096925 4:0.1963 5:0.063785 6:0.18958 7:0.054773 8:0.54464 9:0.033891 10:0.70556 11:0.57692 12:0.4938 13:0.024896 14:0.16584 15:0.036885 16:0.25941
-5 1:0.053519 2:0.035254 3:0.10057 4:0.2149 5:0.068529 6:0.18953 7:0.059468 8:0.55169 9:0.037752 10:0.56916 11:0.65385 12:0.52771 13:0.027663 14:0.23054 15:0.057377 16:0.3423
-5 1:0.049305 2:0.030095 3:0.053153 4:0.22378 5:0.02583 6:0.034621 7:0.030256 8:0.12159 9:0.032604 10:0.60516 11:0.61538 12:0.52766 13:0.022822 14:0.27709 15:0.060109 16:0.25344
-5 1:0.053519 2:0.028805 3:0.043252 4:0.26063 5:0.02583 6:0.13107 7:0.03808 8:0.21847 9:0.029601 10:0.56699 11:0.61538 12:0.54047 13:0.021438 14:0.21056 15:0.013661 16:0.72499
-5 1:0.046355 2:0.036543 3:0.10318 4:0.2108 5:0.070111 6:0.10917 7:0.060511 8:0.4298 9:0.03861 10:0.73354 11:0.57692 12:0.51215 13:0.025588 14:0.28863 15:0.049863 16:0.32987
-5 1:0.050147 2:0.030095 3:0.046378 4:0.27818 5:0.02583 6:0.13213 7:0.035472 8:0.21682 9:0.032604 10:0.54058 11:0.53846 12:0.45173 13:0.02213 14:0.28065 15:0.037568 16:0.31538
-5 1:0.044669 2:0.024076 3:0.045857 4:0.2604 5:0.021086 6:0.15437 7:0.033385 8:0.24273 9:0.025311 10:0.59862 11:0.76923 12:0.53118 13:0.022822 14:0.19247 15:0.013661 16:0.72025
-5 1:0.05689 2:0.033534 3:0.03752 4:0.27592 5:0.027939 6:0.15725 7:0.043297 8:0.2306 9:0.035178 10:0.51738 11:0.61538 12:0.46816 13:0.022822 14:0.27803 15:0.04235 16:0.34049
-5 1:0.052255 2:0.029235 3:0.052632 4:0.26067 5:0.023195 6:0.13545 7:0.035994 8:0.22038 9:0.03003 10:0.45849 11:0.53846 12:0.4794 13:0.018672 14:0.24662 15:0.010246 16:0.75332
-5 1:0.046776 2:0.030095 3:0.08963 4:0.18057 5:0.062203 6:0.1537 7:0.052165 8:0.38887 9:0.031746 10:0.82829 11:0.65385 12:0.49464 13:0.023513 14:0.24387 15:0.037568 16:0.29593
-5 1:0.051412 2:0.029665 3:0.070349 4:0.27545 5:0.061676 6:0.20759 7:0.051643 8:0.44037 9:0.031317 10:0.61153 11:0.61538 12:0.47324 13:0.022822 14:0.18808 15:0.014344 16:0.70763
-5 1:0.053097 2:0.031384 3:0.059406 4:0.25353 5:0.02583 6:0.13513 7:0.036515 8:0.19241 9:0.033891 10:0.53527 11:0.61538 12:0.46586 13:0.020747 14:0.29711 15:0.036202 16:0.33245
-5 1:0.051833 2:0.032244 3:0.097447 4:0.21091 5:0.064839 6:0.20172 7:0.055295 8:0.49595 9:0.03432 10:0.65004 11:0.73077 12:0.52988 13:0.022822 14:0.22463 15:0.014344 16:0.73756
-5 1:0.049305 2:0.027085 3:0.040646 4:0.28408 5:0.022667 6:0.11207 7:0.031821 8:0.17153 9:0.027885 10:0.52389 11:0.53846 12:0.48779 13:0.020747 14:0.3321 15:0.062158 16:0.33435
-5 1:0.048883 2:0.034824 3:0.054195 4:0.27521 5:0.031629 6:0.1456 7:0.043818 8:0.2198 9:0.037752 10:0.47878 11:0.61538 12:0.48453 13:0.024896 14:0.3136 15:0.058743 16:0.35064
-5 1:0.052676 2:0.038263 3:0.055758 4:0.25919 5:0.03321 6:0.16124 7:0.052165 8:0.20949 9:0.040755 10:0.4859 11:0.69231 12:0.54046 13:0.022822 14:0.26052 15:0.013661 16:0.77028
-5 1:0.057733 2:0.036113 3:0.036477 4:0.28846 5:0.032156 6:0.13588 7:0.046948 8:0.20697 9:0.036465 10:0.39749 11:0.69231 12:0.52801 13:0.02213 14:0.26741 15:0.043033 16:0.30882
-5 1:0.055204 2:0.035684 3:0.058885 4:0.28017 5:0.032156 6:0.16041 7:0.023474 8:0.37037 9:0.038181 10:0.42009 11:0.65385 12:0.55982 13:0.025588 14:0.17237 15:0.04235 16:0.33562
-5 1:0.045933 2:0.033534 3:0.096925 4:0.21615 5:0.066421 6:0.14436 7:0.057381 8:0.46988 9:0.036036 10:0.58414 11:0.5 12:0.45759 13:0.020747 14:0.26046 15:0.060109 16:0.33422
-5 1:0.048462 2:0.035254 3:0.039083 4:0.29354 5:0.028466 6:0.14952 7:0.031821 8:0.25468 9:0.037752 10:0.42332 11:0.61538 12:0.49172 13:0.024205 14:0.2461 15:0.060109 16:0.34719
-5 1:0.048883 2:0.034824 3:0.10162 4:0.19207 5:0.068002 6:0.18044 7:0.058425 8:0.48634 9:0.036894 10:0.64227 11:0.65385 12:0.51933 13:0.024896 14:0.24391 15:0.041667 16:0.28894
-5 1:0.052255 2:0.026655 3:0.043252 4:0.25145 5:0.02214 6:0.13529 7:0.033907 8:0.22991 9:0.028743 10:0.59348 11:0.61538 12:0.51439 13:0.020055 14:0.23704 15:0.012295 16:0.77014
-5 1:0.053519 2:0.030525 3:0.092757 4:0.22279 5:0.062731 6:0.14116 7:0.05373 8:0.48423 9:0.033033 10:0.80453 11:0.57692 12:0.50709 13:0.020055 14:0.21555 15:0.040984 16:0.29883
-5 1:0.05394 2:0.036113 3:0.10422 4:0.21073 5:0.069584 6:0.14885 7:0.059468 8:0.38423 9:0.037752 10:0.7451 11:0.65385 12:0.51212 13:0.024205 14:0.20058 15:0.037568 16:0.281
-5 1:0.055204 2:0.033964 3:0.050026 4:0.27044 5:0.027412 6:0.12582 7:0.018779 8:0.33984 9:0.036036 10:0.48094 11:0.57692 12:0.46099 13:0.023513 14:0.34484 15:0.047131 16:0.34505
-5 1:0.044248 2:0.031814 3:0.046378 4:0.25207 5:0.027939 6:0.12253 7:0.043297 8:0.24047 9:0.03432 10:0.49059 11:0.57692 12:0.47302 13:0.023513 14:0.2769 15:0.053962 16:0.30045
-5 1:0.047619 2:0.024076 3:0.042731 4:0.26337 5:0.018977 6:0.16117 7:0.010433 8:0.36161 9:0.026169 10:0.61576 11:0.57692 12:0.4691 13:0.020747 14:0.17403 15:0.012978 16:0.67607
-5 1:0.047198 2:0.024936 3:0.053674 4:0.33095 5:0.027412 6:0.14931 7:0.03495 8:0.1566 9:0.027885 10:0.52852 11:0.61538 12:0.50225 13:0.023513 14:0.20697 15:0.046448 16:0.23509
-5 1:0.047198 2:0.024506 3:0.06618 4:0.28662 5:0.055351 6:0.25136 7:0.046427 8:0.61315 9:0.027027 10:0.7001 11:0.69231 12:0.50862 13:0.024205 14:0.22449 15:0.01571 16:0.73514
-5 1:0.040455 2:0.026655 3:0.083898 4:0.20754 5:0.057986 6:0.15294 7:0.049035 8:0.53201 9:0.029172 10:0.56677 11:0.69231 12:0.52138 13:0.022822 14:0.2447 15:0.040301 16:0.26183
-5 1:0.039191 2:0.023646 3:0.05211 4:0.28048 5:0.016869 6:0.13908 7:0.027647 8:0.16991 9:0.026169 10:0.47932 11:0.61538 12:0.54385 13:0.017981 14:0.21316 15:0.039617 16:0.31639
-5 1:0.053097 2:0.027945 3:0.069828 4:0.33569 5:0.059568 6:0.14301 7:0.049035 8:0.35081 9:0.029172 10:0.46519 11:0.53846 12:0.48346 13:0.019364 14:0.34423 15:0.064208 16:0.30012
-5 1:0.049726 2:0.032674 3:0.10109 4:0.27245 5:0.065366 6:0.18589 7:0.05686 8:0.62636 9:0.035607 10:0.59456 11:0.61538 12:0.52257 13:0.02213 14:0.23711 15:0.059426 16:0.2836
-5 1:0.047619 2:0.024076 3:0.090151 4:0.19422 5:0.054823 6:0.18223 7:0.045905 8:0.52164 9:0.026598 10:0.70008 11:0.57692 12:0.50995 13:0.022822 14:0.20529 15:0.065574 16:0.28623
-5 1:0.043405 2:0.033964 3:0.098489 4:0.21855 5:0.066948 6:0.18251 7:0.057381 8:0.46052 9:0.036036 10:0.74614 11:0.5 12:0.4544 13:0.024896 14:0.23566 15:0.047131 16:0.3123
-5 1:0.049726 2:0.026225 3:0.053674 4:0.20204 5:0.021613 6:0.024145 7:0.031299 8:0.1453 9:0.027456 10:0.52873 11:0.65385 12:0.55307 13:0.020055 14:0.30647 15:0.064891 16:0.26046
-5 1:0.037505 2:0.030095 3:0.041167 4:0.26118 5:0.025303 6:0.13062 7:0.040167 8:0.19757 9:0.030459 10:0.49767 11:0.61538 12:0.50171 13:0.02213 14:0.27178 15:0.012978 16:0.79081
-5 1:0.05394 2:0.026655 3:0.073476 4:0.21373 5:0.057986 6:0.080683 7:0.048513 8:0.32427 9:0.028743 10:0.56977 11:0.61538 12:0.50904 13:0.026279 14:0.30992 15:0.047131 16:0.2527
-5 1:0.047619 2:0.028375 3:0.041688 4:0.28907 5:0.025303 6:0.11414 7:0.03808 8:0.19839 9:0.031746 10:0.46812 11:0.57692 12:0.51474 13:0.021438 14:0.27876 15:0.012978 16:0.80159
-5 1:0.046776 2:0.025795 3:0.040646 4:0.29183 5:0.023722 6:0.13742 7:0.03808 8:0.23768 9:0.027885 10:0.65253 11:0.5 12:0.46978 13:0.020055 14:0.28105 15:0.043716 16:0.32382
-5 1:0.040034 2:0.024936 3:0.050547 4:0.24537 5:0.01845 6:0.12938 7:0.030256 8:0.17048 9:0.026598 10:0.53071 11:0.57692 12:0.53852 13:0.020747 14:0.20992 15:0.036885 16:0.29551
-5 1:0.048883 2:0.029235 3:0.041688 4:0.25188 5:0.02583 6:0.12113 7:0.040167 8:0.21173 9:0.031317 10:0.50163 11:0.5 12:0.47831 13:0.021438 14:0.27655 15:0.012978 16:0.76699
-5 1:0.045091 2:0.027515 3:0.056279 4:0.25299 5:0.023195 6:0.12005 7:0.032864 8:0.21425 9:0.029601 10:0.59703 11:0.73077 12:0.53076 13:0.02213 14:0.26568 15:0.043033 16:0.25616
-5 1:0.055626 2:0.033964 3:0.072434 4:0.24457 5:0.066948 6:0.16125 7:0.05999 8:0.74752 9:0.036465 10:0.54748 11:0.61538 12:0.50962 13:0.024205 14:0.23487 15:0.060109 16:0.29539
-5 1:0.052676 2:0.027515 3:0.090672 4:0.20089 5:0.059041 6:0.11288 7:0.049557 8:0.42821 9:0.029601 10:0.72378 11:0.53846 12:0.50003 13:0.024205 14:0.27069 15:0.040984 16:0.31891
-5 1:0.051833 2:0.028805 3:0.056279 4:0.252 5:0.022667 6:0.12691 7:0.031821 8:0.19504 9:0.029601 10:0.47077 11:0.69231 12:0.5344 13:0.018672 14:0.27646 15:0.036202 16:0.32273
-5 1:0.05689 2:0.030095 3:0.042209 4:0.25874 5:0.024249 6:0.12905 7:0.016693 8:0.32463 9:0.030888 10:0.37886 11:0.76923 12:0.56901 13:0.022822 14:0.29828 15:0.048497 16:0.28907
-5 1:0.046355 2:0.028805 3:0.055237 4:0.31389 5:0.024249 6:0.22108 7:0.015649 8:0.44221 9:0.030459 10:0.57545 11:0.57692 12:0.4896 13:0.019364 14:0.27154 15:0.010929 16:0.79923
-5 1:0.077118 2:0.034394 3:0.052632 4:0.25452 5:0.032156 6:0.1331 7:0.043297 8:0.21661 9:0.036894 10:0.51517 11:0.61538 12:0.55319 13:0.029046 14:0.1973 15:0.047814 16:0.33195
-5 1:0.044248 2:0.024936 3:0.083377 4:0.19021 5:0.055878 6:0.1208 7:0.045905 8:0.35742 9:0.026598 10:0.68003 11:0.57692 12:0.45614 13:0.02213 14:0.28942 15:0.051913 16:0.29301
-5 1:0.045091 2:0.026225 3:0.092757 4:0.21235 5:0.057459 6:0.14894 7:0.048513 8:0.49611 9:0.028743 10:0.66417 11:0.57692 12:0.49803 13:0.025588 14:0.25516 15:0.05123 16:0.2942
-5 1:0.042141 2:0.026225 3:0.041688 4:0.27977 5:0.018977 6:0.13768 7:0.010955 8:0.34264 9:0.028743 10:0.49352 11:0.53846 12:0.48332 13:0.020747 14:0.23652 15:0.012295 16:0.76227
-5 1:0.043826 2:0.036543 3:0.057322 4:0.22836 5:0.030047 6:0.12861 7:0.037037 8:0.22289 9:0.03861 10:0.55842 11:0.73077 12:0.52719 13:0.02213 14:0.26595 15:0.014344 16:0.80306
-5 1:0.03287 2:0.015907 3:0.041688 4:0.25683 5:0.012652 6:0.13624 7:0.021388 8:0.18745 9:0.016302 10:0.395 11:0.61538 12:0.53441 13:0.020747 14:0.20808 15:0.040984 16:0.26656
-5 1:0.052255 2:0.026655 3:0.051068 4:0.25175 5:0.020559 6:0.18334 7:0.031299 8:0.19776 9:0.028314 10:0.50644 11:0.69231 12:0.56047 13:0.02213 14:0.2607 15:0.029372 16:0.37189
-5 1:0.04804 2:0.028805 3:0.053674 4:0.23565 5:0.025303 6:0.11215 7:0.038602 8:0.20269 9:0.030888 10:0.61329 11:0.65385 12:0.52166 13:0.021438 14:0.25501 15:0.013661 16:0.79394
-5 1:0.038769 2:0.027085 3:0.091193 4:0.19606 5:0.058513 6:0.14777 7:0.047992 8:0.32195 9:0.028314 10:0.57115 11:0.73077 12:0.56822 13:0.020055 14:0.21261 15:0.038251 16:0.31724
-5 1:0.049305 2:0.026655 3:0.045336 4:0.28401 5:0.023195 6:0.1228 7:0.014606 8:0.33555 9:0.029601 10:0.61677 11:0.53846 12:0.46881 13:0.021438 14:0.25854 15:0.036885 16:0.33238
-5 1:0.046355 2:0.021496 3:0.051068 4:0.23774 5:0.020559 6:0.13359 7:0.023474 8:0.21267 9:0.024453 10:0.58041 11:0.65385 12:0.52601 13:0.02213 14:0.22735 15:0.013661 16:0.75786
-5 1:0.043826 2:0.032244 3:0.05211 4:0.24494 5:0.027412 6:0.14839 7:0.036515 8:0.23543 9:0.034749 10:0.66357 11:0.61538 12:0.4841 13:0.023513 14:0.20458 15:0.014344 16:0.72933
-5 1:0.043826 2:0.024076 3:0.049505 4:0.24775 5:0.021613 6:0.12663 7:0.01252 8:0.35114 9:0.026598 10:0.62807 11:0.5 12:0.46811 13:0.020055 14:0.22391 15:0.011612 16:0.74293
-5 1:0.046355 2:0.027515 3:0.057322 4:0.2562 5:0.021613 6:0.1068 7:0.039645 8:0.17529 9:0.03003 10:0.53373 11:0.53846 12:0.4902 13:0.018672 14:0.24457 15:0.010246 16:0.78208
-5 1:0.04804 2:0.027515 3:0.039083 4:0.30809 5:0.024249 6:0.11198 7:0.03808 8:0.18834 9:0.030459 10:0.58952 11:0.53846 12:0.48915 13:0.016598 14:0.29289 15:0.047131 16:0.40096
-5 1:0.044248 2:0.034394 3:0.098489 4:0.2231 5:0.067475 6:0.15076 7:0.05999 8:0.67769 9:0.036894 10:0.52007 11:0.61538 12:0.50316 13:0.024205 14:0.21695 15:0.039617 16:0.23043
-5 1:0.048883 2:0.029235 3:0.046378 4:0.28573 5:0.024249 6:0.14502 7:0.017736 8:0.37582 9:0.031746 10:0.49417 11:0.80769 12:0.56272 13:0.023513 14:0.25969 15:0.036202 16:0.31888
-5 1:0.056469 2:0.033964 3:0.10318 4:0.23994 5:0.066948 6:0.15932 7:0.05999 8:0.73765 9:0.036465 10:0.6161 11:0.61538 12:0.49139 13:0.024205 14:0.21591 15:0.053279 16:0.27434
-5 1:0.044669 2:0.024076 3:0.084419 4:0.21213 5:0.054823 6:0.20334 7:0.045383 8:0.50828 9:0.026169 10:0.76787 11:0.69231 12:0.52505 13:0.020055 14:0.16725 15:0.037568 16:0.24813
-5 1:0.050147 2:0.028375 3:0.091714 4:0.15689 5:0.060095 6:0.10008 7:0.049557 8:0.28838 9:0.029601 10:0.74874 11:0.69231 12:0.51082 13:0.026279 14:0.22912 15:0.048497 16:0.27805
-5 1:0.051833 2:0.035684 3:0.10318 4:0.20617 5:0.069056 6:0.19892 7:0.058946 8:0.43208 9:0.037323 10:0.59613 11:0.65385 12:0.50509 13:0.024896 14:0.23621 15:0.043033 16:0.31335
-5 1:0.043826 2:0.028375 3:0.039604 4:0.25045 5:0.020559 6:0.13286 7:0.033907 8:0.20688 9:0.030888 10:0.51587 11:0.53846 12:0.47088 13:0.017981 14:0.29809 15:0.043033 16:0.3034
-5 1:0.045933 2:0.032674 3:0.026576 4:0.30575 5:0.028466 6:0.11319 7:0.019823 8:0.33405 9:0.035178 10:0.50086 11:0.53846 12:0.4923 13:0.024896 14:0.27 15:0.046448 16:0.3302
-5 1:0.045512 2:0.023216 3:0.036998 4:0.28357 5:0.020559 6:0.14246 7:0.025561 8:0.21312 9:0.026169 10:0.37546 11:0.5 12:0.47259 13:0.019364 14:0.29517 15:0.057377 16:0.33366
-5 1:0.053519 2:0.023216 3:0.053674 4:0.2877 5:0.022667 6:0.15792 7:0.024517 8:0.20482 9:0.025311 10:0.45334 11:0.53846 12:0.5089 13:0.021438 14:0.1448 15:0.039617 16:0.29602
-5 1:0.04804 2:0.024506 3:0.041167 4:0.2333 5:0.017396 6:0.073529 7:0.0083464 8:0.29448 9:0.027027 10:0.50005 11:0.53846 12:0.47363 13:0.017981 14:0.29085 15:0.049863 16:0.26711
-5 1:0.057733 2:0.031384 3:0.055237 4:0.27754 5:0.021613 6:0.15894 7:0.013041 8:0.38206 9:0.033462 10:0.64613 11:0.61538 12:0.46491 13:0.024205 14:0.24214 15:0.047131 16:0.41417
-5 1:0.052255 2:0.025795 3:0.050026 4:0.2524 5:0.023195 6:0.092127 7:0.030256 8:0.1578 9:0.028743 10:0.56075 11:0.65385 12:0.46352 13:0.025588 14:0.27792 15:0.044399 16:0.30459
-5 1:0.049726 2:0.026655 3:0.046899 4:0.31231 5:0.020559 6:0.19745 7:0.011998 8:0.40071 9:0.029172 10:0.71707 11:0.57692 12:0.47669 13:0.02213 14:0.1988 15:0.013661 16:0.71563
-5 1:0.05394 2:0.040413 3:0.10891 4:0.20674 5:0.074855 6:0.1391 7:0.065728 8:0.46933 9:0.0429 10:0.57903 11:0.61538 12:0.4685 13:0.023513 14:0.2444 15:0.01571 16:0.75501
-5 1:0.055204 2:0.030095 3:0.046899 4:0.27476 5:0.026885 6:0.085721 7:0.022431 8:0.26689 9:0.030888 10:0.51701 11:0.61538 12:0.46779 13:0.026279 14:0.26427 15:0.047131 16:0.30184
-5 1:0.05394 2:0.032244 3:0.058885 4:0.28941 5:0.02952 6:0.15511 7:0.031821 8:0.25055 9:0.034749 10:0.4641 11:0.57692 12:0.47704 13:0.023513 14:0.24812 15:0.015027 16:0.77325
-5 1:0.039612 2:0.031384 3:0.058885 4:0.2475 5:0.027412 6:0.12207 7:0.021388 8:0.26366 9:0.032175 10:0.59861 11:0.61538 12:0.50634 13:0.023513 14:0.18843 15:0.01571 16:0.69567
-5 1:0.03582 2:0.014187 3:0.038562 4:0.28196 5:0.012652 6:0.092711 7:0.019823 8:0.15754 9:0.01716 10:0.44559 11:0.57692 12:0.49944 13:0.020055 14:0.25077 15:0.011612 16:0.75202
-5 1:0.04804 2:0.026655 3:0.092757 4:0.18531 5:0.057986 6:0.14301 7:0.048513 8:0.45081 9:0.028743 10:0.74349 11:0.53846 12:0.47897 13:0.020055 14:0.23855 15:0.055328 16:0.27384
-5 1:0.046355 2:0.022356 3:0.050547 4:0.29075 5:0.019504 6:0.16012 7:0.024517 8:0.17264 9:0.025311 10:0.54715 11:0.53846 12:0.48309 13:0.017981 14:0.22569 15:0.010246 16:0.72728
-5 1:0.041298 2:0.019347 3:0.047421 4:0.28801 5:0.012124 6:0.1712 7:0.028169 8:0.19352 9:0.019734 10:0.52908 11:0.61538 12:0.51679 13:0.020055 14:0.14854 15:0.041667 16:0.2685
-5 1:0.059418 2:0.036113 3:0.054195 4:0.2305 5:0.030047 6:0.11339 7:0.039124 8:0.21783 9:0.039039 10:0.62202 11:0.57692 12:0.46972 13:0.02213 14:0.27349 15:0.013661 16:0.79816
-5 1:0.047619 2:0.027515 3:0.042731 4:0.28357 5:0.023195 6:0.10932 7:0.033385 8:0.18229 9:0.030459 10:0.45883 11:0.61538 12:0.5364 13:0.020747 14:0.26804 15:0.043033 16:0.31278
-5 1:0.053519 2:0.029235 3:0.085982 4:0.20639 5:0.061149 6:0.22163 7:0.051643 8:0.55352 9:0.031317 10:0.60139 11:0.61538 12:0.49485 13:0.024205 14:0.2572 15:0.05123 16:0.29117
-5 1:0.043405 2:0.037833 3:0.10318 4:0.22075 5:0.071692 6:0.18586 7:0.062076 8:0.48046 9:0.039897 10:0.72684 11:0.65385 12:0.53464 13:0.026279 14:0.1549 15:0.063525 16:0.32149
-5 1:0.046355 2:0.026225 3:0.042209 4:0.27938 5:0.024776 6:0.093058 7:0.029212 8:0.15662 9:0.028743 10:0.65585 11:0.61538 12:0.51523 13:0.024205 14:0.19767 15:0.015027 16:0.72247
-5 1:0.055626 2:0.032244 3:0.091193 4:0.21716 5:0.064839 6:0.14558 7:0.055816 8:0.53175 9:0.034749 10:0.59995 11:0.65385 12:0.498 13:0.027663 14:0.20316 15:0.045082 16:0.28304
-5 1:0.043405 2:0.033104 3:0.10005 4:0.21671 5:0.065894 6:0.12443 7:0.056338 8:0.40533 9:0.035178 10:0.74301 11:0.57692 12:0.49755 13:0.022822 14:0.24539 15:0.05123 16:0.31062
-5 1:0.040034 2:0.031814 3:0.097447 4:0.19633 5:0.064312 6:0.17894 7:0.055295 8:0.50746 9:0.03432 10:0.62011 11:0.57692 12:0.49512 13:0.02213 14:0.27695 15:0.053279 16:0.35184
-5 1:0.047619 2:0.026225 3:0.050547 4:0.30566 5:0.023722 6:0.16301 7:0.017736 8:0.37873 9:0.028314 10:0.51278 11:0.57692 12:0.4662 13:0.020747 14:0.21633 15:0.012978 16:0.68302
-5 1:0.056469 2:0.027515 3:0.094841 4:0.20813 5:0.059041 6:0.1319 7:0.049557 8:0.44653 9:0.029601 10:0.61864 11:0.61538 12:0.48952 13:0.024896 14:0.26332 15:0.043716 16:0.30963
-5 1:0.05099 2:0.032674 3:0.097968 4:0.20233 5:0.065366 6:0.13746 7:0.055816 8:0.40116 9:0.034749 10:0.53069 11:0.76923 12:0.54957 13:0.023513 14:0.25755 15:0.041667 16:0.29193
-5 1:0.049305 2:0.030954 3:0.054716 4:0.2573 5:0.024249 6:0.17159 7:0.015128 8:0.38845 9:0.033033 10:0.71977 11:0.57692 12:0.46523 13:0.023513 14:0.13808 15:0.01571 16:0.63258
-5 1:0.05394 2:0.039123 3:0.072434 4:0.24214 5:0.0369 6:0.090009 7:0.049035 8:0.19176 9:0.040755 10:0.63486 11:0.73077 12:0.51628 13:0.026971 14:0.28035 15:0.060792 16:0.32074
-5 1:0.046776 2:0.028805 3:0.044294 4:0.27408 5:0.020559 6:0.14857 7:0.01252 8:0.34443 9:0.030459 10:0.56538 11:0.57692 12:0.44838 13:0.022822 14:0.29503 15:0.041667 16:0.34213
-5 1:0.051412 2:0.031384 3:0.034393 4:0.25541 5:0.02583 6:0.0026861 7:0.017214 8:0.22687 9:0.03432 10:0.62988 11:0.53846 12:0.48595 13:0.024205 14:0.29016 15:0.047131 16:0.34263
-5 1:0.043826 2:0.034394 3:0.055237 4:0.25246 5:0.027939 6:0.15071 7:0.048513 8:0.17311 9:0.036465 10:0.72435 11:0.61538 12:0.4899 13:0.024896 14:0.21904 15:0.016393 16:0.73034
-5 1:0.037505 2:0.015047 3:0.072955 4:0.20814 5:0.043753 6:0.21416 7:0.033907 8:0.44664 9:0.016731 10:0.57223 11:0.57692 12:0.57407 13:0.020055 14:0.16882 15:0.034153 16:0.23277
-5 1:0.044248 2:0.021066 3:0.035435 4:0.29054 5:0.0089615 6:0.10901 7:0.0026082 8:0.32842 9:0.023595 10:0.65657 11:0.53846 12:0.47483 13:0.018672 14:0.27791 15:0.055328 16:0.34312
-5 1:0.048462 2:0.028805 3:0.042209 4:0.26548 5:0.022667 6:0.1197 7:0.040167 8:0.19975 9:0.03003 10:0.43176 11:0.57692 12:0.50113 13:0.018672 14:0.27452 15:0.010246 16:0.78795
-5 1:0.046776 2:0.030095 3:0.040125 4:0.29105 5:0.02583 6:0.14689 7:0.03808 8:0.23063 9:0.032604 10:0.52867 11:0.53846 12:0.48293 13:0.024205 14:0.27061 15:0.034153 16:0.38759
-5 1:0.055626 2:0.037403 3:0.10474 4:0.21873 5:0.071165 6:0.14617 7:0.063641 8:0.72131 9:0.039897 10:0.52824 11:0.53846 12:0.48225 13:0.024896 14:0.23394 15:0.038934 16:0.31772
-5 1:0.04804 2:0.029235 3:0.088588 4:0.22868 5:0.061149 6:0.12555 7:0.052165 8:0.44609 9:0.031746 10:0.63468 11:0.61538 12:0.50132 13:0.026279 14:0.23128 15:0.047131 16:0.29163
-5 1:0.048883 2:0.029665 3:0.063054 4:0.30749 5:0.027412 6:0.14144 7:0.037037 8:0.2284 9:0.031317 10:0.67967 11:0.61538 12:0.50601 13:0.020055 14:0.17164 15:0.012295 16:0.68722
-5 1:0.036241 2:0.026225 3:0.090672 4:0.18898 5:0.057459 6:0.18454 7:0.047992 8:0.47376 9:0.028314 10:0.64843 11:0.61538 12:0.5193 13:0.024205 14:0.19188 15:0.04235 16:0.32331
-5 1:0.038769 2:0.029665 3:0.09432 4:0.21186 5:0.061676 6:0.13554 7:0.052686 8:0.47183 9:0.032175 10:0.7918 11:0.65385 12:0.50614 13:0.025588 14:0.23016 15:0.058743 16:0.31549
-5 1:0.054362 2:0.031814 3:0.036998 4:0.31954 5:0.028466 6:0.15164 7:0.04121 8:0.19258 9:0.032175 10:0.4264 11:0.61538 12:0.45715 13:0.024896 14:0.26416 15:0.051913 16:0.41839
-5 1:0.040455 2:0.028805 3:0.054195 4:0.2644 5:0.02214 6:0.15541 7:0.035472 8:0.15782 9:0.030459 10:0.48538 11:0.57692 12:0.54588 13:0.024205 14:0.21878 15:0.041667 16:0.30916
-5 1:0.054362 2:0.027085 3:0.08963 4:0.18531 5:0.058513 6:0.10068 7:0.048513 8:0.3382 9:0.028743 10:0.74907 11:0.61538 12:0.49145 13:0.024896 14:0.23164 15:0.061475 16:0.28
-5 1:0.045512 2:0.030095 3:0.051068 4:0.24822 5:0.02583 6:0.13107 7:0.017214 8:0.32923 9:0.032604 10:0.69703 11:0.57692 12:0.49534 13:0.021438 14:0.23405 15:0.012295 16:0.75552
-5 1:0.044669 2:0.025365 3:0.057843 4:0.27085 5:0.02214 6:0.11795 7:0.014606 8:0.3337 9:0.027027 10:0.54306 11:0.53846 12:0.45731 13:0.020747 14:0.27315 15:0.064208 16:0.34299
-5 1:0.047619 2:0.021066 3:0.041167 4:0.2922 5:0.015287 6:0.14711 7:0.034429 8:0.24206 9:0.024024 10:0.66107 11:0.61538 12:0.51283 13:0.019364 14:0.23522 15:0.010246 16:0.76724
-5 1:0.046776 2:0.020636 3:0.083377 4:0.20123 5:0.050606 6:0.15111 7:0.04121 8:0.46405 9:0.022737 10:0.65438 11:0.57692 12:0.50743 13:0.02213 14:0.19059 15:0.04235 16:0.26212
-5 1:0.045933 2:0.031814 3:0.096925 4:0.19774 5:0.064312 6:0.14186 7:0.054773 8:0.43885 9:0.033891 10:0.59618 11:0.53846 12:0.44364 13:0.024896 14:0.24705 15:0.040301 16:0.35407
-5 1:0.05689 2:0.033104 3:0.092757 4:0.24511 5:0.065894 6:0.18026 7:0.05686 8:0.50699 9:0.035607 10:0.554 11:0.57692 12:0.46788 13:0.023513 14:0.2635 15:0.048497 16:0.23688
-5 1:0.052255 2:0.033534 3:0.058885 4:0.26129 5:0.032156 6:0.12784 7:0.046427 8:0.19406 9:0.035607 10:0.50894 11:0.61538 12:0.50188 13:0.025588 14:0.25356 15:0.017077 16:0.77936
-5 1:0.046355 2:0.032244 3:0.041688 4:0.2753 5:0.027412 6:0.11357 7:0.018258 8:0.35048 9:0.03432 10:0.49183 11:0.57692 12:0.4805 13:0.024896 14:0.28214 15:0.049863 16:0.2948
-5 1:0.043405 2:0.023646 3:0.038041 4:0.31631 5:0.017396 6:0.10484 7:0.008868 8:0.33077 9:0.02574 10:0.40568 11:0.76923 12:0.56756 13:0.023513 14:0.27781 15:0.043716 16:0.38237
-5 1:0.054783 2:0.036113 3:0.10214 4:0.22208 5:0.069584 6:0.15755 7:0.060511 8:0.50356 9:0.03861 10:0.68661 11:0.57692 12:0.52622 13:0.024896 14:0.25315 15:0.047131 16:0.28252
-5 1:0.042141 2:0.022356 3:0.040646 4:0.29089 5:0.017396 6:0.11173 7:0.031299 8:0.15013 9:0.024453 10:0.50112 11:0.61538 12:0.52246 13:0.022822 14:0.26916 15:0.048497 16:0.30129
-5 1:0.048462 2:0.025365 3:0.039083 4:0.28761 5:0.023722 6:0.11323 7:0.017214 8:0.33503 9:0.029172 10:0.59917 11:0.53846 12:0.46241 13:0.02213 14:0.24798 15:0.014344 16:0.75469
-5 1:0.045933 2:0.027085 3:0.054195 4:0.26645 5:0.022667 6:0.12266 7:0.037037 8:0.21316 9:0.027885 10:0.5303 11:0.73077 12:0.54997 13:0.021438 14:0.27469 15:0.057377 16:0.3191
-5 1:0.046355 2:0.029665 3:0.051068 4:0.23993 5:0.026357 6:0.078259 7:0.019823 8:0.29462 9:0.032175 10:0.75249 11:0.61538 12:0.48619 13:0.023513 14:0.26656 15:0.048497 16:0.29812
-5 1:0.051412 2:0.033104 3:0.096404 4:0.18442 5:0.065894 6:0.14313 7:0.056338 8:0.42359 9:0.035178 10:0.57522 11:0.69231 12:0.50737 13:0.024205 14:0.28174 15:0.044399 16:0.27976
-5 1:0.044669 2:0.033964 3:0.073476 4:0.26559 5:0.066948 6:0.11591 7:0.05999 8:0.76754 9:0.036465 10:0.58454 11:0.61538 12:0.50486 13:0.022822 14:0.34366 15:0.038934 16:0.34775
-5 1:0.05099 2:0.029665 3:0.093278 4:0.19647 5:0.061676 6:0.14823 7:0.052686 8:0.47275 9:0.032175 10:0.66648 11:0.61538 12:0.49702 13:0.022822 14:0.21964 15:0.05123 16:0.29969
-5 1:0.050147 2:0.028375 3:0.051068 4:0.21986 5:0.022667 6:0.084005 7:0.014606 8:0.3048 9:0.030888 10:0.71141 11:0.57692 12:0.4554 13:0.02213 14:0.25748 15:0.064891 16:0.29834
-5 1:0.052676 2:0.027945 3:0.041688 4:0.26506 5:0.024249 6:0.1249 7:0.042254 8:0.22498 9:0.03003 10:0.44624 11:0.69231 12:0.51432 13:0.023513 14:0.25035 15:0.047814 16:0.30382
-5 1:0.047198 2:0.027515 3:0.041167 4:0.26936 5:0.023195 6:0.10693 7:0.014606 8:0.33262 9:0.029172 10:0.639 11:0.53846 12:0.48285 13:0.021438 14:0.26141 15:0.048497 16:0.29964
-5 1:0.051412 2:0.025365 3:0.054195 4:0.24901 5:0.025303 6:0.15686 7:0.016171 8:0.39061 9:0.027456 10:0.49422 11:0.57692 12:0.47106 13:0.02213 14:0.24515 15:0.013661 16:0.76243
-5 1:0.04804 2:0.031384 3:0.0568 4:0.20298 5:0.022667 6:0.067322 7:0.018779 8:0.25479 9:0.033033 10:0.69433 11:0.57692 12:0.48951 13:0.02213 14:0.2715 15:0.038251 16:0.30702
-5 1:0.045512 2:0.027945 3:0.050026 4:0.25981 5:0.027939 6:0.13589 7:0.033385 8:0.25174 9:0.030888 10:0.72086 11:0.61538 12:0.4839 13:0.024896 14:0.21495 15:0.016393 16:0.73011
-5 1:0.046355 2:0.024076 3:0.041167 4:0.31605 5:0.020032 6:0.15697 7:0.031299 8:0.19913 9:0.026598 10:0.47084 11:0.53846 12:0.45222 13:0.021438 14:0.27845 15:0.046448 16:0.36259
-5 1:0.042984 2:0.021496 3:0.047421 4:0.28429 5:0.01845 6:0.12565 7:0.0093897 8:0.35507 9:0.023166 10:0.62026 11:0.61538 12:0.49515 13:0.019364 14:0.26781 15:0.010929 16:0.80734
-5 1:0.053519 2:0.033964 3:0.038562 4:0.28628 5:0.027939 6:0.13162 7:0.019301 8:0.34 9:0.035178 10:0.52017 11:0.69231 12:0.53153 13:0.023513 14:0.24711 15:0.014344 16:0.77707
-5 1:0.053097 2:0.025365 3:0.039083 4:0.30576 5:0.021613 6:0.13439 7:0.035472 8:0.22022 9:0.026169 10:0.53624 11:0.53846 12:0.48686 13:0.021438 14:0.29732 15:0.043716 16:0.35529
-5 1:0.05099 2:0.032244 3:0.098489 4:0.21181 5:0.064839 6:0.12801 7:0.055295 8:0.43648 9:0.03432 10:0.54948 11:0.53846 12:0.45678 13:0.020747 14:0.2424 15:0.039617 16:0.31868
-5 1:0.048883 2:0.030954 3:0.060969 4:0.23253 5:0.026357 6:0.14848 7:0.043297 8:0.20397 9:0.033033 10:0.42524 11:0.65385 12:0.48593 13:0.022822 14:0.31133 15:0.04235 16:0.31814
-5 1:0.039612 2:0.017197 3:0.021365 4:0.24785 5:0.010543 6:0.14735 7:0.019301 8:0.17902 9:0.019305 10:0.34787 11:0.61538 12:0.51522 13:0.02213 14:0.19082 15:0.036885 16:0.28516
-5 1:0.054362 2:0.032674 3:0.036477 4:0.32961 5:0.027939 6:0.1406 7:0.043297 8:0.20313 9:0.034749 10:0.67713 11:0.57692 12:0.47899 13:0.024205 14:0.28997 15:0.047814 16:0.40387
-5 1:0.056469 2:0.033964 3:0.057843 4:0.31243 5:0.026357 6:0.1872 7:0.024517 8:0.34866 9:0.035178 10:0.75462 11:0.53846 12:0.48062 13:0.021438 14:0.18698 15:0.012978 16:0.69852
-5 1:0.039191 2:0.023216 3:0.043252 4:0.28465 5:0.019504 6:0.15931 7:0.03495 8:0.22639 9:0.02574 10:0.6015 11:0.46154 12:0.42451 13:0.016598 14:0.23303 15:0.0088798 16:0.74213
-5 1:0.049726 2:0.031384 3:0.0568 4:0.25731 5:0.027412 6:0.1212 7:0.018779 8:0.34666 9:0.033462 10:0.58291 11:0.57692 12:0.49685 13:0.023513 14:0.19318 15:0.015027 16:0.70345
-5 1:0.049726 2:0.029235 3:0.09432 4:0.1993 5:0.061149 6:0.15033 7:0.052165 8:0.4467 9:0.031746 10:0.58489 11:0.57692 12:0.48099 13:0.023513 14:0.22017 15:0.064208 16:0.30393
-5 1:0.045091 2:0.026655 3:0.05211 4:0.26056 5:0.021613 6:0.13536 7:0.013041 8:0.35181 9:0.027456 10:0.59473 11:0.57692 12:0.48433 13:0.020747 14:0.25463 15:0.012295 16:0.76093
-5 1:0.053519 2:0.033534 3:0.048984 4:0.25356 5:0.030575 6:0.12204 7:0.04747 8:0.20651 9:0.036036 10:0.59988 11:0.61538 12:0.49979 13:0.023513 14:0.2366 15:0.015027 16:0.75318
-5 1:0.045512 2:0.029665 3:0.053674 4:0.25419 5:0.024249 6:0.12682 7:0.037037 8:0.21746 9:0.03003 10:0.53511 11:0.65385 12:0.54265 13:0.023513 14:0.2039 15:0.031421 16:0.33149
-5 1:0.050569 2:0.028375 3:0.092236 4:0.2207 5:0.060095 6:0.15334 7:0.051122 8:0.48313 9:0.030888 10:0.66588 11:0.53846 12:0.47333 13:0.015906 14:0.30713 15:0.062158 16:0.27924
-5 1:0.051833 2:0.033534 3:0.059406 4:0.27045 5:0.030047 6:0.14074 7:0.021388 8:0.35604 9:0.035607 10:0.55258 11:0.53846 12:0.48577 13:0.018672 14:0.27865 15:0.012295 16:0.8198
-5 1:0.051833 2:0.033964 3:0.054195 4:0.25628 5:0.030575 6:0.13149 7:0.021388 8:0.35581 9:0.036465 10:0.38103 11:0.61538 12:0.4481 13:0.022822 14:0.28453 15:0.047814 16:0.30511
-5 1:0.045933 2:0.024076 3:0.080771 4:0.18579 5:0.054823 6:0.16104 7:0.045905 8:0.52406 9:0.026598 10:0.66788 11:0.57692 12:0.49659 13:0.022822 14:0.27304 15:0.061475 16:0.27083
-5 1:0.051412 2:0.033964 3:0.10057 4:0.20231 5:0.066948 6:0.14589 7:0.057903 8:0.47584 9:0.036465 10:0.5739 11:0.61538 12:0.49125 13:0.025588 14:0.25068 15:0.017077 16:0.75203
-5 1:0.040034 2:0.021496 3:0.050026 4:0.24948 5:0.016342 6:0.17469 7:0.026604 8:0.20545 9:0.021879 10:0.5377 11:0.61538 12:0.52149 13:0.021438 14:0.15501 15:0.038251 16:0.25143
-5 1:0.054783 2:0.028375 3:0.054716 4:0.26525 5:0.027412 6:0.11727 7:0.019301 8:0.33661 9:0.03003 10:0.47534 11:0.65385 12:0.51552 13:0.024205 14:0.24689 15:0.015027 16:0.77869
-5 1:0.041298 2:0.018057 3:0.040646 4:0.2715 5:0.017923 6:0.14348 7:0.021388 8:0.2274 9:0.020592 10:0.63716 11:0.57692 12:0.49683 13:0.019364 14:0.20501 15:0.010246 16:0.71292
-5 1:0.051412 2:0.030954 3:0.044815 4:0.27424 5:0.024776 6:0.14746 7:0.016171 8:0.36651 9:0.033462 10:0.49787 11:0.57692 12:0.48942 13:0.020055 14:0.3023 15:0.011612 16:0.83472
-5 1:0.049726 2:0.027515 3:0.050026 4:0.28162 5:0.027412 6:0.11844 7:0.026604 8:0.18154 9:0.031317 10:0.47331 11:0.53846 12:0.50133 13:0.017289 14:0.28132 15:0.01571 16:0.78667
-5 1:0.048883 2:0.033534 3:0.09901 4:0.17199 5:0.066421 6:0.11309 7:0.057381 8:0.50456 9:0.036036 10:0.64208 11:0.65385 12:0.50021 13:0.022822 14:0.25597 15:0.052596 16:0.27458
-5 1:0.053097 2:0.036113 3:0.033872 4:0.25031 5:0.034265 6:0.083224 7:0.052686 8:0.19561 9:0.03861 10:0.66756 11:0.57692 12:0.50852 13:0.024896 14:0.26032 15:0.01571 16:0.78215
-5 1:0.056469 2:0.034824 3:0.10266 4:0.19071 5:0.068002 6:0.13735 7:0.058946 8:0.51838 9:0.037323 10:0.76517 11:0.57692 12:0.49454 13:0.024205 14:0.17522 15:0.015027 16:0.68718
-5 1:0.05099 2:0.030525 3:0.090672 4:0.17305 5:0.062731 6:0.12129 7:0.054251 8:0.59598 9:0.033462 10:0.60471 11:0.57692 12:0.51293 13:0.025588 14:0.2129 15:0.047131 16:0.24656
-5 1:0.046776 2:0.027945 3:0.091714 4:0.21656 5:0.059568 6:0.22685 7:0.049557 8:0.45876 9:0.029601 10:0.65252 11:0.65385 12:0.50996 13:0.026971 14:0.1638 15:0.041667 16:0.2821
-5 1:0.040455 2:0.030525 3:0.051589 4:0.29501 5:0.027939 6:0.21132 7:0.036515 8:0.24057 9:0.033462 10:0.50967 11:0.53846 12:0.45103 13:0.024205 14:0.29178 15:0.015027 16:0.8272
-5 1:0.042141 2:0.023646 3:0.051589 4:0.23561 5:0.017923 6:0.111 7:0.026082 8:0.16362 9:0.026169 10:0.556 11:0.73077 12:0.55284 13:0.019364 14:0.20141 15:0.047814 16:0.23827
-5 1:0.050569 2:0.030525 3:0.09432 4:0.20775 5:0.062731 6:0.12008 7:0.05373 8:0.46782 9:0.033033 10:0.79178 11:0.57692 12:0.47802 13:0.024896 14:0.21839 15:0.01571 16:0.73533
-5 1:0.05099 2:0.034394 3:0.10214 4:0.2559 5:0.067475 6:0.18018 7:0.058425 8:0.52481 9:0.036894 10:0.74418 11:0.61538 12:0.46827 13:0.024896 14:0.23965 15:0.016393 16:0.76361
-5 1:0.041719 2:0.025365 3:0.040125 4:0.28219 5:0.02214 6:0.12916 7:0.026604 8:0.20306 9:0.026169 10:0.43402 11:0.57692 12:0.47044 13:0.024205 14:0.2344 15:0.023224 16:0.52256
-5 1:0.048883 2:0.027515 3:0.09432 4:0.22995 5:0.059041 6:0.13733 7:0.050078 8:0.45763 9:0.03003 10:0.67204 11:0.57692 12:0.4726 13:0.02213 14:0.24067 15:0.045082 16:0.30908
-5 1:0.05394 2:0.037833 3:0.059927 4:0.25083 5:0.033737 6:0.13239 7:0.025561 8:0.35317 9:0.039897 10:0.49177 11:0.61538 12:0.47744 13:0.022822 14:0.26605 15:0.014344 16:0.78357
-5 1:0.05099 2:0.027515 3:0.094841 4:0.22799 5:0.059041 6:0.14171 7:0.051643 8:0.72337 9:0.03003 10:0.54398 11:0.57692 12:0.48596 13:0.024896 14:0.23939 15:0.05123 16:0.29464
-5 1:0.048462 2:0.033964 3:0.051589 4:0.21593 5:0.026357 6:0.13492 7:0.041732 8:0.2277 9:0.036465 10:0.57841 11:0.57692 12:0.51744 13:0.022822 14:0.20981 15:0.014344 16:0.72407
-5 1:0.047619 2:0.036973 3:0.10162 4:0.20542 5:0.070638 6:0.13438 7:0.061033 8:0.43193 9:0.039039 10:0.70924 11:0.61538 12:0.52702 13:0.025588 14:0.28165 15:0.059426 16:0.36261
-5 1:0.050569 2:0.033534 3:0.098489 4:0.21046 5:0.066421 6:0.14983 7:0.05686 8:0.45212 9:0.035607 10:0.81183 11:0.57692 12:0.50183 13:0.029046 14:0.20048 15:0.045082 16:0.32496
-5 1:0.034134 2:0.017627 3:0.046378 4:0.24562 5:0.012124 6:0.13492 7:0.025039 8:0.15751 9:0.018876 10:0.52358 11:0.65385 12:0.5514 13:0.020055 14:0.24495 15:0.035519 16:0.30338
-5 1:0.053519 2:0.027085 3:0.040125 4:0.27648 5:0.023722 6:0.12541 7:0.037559 8:0.20257 9:0.03003 10:0.543 11:0.61538 12:0.48963 13:0.019364 14:0.28097 15:0.035519 16:0.2899
-5 1:0.041298 2:0.027945 3:0.053674 4:0.24466 5:0.02214 6:0.13459 7:0.035994 8:0.1739 9:0.028314 10:0.37285 11:0.61538 12:0.53765 13:0.016598 14:0.23142 15:0.031421 16:0.32747
-5 1:0.049305 2:0.031384 3:0.044294 4:0.31186 5:0.027412 6:0.14208 7:0.018779 8:0.35071 9:0.03432 10:0.45548 11:0.57692 12:0.48088 13:0.024205 14:0.2657 15:0.015027 16:0.80673
-5 1:0.043405 2:0.018487 3:0.080771 4:0.21085 5:0.04797 6:0.1556 7:0.039124 8:0.57331 9:0.021021 10:0.78264 11:0.5 12:0.51236 13:0.016598 14:0.2559 15:0.034836 16:0.28422
-5 1:0.041719 2:0.033964 3:0.0568 4:0.29858 5:0.030047 6:0.17823 7:0.021388 8:0.40066 9:0.035178 10:0.46711 11:0.69231 12:0.52542 13:0.022822 14:0.19084 15:0.013661 16:0.69457
-5 1:0.042984 2:0.020636 3:0.040646 4:0.30928 5:0.01476 6:0.17277 7:0.0057381 8:0.38339 9:0.023595 10:0.57618 11:0.61538 12:0.49043 13:0.015214 14:0.22918 15:0.0068306 16:0.72509
-5 1:0.04804 2:0.027085 3:0.089109 4:0.25348 5:0.058513 6:0.10921 7:0.0506 8:0.57392 9:0.030459 10:0.64837 11:0.53846 12:0.48793 13:0.019364 14:0.22286 15:0.064208 16:0.21967
-5 1:0.045933 2:0.021066 3:0.051589 4:0.26364 5:0.018977 6:0.11281 7:0.026082 8:0.18618 9:0.023166 10:0.57455 11:0.61538 12:0.41489 13:0.020747 14:0.11821 15:0.011612 16:0.62172
-5 1:0.05689 2:0.027945 3:0.051589 4:0.25799 5:0.02214 6:0.13912 7:0.039645 8:0.20836 9:0.03003 10:0.50909 11:0.53846 12:0.47851 13:0.021438 14:0.30376 15:0.036885 16:0.32221
-5 1:0.051833 2:0.025795 3:0.050547 4:0.26069 5:0.026885 6:0.10853 7:0.039124 8:0.2093 9:0.028743 10:0.49229 11:0.73077 12:0.53665 13:0.026279 14:0.2577 15:0.063525 16:0.32065
-5 1:0.046776 2:0.028805 3:0.041688 4:0.3166 5:0.023722 6:0.1393 7:0.039124 8:0.14884 9:0.031746 10:0.54741 11:0.57692 12:0.48069 13:0.022822 14:0.26289 15:0.014344 16:0.79653
-5 1:0.040034 2:0.019776 3:0.077124 4:0.17567 5:0.049552 6:0.10638 7:0.040689 8:0.47234 9:0.022308 10:0.84662 11:0.57692 12:0.52099 13:0.021438 14:0.1948 15:0.045765 16:0.24744
-5 1:0.045933 2:0.036973 3:0.10474 4:0.23516 5:0.070638 6:0.13077 7:0.061555 8:0.49417 9:0.039468 10:0.62706 11:0.57692 12:0.49214 13:0.024205 14:0.19735 15:0.062842 16:0.31405
-5 1:0.05394 2:0.027515 3:0.092757 4:0.21665 5:0.059041 6:0.11499 7:0.050078 8:0.44671 9:0.03003 10:0.5683 11:0.65385 12:0.53335 13:0.02213 14:0.24413 15:0.04235 16:0.26951
-5 1:0.047198 2:0.027945 3:0.053674 4:0.23087 5:0.02583 6:0.12326 7:0.042775 8:0.20896 9:0.028314 10:0.43256 11:0.53846 12:0.47428 13:0.020747 14:0.26915 15:0.012295 16:0.81081
-5 1:0.048883 2:0.029665 3:0.092236 4:0.21623 5:0.061676 6:0.092418 7:0.053208 8:0.46182 9:0.032604 10:0.632 11:0.61538 12:0.54142 13:0.024205 14:0.1713 15:0.050546 16:0.25064
-5 1:0.054362 2:0.035254 3:0.10057 4:0.2199 5:0.068529 6:0.16633 7:0.058946 8:0.47908 9:0.037323 10:0.58687 11:0.57692 12:0.49766 13:0.025588 14:0.20728 15:0.040984 16:0.32413
-5 1:0.057311 2:0.032244 3:0.071391 4:0.34159 5:0.064839 6:0.21125 7:0.05373 8:0.37218 9:0.033033 10:0.60462 11:0.61538 12:0.50723 13:0.021438 14:0.21651 15:0.012978 16:0.73844
-5 1:0.05099 2:0.028805 3:0.040125 4:0.24312 5:0.024776 6:0.091089 7:0.042254 8:0.19324 9:0.031317 10:0.60983 11:0.53846 12:0.48096 13:0.020747 14:0.27285 15:0.044399 16:0.2937
-5 1:0.044669 2:0.024506 3:0.051068 4:0.23848 5:0.020032 6:0.10153 7:0.011998 8:0.31481 9:0.027456 10:0.67439 11:0.5 12:0.46173 13:0.021438 14:0.28202 15:0.039617 16:0.3445
-5 1:0.048883 2:0.024076 3:0.040646 4:0.27413 5:0.01845 6:0.11943 7:0.0099113 8:0.34331 9:0.026169 10:0.52546 11:0.53846 12:0.48423 13:0.020055 14:0.28734 15:0.041667 16:0.30413
-5 1:0.047198 2:0.023646 3:0.087546 4:0.16713 5:0.054296 6:0.064424 7:0.045905 8:0.51412 9:0.026598 10:0.54706 11:0.69231 12:0.54352 13:0.022822 14:0.27272 15:0.040301 16:0.2769
-5 1:0.050147 2:0.033534 3:0.055237 4:0.2598 5:0.027939 6:0.14107 7:0.044862 8:0.20838 9:0.035607 10:0.49082 11:0.53846 12:0.48444 13:0.017289 14:0.2581 15:0.0081967 16:0.78502
-5 1:0.047198 2:0.027945 3:0.05211 4:0.26804 5:0.023722 6:0.13667 7:0.036515 8:0.26059 9:0.030888 10:0.71541 11:0.53846 12:0.46293 13:0.020055 14:0.22182 15:0.011612 16:0.73913
-5 1:0.046355 2:0.026655 3:0.054716 4:0.21652 5:0.020032 6:0.11531 7:0.021388 8:0.19488 9:0.028743 10:0.5067 11:0.69231 12:0.53449 13:0.021438 14:0.26038 15:0.054645 16:0.27577
-5 1:0.05099 2:0.024506 3:0.083377 4:0.16626 5:0.055351 6:0.09775 7:0.046427 8:0.44624 9:0.027027 10:0.83859 11:0.61538 12:0.49637 13:0.023513 14:0.19021 15:0.06694 16:0.33079
-5 1:0.050569 2:0.024076 3:0.089109 4:0.24909 5:0.054823 6:0.15616 7:0.045905 8:0.54284 9:0.026598 10:0.82368 11:0.61538 12:0.5099 13:0.024205 14:0.2356 15:0.030055 16:0.29661
-5 1:0.046355 2:0.026225 3:0.087546 4:0.20401 5:0.057459 6:0.15383 7:0.048513 8:0.46619 9:0.028743 10:0.66242 11:0.53846 12:0.4686 13:0.024896 14:0.24197 15:0.050546 16:0.22737
-5 1:0.043826 2:0.030954 3:0.045336 4:0.25014 5:0.026357 6:0.13029 7:0.04121 8:0.23604 9:0.033462 10:0.54601 11:0.61538 12:0.55307 13:0.017981 14:0.1919 15:0.030738 16:0.28909
-5 1:0.050569 2:0.031814 3:0.051589 4:0.24859 5:0.02583 6:0.15715 7:0.041732 8:0.16448 9:0.033891 10:0.57078 11:0.65385 12:0.5464 13:0.021438 14:0.19992 15:0.038934 16:0.29477
-5 1:0.048883 2:0.034824 3:0.078166 4:0.2979 5:0.068002 6:0.18181 7:0.055295 8:0.27765 9:0.03432 10:0.42646 11:0.61538 12:0.50172 13:0.023513 14:0.19655 15:0.015027 16:0.71393
-5 1:0.045933 2:0.023646 3:0.050547 4:0.29741 5:0.018977 6:0.195 7:0.0099113 8:0.41609 9:0.02574 10:0.61473 11:0.5 12:0.47552 13:0.016598 14:0.19868 15:0.0088798 16:0.70331
-5 1:0.053097 2:0.034394 3:0.092236 4:0.23501 5:0.067475 6:0.14724 7:0.057903 8:0.4211 9:0.036465 10:0.7034 11:0.61538 12:0.5047 13:0.025588 14:0.20352 15:0.017077 16:0.70324
-5 1:0.05099 2:0.034824 3:0.053153 4:0.26526 5:0.027939 6:0.16866 7:0.029212 8:0.28327 9:0.037323 10:0.50655 11:0.53846 12:0.48295 13:0.020055 14:0.26075 15:0.012978 16:0.78239
-5 1:0.051412 2:0.032244 3:0.098489 4:0.20863 5:0.064839 6:0.16602 7:0.055816 8:0.57234 9:0.034749 10:0.69336 11:0.5 12:0.49899 13:0.024896 14:0.25447 15:0.043716 16:0.29705
-5 1:0.053519 2:0.033104 3:0.036477 4:0.26079 5:0.02952 6:0.12509 7:0.041732 8:0.22449 9:0.034749 10:0.47011 11:0.57692 12:0.48218 13:0.023513 14:0.2336 15:0.014344 16:0.76011
-5 1:0.036241 2:0.015907 3:0.077645 4:0.19369 5:0.044808 6:0.19575 7:0.035472 8:0.51306 9:0.018018 10:0.6641 11:0.65385 12:0.50895 13:0.020747 14:0.21982 15:0.038251 16:0.26326
-5 1:0.047198 2:0.024506 3:0.088067 4:0.18487 5:0.055351 6:0.11853 7:0.045905 8:0.3713 9:0.026598 10:0.65466 11:0.57692 12:0.49262 13:0.02213 14:0.24964 15:0.040301 16:0.30649
-5 1:0.047198 2:0.025795 3:0.038562 4:0.30153 5:0.023722 6:0.16543 7:0.026604 8:0.2242 9:0.027456 10:0.55763 11:0.69231 12:0.54809 13:0.022822 14:0.29042 15:0.059426 16:0.35805
-5 1:0.052676 2:0.032244 3:0.05211 4:0.29457 5:0.025303 6:0.16312 7:0.043818 8:0.22979 9:0.033891 10:0.59376 11:0.69231 12:0.4641 13:0.024896 14:0.29448 15:0.04235 16:0.36292
-5 1:0.042141 2:0.034824 3:0.03752 4:0.28388 5:0.031102 6:0.12039 7:0.039124 8:0.171 9:0.035607 10:0.60244 11:0.69231 12:0.5394 13:0.025588 14:0.20156 15:0.017077 16:0.70785
-5 1:0.051833 2:0.034824 3:0.10214 4:0.2045 5:0.068002 6:0.12423 7:0.058425 8:0.40003 9:0.036894 10:0.68119 11:0.57692 12:0.48583 13:0.026279 14:0.2217 15:0.04235 16:0.29137
-5 1:0.047198 2:0.025795 3:0.041167 4:0.26072 5:0.024776 6:0.10917 7:0.026082 8:0.16645 9:0.027885 10:0.65351 11:0.53846 12:0.47898 13:0.020055 14:0.30053 15:0.047131 16:0.28985
-5 1:0.037927 2:0.031814 3:0.094841 4:0.20513 5:0.064312 6:0.2377 7:0.054773 8:0.54181 9:0.033891 10:0.69589 11:0.61538 12:0.52228 13:0.025588 14:0.21411 15:0.043033 16:0.30804
-5 1:0.04804 2:0.025365 3:0.041688 4:0.28907 5:0.020032 6:0.15936 7:0.010955 8:0.38332 9:0.027456 10:0.64587 11:0.5 12:0.4447 13:0.017981 14:0.27569 15:0.010246 16:0.79741
-5 1:0.044248 2:0.023646 3:0.038562 4:0.30588 5:0.018977 6:0.11523 7:0.010433 8:0.33316 9:0.02574 10:0.71529 11:0.5 12:0.47778 13:0.016598 14:0.25005 15:0.0081967 16:0.78041
-5 1:0.048883 2:0.035254 3:0.099531 4:0.19107 5:0.068529 6:0.14627 7:0.058946 8:0.4422 9:0.037323 10:0.63396 11:0.53846 12:0.46888 13:0.02213 14:0.2808 15:0.053962 16:0.23764
-5 1:0.054783 2:0.025365 3:0.092236 4:0.20496 5:0.056405 6:0.15342 7:0.04747 8:0.51658 9:0.027885 10:0.68335 11:0.69231 12:0.535 13:0.02213 14:0.1924 15:0.040301 16:0.27235
-5 1:0.048883 2:0.027945 3:0.05211 4:0.28823 5:0.022667 6:0.11218 7:0.014085 8:0.33862 9:0.030459 10:0.58371 11:0.65385 12:0.50705 13:0.021438 14:0.28067 15:0.04235 16:0.31517
-5 1:0.041298 2:0.033534 3:0.055758 4:0.25661 5:0.027412 6:0.1406 7:0.049557 8:0.13965 9:0.035178 10:0.51822 11:0.73077 12:0.57863 13:0.024205 14:0.25497 15:0.045082 16:0.29142
-5 1:0.047198 2:0.027945 3:0.041167 4:0.35064 5:0.021086 6:0.15907 7:0.01252 8:0.39197 9:0.030459 10:0.66584 11:0.61538 12:0.46011 13:0.020055 14:0.20105 15:0.010929 16:0.73095
-5 1:0.046776 2:0.037403 3:0.10214 4:0.18781 5:0.071165 6:0.12744 7:0.061033 8:0.36377 9:0.039039 10:0.68031 11:0.73077 12:0.53329 13:0.025588 14:0.26592 15:0.043033 16:0.30382
-5 1:0.046355 2:0.025795 3:0.054716 4:0.24213 5:0.021613 6:0.14801 7:0.025561 8:0.18018 9:0.028314 10:0.40772 11:0.61538 12:0.52593 13:0.019364 14:0.24934 15:0.011612 16:0.78661
-5 1:0.04804 2:0.025365 3:0.053674 4:0.26101 5:0.020559 6:0.12507 7:0.01252 8:0.34772 9:0.027027 10:0.5655 11:0.57692 12:0.45683 13:0.02213 14:0.26302 15:0.061475 16:0.34391
-5 1:0.056047 2:0.035684 3:0.054195 4:0.25776 5:0.031102 6:0.14489 7:0.04434 8:0.20663 9:0.036465 10:0.38915 11:0.65385 12:0.46561 13:0.024205 14:0.27738 15:0.05123 16:0.31155
-5 1:0.055204 2:0.038693 3:0.034914 4:0.29559 5:0.030575 6:0.12884 7:0.022431 8:0.32913 9:0.039468 10:0.60566 11:0.73077 12:0.54148 13:0.022822 14:0.2594 15:0.015027 16:0.78107
-5 1:0.047619 2:0.023216 3:0.081292 4:0.16198 5:0.053769 6:0.045296 7:0.045383 8:0.47287 9:0.026169 10:0.5901 11:0.53846 12:0.49469 13:0.019364 14:0.32388 15:0.053279 16:0.18069
-5 1:0.056047 2:0.037833 3:0.10109 4:0.19933 5:0.071692 6:0.13096 7:0.05999 8:0.29556 9:0.038181 10:0.57059 11:0.65385 12:0.49155 13:0.024896 14:0.19969 15:0.017077 16:0.68742
-5 1:0.045091 2:0.024936 3:0.089109 4:0.20405 5:0.055878 6:0.099155 7:0.048513 8:0.61453 9:0.027456 10:0.57984 11:0.5 12:0.45464 13:0.020055 14:0.29215 15:0.046448 16:0.25384
-5 1:0.05394 2:0.033964 3:0.042209 4:0.28686 5:0.028466 6:0.13603 7:0.019823 8:0.34366 9:0.036465 10:0.44733 11:0.57692 12:0.46981 13:0.024205 14:0.30037 15:0.054645 16:0.31645
-5 1:0.049305 2:0.025365 3:0.039604 4:0.27821 5:0.021086 6:0.12578 7:0.032864 8:0.21085 9:0.027885 10:0.56926 11:0.69231 12:0.52646 13:0.020055 14:0.24146 15:0.011612 16:0.75256
-5 1:0.042984 2:0.024936 3:0.040646 4:0.24063 5:0.018977 6:0.13903 7:0.037559 8:0.26607 9:0.027456 10:0.63212 11:0.53846 12:0.49518 13:0.016598 14:0.26882 15:0.0075137 16:0.79293
-5 1:0.04804 2:0.026655 3:0.058885 4:0.22845 5:0.025303 6:0.10338 7:0.027126 8:0.16457 9:0.029601 10:0.57942 11:0.69231 12:0.53002 13:0.024896 14:0.29988 15:0.043033 16:0.30712
-5 1:0.04804 2:0.025365 3:0.042731 4:0.26689 5:0.021086 6:0.1429 7:0.035994 8:0.20206 9:0.027456 10:0.56139 11:0.57692 12:0.45391 13:0.023513 14:0.28047 15:0.044399 16:0.28282
-5 1:0.049726 2:0.029235 3:0.044815 4:0.26111 5:0.022667 6:0.15315 7:0.014085 8:0.35749 9:0.030459 10:0.4885 11:0.53846 12:0.46939 13:0.017289 14:0.27154 15:0.0088798 16:0.79952
-5 1:0.04804 2:0.023216 3:0.038562 4:0.34187 5:0.015287 6:0.20752 7:0.0073031 8:0.40786 9:0.02574 10:0.75038 11:0.57692 12:0.45246 13:0.015906 14:0.22645 15:0.0075137 16:0.74304
-5 1:0.041298 2:0.021926 3:0.087546 4:0.15304 5:0.052188 6:0.1425 7:0.042775 8:0.47253 9:0.024024 10:0.7537 11:0.65385 12:0.55129 13:0.021438 14:0.21131 15:0.038934 16:0.3244
-5 1:0.054362 2:0.033534 3:0.09901 4:0.23227 5:0.066421 6:0.1331 7:0.057381 8:0.47988 9:0.036036 10:0.52303 11:0.61538 12:0.50656 13:0.020747 14:0.2899 15:0.040301 16:0.33665
-5 1:0.051412 2:0.028375 3:0.052632 4:0.24206 5:0.023722 6:0.099336 7:0.015128 8:0.33634 9:0.030459 10:0.75092 11:0.61538 12:0.4784 13:0.023513 14:0.21232 15:0.015027 16:0.69845
-5 1:0.054362 2:0.030095 3:0.048984 4:0.26348 5:0.02214 6:0.12678 7:0.014606 8:0.33363 9:0.031746 10:0.55822 11:0.53846 12:0.46714 13:0.021438 14:0.25507 15:0.012295 16:0.78719
-5 1:0.05099 2:0.027085 3:0.056279 4:0.2383 5:0.02214 6:0.11972 7:0.032864 8:0.17742 9:0.03003 10:0.52518 11:0.53846 12:0.45683 13:0.022822 14:0.27728 15:0.041667 16:0.31497
-5 1:0.045091 2:0.024076 3:0.045857 4:0.31649 5:0.017923 6:0.20829 7:0.028169 8:0.23679 9:0.025311 10:0.55788 11:0.57692 12:0.4659 13:0.020055 14:0.17077 15:0.011612 16:0.68016
