svm_type c_svc
kernel_type rbf
gamma 0.3125
nr_class 4
total_sv 15141
rho -0.5581 -0.936849 -0.993432 -0.601433 -0.977532 -0.914668
label 1 2 3 4
nr_sv 11509 2007 1613 12
SV
0.3478368324117497 0.04817874660095302 0.005779628686324295 1:0.234272 2:2.62284 3:0.00415785 4:2.79101 5:1.10397 6:1.99075 7:0.405443 8:1.26525 9:-0.39001 10:2.36515 11:3.91943 12:1.13217 13:2.37306 14:1.14244 15:-0.722634 16:-0.00533033 
0.2661404053508878 0 0 1:0.00107753 2:0.0747103 3:-0.390179 4:0.409642 5:-0.762309 6:0.186547 7:0.344278 8:-0.0744484 9:-0.649124 10:0.612855 11:0.105476 12:-0.0445142 13:0.931466 14:-0.406643 15:-0.092622 16:-0.0142799 
0.2745065941043546 0.09030899921264916 0.004480836908018405 1:1.47008 2:-3.17293 3:0.81918 4:-3.23241 5:0.850659 6:-3.04915 7:0.378752 8:-2.37442 9:1.56916 10:-1.12576 11:-1.02048 12:-1.4768 13:-2.55048 14:-1.3108 15:-0.370956 16:-0.704108 
0 0.9212378229141932 0 1:1.43302 2:-0.936914 3:1.12825 4:-0.974663 5:0.871521 6:-1.06884 7:-0.0513726 8:-1.03228 9:-0.983567 10:-0.656572 11:-0.50355 12:-0.0703305 13:-0.8174 14:-0.196303 15:-0.911528 16:0.0159041 
4.169769759287455 0 0 1:0.0342267 2:-0.46784 3:-0.200469 4:-0.43414 5:-0.152289 6:-0.518767 7:0.387849 8:-0.60246 9:0.261545 10:0.247668 11:0.176981 12:-0.00189826 13:-0.177797 14:-0.146101 15:-0.677769 16:-0.821934 
0.1572558623056049 0.8913679685971351 0.002497100601228131 1:1.18668 2:-2.25176 3:0.904662 4:-1.18888 5:0.427995 6:-1.33193 7:0.13635 8:-1.92947 9:-0.491121 10:-0.989196 11:0.928225 12:-1.72088 13:0.0522852 14:-3.63661 15:0.0992492 16:0.0393939 
0.3781189994243241 0.05449139780702899 0.005781131043931206 1:1.08862 2:1.30349 3:1.9693 4:1.66306 5:1.28791 6:2.05891 7:-0.0513726 8:2.56653 9:1.0632 10:3.13097 11:1.27898 12:3.69122 13:2.77954 14:4.13311 15:1.39801 16:0.00299163 
0 0.1608770771460251 0 1:-0.494093 2:1.46703 3:1.20678 4:1.47857 5:0.475812 6:1.53081 7:0.659672 8:1.18534 9:1.0359 10:0.775862 11:-0.691057 12:0.502298 13:-0.839715 14:1.29762 15:0.2055 16:-0.0135739 
0.3845720064645681 0.05970333823157926 0.004223045434791723 1:0.140044 2:0.5969 3:0.082577 4:0.957911 5:-0.530902 6:1.39096 7:-1.5291 8:1.97076 9:-1.96194 10:0.849858 11:-2.00511 12:-1.5434 13:1.58793 14:1.53533 15:0.111636 16:-0.274224 
0.07634338170815579 0 0.001597490803417364 1:2.41968 2:-0.038769 3:2.44779 4:-0.156988 5:2.97581 6:-0.281539 7:2.12615 8:-0.199798 9:-2.6832 10:0.497461 11:-0.907717 12:0.299638 13:-0.854821 14:0.0619307 15:0.667467 16:0.588707 
0.4510326620856832 0 0 1:-0.749876 2:-1.6491 3:-1.38913 4:-1.99589 5:-1.52698 6:-1.79286 7:0.0972506 8:-1.86679 9:0.261545 10:-0.687764 11:0.639229 12:-0.495367 13:0.452666 14:-0.985662 15:0.527737 16:0.0727131 
0.4411774385869707 0.06514034586936988 0.006533520755507384 1:-1.63785 2:0.104071 3:-2.71656 4:-0.724443 5:-3.66437 6:-0.012404 7:-6.09869 8:0.398176 9:-2.25703 10:1.42251 11:0.535285 12:-0.700479 13:-0.883103 14:0.96011 15:-0.227854 16:-0.347636 
0.06933921108012216 0 0.002515863475812736 1:0.666497 2:-0.298279 3:0.266872 4:-0.73934 5:1.41697 6:0.57186 7:0.279479 8:0.440749 9:0.799739 10:-0.56637 11:1.69734 12:-1.06868 13:2.75357 14:0.982557 15:1.67878 16:0.376793 
0 0 0.0007166001766298336 1:-0.494093 2:0.809896 3:1.46345 4:0.562181 5:0.869336 6:0.881043 7:-0.618109 8:1.43219 9:-0.611741 10:1.20972 11:-1.36464 12:0.662256 13:0.512924 14:1.56609 15:1.2737 16:0.0606598 
0.5174697456909649 0.01877943447628484 0 1:-2.01101 2:0.208746 3:-2.23594 4:0.268108 5:-2.45957 6:0.431462 7:-2.13032 8:0.42256 9:-0.983567 10:0.381111 11:0.922472 12:0.44596 13:-0.8174 14:0.33538 15:0.135464 16:-0.0701788 
0.3662350186950515 0.04817215953198167 0.005424565557716979 1:1.78263 2:1.18238 3:1.44267 4:1.11187 5:1.06688 6:1.32586 7:-0.0945855 8:1.7912 9:-1.72525 10:1.25937 11:-5.09233 12:-1.84434 13:-3.98171 14:1.94127 15:-0.266046 16:-0.993295 
0.3662181508086968 0.05449138821364465 0.005683682785950557 1:-1.05952 2:-0.410488 3:-1.61659 4:-0.170928 5:-1.09828 6:-0.325657 7:-0.618109 8:-1.36543 9:1.0359 10:-0.699252 11:-1.86982 12:-0.244174 13:-5.2505 14:-2.3714 15:0.383533 16:-0.454336 
0.2945745116586763 0.06335023385826932 0.003857565815064158 1:-2.52391 2:1.18238 3:-1.47074 4:1.32145 5:-0.103552 6:1.36829 7:-0.0945855 8:1.28224 9:0.35859 10:1.21793 11:0.272682 12:0.322587 13:1.83842 14:-0.329923 15:-1.42069 16:-1.2803 
0 0.7340950319119541 0 1:-1.06525 2:0.245847 3:-0.857835 4:0.561486 5:-0.352064 6:0.402439 7:-0.711418 8:-0.226199 9:-0.209884 10:-0.130792 11:0.167777 12:0.498224 13:0.372793 14:0.797884 15:0.713088 16:0.829951 
0.06080404890982277 0.1305861576466861 0.002140540677493694 1:-0.776417 2:0.37034 3:-1.62156 4:1.33695 5:-2.00259 6:0.525586 7:0.772217 8:-0.391354 9:-0.542494 10:0.227509 11:1.67188 12:-0.557827 13:0.356028 14:0.640937 15:1.61246 16:-0.616817 
0 0.1826041102484607 0 1:0.0135823 2:-1.33036 3:-0.0638852 4:-0.669565 5:0.334647 6:-1.84291 7:0.134578 8:-1.40568 9:-0.163781 10:-2.04128 11:-0.0475554 12:-0.240234 13:0.00650516 14:-0.60076 15:0.611536 16:1.08029 
0.1407470612866467 0 0 1:0.783781 2:1.6446 3:0.919965 4:1.25959 5:0.828232 6:1.58733 7:0.425785 8:1.66245 9:1.37029 10:1.66585 11:-0.640279 12:1.77616 13:-0.321895 14:1.64337 15:-0.464748 16:-0.926034 
0.3814473475942839 0 0 1:0.52588 2:0.275392 3:0.498258 4:0.660785 5:0.415067 6:0.397788 7:-0.0350787 8:0.475666 9:-0.130361 10:0.0633849 11:1.54449 12:-0.51761 13:0.335948 14:-0.309146 15:0.0401002 16:0.101389 
0.2447611953651543 0.3672858963265205 0 1:-0.15803 2:-0.292859 3:-0.403193 4:-0.592839 5:0.286574 6:-1.03603 7:-0.352209 8:-1.18308 9:0.748201 10:-0.949937 11:-0.248508 12:-0.123858 13:1.41616 14:-3.08177 15:-0.227889 16:-0.693627 
0.8419628059627726 0 0 1:-0.244295 2:1.30517 3:0.0995201 4:1.3002 5:0.347923 6:1.4086 7:-1.36767 8:-0.347722 9:0.879447 10:1.60798 11:0.611342 12:0.825239 13:-0.687718 14:1.20378 15:-0.172908 16:-0.0314334 
0.1788217796410159 0.02859645646076384 0.002423257265077861 1:-2.65963 2:-1.83801 3:-2.47163 4:-2.06364 5:-1.62597 6:-1.42894 7:1.72496 8:-1.84817 9:0.334416 10:-2.0423 11:-0.0160041 12:-2.03705 13:-0.202426 14:-2.12716 15:0.245888 16:-0.0218557 
0 1.728659124588826 0 1:0.874657 2:-0.872248 3:0.226259 4:-0.766088 5:-0.063835 6:-0.597176 7:-0.114351 8:-0.215903 9:-0.0526278 10:-0.199278 11:-0.164157 12:0.234684 13:0.132984 14:-0.276685 15:0.297951 16:0.173902 
0 0.9360219249083251 0 1:0.52588 2:0.275392 3:0.575387 4:0.829766 5:0.415067 6:0.154087 7:-0.0350787 8:-0.222672 9:-0.130361 10:-0.0765607 11:-0.0859756 12:-0.462503 13:0.189426 14:-1.23652 15:0.1349 16:0.0187678 
0.1376560261034424 0 0 1:-0.489273 2:0.925067 3:-1.34781 4:1.69092 5:-1.10245 6:0.61915 7:-1.00092 8:0.990325 9:-0.787428 10:0.84635 11:-1.59218 12:0.361486 13:-2.12223 14:1.77799 15:0.823756 16:-1.97955 
0.2671084100351545 0.10446207647197 0.001573571218783266 1:-1.30509 2:0.127972 3:-2.73827 4:0.456068 5:-1.32267 6:0.149535 7:1.47741 8:0.566202 9:-0.299804 10:0.634589 11:-2.64291 12:-1.46482 13:-2.07065 14:0.93715 15:1.13783 16:0.44298 
0.05554950429272849 0.001212355719672517 0.001204058576462996 1:4.21623 2:1.05098 3:3.47293 4:-0.987291 5:2.78541 6:0.824365 7:0.0944108 8:0.62823 9:-0.101003 10:0.775835 11:-1.1119 12:0.416019 13:-1.98431 14:0.171433 15:-1.07778 16:-0.0931294 
0 0.2035803221270288 0 1:0.671324 2:2.31599 3:0.932671 4:1.63819 5:1.06561 6:1.81828 7:0.130599 8:1.52884 9:-0.491896 10:1.09195 11:-0.383037 12:-0.0479098 13:-0.406121 14:-0.120284 15:0.201511 16:-0.971696 
0.0844935060417928 0.03747626649907146 0 1:2.14452 2:1.44587 3:1.44212 4:-1.10394 5:-0.141664 6:0.76261 7:0.0944108 8:1.48647 9:-0.947515 10:-0.218873 11:-1.1119 12:-0.059198 13:-0.992367 14:0.663143 15:-0.630798 16:-0.114136 
0.2713821657133745 0.03458282692984349 0.00406948355420947 1:0.0346999 2:3.67164 3:-0.277088 4:3.90471 5:0.00536996 6:2.84235 7:0.39839 8:3.73981 9:0.429251 10:3.60763 11:1.75079 12:2.86077 13:1.69394 14:3.16802 15:2.42365 16:-0.0207028 
0 1.043317756829301 0 1:-1.46565 2:-0.444364 3:-1.46381 4:-0.507286 5:-1.06163 6:-0.781373 7:-0.690702 8:-0.773145 9:1.09675 10:-0.851665 11:0.0647192 12:-1.28827 13:0.326528 14:-1.23325 15:0.105035 16:0.000522014 
0 0 0.002526341593656917 1:-0.608318 2:-0.743444 3:-0.0847205 4:-0.902148 5:-1.16367 6:-0.169331 7:-1.52398 8:-0.198955 9:-0.811926 10:-1.01375 11:0.356402 12:0.245143 13:2.90248 14:0.145488 15:1.04655 16:1.11806 
0.2281594704723856 0 0.004143413188738398 1:0.769323 2:0.0198899 3:3.9919 4:-0.648548 5:3.40775 6:-1.09285 7:-0.0945855 8:-0.0749943 9:-0.683328 10:0.0573356 11:-0.156519 12:-0.741176 13:0.140883 14:-1.03193 15:-0.920343 16:-0.542288 
0.4423024766952731 0 0 1:-0.445107 2:-0.133689 3:0.247523 4:0.354226 5:-0.407762 6:-0.101967 7:0.833827 8:0.556709 9:-0.947515 10:0.541786 11:-1.1119 12:0.574425 13:-1.81899 14:-0.320277 15:-0.630798 16:-0.171903 
0.6233504364804027 0.02018107687904913 0.001381058996581308 1:-0.0514787 2:-0.425039 3:-0.419616 4:0.0243103 5:-1.49566 6:-0.828077 7:-0.549096 8:-2.12346 9:0.279181 10:-2.32422 11:0.954411 12:-1.14006 13:-0.321895 14:-1.16516 15:-0.22294 16:-1.12385 
0.3350209726165896 0 0.00767173321084159 1:1.28527 2:2.78508 3:1.68076 4:2.45746 5:0.840591 6:1.5418 7:-0.362155 8:0.292731 9:-0.209884 10:-0.103072 11:-0.279349 12:0.0566905 13:-2.42861 14:0.224888 15:-0.900099 16:-2.30005 
0.2639961734619576 0 0 1:0.877423 2:1.08528 3:0.806774 4:1.55397 5:0.58205 6:0.641489 7:-0.0350787 8:0.755001 9:-0.130361 10:0.798099 11:1.39163 12:0.22634 13:0.885407 14:0.816954 15:0.202614 16:0.227288 
0.3391198250994755 0.008104920489664519 0.004540586996071787 1:-0.288995 2:2.24548 3:1.12825 4:2.22104 5:2.12068 6:2.3132 7:-2.13032 8:2.26025 9:1.0632 10:2.19706 11:0.209461 12:2.14234 13:-1.47139 14:2.05702 15:-1.37344 16:-0.28969 
0.2061499406625917 0 0.002075623464960394 1:0.124234 2:1.66695 3:0.152858 4:1.62406 5:-0.13633 6:1.43961 7:-0.0947931 8:0.993551 9:2.06978 10:1.77717 11:0.87072 12:0.116091 13:0.163424 14:1.31068 15:2.6565 16:0.407169 
1.332778327672066 0 0 1:-0.454186 2:-0.163094 3:-1.40381 4:-0.598609 5:-1.41281 6:-0.343729 7:-0.110002 8:-0.291893 9:-0.335512 10:0.123146 11:0.304152 12:-0.307817 13:0.451516 14:-0.468784 15:-0.961255 16:1.03347 
0.4418889045451564 0.06359998432899272 0.006735317121726481 1:-1.00598 2:9.64433 3:-0.333271 4:6.76241 5:1.14484 6:10.8247 7:0.678253 8:10.0554 9:1.55151 10:1.77655 11:-2.67325 12:-2.61704 13:-1.71219 14:0.939622 15:-0.173514 16:-0.0280747 
0.1816585260500016 0 0 1:-1.08152 2:0.109583 3:-1.3414 4:0.078508 5:-1.56359 6:-0.0577283 7:-2.42728 8:-0.105027 9:0.392063 10:-0.945214 11:-0.276565 12:-0.228579 13:-0.436883 14:-0.216125 15:-0.777342 16:1.03409 
0.3278848899523712 0 0 1:-1.47736 2:-0.833668 3:-0.839111 4:1.05599 5:-0.67655 6:0.170217 7:-0.536719 8:-0.144733 9:-0.00162578 10:-0.359785 11:-0.251424 12:-0.107481 13:-0.950043 14:0.0942426 15:-1.11438 16:-0.381258 
0.3942896529936776 0.06499712526461747 0.005749599358199875 1:2.17588 2:-2.08075 3:1.92465 4:-2.19919 5:4.14808 6:-1.51819 7:-0.549096 8:-2.5336 9:-0.93316 10:-0.387858 11:-0.640279 12:-1.96633 13:-1.16304 14:-2.91269 15:-1.67379 16:-0.332587 
0 0.1504749486264695 0 1:-2.00981 2:-1.25922 3:-0.485093 4:-1.149 5:-2.04472 6:-0.632898 7:-0.478295 8:-0.96165 9:0.175153 10:-1.39018 11:0.153809 12:-0.135826 13:-0.184543 14:-0.160595 15:0.873525 16:0.0737701 
0.9006571489999259 0 0 1:0.295594 2:-2.09717 3:0.195752 4:-2.32468 5:0.305941 6:-2.17111 7:0.387849 8:-2.23109 9:0.261545 10:-1.56083 11:-0.00791813 12:-0.354376 13:0.074388 14:-1.4854 15:-0.0395598 16:-0.324908 
0.2944820718859195 0 0 1:0.30037 2:0.83631 3:0.842197 4:0.816394 5:0.628576 6:0.993404 7:0.107291 8:1.3193 9:-0.0526278 10:1.33716 11:2.13817 12:-0.938232 13:0.727767 14:0.0424883 15:-0.868678 16:-0.128927 
0.4409361030810564 0.06273005914617674 0.006377610957194524 1:-10.5085 2:4.0159 3:-11.451 4:-4.62317 5:-13.1399 6:1.47095 7:-0.39811 8:-0.92714 9:-0.163781 10:-0.0250023 11:-1.55508 12:-1.671 13:-0.792344 14:0.886487 15:-0.761226 16:-1.47647 
0.05640094735754343 0.3864639784478805 0 1:-1.62156 2:-0.467697 3:-1.81318 4:1.86343 5:-1.99612 6:-0.156688 7:0.401619 8:-0.000637467 9:-0.397482 10:-0.439995 11:-0.160615 12:-0.294769 13:0.430533 14:1.15313 15:-0.246844 16:0.589266 
0.427009127103669 0.06091921671010936 0.006663782744748992 1:1.01536 2:0.226762 3:0.449949 4:-0.46106 5:-1.21375 6:0.51627 7:6.26175 8:6.02343 9:-0.397482 10:2.93326 11:2.79297 12:2.62745 13:1.00693 14:1.15313 15:-2.44462 16:-0.436688 
0.06319374865172758 0 0 1:-1.76513 2:0.184283 3:-1.74992 4:0.399181 5:-0.84376 6:0.264543 7:-1.75946 8:0.508618 9:-0.299804 10:0.413974 11:-2.27253 12:-1.64931 13:-2.00231 14:0.786216 15:1.34599 16:1.75799 
0.4343384483095903 0.06271308779682588 0.006283491855904808 1:-1.12229 2:-0.764669 3:-1.20586 4:-0.535988 5:-1.13858 6:-0.660297 7:3.55517 8:-3.7066 9:0.445915 10:-0.687569 11:0.73824 12:-0.221877 13:1.30136 14:-0.988537 15:1.05597 16:0.615535 
0 0.3383183502841608 0 1:-0.227141 2:-1.56764 3:0.195752 4:-1.52326 5:-0.152289 6:-1.41462 7:0.0972506 8:-1.41678 9:-0.285421 10:-0.625402 11:0.546779 12:0.501641 13:0.957036 14:-0.0461531 15:1.23686 16:0.967361 
0.1879962941367799 0.161760554408048 0 1:-0.287048 2:2.38057 3:-0.823029 4:2.06379 5:-0.775894 6:1.39563 7:-0.131766 8:0.614813 9:-0.163781 10:0.253105 11:-0.0475554 12:0.168555 13:-0.193207 14:0.115322 15:-1.38285 16:1.92946 
0.3215588871352475 0.04578970192152959 0.004640849316123741 1:2.17588 2:-5.77426 3:1.25486 4:-5.87414 5:0.496247 6:-6.22352 7:0.425785 8:-6.06712 9:-0.811926 10:-4.39749 11:-0.640279 12:-5.14987 13:-0.321895 14:-5.40917 15:-1.06927 16:-0.794157 
0.1516116018315723 0.3092934391819714 0 1:0.742839 2:0.0727171 3:1.49943 4:-0.894841 5:0.670212 6:-0.423602 7:-0.362155 8:-0.708924 9:-0.84879 10:0.673107 11:0.167777 12:-0.67054 13:-0.405374 14:-0.376759 15:0.545047 16:1.2667 
0.1216485606119991 0 0.002224432464130807 1:0.274387 2:-2.50164 3:0.140386 4:-2.32265 5:0.169571 6:-2.70628 7:1.72496 8:-2.71538 9:-2.13468 10:-2.79438 11:-0.480695 12:-2.9009 13:-1.57128 14:-2.56337 15:-1.34334 16:-0.18389 
0 1.60513260643386 0 1:0.197634 2:-0.110778 3:1.55179 4:-0.723808 5:1.32858 6:-1.10591 7:-0.146264 8:-1.41018 9:-0.190846 10:-1.69759 11:-0.310172 12:-0.799676 13:-1.02042 14:-0.592245 15:-0.836655 16:-0.749369 
0.4829942854114193 3.264496782117816 0 1:1.34062 2:-0.425039 3:1.58975 4:0.116956 5:0.828232 6:0.112989 7:0.425785 8:0.43203 9:0.157947 10:-1.05287 11:-0.839615 12:0.779785 13:-0.0415146 14:0.239106 15:-0.283392 16:-0.332587 
0.1753218116609928 0.01621929342814087 0.002728898531082346 1:-2.01726 2:1.92969 3:0.350138 4:2.36932 5:0.286593 6:2.3867 7:-0.0945855 8:2.25775 9:-1.72525 10:2.33706 11:-0.47842 12:1.70154 13:-0.465381 14:1.98256 15:-1.0743 16:-0.747291 
0.4167092855430859 0.05929497780651005 0.006336371753030168 1:-0.0779697 2:1.50865 3:0.326623 4:1.4011 5:0.301532 6:1.78441 7:0.130599 8:1.63052 9:-0.491896 10:1.78552 11:-6.28569 12:-2.98627 13:-2.87397 14:8.92971 15:-0.759522 16:-4.64979 
0.2073592314619693 0.03144135134966346 0.003406552581103395 1:0.760664 2:3.41028 3:0.164576 4:3.77987 5:-1.15103 6:4.53138 7:-0.206085 8:3.99989 9:-0.591844 10:3.71121 11:0.31053 12:3.40371 13:-1.20661 14:4.56434 15:0.266503 16:-0.23462 
0 5 0 1:-0.904693 2:0.356092 3:-0.948074 4:-0.345228 5:-0.955909 6:-0.0758884 7:0.13635 8:-0.152505 9:-0.000623646 10:-0.851837 11:0.427272 12:0.302014 13:0.0522852 14:-0.813818 15:-0.13 16:-0.0199346 
0 0.7802779731079902 0 1:0.356133 2:0.858089 3:0.548346 4:0.372249 5:0.742167 6:0.98734 7:0.0569051 8:0.286223 9:0.31857 10:0.264865 11:-0.434095 12:-0.118429 13:-0.491701 14:0.59986 15:-0.625771 16:0.510346 
0 0.1314752614875747 0.001484479572444741 1:2.6797 2:-0.649599 3:1.36168 4:-0.466579 5:-0.0976177 6:0.118518 7:-0.0834285 8:-0.327492 9:-0.753578 10:0.364415 11:-0.148813 12:0.101576 13:0.180713 14:0.97477 15:1.65741 16:0.243947 
0 1.931334672115368 0 1:-0.0514787 2:1.29435 3:0.250175 4:1.22871 5:0.164263 6:1.08542 7:-0.549096 8:1.18921 9:-0.448224 10:-0.0162338 11:0.356402 12:1.41163 13:0.379056 14:1.45614 15:0.139773 16:1.05212 
0.3302748173602976 0 0 1:-0.497305 2:-0.976527 3:-1.47074 4:-1.02578 5:-0.883842 6:-1.09285 7:-0.0945855 8:-1.26257 9:0.35859 10:-1.02035 11:0.916484 12:-0.859372 13:0.747147 14:-1.03193 15:0.426738 16:1.17974 
0.8407117000893971 0 0 1:0.00765839 2:-0.201053 3:0.0766785 4:-0.423184 5:-0.428941 6:-0.217664 7:-1.71432 8:-0.291637 9:0.334416 10:-0.958421 11:-0.335479 12:-2.01598 13:-1.3224 14:-2.4107 15:0.0869652 16:-0.0467841 
0 0.06817954610026389 0 1:1.1618 2:-0.0956306 3:0.773759 4:-0.141424 5:0.905541 6:-0.0825767 7:0.328933 8:-0.0185205 9:-0.0526278 10:-0.0499029 11:-1.85448 12:-0.462725 13:-1.89919 14:0.880317 15:-0.523619 16:-2.46744 
0.1793363049927387 0 0.001810322546190207 1:-0.548212 2:0.426174 3:-0.681883 4:1.53007 5:-0.454689 6:1.51335 7:1.73225 8:1.75922 9:-1.26913 10:1.64683 11:-0.787583 12:-1.34925 13:-0.565097 14:1.27132 15:-1.92996 16:-1.25118 
0.1595094176572708 0.03036904851614586 0.00212404582691063 1:1.08448 2:0.793985 3:2.51198 4:1.13863 5:1.80433 6:0.977578 7:1.47069 8:1.09425 9:-2.64467 10:1.54659 11:0.239883 12:-0.274956 13:1.41361 14:0.616837 15:-0.000463787 16:-1.94289 
0.1138007477150632 0 0 1:-0.211379 2:1.74865 3:-0.846582 4:1.66185 5:0.0822888 6:1.25234 7:-1.89589 8:1.10306 9:2.68354 10:0.60232 11:-0.0736077 12:0.182381 13:-0.369232 14:0.671205 15:0.383533 16:0.0281826 
0.6746989476997617 0.1465194465932125 0 1:-0.805933 2:-2.3423 3:-1.05679 4:-2.42536 5:-0.83807 6:-2.37043 7:-0.730915 8:-2.75613 9:-0.753578 10:-0.750705 11:-0.0725368 12:-1.12171 13:-0.298477 14:-1.94823 15:-0.114104 16:-1.85297 
0 1.421441868268505 0 1:1.08644 2:-0.178173 3:0.940247 4:-0.138559 5:0.927873 6:-0.315039 7:-0.458709 8:-0.839426 9:0.206528 10:-0.760358 11:-0.029689 12:-1.59951 13:0.0136579 14:-0.880759 15:0.654078 16:-0.0402926 
0.4379548464611706 0.06187614547558584 0.006506854673232813 1:2.4543 2:1.26251 3:0.58507 4:1.0743 5:-0.167721 6:0.175726 7:0.425785 8:0.779072 9:-1.05439 10:1.03996 11:-1.03895 12:0.245143 13:2.20153 14:1.61217 15:-9.77437 16:-0.134772 
0.4184087334745908 0.07353933117981275 0.006120502008639863 1:-1.73775 2:-0.0434052 3:0.388936 4:0.871233 5:-0.0712679 6:1.84526 7:0.313726 8:2.82218 9:0.138634 10:0.745232 11:0.664517 12:2.41066 13:0.246375 14:0.412889 15:-4.84373 16:-0.00880832 
0.3012655921121412 0.0449219782935299 0.004699650415367327 1:-1.30305 2:0.955029 3:-2.60021 4:0.686523 5:-2.40797 6:0.792069 7:-4.26596 8:0.680516 9:-5.35372 10:0.859803 11:-2.33551 12:1.13467 13:-1.35865 14:0.950307 15:0.188281 16:0.669663 
0.4345397242652722 0.0613720782457684 0.006584882506828994 1:4.17822 2:-0.821786 3:2.95006 4:-1.25205 5:2.03325 6:-1.30661 7:-0.536786 8:-0.962356 9:0.429023 10:0.673107 11:-0.614694 12:0.783921 13:-0.950091 14:0.883834 15:-0.900099 16:-4.08343 
0.4286816951647904 0.07272308730834759 0 1:0.465621 2:0.965086 3:0.799365 4:1.08284 5:0.360937 6:1.20765 7:-0.478295 8:1.26557 9:0.392063 10:0.87914 11:-0.362639 12:2.18302 13:-0.35277 14:1.4498 15:0.0480911 16:0.769999 
0.3464061619852072 0.04733039888330123 0.004550883031422925 1:-1.22627 2:0.590219 3:-2.40901 4:-1.72063 5:-4.31671 6:0.554533 7:0.256114 8:-1.82463 9:1.83419 10:0.438097 11:0.479636 12:-0.677109 13:0.802321 14:-1.46679 15:-0.27378 16:0.0149345 
0 0 0.01092494124676127 1:0.636763 2:0.434393 3:-0.589912 4:-0.354206 5:-1.09828 6:-0.140011 7:0.659672 8:0.115663 9:1.0359 10:-0.178623 11:-0.242003 12:-0.510772 13:-0.722095 14:-0.0447027 15:-3.29582 16:0.301919 
0.4099662327788586 0.05697463442105122 0.006159375624582275 1:-1.21453 2:-6.65154 3:-1.51308 4:-6.12898 5:-1.22445 6:-5.54293 7:-0.458709 8:-4.64116 9:0.206528 10:-3.51157 11:0.357183 12:-1.33069 13:-0.105166 14:-1.85707 15:-1.29444 16:-0.512689 
0.2233645257296958 0 0.003740465249255903 1:1.36763 2:2.10401 3:2.63672 4:-1.33725 5:2.25322 6:0.515588 7:-1.38442 8:-0.659138 9:-0.947515 10:-0.218873 11:0.397325 12:0.785632 13:0.164903 14:0.944121 15:-0.239689 16:0.0486623 
0.3162765400176508 0.04491894164766912 0.004746474362828969 1:1.8169 2:2.66334 3:2.29804 4:3.27112 5:2.24697 6:3.60726 7:0.997936 8:3.51089 9:-0.367061 10:3.00999 11:0.511424 12:1.3303 13:0.483595 14:1.24178 15:-1.60477 16:0.193872 
2.503995444679302 0 0 1:-0.749876 2:-0.121607 3:-1.38913 4:-0.208096 5:-1.52698 6:-0.259966 7:0.0972506 8:-0.238161 9:-0.285421 10:0.476329 11:0.0845314 12:0.340508 13:0.704851 14:-0.665829 15:0.456825 16:0.56974 
0.4137910733233967 0 0 1:-0.574589 2:1.18261 3:-0.708153 4:1.05415 5:-0.540811 6:1.13314 7:-0.645006 8:1.12887 9:0.74551 10:1.24393 11:1.47534 12:0.785632 13:1.32217 14:1.71681 15:0.263165 16:0.0644169 
0.4395754018584203 0.0683676741289332 0.006638285252884272 1:0.172679 2:-0.627196 3:-0.154044 4:-1.18888 5:0.032594 6:-0.607291 7:5.75937 8:2.25909 9:-0.000623646 10:-0.348186 11:1.96591 12:-0.638207 13:2.47719 14:-0.278461 15:1.65305 16:0.0196177 
1.17846917077575 0 0 1:0.478086 2:0.590529 3:0.218009 4:-0.0457702 5:-0.107751 6:0.655303 7:-0.417061 8:0.584308 9:0.0625588 10:0.828665 11:0.466453 12:-0.438309 13:0.307285 14:-0.634666 15:-0.0013645 16:0.116459 
0.4050038200966919 0.0381596801981116 0.005549217501370827 1:0.140044 2:0.635585 3:0.406424 4:0.693149 5:-0.203912 6:1.31511 7:-0.352209 8:1.33999 9:-1.05856 10:-0.188485 11:-1.02922 12:-1.75849 13:3.39146 14:0.344983 15:-2.2293 16:-0.397578 
0.3250880621489259 0.05109756228542064 0.004753367941371753 1:0.274387 2:2.36499 3:0.204094 4:2.72821 5:0.169571 6:2.44714 7:1.72496 8:2.5546 9:-3.36923 10:2.80197 11:-0.480695 12:2.61932 13:-1.79527 14:3.28183 15:-2.32866 16:-0.333461 
0 3.355663027291357 0 1:-0.44754 2:0.222832 3:-0.695302 4:0.146699 5:-0.363524 6:-0.0746765 7:-0.458709 8:0.202985 9:0.206528 10:0.446314 11:1.13093 12:1.35753 13:0.607778 14:0.486076 15:-0.428435 16:0.0305668 
0 0.9636989484767448 0 1:1.0622 2:0.0207295 3:0.919965 4:0.147838 5:0.828232 6:0.207095 7:0.425785 8:0.148087 9:1.12782 10:0.198917 11:0.157066 12:0.609672 13:0.238866 14:0.2079 15:-0.0415833 16:0.194921 
0 0.4345118635827671 0 1:-0.329898 2:-0.233995 3:-0.419616 4:-0.284509 5:-0.83169 6:-0.0438557 7:0.425785 8:0.116537 9:-0.811926 10:0.727014 11:0.157066 12:-0.897045 13:-0.181705 14:0.145488 15:-0.162487 16:0.524614 
0.9078306055661186 0 0 1:0.1493 2:-2.07741 3:1.12967 4:-2.20054 5:-0.663999 6:-1.55085 7:-0.206085 8:-2.95827 9:0.216835 10:-1.68198 11:0.817847 12:-2.14202 13:0.0489738 14:-1.87885 15:0.848346 16:-0.030902 
0 0.3885385082131216 0 1:0.515998 2:-1.10108 3:1.07849 4:-0.983867 5:1.45703 6:-1.43232 7:-0.0945855 8:-1.3474 9:-0.683328 10:-2.01515 11:-0.47842 12:-1.33216 13:-0.707887 14:-1.2384 15:0.426738 16:-0.419286 
0 5 0 1:-1.16516 2:0.944106 3:-0.754511 4:0.796359 5:-0.83169 6:0.803104 7:-0.549096 8:0.652875 9:0.036713 10:-0.661686 11:0.157066 12:0.949898 13:0.0986755 14:0.644783 15:0.0793209 16:-0.134772 
2.711943156080163 0 0 1:-0.488509 2:-0.773339 3:-0.59669 4:-0.906775 5:-0.610518 6:-1.05628 7:0.0972506 8:-1.03105 9:-0.285421 10:-0.583827 11:0.176981 12:-0.273809 13:-0.30389 14:-0.985662 15:0.315001 16:-0.623124 
0 3.08995417774778 0 1:1.2708 2:0.0887776 3:1.28738 4:0.110812 5:1.09918 6:0.0277866 7:-0.690702 8:0.0640436 9:-0.856707 10:0.159217 11:0.0647192 12:0.360148 13:0.0530636 14:0.196108 15:0.753487 16:0.0300933 
0.1695892679362951 0 0.002433148443399519 1:1.19266 2:2.56928 3:0.672594 4:2.01834 5:0.934849 6:3.60726 7:-0.224666 8:4.0801 9:-0.367061 10:3.63855 11:0.311374 12:1.67429 13:0.554807 14:1.43204 15:-0.792966 16:-0.0600402 
0 0.7340946888992897 0 1:0.386169 2:-0.882363 3:0.218009 4:-0.223386 5:0.246393 6:-1.07371 7:0.449188 8:-0.620297 9:0.0625588 10:-1.50484 11:0.336213 12:1.14522 13:0.522359 14:-0.383706 15:-0.253202 16:0.00116985 
0.2554075550091985 0 0.003958113976877658 1:0.390591 2:1.09364 3:0.574366 4:1.22931 5:0.422934 6:1.33374 7:0.845731 8:1.33433 9:0.460544 10:0.987084 11:4.09785 12:-0.454806 13:2.84526 14:-0.157974 15:0.662904 16:0.0601988 
0.4379179401001524 0.06230598518323138 0.006229739214049925 1:3.26982 2:-3.8519 3:3.80682 4:-5.81244 5:3.06599 6:-3.72846 7:0.824684 8:-2.5918 9:1.19989 10:-2.26517 11:-0.638865 12:-0.855139 13:0.0420428 14:-1.31429 15:-0.656763 16:-0.940335 
0 1.0896923138239 0 1:-0.886738 2:0.148092 3:-0.419616 4:0.518421 5:-0.499706 6:0.332571 7:-0.549096 8:0.589776 9:0.279181 10:-1.01375 11:1.15375 12:0.949898 13:1.08001 14:0.644783 15:0.562938 16:0.656491 
0.2965142467093247 0.0242155847844004 0.002855367000404542 1:0.662696 2:-2.88559 3:0.501326 4:-3.03587 5:0.0187741 6:-3.26665 7:-0.690702 8:-3.28471 9:-0.856707 10:-3.36443 11:-1.95513 12:-4.13036 13:-1.45099 14:-3.53773 15:0.0239782 16:-0.0191922 
0.09657239053416856 0 0 1:0.438118 2:0.248734 3:0.406424 4:0.390563 5:-0.0404164 6:0.556682 7:0.824684 8:1.48717 9:-1.51025 10:0.469132 11:0.629795 12:-0.511007 13:-0.0438398 14:0.164628 15:1.16595 16:-2.69196 
0.02513123323003508 0 0 1:0.661153 2:-1.52479 3:0.41591 4:-1.55526 5:0.0981256 6:-1.38686 7:-0.886633 8:-1.57216 9:0.237558 10:-1.58827 11:0.557375 12:-1.37221 13:-0.490368 14:-1.58808 15:-0.721569 16:-0.0572567 
0 0.1299949510970085 0 1:-2.78642 2:-0.317521 3:-2.10062 4:0.108441 5:-2.27955 6:0.0577686 7:0.550575 8:0.727148 9:0.192306 10:0.18483 11:1.26387 12:0.393186 13:0.628636 14:0.162178 15:1.80964 16:1.80581 
0.3173339994554611 0.04557782394660131 0.004816205746851099 1:-5.89829 2:0.912266 3:-9.46178 4:-2.29183 5:-9.1313 6:1.65006 7:0.425785 8:-0.104307 9:-0.569458 10:-0.661686 11:-0.04227 12:0.949898 13:0.379056 14:0.0518706 15:-0.646104 16:-0.926034 
0 0 0.0005906435814058714 1:-0.577499 2:-2.22533 3:-0.279425 4:-2.18927 5:-0.0805085 6:-2.21202 7:0.130599 8:-2.26738 9:1.69941 10:-2.30985 11:-0.645377 12:-2.35436 13:-1.19135 14:-2.18538 15:0.288878 16:0.449385 
0 0.1374529738363004 0 1:0.172679 2:0.0568301 3:-0.220213 4:-0.567241 5:-0.626408 6:-0.317435 7:0.13635 8:-0.406358 9:-0.000623646 10:-0.119254 11:-1.43341 12:-1.17955 13:0.102804 14:-0.035117 15:-0.792277 16:0.162006 
0.2584331919622637 0 0 1:-0.53301 2:-0.046397 3:-0.118718 4:0.806785 5:1.30882 6:0.275763 7:0.449188 8:0.320801 9:0.0625588 10:0.715753 11:0.509866 12:0.569391 13:0.414822 14:-0.383706 15:-0.714904 16:-0.0732104 
0.01662710868820765 0 0 1:0.224288 2:-0.909625 3:0.253155 4:-1.16279 5:-0.666094 6:-1.5699 7:0.0569051 8:-0.717788 9:-0.397482 10:-1.14485 11:2.84766 12:1.79613 13:2.15972 14:-2.22798 15:1.04151 16:0.431427 
0.2340257877606238 0 0.004538242551015736 1:-0.963033 2:0.721904 3:-1.42491 4:1.98738 5:-1.3391 6:1.07139 7:-1.38442 8:0.413668 9:-2.64054 10:-0.101848 11:1.25974 12:0.680028 13:0.164903 14:1.57632 15:0.37491 16:0.0119015 
0 0.5495251453724415 0 1:-0.833552 2:0.2612 3:-1.06653 4:0.412552 5:-0.141664 6:0.453832 7:0.0944108 8:-0.230015 9:-0.101003 10:0.307737 11:0.612928 12:0.468821 13:-0.33107 14:0.733388 15:0.654273 16:0.00664992 
0.1545810217202444 0 0.001430401538887683 1:1.03089 2:-1.09058 3:0.41591 4:-1.11507 5:0.0981256 6:-1.17307 7:0.670563 8:-1.35356 9:0.237558 10:-1.44671 11:-3.30122 12:-2.03086 13:-4.18293 14:-1.51609 15:-0.61649 16:-0.0524812 
0.3718372423267056 0.03471316043689569 0.005175696868127215 1:-3.42919 2:0.525043 3:-4.94662 4:-0.00604903 5:-4.55741 6:0.598303 7:-0.0928123 8:-0.00644352 9:1.09604 10:0.0970558 11:1.4037 12:0.808112 13:1.04239 14:-0.104504 15:-0.493065 16:-0.948987 
0 0 0.001500659610809819 1:-0.557782 2:-0.00568359 3:-1.67787 4:0.0430515 5:-2.76721 6:0.103973 7:-0.0928123 8:0.379201 9:0.460276 10:-0.0992755 11:-0.239697 12:-0.742826 13:-0.22782 14:0.0684437 15:2.13275 16:1.52211 
0.5498536041141926 0 0.003906972683217109 1:-1.34223 2:0.340517 3:-2.12993 4:0.103988 5:-1.4918 6:0.509751 7:-3.17367 8:-1.28315 9:1.0359 10:0.342005 11:-0.242003 12:-0.137535 13:-0.604474 14:0.313251 15:1.68911 16:0.023543 
0.439771293581716 0.06267974793202578 0.006391141155157209 1:-1.07343 2:-0.0195249 3:-0.157123 4:-0.133237 5:-0.298728 6:0.00869211 7:0.256114 8:-0.261001 9:5.06891 10:0.810041 11:-6.79191 12:-2.80471 13:-4.59667 14:2.01703 15:-0.107539 16:-0.0563667 
0.381189640163587 0.05013187753354886 0.00514260229966903 1:-0.0365896 2:-3.57158 3:-0.118772 4:-3.92583 5:-0.336358 6:-3.08365 7:-0.664194 8:-3.50486 9:1.72984 10:-4.30991 11:1.74829 12:-3.74139 13:0.665624 14:-1.70021 15:-0.731838 16:-0.217293 
0.2741928953437346 0.02407959499640527 0.003922494004267271 1:-2.98955 2:-1.71558 3:-3.43531 4:-0.980741 5:-4.76141 6:-1.23849 7:-0.664194 8:-1.47968 9:-0.130361 10:0.0283985 11:-0.289783 12:0.942736 13:-0.506556 14:0.0220602 15:-0.000528177 16:0.219419 
0.3771384986938401 0.0529807818665331 0.005752954287440986 1:-4.52534 2:0.860008 3:-4.2208 4:1.25249 5:-3.71723 6:1.35712 7:-0.141025 8:1.31478 9:-0.299804 10:1.95828 11:-2.59 12:-0.265603 13:-1.79728 14:2.69805 15:2.59495 16:1.48115 
0.4271509100951464 0.06078586177619804 0.006525300180778764 1:0.783218 2:4.90891 3:0.570709 4:4.6376 5:-0.671643 6:5.01017 7:0.813288 8:4.97258 9:1.30504 10:4.67478 11:1.12286 12:4.2262 13:0.546956 14:5.02961 15:-4.1005 16:-4.41414 
4.135387903083256 0 0 1:0.295594 2:-0.915905 3:-0.200469 4:-1.00952 5:-0.152289 6:-1.116 7:0.0972506 8:-1.03105 9:-0.285421 10:-0.39674 11:0.45433 12:-0.183172 13:0.200481 14:-0.465934 15:-0.606857 16:-0.324908 
0 1.483787583685077 0 1:-0.327734 2:0.869496 3:-0.279425 4:0.791411 5:-0.462549 6:0.869975 7:0.130599 8:1.02042 9:1.69941 10:1.19103 11:0.010473 12:1.05792 13:-0.406121 14:0.790789 15:0.143267 16:-0.637324 
0.07451482575693119 0.001822040608347786 0.00140196115816249 1:0.0196018 2:-1.68743 3:-0.31385 4:-2.87325 5:-0.352064 6:-2.78779 7:-0.536786 8:-1.51749 9:0.429023 10:-3.31867 11:-0.0557863 12:-2.9821 13:1.07314 14:-3.55689 15:0.242575 16:0.356811 
0.4417869932246755 0.06355207508506289 0.006620420800470872 1:-1.09417 2:10.328 3:-1.81318 4:7.52116 5:-1.83965 6:15.5232 7:-7.52679 8:7.5151 9:-12.5704 10:15.369 11:-1.30923 12:9.27801 13:-3.14312 14:24.6365 15:0.132083 16:-9.59136 
0 0.352766412903724 0 1:-1.18514 2:-0.155874 3:0.738054 4:-0.770763 5:0.180071 6:-0.660297 7:0.265006 8:-0.955675 9:0.127535 10:-0.525965 11:0.73824 12:-0.134331 13:0.812563 14:-0.487957 15:0.19893 16:1.1755 
0 0.6207936139868168 0 1:-2.01709 2:-0.278299 3:-2.20677 4:2.12658 5:-2.23083 6:0.314382 7:-0.287808 8:0.0854206 9:0.31857 10:0.0634762 11:-0.324703 12:-0.168812 13:0.430533 14:0.231011 15:0.586795 16:-0.19993 
0.1112410433242076 0 0 1:0.13322 2:-1.85984 3:-0.685927 4:-2.32391 5:-0.513219 6:-1.21716 7:0.0681308 8:-1.2302 9:0.296191 10:-2.43586 11:-1.76869 12:-2.57405 13:-1.19654 14:-1.16651 15:-2.55916 16:-0.458201 
0.1797301057654825 0 0 1:1.06525 2:-0.992877 3:0.858508 4:-0.989658 5:0.28623 6:-1.04867 7:-0.0947931 8:-1.16226 9:0.256468 10:-0.41266 11:-0.0680756 12:-0.840654 13:-0.0337744 14:-1.03956 15:-0.575455 16:-0.419775 
0.1960085004150204 0.02908214950837334 0.003599870403952663 1:0.0342267 2:0.794891 3:0.195752 4:1.00432 5:-0.152289 6:0.894683 7:0.387849 8:0.961884 9:-0.285421 10:1.09995 11:-4.72284 12:-1.59308 13:-4.46495 14:4.49147 15:-0.323208 16:-3.00885 
0 1.551369713054266 0 1:0.191281 2:0.574799 3:0.228909 4:0.615891 5:0.365629 6:0.647736 7:-0.0928123 8:0.530705 9:0.460276 10:0.947825 11:1.5487 12:1.09634 13:1.42345 14:0.115611 15:-0.916583 16:-1.07254 
0.0881655311255426 0 0.001521006780021104 1:-0.288995 2:2.57644 3:-0.553844 4:2.62684 5:-0.377637 6:2.59292 7:-0.0513726 8:2.66863 9:1.0632 10:2.68996 11:-0.50355 12:3.42078 13:-2.45237 14:3.27229 15:-0.572795 16:-0.23804 
0 0.4720702655411203 0 1:-1.18753 2:-0.439253 3:-1.05137 4:-0.234681 5:-0.9045 6:-0.175384 7:-0.886633 8:-0.333455 9:0.237558 10:-0.52652 11:0.674302 12:-0.164686 13:2.31919 14:-0.508244 15:0.434304 16:0.0430298 
0.9479356388778565 0 0 1:-1.18753 2:0.935766 3:-0.0731832 4:0.792438 5:-0.403187 6:0.53725 7:-0.886633 8:0.686655 9:-0.437529 10:0.322883 11:0.323521 12:-2.38745e-05 13:-0.650915 14:0.283634 15:-0.61649 16:-0.0429301 
0 0.1816371564348165 0 1:-1.09122 2:0.00542887 3:-1.73848 4:-0.304818 5:0.665541 6:1.16371 7:-0.349636 8:0.999419 9:0.334689 10:0.0283985 11:0.984015 12:-0.572717 13:-0.433295 14:0.0551808 15:1.48918 16:-0.366798 
0 0.05174667670178169 0 1:1.70334 2:0.851019 3:2.08382 4:1.25022 5:1.80433 6:1.55275 7:-0.478295 8:1.43689 9:-2.86158 10:1.99155 11:1.96138 12:0.930845 13:1.45567 14:1.39427 15:0.92208 16:-1.9669 
0 0.5228985985045883 0 1:-2.55726 2:-0.998169 3:-1.08941 4:-1.27273 5:-1.16367 6:-0.859446 7:0.425785 8:-1.11388 9:0.400415 10:-1.71788 11:0.755075 12:0.439559 13:1.36039 14:-1.00913 15:-0.706556 16:0.128982 
0 0.02975641376901863 0 1:0.0750183 2:1.3668 3:0.720965 4:1.30938 5:1.07189 6:1.29962 7:-0.141025 8:1.31478 9:-0.299804 10:0.634589 11:0.320149 12:0.841363 13:0.184668 14:-0.220014 15:-1.01316 16:-1.49493 
0.299631907601002 0 0.001496190526844035 1:1.22897 2:0.511609 3:1.19242 4:0.226264 5:0.331575 6:0.711118 7:0.279479 8:0.580416 9:-0.130361 10:0.0633849 11:-0.901207 12:0.364108 13:-0.250142 14:-2.82631 15:-2.46531 16:-0.398273 
0.8222932287176452 0 0.001195230135302927 1:1.08448 2:0.0525496 3:1.22752 4:-0.535248 5:1.3232 6:-0.230279 7:-2.42728 8:-0.0479189 9:0.392063 10:-0.322264 11:-0.448714 12:-0.414087 13:-0.689223 14:0.228121 15:-0.728787 16:0.914047 
0.3924521394293096 0 0 1:-0.0514787 2:-1.06185 3:-0.419616 4:-0.994793 5:-0.167721 6:-1.14177 7:0.425785 8:-1.17698 9:0.642884 10:-1.77656 11:0.755075 12:-0.70263 13:0.379056 14:-1.25878 15:0.139773 16:-0.926034 
0.07439363536811328 0.01294840096738815 0.0008463498530956508 1:1.88556 2:0.2612 3:4.07023 4:-3.20371 5:3.45066 6:-0.966544 7:0.0944108 8:-0.945219 9:-0.101003 10:-0.511434 11:-0.680692 12:-0.587217 13:-0.827043 14:-0.882232 15:0.37491 16:-0.0563686 
0.1907757073497431 0 0.002974009292735804 1:-0.574589 2:-1.5158 3:0.00860422 4:-0.753984 5:-0.141664 6:-1.33708 7:0.0944108 8:-0.0869744 9:0.74551 10:-0.101848 11:-0.680692 12:-1.69606 13:0.495552 14:0.171433 15:4.39774 16:0.0329076 
0 0.2207957905221727 0 1:0.616303 2:1.16837 3:0.375309 4:0.809239 5:0.823397 6:1.56663 7:0.13635 8:1.15907 9:-0.000623646 10:0.796474 11:-1.29028 12:-0.495749 13:-1.16017 14:1.08427 15:-1.40361 16:-0.0159793 
0.08630845173992477 0 0.003094697578292227 1:1.74938 2:1.39952 3:1.07381 4:0.927849 5:0.766443 6:1.93612 7:-0.323852 8:1.09678 9:-2.30378 10:0.686035 11:-1.4439 12:-1.15882 13:-2.28602 14:1.62708 15:-0.297431 16:-1.67763 
2.053693901234954 0 0 1:0.358646 2:0.201018 3:0.108298 4:0.0265261 5:-0.521429 6:0.0277866 7:-0.690702 8:0.035175 9:1.09675 10:-0.0718414 11:-1.50628 12:-0.748269 13:-1.45099 14:-0.00808619 15:-0.70553 16:-0.0241207 
0.3614099646398339 0 0.00494006620115645 1:0.0545956 2:-0.332123 3:-0.28473 4:-0.338714 5:-0.521429 6:-0.492388 7:-0.690702 8:-0.368985 9:-0.856707 10:-0.476194 11:-3.52613 12:-0.407218 13:1.14692 14:2.15054 15:0.105035 16:0.000522014 
0.01369866540046921 0 0 1:0.465621 2:1.59245 3:0.371213 4:1.25022 5:-0.120194 6:1.3802 7:-0.478295 8:1.15135 9:-2.86158 10:1.50209 11:0.842406 12:0.977222 13:1.49773 14:1.06108 15:1.1163 16:-2.01492 
0.2018280730504648 0 0 1:0.607823 2:-0.896031 3:2.09477 4:-0.982307 5:1.16236 6:-0.81007 7:0.256114 8:-0.143729 9:-0.591844 10:-0.268596 11:0.31053 12:-0.92126 13:-0.829931 14:-1.01726 15:-0.897182 16:0.0556781 
0.01761978550032033 0 0 1:0.834837 2:1.1766 3:0.362971 4:-0.207827 5:-0.165715 6:0.902046 7:0.906114 8:1.69433 9:-0.190352 10:-0.67594 11:0.782477 12:-0.445368 13:0.902713 14:-0.958987 15:-1.55612 16:-0.0372673 
0.3281728767352535 0.2154786926049093 0.005111216229647924 1:-1.28729 2:-1.73172 3:-0.552791 4:-0.989658 5:0.0749499 6:-0.737632 7:0.561955 8:-0.583872 9:1.34445 10:-0.169345 11:-5.70085 12:-4.18926 13:-3.38615 14:2.29778 15:-0.536672 16:0.115811 
0.1564302350916816 0.04205983250021424 0.002984804857498452 1:-0.332632 2:1.09172 3:-0.779691 4:2.31532 5:-1.1172 6:1.43505 7:-0.0373404 8:1.82901 9:-0.471624 10:0.745478 11:0.160376 12:-0.229233 13:-1.15851 14:-0.910016 15:1.37639 16:-0.626753 
0.02732154006291827 0 0.001729410847171465 1:-3.03852 2:-0.504364 3:0.693439 4:0.0123491 5:-1.09828 6:0.231281 7:0.659672 8:0.197945 9:1.0359 10:0.428777 11:-0.017476 12:0.182381 13:-0.251611 14:1.38711 15:0.442877 16:-0.0506907 
0 3.047997533901035 0 1:0.52588 2:-0.467006 3:0.498258 4:0.346964 5:0.415067 6:-0.820716 7:0.279479 8:-0.676592 9:-0.130361 10:-1.09117 11:0.219736 12:-0.324734 13:-0.616448 14:-0.276025 15:0.161985 16:0.176142 
0 1.603324942901434 0 1:-0.445107 2:0.327015 3:-0.588694 4:0.179245 5:-0.540811 6:0.0832991 7:0.833827 8:0.342148 9:0.74551 10:0.951371 11:0.612928 12:-1.00963 13:-0.000420979 14:1.15485 15:-0.295562 16:0.0329076 
0.1903764967578586 0 0 1:-0.750631 2:-0.436801 3:-0.742389 4:-0.690463 5:-0.883842 6:-0.413914 7:-0.652271 8:-0.668783 9:1.40051 10:-0.564409 11:0.701884 12:-0.662379 13:0.625895 14:-0.949339 15:0.811619 16:1.83575 
0.4417795908514363 0.06307221732023338 0.006677890171545964 1:-4.65285 2:4.40875 3:-5.59094 4:-0.578688 5:-6.5725 6:0.665932 7:4.09685 8:1.27543 9:-0.297561 10:0.590278 11:-0.921886 12:-0.668778 13:-1.05658 14:0.800524 15:-0.244285 16:-0.229869 
0.182814088841215 0.03352263686864074 0.00375883510542772 1:0.725481 2:-0.331988 3:0.625831 4:-0.00943211 5:0.468638 6:-0.246632 7:1.13896 8:-0.354127 9:-1.43928 10:0.983493 11:-1.21357 12:-1.91847 13:-1.92659 14:-0.803816 15:-5.09693 16:-1.1259 
0 0 0.001113942516714261 1:0.590897 2:-3.42031 3:0.980008 4:-2.7998 5:0.931622 6:-3.2921 7:0.621324 8:-2.87589 9:-0.0217951 10:-3.17835 11:0.557396 12:-2.01789 13:1.003 14:-1.36221 15:1.43598 16:0.00727492 
0 0.1178135944171426 0 1:-1.30509 2:0.240593 3:-1.25574 4:0.683619 5:-0.84376 6:0.379551 7:-0.141025 8:0.220703 9:1.72408 10:0.579435 11:-1.58467 12:-1.28032 13:-2.00231 14:1.38995 15:0.374574 16:1.2043 
0.328281529602305 0.03153451053437969 0.004442763340830363 1:-0.399373 2:-1.99842 3:-0.649854 4:-1.57544 5:-0.584862 6:-1.49113 7:-0.0373404 8:-1.66643 9:-0.471624 10:-1.96003 11:-3.40813 12:-1.8785 13:-2.90015 14:-2.42014 15:1.89389 16:-0.722452 
0.4418369047618105 0.06296091002731496 0.006574326306666378 1:-7.2426 2:2.50194 3:-9.7174 4:0.363671 5:-16.1873 6:2.10848 7:-2.54768 8:1.70955 9:1.09675 10:0.967923 11:-2.40399 12:-0.123009 13:-2.27138 14:1.27542 15:0.0239782 16:-0.0635491 
0.2860181714139008 0.03060994053244995 0.004790240695192062 1:1.0622 2:0.370976 3:0.919965 4:-0.500683 5:0.496247 6:-0.577126 7:0.425785 8:0.526678 9:-1.05439 10:0.883488 11:-4.627 12:-0.654026 13:0.0986755 14:-0.135365 15:-1.12972 16:-0.794157 
0 0.01285076552225776 0 1:1.29157 2:0.288326 3:1.02821 4:0.559973 5:1.04572 6:0.397868 7:0.842322 8:0.174209 9:-1.43928 10:1.04667 11:-0.179037 12:-1.52486 13:0.172378 14:0.611047 15:-0.0172389 16:-0.624754 
0.7324795025037347 0 0 1:-0.805933 2:-0.552874 3:-0.711295 4:-0.809366 5:-0.467844 6:-0.379271 7:-1.3784 8:-0.813219 9:0.0857238 10:0.182884 11:0.690226 12:-0.921536 13:0.796815 14:-0.92328 15:-0.258297 16:0.921738 
0.3806755128109115 0.0550056542372229 0.005789979915536658 1:0.0545956 2:-0.444364 3:-0.28473 4:-0.479191 5:0.558978 6:-0.318996 7:-0.690702 8:-0.195774 9:-0.856707 10:-0.274018 11:0.176933 12:-0.17985 13:0.46326 14:-0.153939 15:-11.0808 16:-0.0389064 
0 0.07229283515245015 0 1:0.294251 2:1.54592 3:0.442494 4:0.806785 5:0.246393 6:2.04695 7:0.0160637 8:2.05242 9:0.0625588 10:2.55998 11:-2.3554 12:-0.886176 13:-1.52084 14:2.1259 15:1.35576 16:-0.448831 
0.06254358277640508 0.01232000167498321 0 1:-0.749876 2:0.876357 3:-0.59669 4:1.12761 5:-0.610518 6:1.15348 7:0.0972506 8:1.28332 9:0.261545 10:0.871289 11:-5.00019 12:-1.41181 13:-4.21276 14:3.75186 15:0.385913 16:-1.41837 
0.3647354236271752 0.05949421473937365 0.004998190904970938 1:-3.04423 2:-0.402273 3:-3.07699 4:-0.264508 5:-2.87595 6:-0.153402 7:-2.13032 8:-0.113433 9:-0.983567 10:-0.319325 11:-1.57307 12:-0.709548 13:0.163583 14:-0.196303 15:2.84532 16:0.287065 
2.205659599061509 0 0 1:0.947732 2:0.376628 3:1.19242 4:-0.594499 5:1.083 6:0.606674 7:-0.349636 8:0.685167 9:0.334689 10:1.18295 11:-0.442639 12:1.4387 13:-0.653079 14:0.154543 15:-1.43606 16:0.128929 
0.197080104460061 0.02263060321609855 0.003153399178276789 1:0.207705 2:3.38256 3:0.0766785 4:3.48368 5:0.169571 6:3.19592 7:-0.567895 8:3.1105 9:-0.900131 10:3.11165 11:0.564859 12:0.723062 13:-1.24773 14:1.84234 15:-2.32866 16:-0.34177 
0.1590939819714713 0 0.001706080680997424 1:-3.07356 2:-0.938815 3:-3.81156 4:0.108441 5:-3.8721 6:-0.971431 7:-1.00092 8:-0.93964 9:0.437239 10:-1.05285 11:0.681002 12:-0.541977 13:1.22342 14:-1.61322 15:0.708736 16:0.998269 
0.09288667242118452 0 0.003974862690292338 1:-1.59803 2:-1.83948 3:1.34913 4:-0.480869 5:1.35834 6:-0.0145859 7:-0.458709 8:-0.34888 9:-0.912354 10:-0.519024 11:-0.416561 12:-0.0313837 13:0.488954 14:-0.929574 15:-1.9199 16:-2.04798 
0 0.04218821598399885 0 1:-0.439787 2:-1.56382 3:0.492762 4:-0.977562 5:0.508479 6:-0.857706 7:0.845731 8:0.620048 9:0.158195 10:-1.30183 11:0.777854 12:-0.294493 13:1.00841 14:-0.755736 15:1.23483 16:0.308402 
0.3546444895028593 0.04410695832344308 0.004153080922108584 1:1.10446 2:0.0438622 3:2.40607 4:0.424096 5:3.2259 6:0.203049 7:-0.362155 8:-0.202062 9:0.429023 10:0.506783 11:-0.391131 12:0.939757 13:-1.72826 14:0.138938 15:-0.429586 16:-4.04703 
0 1.458119751772276 0 1:-0.309223 2:0.628328 3:0.00372648 4:0.45742 5:0.310057 6:0.710488 7:0.256114 8:0.716269 9:0.216835 10:0.586875 11:0.817847 12:0.683163 13:0.676763 14:1.41766 15:0.765225 16:0.101515 
0 1.764437190758774 0 1:0.744217 2:1.73629 3:0.707727 4:1.43479 5:0.455135 6:1.49947 7:-0.0513726 8:1.29036 9:1.0632 10:1.00372 11:0.744219 12:1.15893 13:1.14457 14:0.588562 15:-0.634383 16:-0.108916 
0.1454490740589941 0 0.003121445430172706 1:-0.244295 2:3.22655 3:-0.00670086 4:3.12623 5:1.35465 6:2.89715 7:-1.22373 8:0.292352 9:-0.0670827 10:1.83481 11:-0.308896 12:1.44534 13:-0.542688 14:1.4092 15:0.402705 16:-0.0350581 
0.4415291202861334 0.06319140374136833 0.006717102409362463 1:-2.70832 2:-0.838205 3:-2.50976 4:-1.87392 5:-2.25666 6:-0.959974 7:-0.0350787 8:-1.13051 9:-0.595412 10:-0.251493 11:-0.748351 12:0.44677 13:-1.23917 14:-0.607231 15:-0.758924 16:38.7878 
0.03350373605889821 0 0 1:0.118421 2:0.334208 3:0.636852 4:0.0126333 5:0.51866 6:0.133572 7:-0.738422 8:-0.0261793 9:0.0220624 10:-0.279058 11:0.129255 12:-0.248691 13:0.364971 14:0.265575 15:-4.39914 16:-2.02049 
0 1.288179263226896 0 1:-0.21616 2:0.612313 3:0.362971 4:-0.0888798 5:0.40188 6:0.309613 7:-0.274386 8:-0.144733 9:-0.00162578 10:0.483295 11:0.265526 12:0.531766 13:-0.317395 14:1.50421 15:-0.175664 16:0.12375 
0.01943867942904142 0.3830475593351051 0.002323130208162106 1:-0.0640455 2:-0.178173 3:-0.695302 4:-0.880231 5:0.497407 6:-0.43522 7:-2.34849 8:-0.287561 9:-2.03124 10:0.591114 11:-0.609998 12:-0.389812 13:-0.461638 14:-0.929574 15:-0.0435412 16:-1.57558 
0.2172061282089922 0 0 1:-0.346273 2:-0.155524 3:-0.239169 4:0.254971 5:0.0749499 6:0.506504 7:-0.0947931 8:0.257421 9:-0.106194 10:0.657923 11:-0.302775 12:1.16851 13:-0.625371 14:0.699618 15:-0.48927 16:3.22649 
0 0.06268647656695597 0.002394154155840308 1:1.34062 2:1.23067 3:0.250175 4:0.827241 5:-0.83169 6:0.865841 7:0.425785 8:0.305833 9:1.61276 10:1.4507 11:-0.241606 12:0.0993321 13:0.379056 14:-0.821896 15:-1.55289 16:-1.84917 
3.242080741504347 0 0 1:-0.553504 2:-0.416304 3:-0.677758 4:-0.535382 5:-0.521429 6:-0.550185 7:-2.54768 8:-0.628802 9:1.09675 10:-0.447312 11:0.513575 12:-0.321955 13:0.189796 14:-0.445646 15:0.0239782 16:-0.0142636 
0.2262266665194575 0 0.003526802365745033 1:0.979189 2:0.590274 3:2.3978 4:-1.97885 5:1.72102 6:0.145055 7:-1.38442 8:-0.730658 9:1.59202 10:-0.452921 11:1.25974 12:-0.587217 13:0.826201 14:-0.250033 15:0.766019 16:0.0381592 
0.4358152584953077 0.06675025101420512 0.006563081681793446 1:-0.632845 2:4.76378 3:0.705322 4:2.94025 5:0.0746472 6:3.07519 7:0.107291 8:2.10883 9:0.192306 10:1.16644 11:-1.30075 12:-0.716329 13:-1.80006 14:0.00259166 15:-0.0635396 16:-3.46004 
0 0.8802703927271804 0 1:0.690656 2:-0.619337 3:1.45469 4:-0.562522 5:0.701291 6:-0.670477 7:0.742498 8:-0.640003 9:0.460276 10:-0.737352 11:-1.68975 12:-0.70165 13:-0.862924 14:-0.293175 15:-1.17069 16:-0.856321 
0 0.7246242290792124 0 1:0.183142 2:1.01121 3:0.388936 4:1.02886 5:0.102462 6:1.65721 7:0.313726 8:1.85775 9:-0.426518 10:1.94156 11:0.41261 12:-0.518867 13:1.39847 14:1.05933 15:0.478942 16:0.0778903 
0.08466880133287678 0.2166953062336639 0.001546308464850821 1:-1.44358 2:1.61276 3:-1.4243 4:1.7537 5:-0.167721 6:1.49322 7:-1.52398 8:1.72555 9:-0.569458 10:0.0228845 11:1.35308 12:1.87337 13:0.799626 14:1.48734 15:0.744294 16:0.788368 
0.6845121081218508 0 0 1:-0.307067 2:0.558215 3:-0.403193 4:0.693149 5:-0.203912 6:0.556682 7:-0.352209 8:-0.131801 9:0.748201 10:0.953692 11:0.0442595 12:0.75798 13:0.557338 14:0.525339 15:-1.53238 16:1.57608 
0.8082965034460081 0 0 1:-0.161208 2:1.31348 3:0.0488061 4:0.643919 5:-0.522444 6:0.772733 7:-0.536786 8:-0.310676 9:1.06793 10:0.922594 11:0.39134 12:-0.0471996 13:0.139343 14:0.769235 15:0.410615 16:0.356811 
0.5946281981824413 0 0 1:-1.06142 2:0.157695 3:-0.215377 4:0.234805 5:-0.0581811 6:-0.327787 7:0.405443 8:-0.349278 9:-0.39001 10:0.191847 11:3.31275 12:-0.737604 13:1.84052 14:-0.820742 15:-0.34 16:0.012415 
0.04860568751270884 0 0 1:-1.31852 2:-2.09421 3:-1.17513 4:-2.091 5:-1.16216 6:-2.04483 7:-1.7995 8:-1.95572 9:-0.540347 10:-1.56762 11:0.611342 12:-1.12365 13:-0.6007 14:-1.08521 15:1.55393 16:0.048309 
0.3252865935157083 0.04704567947067555 0.004240664237310206 1:1.85213 2:-0.461258 3:0.707933 4:-0.637577 5:1.59698 6:-0.650254 7:0.350051 8:-0.61507 9:0.61504 10:-1.2693 11:3.64858 12:-1.13102 13:1.31502 14:-0.111801 15:4.3866 16:-0.0373511 
0.1557169507208397 0 0 1:-0.633399 2:-1.59885 3:-1.81541 4:-1.55801 5:-1.62679 6:-1.60285 7:2.02758 8:-1.72141 9:0.0398162 10:-1.61643 11:-0.147044 12:-1.44711 13:8.59607e-05 14:-1.48753 15:-0.880734 16:-0.151958 
0.03809584440977754 0 0 1:-1.53195 2:0.132911 3:-0.80052 4:-0.539314 5:0.1883 6:-0.0302965 7:0.256114 8:0.442633 9:0.216835 10:0.28932 11:-2.90248 12:-0.188806 13:-0.202142 14:-0.942344 15:0.224943 16:0.0556781 
0 0.6314177913980979 0 1:-1.34223 2:-0.316612 3:-0.589912 4:-0.629122 5:-0.311235 6:-0.511304 7:0.659672 8:-0.707167 9:1.0359 10:0.255234 11:2.0594 12:1.51537 13:1.39508 14:0.40274 15:0.383533 16:0.0189034 
0 5 0 1:-0.282947 2:-0.184061 3:-0.341307 4:-0.540816 5:0.361329 6:-0.654532 7:0.0681308 8:-0.598811 9:0.296191 10:-0.523761 11:0.0154877 12:0.611618 13:-0.15712 14:-0.260102 15:0.238993 16:0.0930116 
0 1.274185709246475 0 1:0.919477 2:-0.504364 3:0.180099 4:-0.170928 5:0.475812 6:0.138458 7:0.659672 8:0.691643 9:-0.611741 10:-0.0918519 11:-0.242003 12:0.182381 13:-0.369232 14:0.671205 15:0.0274661 16:-0.0321323 
0.1527258455971701 0 0.001728014270347149 1:1.85213 2:-0.627624 3:0.707933 4:-0.656159 5:0.819925 6:-0.706186 7:2.0926 8:-0.764873 9:3.01052 10:-1.28735 11:-1.24948 12:-1.08429 13:0.475906 14:-0.270769 15:-1.12943 16:-0.0466677 
0.4048874874877704 0.0589215366110929 0.005585201835215255 1:-0.303096 2:0.226762 3:0.548346 4:-0.154051 5:0.507456 6:0.179791 7:-0.632522 8:-0.258812 9:0.31857 10:-0.188259 11:-0.215311 12:-0.269578 13:3.88891 14:-0.137837 15:5.66442 16:1.45738 
0.1673532027395887 0.005319567039720626 0.002439048452908241 1:-0.434942 2:-0.404564 3:-0.534021 4:-0.636493 5:0.66393 6:0.112495 7:-0.632522 8:-0.0293235 9:1.03462 10:0.113823 11:3.23054 12:2.52668 13:3.08195 14:-0.875534 15:1.19308 16:1.1417 
0.05766358998323298 0 0.001322670199997988 1:0.62001 2:0.801284 3:-0.538547 4:0.806626 5:-0.282731 6:0.964759 7:-0.730915 8:0.935399 9:-0.753578 10:1.06461 11:-1.06413 12:1.03572 13:-2.55752 14:-1.30289 15:0.0506883 16:-2.36131 
0.3357223425282281 0 0.005609998326823712 1:2.87958 2:0.356811 3:0.905004 4:0.352244 5:-2.90975 6:0.32346 7:0.670563 8:0.249465 9:0.237558 10:0.889151 11:-0.027261 12:0.933062 13:-0.570641 14:1.57943 15:-0.51141 16:-0.100237 
0.04278762834081803 0 0 1:0.816971 2:-0.257922 3:1.06206 4:-0.34026 5:1.59698 6:-0.333308 7:-0.521224 8:-0.203111 9:0.61504 10:-0.186069 11:2.10183 12:0.738022 13:1.5248 14:-0.16479 15:4.47629 16:0.0325236 
0.3057016495316988 0.03764492316345093 0.003968047707246273 1:-3.72654 2:-0.311658 3:-4.51028 4:-0.768542 5:-5.08404 6:-0.481942 7:-0.567895 8:-0.202693 9:1.56896 10:-0.361182 11:0.129212 12:-0.0775809 13:-0.973962 14:0.0538809 15:0.818011 16:0.127715 
0.3680532349326299 0.04303944626685414 0.005243205806119502 1:0.778448 2:1.96199 3:-0.193052 4:2.03086 5:-1.76363 6:2.05989 7:0.564058 8:2.39258 9:0.0857238 10:0.623746 11:-0.301366 12:1.10245 13:0.112257 14:2.68302 15:3.8821 16:0.837014 
2.999691937256276 0 0 1:0.144695 2:0.607833 3:-0.538547 4:0.121054 5:-0.467844 6:0.367412 7:-0.730915 8:0.449672 9:0.505375 10:0.701545 11:0.308845 12:-0.543429 13:0.180713 14:0.177589 15:-0.0729057 16:0.858195 
0.4495855097158649 0 0 1:-1.00441 2:-0.375186 3:-0.839111 4:-0.222696 5:-1.01711 6:-0.317669 7:-0.536719 8:-0.296722 9:0.1871 10:0.28758 11:0.0932095 12:0.0386328 13:0.0893078 14:-0.704173 15:0.19706 16:0.26281 
0.1365132539612306 0 0 1:-1.49936 2:0.5969 3:-0.72704 4:0.844441 5:0.286574 6:0.51876 7:-1.5291 8:0.96153 9:-1.05856 10:-0.257708 11:0.434616 12:-0.790614 13:-0.645018 14:-0.737149 15:-0.388717 16:-0.841652 
0.527649690193539 0.1163070889469592 0.005079958241549831 1:-0.494093 2:0.71602 3:-0.589912 4:0.0123491 5:-1.09828 6:-0.418481 7:-1.89589 8:0.197945 9:2.68354 10:-0.178623 11:-0.242003 12:-0.777369 13:-0.722095 14:-0.492145 15:-3.94861 16:0.357594 
0.4093553176769856 0.05762827630043431 0.005740278542135324 1:-5.06303 2:0.339135 3:-7.78731 4:-1.27273 5:-6.80741 6:0.771735 7:0.425785 8:-0.356701 9:-0.569458 10:-1.18978 11:-0.440942 12:-0.0221773 13:-0.742465 14:-1.16516 15:-0.22294 16:-1.32167 
0.1933640077269613 0.2539991006971358 0.002236529443556793 1:0.414438 2:0.259635 3:0.0767609 4:-0.356512 5:0.00456357 6:0.170217 7:-0.405552 8:-0.342318 9:0.1871 10:-0.28451 11:2.89336 12:-1.28552 13:3.70444 14:-2.06318 15:0.0728185 16:0.131069 
0.5428978824826711 2.743784665612304 0 1:1.56693 2:0.31334 3:1.16934 4:0.0099927 5:1.2188 6:0.79368 7:0.13635 8:0.778287 9:-0.000623646 10:0.521756 11:0.248361 12:0.843353 13:-0.14979 14:0.159558 15:-1.19983 16:-0.0911287 
0.06684681693775515 0 0.001654932657026058 1:0.289081 2:0.480845 3:-0.24127 4:0.277094 5:-0.0404164 6:0.177466 7:-1.5291 8:0.62512 9:-1.51025 10:0.0191837 11:2.3864 12:-0.855139 13:3.04793 14:0.633552 15:-0.442326 16:-0.915664 
0.3312066690098336 0.1151286395685075 0 1:0.760664 2:-0.896031 3:1.29052 4:-0.317818 5:0.918843 6:-0.459172 7:-0.206085 8:-0.612818 9:-0.591844 10:-0.863707 11:-1.71874 12:0.369254 13:-0.453258 14:-0.867423 15:-1.76995 16:-0.428152 
0 0.3619438023784984 0 1:-0.749876 2:-0.141974 3:-0.99291 4:0.120694 5:-1.52698 6:-0.0409807 7:0.0972506 8:0.233285 9:0.261545 10:-0.334378 11:0.36188 12:0.169305 13:0.074388 14:-0.345996 15:0.669561 16:0.0727131 
0.4423881508437693 0.06322972705947033 0.007012675310748895 1:-0.342017 2:-1.97598 3:0.59279 4:-0.537629 5:1.01097 6:-0.622991 7:-0.536786 8:-0.515834 9:-9.79348 10:-5.84125 11:5.30973 12:2.08255 13:1.54004 14:-1.666 15:0.67948 16:-0.371097 
0 1.466899256763018 0 1:0.440969 2:0.0274868 3:0.365107 4:0.0430515 5:0.477516 6:-0.0772812 7:-0.0928123 8:-0.323223 9:1.09604 10:-0.00110987 11:0.920346 12:0.58851 13:0.724835 14:-0.340343 15:0.269269 16:0.255671 
0.09017945985277154 0 0.03525342906872539 1:0.702944 2:0.681124 3:0.122473 4:0.54606 5:-0.363524 6:0.105595 7:1.43107 8:0.325621 9:1.32541 10:-0.953426 11:0.357183 12:-0.434616 13:0.0136579 14:0.486076 15:-2.9543 16:-1.85902 
0.04247073573513831 0.6082966303847782 0 1:0.226941 2:-1.34842 3:-0.754511 4:-1.05656 5:-0.83169 6:-1.86325 7:1.40067 8:-1.08233 9:1.85523 10:-0.0944705 11:1.15375 12:-0.338102 13:0.799626 14:-1.50843 15:-0.343844 16:-0.20071 
0 0 0.003202420651224214 1:1.0622 2:1.23067 3:-0.0847205 4:1.10518 5:0.164263 6:0.708997 7:0.425785 8:1.34696 9:-0.448224 10:-0.505213 11:1.15375 12:1.67895 13:0.0986755 14:1.7994 15:0.744294 16:1.44775 
0.422827233237848 0.06218637396705726 0.005828421163204719 1:2.4543 2:-0.838966 3:0.250175 4:-1.24185 5:0.164263 6:-3.21211 7:-2.49886 8:-3.89022 9:-0.811926 10:-2.6176 11:0.555739 12:-2.13644 13:0.519246 14:-3.06872 15:-0.343844 16:-1.25573 
0 5 0 1:0.314954 2:0.714081 3:0.189743 4:1.36085 5:0.0811003 6:0.537046 7:0.279479 8:0.615333 9:-0.130361 10:0.518208 11:0.117832 12:0.694753 13:-0.72634 14:1.84369 15:0.161985 16:-0.394338 
0.0427327726255193 0.4204812976027434 0 1:-2.01709 2:0.226762 3:-2.20677 4:2.30202 5:-2.30907 6:0.583565 7:-0.287808 8:0.171479 9:0.31857 10:-0.188259 11:-0.160615 12:-0.294769 13:0.315253 14:0.722809 15:-0.4742 16:0.589266 
0.1013474926022841 0 0 1:0.354049 2:1.09152 3:1.20678 4:0.928736 5:0.475812 6:0.78822 7:-0.618109 8:-0.131186 9:-0.611741 10:-0.438938 11:-0.971716 12:-0.137535 13:-1.48663 14:0.223763 15:-0.387945 16:-0.0599699 
0 0.02666179133183895 0 1:1.77743 2:0.463337 3:1.9693 4:0.496373 5:1.28791 6:0.634893 7:-0.0513726 8:0.601225 9:1.0632 10:0.329227 11:-1.57307 12:0.126352 13:-0.163411 14:0.537926 15:2.10627 16:0.119203 
0 0.1090615394944214 0 1:-0.776807 2:0.71602 3:0.436769 4:0.65382 5:0.475812 6:0.881043 7:0.659672 8:0.691643 9:-0.611741 10:1.20972 11:1.55421 12:1.94192 13:1.10103 14:0.850182 15:0.798944 16:0.0189034 
0 0 0.0007735075303177341 1:-0.857554 2:0.257138 3:-0.677758 4:0.138908 5:0.0187741 6:0.258975 7:-2.54768 8:0.237255 9:3.0502 10:-0.0429591 11:0.738003 12:-0.151429 13:1.14692 14:-0.416475 15:-0.0570783 16:-0.0191922 
0.06137518977601657 0 0 1:0.05844 2:-1.05183 3:-0.323284 4:-1.19345 5:-0.346969 6:-1.21116 7:-0.648603 8:-1.37169 9:-0.547285 10:0.361056 11:-0.245812 12:0.286639 13:0.204792 14:0.354393 15:-1.07486 16:-0.140727 
0.4411515552745338 0.06311998831141784 0.006561894588308835 1:2.5426 2:-0.187697 3:1.44267 4:1.82442 5:-3.61486 6:0.859092 7:0.4631 8:0.00983264 9:1.40051 10:-0.605858 11:2.31139 12:-2.43532 13:-0.222876 14:1.40444 15:-1.95952 16:-2.92033 
0.1551688134120933 0 0.002639694396716775 1:2.2703 2:1.13083 3:1.81706 4:-0.781407 5:1.3079 6:0.303594 7:-0.418959 8:-0.0398401 9:-0.649124 10:0.108888 11:0.489776 12:-0.0709025 13:-1.00922 14:0.132686 15:0.174472 16:-2.59815 
2.385539181720556 0 0 1:0.366084 2:0.324484 3:0.285764 4:0.0831155 5:0.363056 6:-0.0117481 7:0.313726 8:0.367268 9:-0.143942 10:0.786485 11:0.0977255 12:0.43125 13:-0.0992544 14:0.0537527 15:0.169884 16:-0.572349 
0.1275344659016481 0 0.001671611863943154 1:1.17364 2:0.988988 3:0.864865 4:0.647914 5:0.579966 6:0.427453 7:0.0681308 8:0.537695 9:-0.212263 10:0.533996 11:0.0898285 12:0.611618 13:4.98799 14:0.646307 15:0.437092 16:0.203254 
0.08110519807291991 0.3173706850645791 0 1:1.70334 2:1.70652 3:1.65567 4:1.86398 5:1.3232 6:1.7253 7:-0.478295 8:1.60822 9:0.175153 10:0.434175 11:0.412033 12:1.81201 13:0.993045 14:0.783429 15:-0.631678 16:-2.08694 
0.3613745575504915 0.03527818712653886 0.00498069925540388 1:2.18931 2:0.188137 3:1.86209 4:-0.207894 5:-0.692823 6:0.459407 7:-0.362155 8:-0.443425 9:-0.209884 10:0.174135 11:-0.502912 12:-0.0471996 13:1.07314 14:-0.0902604 15:4.61162 16:-0.516678 
0 1.592615152990924 0 1:-0.749876 2:-0.549306 3:-0.59669 4:-0.249195 5:-1.06875 6:-0.339597 7:0.387849 8:-0.0667258 9:0.261545 10:-0.812488 11:0.176981 12:-0.0321106 13:0.074388 14:-0.805756 15:0.385913 16:-0.126097 
0.2609188602179696 0 0 1:-1.27608 2:0.865501 3:-2.12285 4:0.677892 5:-1.56246 6:1.58694 7:0.482462 8:1.68701 9:-0.209243 10:0.782722 11:-2.26671 12:0.0121073 13:-1.87847 14:2.72978 15:-0.529611 16:-1.54807 
0 0.2415952872265524 0 1:0.0713354 2:0.71602 3:0.436769 4:0.378904 5:-0.704758 6:0.881043 7:0.659672 8:1.26762 9:1.0359 10:1.03618 11:-0.522662 12:0.34234 13:-1.01615 14:2.282 15:-0.328601 16:-0.0228531 
0 0 0.002536346677630758 1:-2.29615 2:-0.705486 3:1.61222 4:-0.022489 5:0.310057 6:0.0866694 7:-0.206085 8:0.28627 9:-0.591844 10:1.21918 11:-0.704104 12:0.439011 13:0.551205 14:-0.155675 15:-0.0244184 16:-0.000344301 
0 0 0.001537087407203797 1:0.262672 2:-1.64081 3:-0.742389 4:-1.27727 5:0.286593 6:-1.05042 7:-0.0945855 8:-0.75361 9:-1.72525 10:-0.854556 11:-0.37112 12:-0.701778 13:0.747147 14:-0.329923 15:-2.0365 16:-2.26432 
1.243520755278732 0 0 1:-0.227141 2:2.17982 3:-0.200469 4:2.19618 5:-0.152289 6:1.81044 7:0.387849 8:1.88335 9:-0.285421 10:1.32861 11:0.26943 12:0.501641 13:0.704851 14:0.293669 15:0.527737 16:1.36498 
0 1.077405090624004 0 1:0.390591 2:-0.686128 3:0.411157 4:-0.68971 5:0.508479 6:-0.622066 7:0.799033 8:0.372798 9:0.460544 10:-0.441042 11:0.307521 12:-1.09606 13:0.836209 14:-1.92991 15:0.354945 16:-0.057993 
0.107748777210446 0 0 1:-1.59803 2:-0.178173 3:-1.92196 4:-0.195611 5:-0.363524 6:-0.495311 7:-2.34849 8:-0.226243 9:-0.912354 10:-0.084622 11:0.744056 12:0.237438 13:0.488954 14:0.241998 15:0.678134 16:0.290385 
0.1850991282110345 0.033786843744377 0.002435275876652578 1:-0.330619 2:0.317656 3:0.497939 4:0.46384 5:0.272608 6:0.715865 7:-1.3784 8:0.59539 9:-0.753578 10:0.727478 11:-2.97104 12:0.768823 13:-2.00987 14:-2.59356 15:-0.0111087 16:-2.38249 
0 0.5002480012967543 0 1:0.295594 2:2.09835 3:0.988193 4:1.4975 5:1.68063 6:1.35256 7:0.678448 8:0.833308 9:0.261545 10:1.0168 11:0.176981 12:0.0685972 13:0.452666 14:-1.12559 15:-0.110472 16:0.172118 
0.301189535516811 0 0 1:0.130006 2:0.0444253 3:-0.091891 4:0.012786 5:0.0585491 6:-0.128806 7:-0.777928 8:-0.254939 9:-0.0217951 10:-0.534146 11:-1.83333 12:0.23632 13:-2.02869 14:-1.75431 15:-0.407469 16:-0.229103 
1.034587631294765 0 0 1:-0.243979 2:0.144442 3:-1.10657 4:0.0220884 5:-0.883842 6:-0.201746 7:-0.0945855 8:-0.499129 9:0.35859 10:-0.44006 11:0.487283 12:-1.05637 13:0.0196301 14:-0.86675 15:-0.843367 16:-0.993295 
0.4418424165016152 0.06319724813085104 0.006626167928829363 1:-9.32175 2:2.67263 3:-14.2569 4:1.52609 5:-20.4557 6:3.74411 7:0.670563 8:1.99822 9:-0.437529 10:2.65874 11:-0.611897 12:1.48194 13:0.071544 14:1.07551 15:-0.669029 16:-0.0906856 
0.244001511544108 0 0.001607326100515949 1:-2.449 2:-2.15363 3:-0.317972 4:-0.280902 5:-1.63806 6:-0.0302965 7:-0.206085 8:-0.300092 9:-0.591844 10:-1.23565 11:-1.54963 12:-1.20029 13:-1.70884 14:-0.792502 15:0.183383 16:-0.0207161 
0.4012812761455413 0.05369957355946042 0.005388484817524082 1:-1.85032 2:0.179175 3:-2.08827 4:0.453063 5:-1.66433 6:-0.863816 7:3.3307 8:4.49628 9:0.18672 10:-2.04128 11:0.214622 12:-0.0358398 13:0.120627 14:-0.876176 15:-1.34832 16:1.39411 
0.3144122744305081 0 0.005029234841282454 1:0.661153 2:0.139702 3:0.41591 4:-0.161315 5:5.11125 6:-0.104121 7:0.670563 8:-0.624914 9:-0.437529 10:0.322883 11:0.206593 12:-0.329348 13:-0.410095 14:-0.436255 15:-0.143633 16:-0.033379 
0.04558512243964766 0.00931251891407962 0.0005949693165414049 1:-4.78617 2:0.215222 3:-4.83887 4:-1.02809 5:-5.00527 6:0.951988 7:-0.0783021 8:-0.0480213 9:-0.952003 10:0.432007 11:0.128291 12:0.189681 13:-0.168336 14:0.598259 15:-0.35325 16:0.0628932 
0.2478290429915169 0.02079655868105168 0.002045594712201456 1:0.000199806 2:-0.116983 3:-0.126926 4:-0.232131 5:-0.158133 6:-0.270319 7:0.313726 8:-0.136866 9:0.986361 10:-1.19364 11:3.81336 12:-0.637631 13:3.18422 14:0.532601 15:0.684981 16:0.0393576 
0 0.2658986827197912 0 1:0.104028 2:-2.28925 3:-0.504416 4:-2.18774 5:-0.670324 6:-2.07403 7:-0.0350787 8:-2.24785 9:-0.595412 10:-1.09117 11:0.0159283 12:0.0334641 13:0.189426 14:-0.673472 15:-0.501611 16:0.333515 
1.747226208512232 0 0 1:0.262672 2:-1.43322 3:-0.0140376 4:-1.6545 5:-0.103552 6:-1.47475 7:-0.0945855 8:-1.47464 9:0.35859 10:-1.35195 11:0.165382 12:-1.01697 13:-0.222876 14:-1.27969 15:-0.535463 16:-0.419286 
0.001421551907191823 0 0 1:1.70334 2:1.13619 3:2.08382 4:1.36182 5:1.80433 6:1.3802 7:1.47069 8:1.20846 9:-2.86158 10:1.99155 11:1.61708 12:0.0496823 13:1.91829 14:0.283652 15:-0.0975736 16:-1.75083 
0.5367934912676949 0 0 1:-0.629753 2:2.79046 3:-0.427462 4:2.72819 5:-0.294582 6:2.50486 7:-0.226081 8:2.38978 9:0.296191 10:2.24268 11:0.610214 12:0.982045 13:1.402 14:0.042034 15:0.437092 16:0.203254 
0 0.04953485383819856 0 1:0.354049 2:0.997647 3:0.693439 4:1.02038 5:-0.311235 6:1.06669 7:0.659672 8:1.02077 9:-0.611741 10:0.428777 11:1.66648 12:1.62201 13:1.27746 14:-0.22368 15:-0.506634 16:-0.0646095 
0.2482070910434113 0 0 1:1.2708 2:0.313258 3:0.501326 4:0.195099 5:1.63938 6:0.114482 7:1.16628 8:-0.253511 9:1.09675 10:-0.41843 11:0.625789 12:-0.890374 13:-0.0836684 14:-0.824864 15:-1.35398 16:-0.107906 
0 0.1783104345810762 0 1:-0.608318 2:-2.08075 3:-0.0847205 4:-1.85949 5:-0.167721 6:-1.64367 7:0.425785 8:-1.74487 9:-0.93316 10:-0.544331 11:0.755075 12:-2.30655 13:-0.181705 14:-1.53963 15:1.40927 16:0.986183 
0.2698312893862863 0 0.003393273468685727 1:3.92245 2:-0.202467 3:0.707933 4:-0.210184 5:-1.12272 6:-0.370596 7:0.350051 8:-0.727422 9:-0.582699 10:-0.673523 11:1.32845 12:-0.88181 13:0.266129 14:-0.694683 15:-0.187672 16:0.0138904 
0.1351043471808341 0 0 1:-0.608318 2:-0.202155 3:-0.419616 4:-0.0065716 5:-0.167721 6:0.0816197 7:-1.52398 8:-0.0412089 9:-0.93316 10:0.570541 11:-0.04227 12:-1.45599 13:-0.742465 14:-0.821896 15:0.321129 16:0.854306 
0 0.08071650554605107 0 1:-0.497305 2:-0.768941 3:-0.378213 4:-0.941952 5:-0.493697 6:-1.22015 7:-0.0945855 8:-1.30499 9:0.35859 10:-1.43485 11:0.165382 12:-1.92314 13:0.262136 14:-2.39464 15:-0.843367 16:-0.70629 
1.373299793590737 0 0 1:-1.30305 2:0.662149 3:-0.838588 4:0.5747 5:-0.961031 6:0.681067 7:-0.710485 8:0.717201 9:0.472697 10:0.788495 11:0.546462 12:1.06519 13:1.18216 14:0.950307 15:-0.387044 16:1.42931 
0.1903029625308063 0.01192325682804523 0.00240637199230545 1:-2.32808 2:0.898409 3:-3.9201 4:-0.563019 5:-3.08451 6:2.21731 7:0.621324 8:1.03255 9:-0.486899 10:1.01678 11:-1.46553 12:1.26237 13:-1.54637 14:-0.690052 15:0.975115 16:-0.131771 
0.2485732752524175 0.08177449153132615 0.002826649955401871 1:-1.44358 2:0.848585 3:-1.7592 4:0.364012 5:-1.16367 6:0.740366 7:0.425785 8:0.684424 9:-0.93316 10:-0.231385 11:1.15375 12:1.67895 13:1.36039 14:1.92423 15:-1.25062 16:-0.66228 
0 3.665958406756741 0 1:-1.11528 2:0.109201 3:-1.03055 4:0.53647 5:-0.513219 6:0.167777 7:0.0681308 8:0.116767 9:-0.212263 10:0.127167 11:0.535873 12:0.833874 13:0.102734 14:1.09951 15:0.498999 16:0.137798 
0.0008187391384567435 0 0 1:-0.26589 2:0.857025 3:-0.779691 4:0.647851 5:-0.584862 6:0.498674 7:-0.800578 8:0.271634 9:-0.471624 10:-0.448127 11:0.105476 12:-0.413951 13:-1.40731 14:0.132686 15:-2.61332 16:-0.684172 
0.4391335946452133 0.06238715032450759 0.006295245196055566 1:-1.30509 2:-5.39046 3:-1.74992 4:-5.80157 5:-1.80158 6:-6.46345 7:-0.141025 8:-6.63168 9:-0.299804 10:-6.70087 11:0.267237 12:-4.87796 13:0.184668 14:-5.30147 15:2.24802 16:1.34273 
0.3440346013852064 0.03129396321035884 0.004076583618987275 1:-2.64712 2:-0.762939 3:-3.03702 4:-2.28373 5:-2.58676 6:1.33004 7:0.0160637 8:0.734883 9:-0.390604 10:-0.977921 11:-2.3554 12:-2.35774 13:-2.21983 14:-0.113441 15:-0.22522 16:-0.56412 
0.1303314078876039 0.01501176771159055 0.001797175081299951 1:-0.994557 2:-3.82555 3:-1.06272 4:-4.01955 5:-0.734188 6:-3.93158 7:0.350051 8:-3.91074 9:0.61504 10:-4.26624 11:-0.4761 12:-3.71652 13:-0.78276 14:-3.29116 15:0.171095 16:-0.0140595 
0.186210828389411 0 0 1:-0.605862 2:0.167187 3:-0.731306 4:0.173849 5:-0.774693 6:0.0141598 7:0.145262 8:0.592575 9:-0.748851 10:0.224113 11:-1.49081 12:-0.835547 13:-1.37375 14:0.311696 15:0.398939 16:-0.057993 
0 0.08234195308489757 0 1:-0.00899298 2:0.751641 3:-0.0793464 4:0.806618 5:0.286574 6:0.97382 7:-1.5291 8:1.10871 9:-1.51025 10:0.261464 11:0.824974 12:-0.489498 13:1.84558 14:0.164628 15:1.04086 16:1.87213 
0.08022854254834796 1.305517480055334 0 1:2.6693 2:-0.450656 3:2.34782 4:0.816394 5:1.94416 6:0.268287 7:0.107291 8:0.463971 9:-0.297561 10:-0.00722419 11:-0.10587 12:0.567539 13:0.232115 14:-0.256736 15:-0.244285 16:0.123431 
0.2437023592960901 0.01799811184458732 0.00355438300439427 1:0.071927 2:2.34695 3:1.19013 4:0.896141 5:1.03082 6:0.552753 7:0.470641 8:0.0250874 9:-0.509226 10:0.100249 11:-1.88279 12:0.425959 13:-2.75564 14:2.22351 15:-2.49716 16:-2.39425 
0.2679926881618703 0.02348809737487449 0.003952583024323445 1:0.419848 2:0.137739 3:-0.0194237 4:0.271842 5:0.235836 6:-0.28684 7:0.39839 8:-0.38194 9:0.429251 10:-0.426941 11:-3.47028 12:0.666482 13:-1.81928 14:-2.67186 15:2.45113 16:-0.258863 
0 0.8058372059999461 0 1:1.30478 2:-0.729031 3:1.27536 4:-0.506256 5:0.775299 6:-0.798967 7:0.305363 8:-0.603435 9:0.472697 10:-0.673319 11:-0.606327 12:-0.949514 13:-0.723448 14:-0.910426 15:-0.54395 16:0.202187 
0 0.5716090958024722 0.001840639074590174 1:0.678308 2:-1.50369 3:0.273755 4:-1.4224 5:0.430166 6:-1.21338 7:0.249038 8:-1.21868 9:-1.09899 10:0.724476 11:0.0643811 12:-1.92452 13:0.512751 14:-0.294465 15:1.61328 16:0.97264 
0 0.3357729593992601 0 1:0.636763 2:-2.19413 3:-0.0765717 4:-1.54551 5:0.869336 6:-1.62518 7:0.659672 8:-0.542601 9:-0.611741 10:-0.872795 11:-0.242003 12:-0.404133 13:-0.369232 14:0.40274 15:0.798944 16:0.0513806 
0.2010941377839779 0.0277883444690587 0.003010350621593938 1:-0.288995 2:-4.39935 3:1.12825 4:-4.04355 5:0.0387489 6:-4.12031 7:-0.0513726 8:-4.29929 9:-0.983567 10:-4.36629 11:0.565967 12:-3.73354 13:-1.47139 14:-3.84213 15:-2.32805 16:-0.311211 
0.246546190171842 0.03673435254496949 0.003483206047428335 1:-2.60696 2:1.17469 3:-3.65718 4:1.05927 5:-2.98675 6:1.05108 7:-3.75803 8:0.973991 9:-5.35372 10:1.00242 11:-2.33551 12:0.856775 13:-1.99385 14:0.735607 15:1.49584 16:0.202187 
1.494925135071253 0 0 1:-0.0247309 2:0.263165 3:-0.0433687 4:0.182423 5:-0.00810532 6:0.207003 7:-0.110002 8:0.163616 9:-0.335512 10:0.123146 11:-0.570335 12:-0.0713133 13:-1.19285 14:0.232195 15:-0.407698 16:-0.115545 
0 0.1684800616140173 0 1:-0.153237 2:0.0525496 3:0.799365 4:0.078508 5:0.842067 6:-0.000211304 7:-0.478295 8:-0.0479189 9:0.175153 10:-0.233271 11:0.067734 12:0.745337 13:-0.35277 14:0.450244 15:-0.194683 16:1.25016 
0.8588674864745686 0 0 1:-0.161208 2:1.48661 3:0.411462 4:2.4025 5:0.159074 6:1.71271 7:-0.362155 8:0.389277 9:0.429023 10:1.92054 11:-0.391131 12:2.18644 13:0.761876 14:1.22763 15:-1.3034 16:-0.844237 
0.1583555998763762 0.04969832279665054 0.002208272924233167 1:-0.920586 2:2.45756 3:-2.24816 4:0.494336 5:-3.46441 6:2.42599 7:-0.206085 8:1.4199 9:-1.40052 10:0.698458 11:-0.704104 12:0.299496 13:-0.829931 14:1.04306 15:-0.564701 16:-0.102203 
0.01102057851423374 0 0 1:-1.722 2:0.339135 3:-0.419616 4:0.240484 5:0.164263 6:0.363939 7:-1.52398 8:0.463579 9:-0.93316 10:1.29423 11:1.15375 12:-0.070781 13:-0.321895 14:0.457548 15:0.321129 16:1.24994 
0.07165509933930467 0 0 1:-0.161208 2:-0.533237 3:-0.676506 4:-0.26285 5:-1.37434 6:-0.509055 7:1.90805 8:1.87366 9:0.429023 10:-0.657485 11:0.0559952 12:-0.800403 13:1.85131 14:-0.835156 15:0.141751 16:0.211229 
0 0.6072331345112558 0 1:0.294251 2:-0.882363 3:0.330252 4:-0.0812933 5:0.600537 6:-0.905028 7:0.0160637 8:-1.14731 9:-0.390604 10:-1.16611 11:0.42304 12:0.665363 13:0.307285 14:-0.44162 15:0.936031 16:-0.0843674 
0 0.39137329952879 0 1:-1.05952 2:-0.0349853 3:1.20678 4:-0.720761 5:-0.704758 6:-0.232834 7:0.659672 8:-1.44771 9:1.0359 10:-0.872795 11:-0.578794 12:-1.36388 13:-0.780905 14:-0.939588 15:0.680255 16:-0.0228531 
0.4245294657392521 0.05946115498858913 0.006305033259781385 1:-2.86563 2:-0.214334 3:-4.85724 4:-3.45372 5:-5.09567 6:-0.82728 7:-0.730915 8:-0.764646 9:1.76433 10:-0.413576 11:1.07161 12:-0.966019 13:0.865271 14:-1.22697 15:-1.78262 16:0.0956804 
0.2356692879627557 0 0.001779235003252666 1:1.34062 2:0.148092 3:0.58507 4:0.364012 5:3.15212 6:-0.388913 7:0.425785 8:-0.0412089 9:-0.569458 10:-0.876837 11:-0.440942 12:1.31443 13:0.0986755 14:0.894431 15:-1.25062 16:-0.266649 
0 0.01082086151233376 0 1:0.283636 2:-1.02915 3:0.0612374 4:-0.607311 5:0.233164 6:-1.18324 7:-0.0783021 8:-1.22055 9:-0.486899 10:-1.2969 11:-2.38504 12:-0.276707 13:-1.54637 14:-2.85591 15:1.38176 16:-0.243008 
0 0.06279285873189774 0 1:-0.0734206 2:-2.03679 3:0.218009 4:-1.7864 5:0.246393 6:-2.17016 7:0.449188 8:-1.97548 9:0.515721 10:-2.44577 11:0.596692 12:0.745339 13:0.199748 14:-0.171355 15:-0.602977 16:-0.389326 
0.2431516556179392 0 0.003813411190910495 1:-1.66661 2:1.37987 3:-1.81541 4:1.33334 5:-1.21041 6:1.42319 7:-0.0513726 8:1.62216 9:0.0398162 10:1.34097 11:1.45723 12:1.5523 13:2.77954 14:1.70256 15:3.15326 16:0.149332 
0.2637700732556908 0 0.004131107344194529 1:-1.43968 2:0.0274795 3:-0.3658 4:-0.0258544 5:-0.83807 6:-0.229934 7:-0.730915 8:-0.0846283 9:1.34468 10:-0.387643 11:-2.66593 12:0.0793343 13:-2.42061 14:-4.45365 15:0.545064 16:-2.61548 
0.3788470949665082 0 0 1:-0.227141 2:0.0616925 3:-0.59669 4:0.0384961 5:-0.610518 6:0.21782 7:0.387849 8:0.254715 9:0.261545 10:0.226881 11:0.36188 12:0.0685972 13:0.957036 14:-0.725798 15:0.456825 16:0.967361 
0.2362343653146517 0 0 1:0.200411 2:0.418976 3:1.49943 4:0.424096 5:0.840591 6:1.25696 7:-0.711418 8:-0.0693129 9:-0.209884 10:0.257297 11:-0.0557863 12:1.35532 13:1.92913 14:1.17033 15:-1.40422 16:-1.24459 
0.06379816331134204 0 0.0022183583219915 1:-0.776807 2:0.71602 3:0.180099 4:0.837098 5:0.0822888 6:0.695397 7:1.93745 8:0.362511 9:-0.611741 10:0.428777 11:2.39619 12:1.72865 13:1.98318 14:-0.22368 15:-0.44729 16:-0.00429465 
0.3323609776376494 0.05068038898144911 0.004837267339004001 1:-0.633399 2:3.51843 3:-0.133321 4:3.51453 5:0.0387489 6:3.33035 7:-0.0513726 8:3.43433 9:2.08658 10:3.36445 11:-0.681803 12:3.86331 13:-3.10636 14:3.4242 15:-1.00391 16:-0.186391 
0.4600400464935324 0.06894980195317317 0.006132733238754748 1:-0.904693 2:0.0140784 3:-0.418721 4:0.365213 5:-0.231007 6:0.455515 7:0.13635 8:-0.575592 9:-0.000623646 10:2.53636 11:0.677749 12:1.55564 13:0.506955 14:-4.60999 15:0.557749 16:0.0354387 
1.798251696496578 0 0 1:-0.363654 2:-1.1483 3:-0.219143 4:-1.01857 5:-0.155438 6:-1.09216 7:-1.7995 8:-1.47176 9:-0.0670827 10:-0.40512 11:0.979438 12:-0.474023 13:-0.339646 14:-0.263519 15:0.748073 16:0.00118846 
0.1941243219142068 0.02220100855372416 0.003238382359508962 1:2.01277 2:1.76355 3:2.08382 4:1.97557 5:2.76659 6:2.0704 7:-0.478295 8:1.83665 9:-3.07849 10:2.48101 11:2.13353 12:2.09027 13:1.41361 14:2.11617 15:0.485085 16:-2.15897 
0.03290506026200977 0 0 1:-0.837836 2:-1.48279 3:-1.63363 4:-2.06388 5:-1.27845 6:-0.308296 7:0.0681308 8:-0.219975 9:-0.212263 10:-1.74425 11:-2.06605 12:-2.57405 13:-0.78077 14:-0.448938 15:-2.23725 16:-0.434085 
0.4418928928041193 0.06319820577638147 0.006657614312262972 1:1.89746 2:1.6446 3:0.250175 4:1.414 5:1.4922 6:-1.70641 7:-37.5946 8:1.94639 9:-2.02427 10:3.17191 11:0.954411 12:0.366653 13:1.08001 14:-0.228983 15:-1.00882 16:-1.05791 
0.1839371051579869 0 0.003739279808628307 1:-2.36501 2:0.165546 3:-1.51308 4:1.05952 5:-1.65492 6:0.165686 7:-2.34849 8:0.264303 9:-0.912354 10:0.0601786 11:0.55062 12:0.371848 13:0.132482 14:-0.441419 15:2.57855 16:1.495 
0 0.02509072219387612 0.0005429545430069016 1:0.744217 2:1.609 3:0.707727 4:1.66306 5:0.455135 6:1.93176 7:-0.0513726 8:2.36235 9:-0.983567 10:2.68996 11:1.27898 12:3.02742 13:0.817572 14:3.67738 15:0.227845 16:0.0503372 
0.3606437755650696 0.03208145718789875 0.005294549371183137 1:2.3816 2:-0.764019 3:3.71103 4:-1.30842 5:2.99057 6:-0.82422 7:-1.65556 8:-1.34686 9:-1.01361 10:0.0485367 11:-2.14937 12:0.382309 13:1.22668 14:-0.204827 15:0.575389 16:-0.0423074 
0 0.1421776458564645 0 1:0.666497 2:-0.669478 3:0.729645 4:-1.9222 5:0.999508 6:-0.542201 7:0.279479 8:-0.222672 9:-0.595412 10:-0.461411 11:-0.697399 12:-0.186966 13:-0.689709 14:-1.369 15:-0.78601 16:-0.158278 
0 0 0.001881053552372331 1:2.4543 2:-0.711604 3:1.25486 4:-1.18009 5:2.15617 6:-1.83188 7:0.425785 8:-1.27163 9:1.24905 10:-0.642127 11:-1.43762 12:0.19654 13:-0.882655 14:-0.697072 15:-0.585652 16:-0.728219 
0.1414273905072791 0 0.003017805292573914 1:0.354049 2:1.46703 3:-0.0765717 4:1.84512 5:1.26286 6:1.62363 7:-1.89589 8:1.51447 9:2.68354 10:1.29649 11:1.21742 12:1.99524 13:1.04222 14:0.40274 15:-0.862701 16:-0.00429465 
0.1448480242100292 0 0 1:-0.0566629 2:-0.199503 3:0.00860422 4:0.354226 5:-0.141664 6:0.330321 7:0.833827 8:-0.444576 9:0.74551 10:0.249225 11:1.25974 12:0.15201 13:0.826201 14:0.803632 15:0.0396739 16:0.0644169 
0.08898498730471097 0 0.001826797934064483 1:-1.99047 2:2.1908 3:-1.12222 4:2.08173 5:-0.176971 6:2.85486 7:0.256114 8:3.49171 9:0.216835 10:3.26487 11:0.479636 12:2.56662 13:0.676763 14:2.8037 15:0.266503 16:-0.025809 
0.01735622129255249 0.004245321880225281 0 1:0.607823 2:0.818872 3:0.00372648 4:0.826581 5:-0.907513 6:0.593522 7:0.256114 8:0.364451 9:-0.591844 10:1.36796 11:-3.91711 12:-1.37468 13:-4.47111 14:2.24179 15:-3.30767 16:-0.463802 
0.1178866955994987 0 0 1:1.43302 2:0.97252 3:1.12825 4:1.02899 5:1.70429 6:0.863753 7:-0.0513726 8:0.703319 9:1.0632 10:0.562706 11:0.922472 12:0.249278 13:0.163583 14:0.461971 15:0.320227 16:-0.0529622 
0.3512410179698369 0 0 1:0.2023 2:1.97239 3:-0.230315 4:1.87072 5:-0.141664 6:2.05947 7:-1.38442 8:2.34472 9:0.74551 10:1.30244 11:1.04413 12:0.99684 13:0.330228 14:1.99779 15:-0.127944 16:0.0119015 
0.004237389218000685 0 0 1:-0.478909 2:-0.868936 3:0.362971 4:-1.26349 5:0.40188 6:-1.11919 7:-0.405552 8:-1.34544 9:-0.190352 10:-0.811435 11:2.8072 12:-0.500161 13:2.84585 14:0.162193 15:0.128037 16:0.303064 
0.1347745973211464 0.00564686296456302 0.001829227175039694 1:2.79193 2:0.195385 3:3.35347 4:-1.62889 5:3.45066 6:-0.0402118 7:0.0944108 8:-1.87498 9:-1.79403 10:-1.44763 11:-0.465088 12:-1.11524 13:-0.661718 14:-0.952477 15:-0.966034 16:-0.0458655 
0 5 0 1:-0.329898 2:-0.902647 3:-0.419616 4:-0.871266 5:-0.499706 6:-0.702602 7:-0.549096 8:-0.640645 9:-0.0845211 10:-1.30714 11:0.755075 12:0.536766 13:0.238866 14:0.239106 15:0.0188688 16:0.0630439 
0.272539188263074 0 0 1:2.30018 2:1.20313 3:2.82679 4:1.36923 5:2.34171 6:1.54474 7:1.72744 8:1.32994 9:-0.364844 10:1.09176 11:-0.313137 12:0.567376 13:-0.44654 14:1.11313 15:0.293452 16:0.595679 
0.2145169172497069 0.03294776936523903 0.002978955117503869 1:1.91516 2:-0.266201 3:1.70932 4:0.000967797 5:5.86101 6:0.0345264 7:-0.141025 8:0.278286 9:-0.299804 10:0.0278973 11:0.0555903 12:0.656869 13:0.253011 14:0.0315438 15:-2.74784 16:-1.97941 
0.04704214169161208 0.1245742697646732 0.002251276782463767 1:0.334787 2:-2.03754 3:0.12917 4:-0.424093 5:0.598116 6:-1.4131 7:-0.0373404 8:-0.109057 9:-0.649124 10:-1.34996 11:-0.553325 12:-0.82297 13:-2.05421 14:-1.70103 15:1.64349 16:-1.16267 
0.2568709675961628 0.02856180147435725 0.004599738105536389 1:-0.305194 2:2.34695 3:-1.02503 4:2.44566 5:0.733055 6:0.453728 7:0.676276 8:-0.501176 9:0.764296 10:-0.000753173 11:-2.88752 12:-1.00979 13:-2.609 14:1.95237 15:-2.47931 16:-2.55174 
0.1614852116917152 0.05829248347087062 0.00297269139732467 1:-0.434942 2:-0.278299 3:0.646743 4:-0.373343 5:0.272746 6:-0.493166 7:-0.287808 8:-0.34487 9:-0.397482 10:-0.993814 11:2.73827 12:2.19919 13:1.92916 14:-1.67471 15:2.17829 16:0.510346 
0.1206873436749071 0.01548261330248556 0.001516859334960929 1:-0.556608 2:2.39205 3:-1.16065 4:2.65695 5:0.392757 6:0.750802 7:0.265006 8:-0.214123 9:-0.509226 10:-0.121956 11:-3.28067 12:-1.09733 13:-2.95116 14:1.78551 15:-2.56858 16:-2.46425 
0.3087084527918229 0.02366901823423525 0.00408450689558579 1:-1.30509 2:1.76098 3:-1.25574 4:1.76448 5:-0.364848 6:1.64464 7:-0.141025 8:1.6027 9:1.72408 10:1.5722 11:-0.103145 12:1.39485 13:0.526382 14:0.886839 15:3.4276 16:2.79616 
0.3678464711315932 0.05248533887729336 0.005480549528755642 1:-4.78617 2:0.581215 3:-6.21703 4:-0.607311 5:-3.78297 6:1.71645 7:0.621324 8:0.710676 9:-0.0217951 10:0.838808 11:-2.01724 12:1.04473 13:-2.02869 14:-0.690052 15:-0.380359 16:-0.326435 
0 1.212178772394237 0 1:0.662696 2:-0.247943 3:0.108298 4:-0.282523 5:-0.521429 6:-0.203402 7:-0.690702 8:-0.138037 9:-0.856707 10:-0.245136 11:-0.0474948 12:0.161201 13:0.46326 14:0.28362 15:0.591374 16:0.00545056 
0.3093250735926846 0.05728534616797457 0.004331242305498073 1:-0.614905 2:-1.54388 3:2.09477 4:-1.01922 5:0.431814 6:-0.771081 7:0.256114 8:-0.691 9:-0.591844 10:-1.12407 11:0.986953 12:-0.432958 13:3.06236 14:-0.942344 15:2.55231 16:0.065864 
0.2034942989199935 0.004303226120461991 0.003444840329792601 1:0.314212 2:1.6887 3:0.378949 4:1.28283 5:0.630792 6:1.92284 7:-0.39811 8:1.09335 9:-0.163781 10:1.85222 11:-0.834087 12:-0.0699055 13:-0.820875 14:4.08131 15:2.55412 16:-1.3011 
0.117740767822091 0.0009548688528068783 0.002498517336054344 1:0.637609 2:-0.0656823 3:0.105152 4:0.309203 5:-0.0326146 6:0.181411 7:0.265006 8:0.0490084 9:-1.46437 10:-1.11178 11:-2.10121 12:-1.71015 13:-0.824899 14:0.680061 15:3.16285 16:-1.95678 
0.2497273392892504 0.03230457120082991 0.003452989283081354 1:-0.488509 2:-0.875172 3:-0.59669 4:-0.886226 5:-0.610518 6:-0.817383 7:0.0972506 8:-0.966759 9:0.261545 10:-1.24902 11:-4.4455 12:-2.58002 13:-4.46495 14:1.83286 15:0.315001 16:-4.40052 
2.766666110125657 0 0 1:-1.04226 2:0.112999 3:-0.838588 4:0.351054 5:-0.382255 6:0.311058 7:-0.202561 8:0.093567 9:0.472697 10:0.431955 11:1.12286 12:0.0925762 13:0.546956 14:0.234641 15:-0.387044 16:-0.499028 
0.4420690019985329 0.06291292310403973 0.006407322462952503 1:1.83624 2:0.547338 3:1.14702 4:0.454086 5:0.869837 6:0.170287 7:10.5731 8:4.94647 9:0.737212 10:0.324247 11:-1.09503 12:0.894412 13:-0.846667 14:1.56739 15:-4.66135 16:-1.68788 
0.4038950794063399 0.05796454934331563 0.005985249939070045 1:-0.227141 2:2.15945 3:-0.59669 4:2.34003 5:-0.610518 6:2.16878 7:0.0972506 8:2.48337 9:-0.285421 10:2.74215 11:-5.27754 12:-0.606145 13:-5.09541 14:5.47096 15:-0.465032 16:-3.00885 
0 0.1926481264199366 0 1:-1.76513 2:-0.322512 3:-1.74992 4:-0.51102 5:-0.84376 6:-0.770532 7:-1.75946 8:-0.643043 9:-0.299804 10:-1.02002 11:0.637619 12:-0.311727 13:0.868097 14:-0.874063 15:1.41538 16:1.41194 
0 0.03293129896749498 0 1:-1.60073 2:0.231173 3:-0.130504 4:-0.503496 5:0.0657756 6:-0.710817 7:0.344278 8:-0.974263 9:-0.649124 10:-0.978619 11:0.434876 12:-0.545893 13:1.08075 14:-1.4853 15:-0.092622 16:0.0622792 
0.2304988756964637 0 0.002950214786711208 1:-3.47438 2:0.550721 3:-3.48599 4:-1.39565 5:-3.11797 6:1.96261 7:0.0160637 8:0.923103 9:0.0625588 10:1.4685 11:0.596692 12:0.0575433 13:0.414822 14:0.0603005 15:-1.58235 16:0.172244 
0.3078680520470304 0 0.004349188595130615 1:0.99509 2:-0.209891 3:0.720965 4:-0.28347 5:1.07189 6:-0.252995 7:3.09584 8:-0.700626 9:-0.299804 10:-0.192718 11:-1.74341 12:-1.78768 13:-2.27568 14:0.58497 15:1.2766 16:1.55036 
0.127282662084295 0.09963393826286716 0.002635619400758724 1:1.50478 2:-3.41897 3:0.875775 4:-4.08894 5:0.0600995 6:-3.76004 7:-0.224666 8:-3.47147 9:-0.367061 10:-2.50734 11:0.591444 12:-0.611582 13:0.910866 14:-2.14484 15:0.374004 16:-0.0979375 
0.4244571815079677 0.06165206718540484 0.006025272851499779 1:-2.9426 2:4.38754 3:-3.9201 4:2.13883 5:-3.60836 6:5.16972 7:-0.0783021 8:2.412 9:-0.486899 10:2.00836 11:0.802599 12:0.143043 13:1.003 14:1.7372 15:1.05644 16:0.0628932 
0.08561377558758415 0 0.002301002448269068 1:-2.27361 2:0.526002 3:-2.44783 4:0.517727 5:-1.75906 6:0.537678 7:-0.112561 8:0.521689 9:1.7009 10:0.962457 11:2.51942 12:0.159159 13:1.87581 14:0.647123 15:1.37196 16:0.893225 
0 0.2434580494680962 0 1:-0.315626 2:-0.00205896 3:-0.349775 4:0.587533 5:-0.939958 6:0.76261 7:0.833827 8:0.127587 9:0.74551 10:0.424761 11:-0.465088 12:-0.217604 13:-1.15769 14:0.873876 15:0.319037 16:-0.0826263 
0.2101454891602299 0.0007211134647259124 0.002531337189304307 1:0.760664 2:-0.896031 3:1.77307 4:-1.09306 5:1.16236 6:-1.044 7:0.256114 8:-1.00373 9:-0.591844 10:-0.789318 11:-2.90248 12:-1.82811 13:0.30009 14:-1.72901 15:-0.44002 16:0.0302134 
0 0.4060108084665132 0 1:-0.636559 2:-0.463356 3:-1.2398 4:-0.297038 5:-1.81174 6:-0.422215 7:-0.274386 8:-0.342318 9:0.1871 10:-0.49528 11:-0.466821 12:-0.783256 13:-0.904854 14:0.315081 15:0.0590139 16:-0.286111 
0.4210522922792009 0.05995373304707004 0.006269906085232868 1:2.03595 2:-1.51625 3:1.80684 4:-1.15153 5:0.286593 6:-0.96555 7:1.02079 8:-1.60188 9:0.35859 10:-1.725 11:-6.80914 12:-4.32645 13:-4.22422 14:-0.412512 15:-1.15127 16:-1.5263 
0.05763911319623473 0 0.001856283309738982 1:2.66944 2:-0.509721 3:2.75081 4:-0.597315 5:2.97581 6:-0.78956 7:2.12615 8:-0.674326 9:-0.491896 10:-0.328219 11:0.403983 12:-0.64822 13:0.379105 14:-0.484713 15:-1.57494 16:0.254335 
0 1.550213122674558 0 1:-0.172181 2:-1.76194 3:-0.538547 4:-1.73979 5:0.272608 6:-2.07175 7:-0.730915 8:-2.02754 9:-0.753578 10:-0.465442 11:-0.0725368 12:-0.654637 13:0.112257 14:-1.15105 15:-0.217099 16:0.222766 
0 0.2079635367527466 0 1:0.596188 2:0.5791 3:0.498258 4:1.07117 5:0.248083 6:-0.0547993 7:0.279479 8:-0.0830048 9:-0.130361 10:-0.146534 11:1.34068 12:-0.490056 13:0.0795338 14:0.121422 15:0.568269 16:-0.00483821 
0.3532255895396111 0.05362197058720802 0.003122678764554465 1:0.00934627 2:0.393546 3:-0.378213 4:0.441236 5:-0.103552 6:0.34989 7:-0.0945855 8:0.391554 9:1.40051 10:-0.0255636 11:-4.87773 12:-2.82931 13:-2.89044 14:1.89997 15:0.38825 16:0.646731 
0 0 0.002051672289190003 1:-0.831035 2:0.394692 3:-0.286415 4:0.317854 5:-1.22445 6:0.225777 7:-2.34849 8:0.0803481 9:-2.03124 10:0.639381 11:1.13093 12:0.192634 13:0.488954 14:0.583707 15:1.15925 16:1.61309 
0.2350593357519838 0 0.003939819655870303 1:2.3816 2:0.447932 3:3.81726 4:-0.757709 5:2.99057 6:-0.139488 7:0.935398 8:0.526526 9:-0.540347 10:-0.121585 11:-0.308896 12:-1.21224 13:1.42972 14:-1.8482 15:0.978318 16:0.0156871 
0 0 0.001420222934293349 1:-1.24606 2:-0.273542 3:-1.03916 4:-0.64754 5:-0.522444 6:-0.679959 7:-0.536786 8:-0.841674 9:-0.209884 10:-1.93264 11:0.0559952 12:-2.85223 13:-0.405374 14:-3.44229 15:0.309791 16:0.247625 
0.1284142779879577 0 0 1:-0.831035 2:-0.178173 3:0.940247 4:0.374905 5:0.497407 6:0.0455047 7:1.43107 8:-0.103607 9:-2.03124 10:1.12205 11:-0.223125 12:-0.0313837 13:-0.105166 14:0.0467362 15:0.726246 16:0.00694701 
0 0 0.0009365791272095776 1:-1.34223 2:-0.222737 3:-0.0765717 4:-0.170928 5:-2.27885 6:-0.325657 7:-0.618109 8:-0.131186 9:1.0359 10:-0.265395 11:1.83487 12:1.35541 13:2.27724 14:-1.11856 15:0.0868106 16:-0.0274927 
0 1.141451865073431 0 1:-0.0566629 2:0.458645 3:-0.708153 4:0.762513 5:-1.8713 6:0.392077 7:0.0944108 8:1.20039 9:-0.101003 10:0.366249 11:1.25974 12:0.99684 13:0.164903 14:-0.320277 15:0.37491 16:-0.00385317 
0 0.1331298654409975 0 1:-1.60081 2:0.151096 3:-1.80594 4:0.462175 5:-0.294582 6:-0.0918994 7:-0.226081 8:0.369324 9:0.296191 10:0.452631 11:-0.65358 12:-0.400879 13:0.206676 14:-0.788841 15:-2.60869 16:-0.496097 
0.1107914232759428 0 0.001648211716538337 1:-1.05952 2:-2.56963 3:0.950109 4:-2.37026 5:-0.311235 6:-1.99647 7:-0.618109 8:-2.76424 9:-0.611741 10:-0.959566 11:-0.0736077 12:-0.404133 13:-0.722095 14:0.671205 15:-0.744012 16:-0.0970867 
0.2632421952257695 0.02939639731181928 0.003989647856707627 1:-0.0294914 2:0.952243 3:0.495905 4:0.641735 5:-0.16748 6:0.650826 7:0.0768575 8:0.882064 9:-0.801809 10:0.814466 11:-4.51449 12:1.61776 13:-3.01892 14:-0.941035 15:0.554938 16:-0.298054 
1.49514385650018 0 0 1:0.319449 2:0.73841 3:-0.695302 4:0.431957 5:0.0669419 6:0.826683 7:-0.458709 8:0.754849 9:0.206528 10:1.36338 11:0.55062 12:0.954295 13:0.251306 14:0.925416 15:0.0286263 16:-0.229251 
0.2863447614935099 0.04256190377441688 0.003943667836902243 1:0.354049 2:-0.692115 3:-0.333242 4:-0.629122 5:0.0822888 6:-0.789773 7:0.659672 8:-0.542601 9:1.0359 10:-0.352166 11:-0.0736077 12:-0.404133 13:-0.0163696 14:0.939671 15:7.1488 16:-0.0367719 
0.7070276758836368 0 0 1:-0.227141 2:-0.936272 3:-0.59669 4:-0.721831 5:-1.06875 6:-0.956737 7:0.387849 8:-0.94533 9:0.261545 10:-0.251229 11:0.546779 12:-0.0723937 13:0.704851 14:-0.685819 15:0.102264 16:-0.0266922 
0.3290527570786402 0.04520148802406794 0.004531267214999687 1:-1.19916 2:-0.793579 3:-1.28135 4:-0.728724 5:-1.16216 6:-1.06239 7:-3.09498 8:-1.59665 9:-5.74626 10:-1.34079 11:-3.8058 12:-1.09413 13:0.327493 14:-1.43736 15:1.84174 16:-0.114801 
0.3742442251138557 0.04963165410331349 0.005210033029224816 1:0.0132879 2:-1.23453 3:0.328285 4:-1.3272 5:0.291322 6:-1.0187 7:-1.95256 8:-0.870302 9:-0.364844 10:-1.14956 11:0.158956 12:-1.31043 13:5.55287 14:-0.920347 15:-1.01211 16:-1.01107 
0 0.1432624231596422 0 1:-0.363654 2:-1.47345 3:-0.750248 4:-1.45334 5:-0.78464 6:-1.41964 7:0.647515 8:0.214295 9:0.406182 10:-1.56762 11:1.34753 12:-1.35988 13:-0.45567 14:-1.17324 15:1.55393 16:0.0736816 
0.3234834022593425 0.0684445745664865 0.004412818394187705 1:0.303133 2:0.511107 3:2.05267 4:0.267962 5:1.93863 6:0.815422 7:1.85903 8:0.498244 9:-0.333927 10:1.40174 11:0.61395 12:0.0793343 13:0.865271 14:1.35438 15:3.34653 16:0.392214 
0.06783951634558623 0 0.001900402741974536 1:-2.46328 2:-0.325052 3:-3.26151 4:-2.2482 5:-2.9409 6:1.45655 7:0.0160637 8:0.0949371 9:0.0625588 10:-0.036991 11:0.596692 12:0.16951 13:0.307285 14:-0.248574 15:1.34177 16:-0.437674 
0.05296565374515811 0.2871938504595516 0.0007179989297440049 1:-0.597337 2:0.227643 3:-0.723589 4:0.250339 5:-0.534871 6:-0.0132901 7:-0.738422 8:0.0117798 9:-0.335512 10:0.391281 11:-3.71849 12:0.303152 13:-3.09685 14:-2.17116 15:0.582878 16:-2.77641 
0 1.44140942524368 0 1:0.407751 2:-0.400143 3:0.0129707 4:0.0732684 5:0.236072 6:-0.195641 7:-0.567895 8:-0.313874 9:0.334416 10:0.147578 11:0.245384 12:0.0277668 13:-1.17307 14:1.44975 15:-1.59762 16:-0.233747 
0.7685924522530218 0 0.006355495631336083 1:-0.831035 2:0.337405 3:-0.286415 4:0.717215 5:0.0669419 6:0.586321 7:1.43107 8:0.448258 9:3.56317 10:0.34978 11:0.163747 12:0.282241 13:-0.342814 14:-0.00207936 15:-1.24633 16:-1.9535 
0.06497226346459194 0 0 1:1.53789 2:-0.0157006 3:1.71634 4:-0.144555 5:0.974783 6:-0.0574059 7:-0.112561 8:-0.0620489 9:-2.43059 10:-0.373717 11:-0.549183 12:-0.126594 13:-0.253011 14:-0.200158 15:-0.671532 16:0.179115 
0.3353647099919372 0.07760799795089915 0.005333073015397289 1:2.01277 2:0.622885 3:2.94013 4:1.08284 5:2.76659 6:0.459925 7:1.47069 8:0.865812 9:-2.86158 10:2.08054 11:-0.19049 12:-0.692349 13:0.782762 14:-0.382718 15:-0.0975736 16:-2.01492 
0 1.092285946852718 0 1:0.80578 2:-0.515465 3:0.81918 4:-0.593759 5:1.02175 6:-0.457119 7:0.892429 8:0.043131 9:0.662109 10:0.126296 11:-1.35248 12:-0.514923 13:-1.14414 14:0.290347 15:-0.19498 16:0.0759577 
0.2830753655595856 0.05137471964308906 0.004733850898507206 1:-0.11102 2:1.17439 3:-0.0823582 4:1.08472 5:0.92007 6:0.869378 7:-0.0947931 8:0.730647 9:-0.468855 10:0.560597 11:-0.0680756 12:0.881488 13:-0.82257 14:1.31068 15:1.75586 16:4.75184 
0.03158233261497138 0 0 1:0.556667 2:-3.09979 3:0.492762 4:-3.06449 5:0.422934 6:-2.78995 7:-0.134925 8:-2.33322 9:-0.144154 10:-1.98655 11:0.556521 12:-0.294493 13:0.14739 14:-0.520901 15:-0.678915 16:-0.258919 
0.3113665008782111 0.02489650900829537 0.004916742733155182 1:2.9192 2:0.398544 3:3.35686 4:0.554311 5:3.35785 6:0.565162 7:0.130599 8:0.478099 9:-2.6832 10:1.35617 11:-1.03889 12:0.899948 13:-0.966996 14:0.547836 15:0.201511 16:1.22959 
0.4812783222959872 0 0 1:0.979189 2:0.787719 3:0.605902 4:1.1708 5:0.390532 6:0.824365 7:0.0944108 8:0.485189 9:-0.101003 10:0.834347 11:-0.896295 12:1.20805 13:-1.15769 14:1.36559 15:-1.07778 16:-0.040614 
0 0 0.00186120748201981 1:0.505361 2:1.10331 3:0.919965 4:1.35223 5:0.828232 6:1.33637 7:-0.549096 8:1.41006 9:-1.05439 10:1.74409 11:-1.03895 12:0.609672 13:-1.7238 14:2.11146 15:-0.0415833 16:1.77745 
0.2076281193890891 0 0 1:-2.91434 2:0.408081 3:-2.60782 4:0.198334 5:-2.16519 6:0.368533 7:-0.50298 8:0.386804 9:-1.99656 10:0.236903 11:-1.1713 12:-1.47956 13:-2.03104 14:0.52933 15:0.554657 16:-0.00709731 
0.3091809372129721 0.02471878985099129 0.004055154927870279 1:-3.39313 2:-0.156811 3:-3.23613 4:-0.509524 5:-3.68751 6:-0.195641 7:0.578535 8:-0.15822 9:-2.13468 10:0.258178 11:-0.480695 12:0.0909754 13:-1.5215 14:0.49009 15:-2.26509 16:-0.304377 
0.2670418271462445 0.005362904620524669 0.004226398449837943 1:-0.153237 2:0.0525496 3:1.22752 4:0.636468 5:2.28546 6:0.229857 7:-0.478295 8:0.29473 9:-2.86158 10:0.834643 11:1.531 12:0.838091 13:0.488365 14:1.17214 15:0.193756 16:-2.47107 
0 0.08836495456533412 0 1:0.0728186 2:-0.199503 3:-0.349775 4:-0.170716 5:-0.67386 6:0.330321 7:-0.645006 8:0.342148 9:-0.947515 10:0.541786 11:0.828532 12:0.0464057 13:0.495552 14:0.873876 15:1.99522 16:0.0224045 
0.3184004685982632 0.05920166705713306 0.005982571271108315 1:-0.213586 2:0.947093 3:0.864865 4:3.09967 5:1.89179 6:0.773689 7:0.656555 8:-0.0516042 9:1.3131 10:-3.12747 11:-0.207535 12:0.809179 13:-0.313033 14:0.230869 15:-2.67059 16:-0.0103408 
0.431702837720158 0.06140315743959303 0.006804282977033116 1:-1.16516 2:0.848585 3:-0.0847205 4:0.703713 5:-0.167721 6:0.991317 7:-0.549096 8:0.684424 9:-0.93316 10:1.09864 11:9.92454 12:-0.289498 13:3.46324 14:0.301518 15:0.321129 16:-0.0688332 
0 3.119348371494701 0 1:1.20219 2:0.622145 3:-0.0765717 4:1.11201 5:0.869336 6:0.695397 7:0.659672 8:0.856209 9:1.0359 10:-0.00508048 11:-0.129739 12:-0.510772 13:-0.545663 14:0.223763 15:-0.269256 16:-0.0135739 
0.3406042399823489 0 0.0008361918992942363 1:-0.00899298 2:0.712956 3:-0.24127 4:0.730972 5:-0.203912 6:1.04966 7:-0.352209 8:1.48717 9:-1.05856 10:0.157629 11:-2.20029 12:-1.56491 13:1.50205 14:0.849978 15:0.397552 16:0.416558 
0.2849772890662537 0.08157750989860124 0.003836646641389451 1:0.59474 2:-0.795853 3:0.388075 4:-0.118417 5:0.356656 6:-0.633954 7:0.233581 8:-0.426129 9:1.70711 10:1.24188 11:-5.1141 12:-3.32819 13:-3.09036 14:1.68672 15:-0.459105 16:-0.424059 
0 0.4086862126576132 0 1:-0.680053 2:-0.409164 3:-0.952853 4:-0.174017 5:-0.81465 6:-0.575217 7:0.386635 8:-0.701294 9:-0.0715079 10:-0.761349 11:-1.5691 12:-0.855704 13:-1.72397 14:0.994441 15:-0.285588 16:-0.423855 
0.09625426936464042 0 0.01650553637881524 1:1.5293 2:-0.14618 3:1.80684 4:-0.145571 5:-0.103552 6:0.434757 7:-0.0945855 8:0.137073 9:2.44242 10:-0.39861 11:-0.47842 12:-0.898771 13:-1.55666 14:-0.164746 15:-1.18976 16:-1.3213 
0 0.02683769041623432 0 1:2.6285 2:0.481482 3:0.707933 4:0.254373 5:-0.34566 6:0.300585 7:-1.3925 8:0.171397 9:-0.582699 10:0.644408 11:0.55507 12:1.08068 13:0.266129 14:0.365103 15:-0.725822 16:-0.0140595 
0.4388049129143243 0.06321752197035443 0.0064758828275428 1:1.1618 2:2.43392 3:0.842197 4:1.52435 5:0.490094 6:1.15714 7:-6.76361 8:0.529765 9:-2.74689 10:3.21502 11:-0.513878 12:0.345636 13:-0.734408 14:0.521248 15:1.10309 16:0.510379 
0 0.6126782205130485 0 1:-0.124936 2:0.00453526 3:0.0995201 4:0.314722 5:0.347923 6:0.336848 7:0.647515 8:0.479691 9:0.879447 10:0.502193 11:0.979438 12:0.736653 13:-0.542688 14:0.82228 15:-0.978766 16:0.00843777 
0.006199336124408701 0 0.001235222856526348 1:-2.54448 2:-0.0889011 3:-2.50196 4:2.47745 5:-2.62201 6:0.98734 7:-0.632522 8:0.372281 9:-0.397482 10:1.07042 11:-0.215311 12:0.133486 13:0.430533 14:1.21461 15:0.51101 16:-0.12101 
0.01264637321085506 0.2407345161381884 0.001274503080267502 1:1.77743 2:-0.1986 3:1.12825 4:-0.340596 5:1.70429 6:-0.127973 7:-0.0513726 8:-0.241051 9:1.0632 10:-0.423093 11:-2.10782 12:-0.562036 13:0.490578 14:-0.196303 15:0.997692 16:-0.0400498 
0.4193134623552142 0.05926167109594756 0.006135997532811299 1:-6.26854 2:0.442159 3:-4.6132 4:-1.00889 5:-3.31032 6:1.08758 7:-1.5291 8:0.81435 9:-1.51025 10:0.676801 11:-3.17619 12:-2.21016 13:-2.53443 14:1.64354 15:-0.19215 16:-0.348236 
0.4418308488554929 0.06308904567819129 0.006653545842508601 1:1.94718 2:2.45092 3:1.63252 4:-1.85492 5:2.6027 6:7.70192 7:-19.9459 8:-0.787136 9:10.7903 10:-2.22543 11:1.60809 12:-1.06558 13:1.36577 14:0.256896 15:-1.2253 16:0.0117073 
0.6343307241459784 0 0 1:0.91491 2:0.299958 3:0.801626 4:0.280145 5:0.449921 6:0.528901 7:0.313726 8:0.674133 9:-0.426518 10:0.683353 11:-2.67325 12:-0.558455 13:-2.05782 14:2.68742 15:-2.61164 16:-0.138856 
0.1800683770283642 0 0.001551431494169533 1:-0.845053 2:-0.266201 3:-1.74992 4:-0.738571 5:-0.84376 6:-0.540515 7:-1.75946 8:-0.470294 9:1.72408 10:-0.247872 11:-1.84923 12:-1.83381 13:-2.13899 14:0.534659 15:1.55415 16:0.512192 
0.4309031107394994 0.0615163721944534 0.006444009137438911 1:-0.886738 2:-1.34842 3:-0.0847205 4:-0.655092 5:-1.16367 6:-0.137962 7:-0.549096 8:-0.198955 9:-0.93316 10:1.05952 11:7.13383 12:-2.69538 13:2.34172 14:-0.541042 15:0.200225 16:1.31588 
0.07732800627051831 0 0 1:0.0342267 2:0.346825 3:0.195752 4:0.490583 5:-0.152289 6:0.456713 7:0.387849 8:0.511867 9:0.261545 10:-0.0225678 11:0.26943 12:0.310296 13:-0.177797 14:-0.126111 15:-6.98895 16:-0.523719 
0 0.5031609512318431 0 1:1.08644 2:-0.178173 3:1.34913 4:0.0896471 5:0.927873 6:0.0455047 7:3.32085 8:-0.287561 9:1.32541 10:0.253246 11:-0.416561 12:-0.345009 13:-0.461638 14:-0.148526 15:-0.57277 16:-0.111152 
0 0.08276824765111132 0 1:-0.977803 2:1.96543 3:-1.39489 4:1.94205 5:-0.377637 6:1.83005 7:-0.0513726 8:1.77531 9:2.08658 10:1.44474 11:0.387714 12:0.716399 13:8.59607e-05 14:0.791108 15:0.381815 16:-0.104612 
0.1203671947548468 0.1932826925113622 0 1:-1.30509 2:1.02894 3:-1.74992 4:1.08183 5:-1.80158 6:1.47213 7:-0.141025 8:1.02687 9:1.72408 10:1.35159 11:-1.47885 12:-0.127232 13:-2.34402 14:2.49681 15:0.999056 16:0.581403 
0.2612323533557411 0 0.002189197500166828 1:3.66366 2:0.14875 3:1.41619 4:0.124297 5:1.20845 6:0.170078 7:-0.521224 8:0.0590443 9:-0.582699 10:-0.402715 11:1.07066 12:-0.383401 13:1.94435 14:-0.4474 15:-0.277363 16:0.00923206 
0 0.863849770931215 0 1:-1.73953 2:0.611936 3:-2.66749 4:0.276436 5:-3.46482 6:0.600571 7:0.0681308 8:1.50583 9:0.296191 10:0.900143 11:0.0154877 12:-0.178624 13:-0.0531785 14:0.646307 15:-0.602929 16:-0.303172 
0.2180414580931982 0 0.003781501648540451 1:0.702944 2:-0.464605 3:1.34913 4:-0.823179 5:0.927873 6:-0.735674 7:1.43107 8:-0.716789 9:3.56317 10:-0.374223 11:-0.223125 12:-0.569027 13:-0.342814 14:-0.587866 15:-1.94395 16:-1.55196 
0 0.3398990239154294 0 1:-1.05952 2:-1.81862 3:-1.10325 4:-1.54551 5:0.0822888 6:-1.81083 7:0.659672 8:-2.10598 9:1.0359 10:-0.872795 11:0.207051 12:-0.884008 13:1.80675 14:-1.29754 15:1.03632 16:0.120975 
0 2.222955742692388 0 1:-0.836113 2:-0.816742 3:-0.952853 4:-0.330614 5:-0.81465 6:-1.22753 7:-0.224666 8:-1.19461 9:-0.0715079 10:-0.866108 11:0.471414 12:0.475871 13:0.483595 14:-0.793999 15:-0.336326 16:0.0953388 
0 0 0.001733130320507703 1:-1.07981 2:1.719 3:-0.96269 4:1.85091 5:-0.532959 6:1.76585 7:-1.51161 8:-0.0823256 9:0.406182 10:1.66469 11:0.427295 12:2.27214 13:1.19767 14:2.20154 15:0.460266 16:0.00118846 
0 0.4120993166155301 0 1:-0.772094 2:-0.688886 3:-0.913246 4:-0.981616 5:-1.56359 6:-0.862966 7:-0.478295 8:-0.676109 9:0.608972 10:-0.989711 11:-0.362639 12:-1.66627 13:-0.815393 14:-0.826964 15:-0.971562 16:0.217818 
0 3.076353640967499 0 1:1.10428 2:-0.393534 3:0.95102 4:0.0906966 5:0.470648 6:0.124498 7:-0.226081 8:0.116767 9:0.296191 10:0.127167 11:0.164169 12:0.389363 13:-0.0531785 14:-0.109034 15:0.486617 16:0.130907 
0.1286543444260567 0 0.002844264913881876 1:-0.26589 2:-0.159984 3:-0.649854 4:0.449343 5:-0.939755 6:-0.00853233 7:-0.418959 8:-0.282098 9:-0.294125 10:-1.03167 11:-2.31013 12:-0.981301 13:-2.00445 14:-0.334732 15:3.24605 16:-0.703312 
0.9037838831000996 1.398464444235844 0 1:-0.44754 2:-0.292746 3:-1.10419 4:-0.366766 5:-0.793989 6:-0.194858 7:-0.458709 8:-0.164925 9:1.32541 10:-0.181156 11:-0.223125 12:0.999099 13:-0.342814 14:0.534891 15:-0.86144 16:1.1407 
0.2254649786024637 0.01617032733686719 0.00374879468575576 1:2.66245 2:0.985163 3:3.47293 4:-2.56211 5:2.38627 6:-0.163723 7:0.833827 8:-0.873699 9:-0.947515 10:-1.56465 11:-1.1119 12:-1.53765 13:-0.661718 14:-1.79541 15:-0.574926 16:-0.0616201 
0.3467714502021601 0 0.0006141333986621058 1:-0.307067 2:1.95088 3:0.082577 4:1.67655 5:0.45007 6:1.58057 7:-1.5291 8:1.44512 9:-1.05856 10:0.538355 11:-2.88342 12:-1.39285 13:-2.62032 14:2.07639 15:-0.495935 16:-0.693627 
0 0 0.001494791749694607 1:1.96044 2:-0.847549 3:1.59098 4:-0.70573 5:1.44578 6:-0.930123 7:0.0768575 8:-1.09638 9:-0.801809 10:-1.37149 11:0.706573 12:-1.33755 13:0.322929 14:-1.77342 15:-2.55041 16:-0.0900406 
0.03487950212196237 0 0 1:0.679678 2:0.441595 3:1.10317 4:0.0987979 5:1.087 6:0.841989 7:0.13635 8:0.524435 9:-0.491121 10:-0.0734679 11:-1.39763 12:-0.809156 13:-2.06951 14:0.256896 15:-2.11683 16:-0.0950839 
0.1842274047403088 0 0.001987339333995026 1:-2.26814 2:-0.74672 3:-2.53249 4:0.766956 5:-2.59592 6:-0.749833 7:0.725897 8:0.652325 9:-0.826624 10:-0.0502591 11:-0.278825 12:-1.29796 13:-1.35755 14:-1.52126 15:0.341405 16:-0.971269 
0.08384888043736093 0 0.00181676506243242 1:0.437905 2:1.12513 3:1.56416 4:0.00604551 5:0.92007 6:0.713861 7:0.233581 8:2.04517 9:-0.468855 10:0.852574 11:1.57482 12:-0.601468 13:1.93821 14:0.22957 15:0.579431 16:-0.48833 
0.5395518552456505 0 0 1:0.291415 2:0.0673328 3:0.905004 4:0.572341 5:1.10075 6:0.10967 7:0.670563 8:0.1766 9:0.237558 10:0.322883 11:0.206593 12:0.164638 13:0.071544 14:-0.0763101 15:-0.458871 16:-0.0668078 
0.291123003399927 0.08530822234930312 0.00413992092294848 1:-2.62867 2:0.736952 3:-0.485093 4:0.915448 5:-0.601325 6:1.09261 7:1.47069 8:1.15135 9:0.608972 10:0.923636 11:0.842406 12:-0.645972 13:2.46503 14:0.283652 15:0.096646 16:1.10611 
0.4329094250158579 0.06077825340941095 0.005943278251365031 1:1.61904 2:-0.233995 3:-0.0847205 4:-0.253627 5:-0.83169 6:-0.922184 7:1.40067 8:-0.703743 9:1.73399 10:0.414068 11:-4.627 12:-1.06716 13:-5.50893 14:4.26467 15:-1.19017 16:-0.991973 
0 0.8263691347136212 0 1:0.354049 2:-0.410488 3:-0.333242 4:0.103988 5:0.475812 6:-0.140011 7:-0.618109 8:-0.295752 9:1.0359 10:0.168462 11:1.32969 12:0.822215 13:1.10103 14:-1.6555 15:-1.21877 16:-0.134203 
0 3.59651441377547 0 1:0.2023 2:-0.857651 3:-0.110855 4:-0.287369 5:0.65663 6:-0.101967 7:0.0944108 8:-0.301536 9:-0.101003 10:-0.803994 11:0.181722 12:0.0992076 13:-0.496394 14:0.311922 15:-0.239689 16:0.0434107 
0.09288399276526031 0 0 1:-0.227141 2:2.87229 3:-0.59669 4:2.70992 5:-0.152289 6:2.32804 7:0.387849 8:2.46194 9:-0.285421 10:1.76515 11:0.0845314 12:0.914543 13:0.452666 14:0.773418 15:0.456825 16:0.76855 
0.2647289406158821 0.04225445772155437 0.003758179023885259 1:-0.456104 2:0.326104 3:-0.888964 4:0.125801 5:-1.51187 6:0.632525 7:-1.5291 8:1.17179 9:-1.96194 10:-0.880714 11:3.55747 12:-1.41435 13:4.33617 14:0.344983 15:-0.281499 16:-0.570273 
0.1451691681100262 0 0 1:0.636763 2:0.903772 3:-0.333242 4:-0.0792896 5:1.65638 6:0.416928 7:-0.618109 8:0.691643 9:1.0359 10:0.689091 11:-1.4769 12:-0.0308965 13:-0.839715 14:-0.402657 15:-2.9991 16:0.306559 
0.4101796049674206 0.0582516060549669 0.006192946190697498 1:1.27597 2:0.352029 3:0.714314 4:0.189748 5:5.35848 6:-0.583648 7:-0.0945855 8:-0.244648 9:-1.72525 10:-0.357161 11:-0.907621 12:-0.583582 13:-1.4354 14:-1.19711 15:-1.88254 16:-2.46932 
0 0 0.0006069307527093717 1:1.08644 2:-0.86561 3:1.75802 4:-0.880231 5:0.0669419 6:-0.976036 7:1.43107 8:-1.20734 9:2.44429 10:-0.905159 11:-0.029689 12:-1.73392 13:-0.22399 14:-1.36891 15:0.726246 16:0.125046 
0 0.06934834837324851 0 1:0.736806 2:-0.973186 3:0.575387 4:-0.666919 5:0.498558 6:-1.34293 7:0.279479 8:-1.3051 9:-0.130361 10:-1.2661 11:-0.238831 12:-0.407395 13:-0.946124 14:-0.242904 15:0.392213 16:-0.048116 
0.4414467625699179 0.06304213160079114 0.006889148832605501 1:-1.182 2:-0.171536 3:-0.996876 4:0.304921 5:-2.09589 6:0.33466 7:-1.76343 8:-0.295677 9:0.460276 10:1.04599 11:-0.674713 12:0.725762 13:7.77449 14:3.00856 15:-3.23182 16:-0.454768 
0 0.05076325298696758 0 1:-0.32126 2:-0.110677 3:0.248487 4:2.11165 5:0.458639 6:0.25734 7:-0.143219 8:-0.509506 9:-0.00162578 10:-0.811435 11:0.567081 12:-0.491029 13:0.676767 14:-0.330447 15:-1.29384 16:0.25915 
0.3132985801245252 0.3237456025615043 0 1:0.385262 2:-0.973186 3:0.42113 4:0.00900288 5:0.331575 6:-1.34293 7:-0.0350787 8:-1.61935 9:-0.130361 10:-2.10577 11:-0.646447 12:-2.06062 13:-1.31243 14:-1.56773 15:0.351584 16:-0.728757 
0 3.325061685710223 0 1:0.679678 2:-0.242432 3:1.037 4:0.720434 5:0.691596 6:-0.269126 7:0.13635 8:-0.152505 9:-0.000623646 10:-0.348186 11:-0.53885 12:-0.666698 13:-0.705497 14:0.354234 15:-0.613972 16:-0.162323 
0.4125462418815166 0.05893012723459557 0.005505247351577687 1:0.923648 2:0.996075 3:1.68076 4:-1.47188 5:2.54439 6:0.117597 7:-0.886049 8:-0.527902 9:-0.209884 10:1.83738 11:1.62094 12:1.77088 13:2.39603 14:2.17308 15:-1.40422 16:-0.334702 
0 0.7226059196495989 0 1:-0.153237 2:0.337717 3:-0.0569402 4:0.636468 5:-0.120194 6:0.229857 7:-0.478295 8:0.123406 9:0.392063 10:0.25619 11:-0.793013 12:0.327944 13:-0.85745 14:0.117059 15:-1.31145 16:0.00174635 
0 0.07191813617338057 0 1:-0.587819 2:-0.96921 3:-0.881905 4:-1.45529 5:-1.21951 6:-1.187 7:0.537994 8:-1.21022 9:-0.491121 10:-1.12656 11:-0.646197 12:-0.923122 13:-0.958091 14:-0.32713 15:-0.461139 16:-0.027845 
